digraph Tree {
node [shape=box] ;
0 [label="X[0] <= 2.5\ngini = 0.486\nsamples = 358\nvalue = [311, 223]"] ;
1 [label="X[2] <= 17.5\ngini = 0.484\nsamples = 175\nvalue = [104, 150]"] ;
0 -> 1 [labeldistance=2.5, labelangle=45, headlabel="True"] ;
2 [label="X[5] <= 0.5\ngini = 0.061\nsamples = 17\nvalue = [1, 31]"] ;
1 -> 2 ;
3 [label="gini = 0.0\nsamples = 5\nvalue = [0, 7]"] ;
2 -> 3 ;
4 [label="X[3] <= 0.5\ngini = 0.077\nsamples = 12\nvalue = [1, 24]"] ;
2 -> 4 ;
5 [label="X[1] <= 0.5\ngini = 0.165\nsamples = 6\nvalue = [1, 10]"] ;
4 -> 5 ;
6 [label="gini = 0.0\nsamples = 4\nvalue = [0, 9]"] ;
5 -> 6 ;
7 [label="X[0] <= 1.5\ngini = 0.5\nsamples = 2\nvalue = [1, 1]"] ;
5 -> 7 ;
8 [label="gini = 0.0\nsamples = 1\nvalue = [0, 1]"] ;
7 -> 8 ;
9 [label="gini = 0.0\nsamples = 1\nvalue = [1, 0]"] ;
7 -> 9 ;
10 [label="gini = 0.0\nsamples = 6\nvalue = [0, 14]"] ;
4 -> 10 ;
11 [label="X[1] <= 0.5\ngini = 0.497\nsamples = 158\nvalue = [103, 119]"] ;
1 -> 11 ;
12 [label="X[6] <= 2.5\ngini = 0.124\nsamples = 61\nvalue = [6, 84]"] ;
11 -> 12 ;
13 [label="X[2] <= 37.0\ngini = 0.059\nsamples = 27\nvalue = [1, 32]"] ;
12 -> 13 ;
14 [label="gini = 0.0\nsamples = 21\nvalue = [0, 27]"] ;
13 -> 14 ;
15 [label="X[0] <= 1.5\ngini = 0.278\nsamples = 6\nvalue = [1, 5]"] ;
13 -> 15 ;
16 [label="gini = 0.0\nsamples = 5\nvalue = [0, 5]"] ;
15 -> 16 ;
17 [label="gini = 0.0\nsamples = 1\nvalue = [1, 0]"] ;
15 -> 17 ;
18 [label="X[4] <= 1.5\ngini = 0.16\nsamples = 34\nvalue = [5, 52]"] ;
12 -> 18 ;
19 [label="X[2] <= 56.0\ngini = 0.109\nsamples = 31\nvalue = [3, 49]"] ;
18 -> 19 ;
20 [label="X[4] <= 0.5\ngini = 0.043\nsamples = 29\nvalue = [1, 44]"] ;
19 -> 20 ;
21 [label="gini = 0.059\nsamples = 21\nvalue = [1, 32]"] ;
20 -> 21 ;
22 [label="gini = 0.0\nsamples = 8\nvalue = [0, 12]"] ;
20 -> 22 ;
23 [label="X[5] <= 0.5\ngini = 0.408\nsamples = 2\nvalue = [2, 5]"] ;
19 -> 23 ;
24 [label="gini = 0.0\nsamples = 1\nvalue = [0, 5]"] ;
23 -> 24 ;
25 [label="gini = 0.0\nsamples = 1\nvalue = [2, 0]"] ;
23 -> 25 ;
26 [label="X[4] <= 2.5\ngini = 0.48\nsamples = 3\nvalue = [2, 3]"] ;
18 -> 26 ;
27 [label="X[2] <= 29.0\ngini = 0.444\nsamples = 2\nvalue = [2, 1]"] ;
26 -> 27 ;
28 [label="gini = 0.0\nsamples = 1\nvalue = [2, 0]"] ;
27 -> 28 ;
29 [label="gini = 0.0\nsamples = 1\nvalue = [0, 1]"] ;
27 -> 29 ;
30 [label="gini = 0.0\nsamples = 1\nvalue = [0, 2]"] ;
26 -> 30 ;
31 [label="X[5] <= 1.5\ngini = 0.39\nsamples = 97\nvalue = [97, 35]"] ;
11 -> 31 ;
32 [label="X[0] <= 1.5\ngini = 0.393\nsamples = 95\nvalue = [95, 35]"] ;
31 -> 32 ;
33 [label="X[2] <= 24.5\ngini = 0.467\nsamples = 55\nvalue = [49, 29]"] ;
32 -> 33 ;
34 [label="gini = 0.0\nsamples = 5\nvalue = [11, 0]"] ;
33 -> 34 ;
35 [label="X[5] <= 0.5\ngini = 0.491\nsamples = 50\nvalue = [38, 29]"] ;
33 -> 35 ;
36 [label="gini = 0.453\nsamples = 20\nvalue = [17, 9]"] ;
35 -> 36 ;
37 [label="gini = 0.5\nsamples = 30\nvalue = [21, 20]"] ;
35 -> 37 ;
38 [label="X[2] <= 58.0\ngini = 0.204\nsamples = 40\nvalue = [46, 6]"] ;
32 -> 38 ;
39 [label="X[2] <= 30.5\ngini = 0.177\nsamples = 39\nvalue = [46, 5]"] ;
38 -> 39 ;
40 [label="gini = 0.0\nsamples = 20\nvalue = [26, 0]"] ;
39 -> 40 ;
41 [label="gini = 0.32\nsamples = 19\nvalue = [20, 5]"] ;
39 -> 41 ;
42 [label="gini = 0.0\nsamples = 1\nvalue = [0, 1]"] ;
38 -> 42 ;
43 [label="gini = 0.0\nsamples = 2\nvalue = [2, 0]"] ;
31 -> 43 ;
44 [label="X[6] <= 0.5\ngini = 0.385\nsamples = 183\nvalue = [207, 73]"] ;
0 -> 44 [labeldistance=2.5, labelangle=-45, headlabel="False"] ;
45 [label="X[4] <= 1.5\ngini = 0.24\nsamples = 113\nvalue = [142, 23]"] ;
44 -> 45 ;
46 [label="X[4] <= 0.5\ngini = 0.246\nsamples = 109\nvalue = [137, 23]"] ;
45 -> 46 ;
47 [label="X[2] <= 32.5\ngini = 0.234\nsamples = 106\nvalue = [134, 21]"] ;
46 -> 47 ;
48 [label="X[3] <= 1.5\ngini = 0.291\nsamples = 79\nvalue = [93, 20]"] ;
47 -> 48 ;
49 [label="X[3] <= 0.5\ngini = 0.298\nsamples = 76\nvalue = [90, 20]"] ;
48 -> 49 ;
50 [label="gini = 0.284\nsamples = 67\nvalue = [82, 17]"] ;
49 -> 50 ;
51 [label="gini = 0.397\nsamples = 9\nvalue = [8, 3]"] ;
49 -> 51 ;
52 [label="gini = 0.0\nsamples = 3\nvalue = [3, 0]"] ;
48 -> 52 ;
53 [label="X[2] <= 38.5\ngini = 0.046\nsamples = 27\nvalue = [41, 1]"] ;
47 -> 53 ;
54 [label="gini = 0.0\nsamples = 13\nvalue = [23, 0]"] ;
53 -> 54 ;
55 [label="X[5] <= 1.5\ngini = 0.1\nsamples = 14\nvalue = [18, 1]"] ;
53 -> 55 ;
56 [label="gini = 0.124\nsamples = 11\nvalue = [14, 1]"] ;
55 -> 56 ;
57 [label="gini = 0.0\nsamples = 3\nvalue = [4, 0]"] ;
55 -> 57 ;
58 [label="X[2] <= 18.0\ngini = 0.48\nsamples = 3\nvalue = [3, 2]"] ;
46 -> 58 ;
59 [label="gini = 0.0\nsamples = 2\nvalue = [3, 0]"] ;
58 -> 59 ;
60 [label="gini = 0.0\nsamples = 1\nvalue = [0, 2]"] ;
58 -> 60 ;
61 [label="gini = 0.0\nsamples = 4\nvalue = [5, 0]"] ;
45 -> 61 ;
62 [label="X[3] <= 2.5\ngini = 0.491\nsamples = 70\nvalue = [65, 50]"] ;
44 -> 62 ;
63 [label="X[1] <= 0.5\ngini = 0.5\nsamples = 57\nvalue = [46, 48]"] ;
62 -> 63 ;
64 [label="X[2] <= 27.5\ngini = 0.498\nsamples = 53\nvalue = [46, 41]"] ;
63 -> 64 ;
65 [label="X[2] <= 21.5\ngini = 0.492\nsamples = 38\nvalue = [27, 35]"] ;
64 -> 65 ;
66 [label="X[4] <= 1.5\ngini = 0.497\nsamples = 26\nvalue = [20, 17]"] ;
65 -> 66 ;
67 [label="gini = 0.5\nsamples = 24\nvalue = [17, 17]"] ;
66 -> 67 ;
68 [label="gini = 0.0\nsamples = 2\nvalue = [3, 0]"] ;
66 -> 68 ;
69 [label="X[6] <= 2.5\ngini = 0.403\nsamples = 12\nvalue = [7, 18]"] ;
65 -> 69 ;
70 [label="gini = 0.457\nsamples = 8\nvalue = [6, 11]"] ;
69 -> 70 ;
71 [label="gini = 0.219\nsamples = 4\nvalue = [1, 7]"] ;
69 -> 71 ;
72 [label="X[2] <= 55.5\ngini = 0.365\nsamples = 15\nvalue = [19, 6]"] ;
64 -> 72 ;
73 [label="X[6] <= 2.5\ngini = 0.287\nsamples = 14\nvalue = [19, 4]"] ;
72 -> 73 ;
74 [label="gini = 0.0\nsamples = 4\nvalue = [10, 0]"] ;
73 -> 74 ;
75 [label="gini = 0.426\nsamples = 10\nvalue = [9, 4]"] ;
73 -> 75 ;
76 [label="gini = 0.0\nsamples = 1\nvalue = [0, 2]"] ;
72 -> 76 ;
77 [label="gini = 0.0\nsamples = 4\nvalue = [0, 7]"] ;
63 -> 77 ;
78 [label="X[3] <= 3.5\ngini = 0.172\nsamples = 13\nvalue = [19, 2]"] ;
62 -> 78 ;
79 [label="gini = 0.0\nsamples = 4\nvalue = [6, 0]"] ;
78 -> 79 ;
80 [label="X[1] <= 0.5\ngini = 0.231\nsamples = 9\nvalue = [13, 2]"] ;
78 -> 80 ;
81 [label="X[2] <= 13.0\ngini = 0.346\nsamples = 4\nvalue = [7, 2]"] ;
80 -> 81 ;
82 [label="gini = 0.0\nsamples = 3\nvalue = [7, 0]"] ;
81 -> 82 ;
83 [label="gini = 0.0\nsamples = 1\nvalue = [0, 2]"] ;
81 -> 83 ;
84 [label="gini = 0.0\nsamples = 5\nvalue = [6, 0]"] ;
80 -> 84 ;
}
