digraph Tree {
node [shape=box] ;
0 [label="X[5] <= 0.5\ngini = 0.473\nsamples = 343\nvalue = [329, 205]"] ;
1 [label="X[0] <= 2.5\ngini = 0.468\nsamples = 60\nvalue = [34, 57]"] ;
0 -> 1 [labeldistance=2.5, labelangle=45, headlabel="True"] ;
2 [label="X[1] <= 0.5\ngini = 0.408\nsamples = 42\nvalue = [18, 45]"] ;
1 -> 2 ;
3 [label="gini = 0.0\nsamples = 24\nvalue = [0, 33]"] ;
2 -> 3 ;
4 [label="X[3] <= 0.5\ngini = 0.48\nsamples = 18\nvalue = [18, 12]"] ;
2 -> 4 ;
5 [label="X[6] <= 0.5\ngini = 0.485\nsamples = 17\nvalue = [17, 12]"] ;
4 -> 5 ;
6 [label="X[0] <= 1.5\ngini = 0.477\nsamples = 16\nvalue = [17, 11]"] ;
5 -> 6 ;
7 [label="X[2] <= 36.5\ngini = 0.483\nsamples = 15\nvalue = [16, 11]"] ;
6 -> 7 ;
8 [label="gini = 0.153\nsamples = 7\nvalue = [1, 11]"] ;
7 -> 8 ;
9 [label="gini = 0.0\nsamples = 8\nvalue = [15, 0]"] ;
7 -> 9 ;
10 [label="gini = 0.0\nsamples = 1\nvalue = [1, 0]"] ;
6 -> 10 ;
11 [label="gini = 0.0\nsamples = 1\nvalue = [0, 1]"] ;
5 -> 11 ;
12 [label="gini = 0.0\nsamples = 1\nvalue = [1, 0]"] ;
4 -> 12 ;
13 [label="X[3] <= 0.5\ngini = 0.49\nsamples = 18\nvalue = [16, 12]"] ;
1 -> 13 ;
14 [label="X[6] <= 2.5\ngini = 0.476\nsamples = 15\nvalue = [14, 9]"] ;
13 -> 14 ;
15 [label="X[2] <= 15.0\ngini = 0.42\nsamples = 13\nvalue = [14, 6]"] ;
14 -> 15 ;
16 [label="gini = 0.0\nsamples = 2\nvalue = [0, 2]"] ;
15 -> 16 ;
17 [label="X[4] <= 0.5\ngini = 0.346\nsamples = 11\nvalue = [14, 4]"] ;
15 -> 17 ;
18 [label="X[2] <= 29.5\ngini = 0.36\nsamples = 10\nvalue = [13, 4]"] ;
17 -> 18 ;
19 [label="gini = 0.463\nsamples = 6\nvalue = [7, 4]"] ;
18 -> 19 ;
20 [label="gini = 0.0\nsamples = 4\nvalue = [6, 0]"] ;
18 -> 20 ;
21 [label="gini = 0.0\nsamples = 1\nvalue = [1, 0]"] ;
17 -> 21 ;
22 [label="gini = 0.0\nsamples = 2\nvalue = [0, 3]"] ;
14 -> 22 ;
23 [label="X[2] <= 23.5\ngini = 0.48\nsamples = 3\nvalue = [2, 3]"] ;
13 -> 23 ;
24 [label="gini = 0.0\nsamples = 2\nvalue = [0, 3]"] ;
23 -> 24 ;
25 [label="gini = 0.0\nsamples = 1\nvalue = [2, 0]"] ;
23 -> 25 ;
26 [label="X[6] <= 1.5\ngini = 0.445\nsamples = 283\nvalue = [295, 148]"] ;
0 -> 26 [labeldistance=2.5, labelangle=-45, headlabel="False"] ;
27 [label="X[6] <= 0.5\ngini = 0.264\nsamples = 192\nvalue = [253, 47]"] ;
26 -> 27 ;
28 [label="X[2] <= 26.5\ngini = 0.229\nsamples = 174\nvalue = [237, 36]"] ;
27 -> 28 ;
29 [label="X[4] <= 0.5\ngini = 0.088\nsamples = 69\nvalue = [104, 5]"] ;
28 -> 29 ;
30 [label="X[2] <= 21.5\ngini = 0.097\nsamples = 63\nvalue = [93, 5]"] ;
29 -> 30 ;
31 [label="X[0] <= 2.5\ngini = 0.137\nsamples = 35\nvalue = [50, 4]"] ;
30 -> 31 ;
32 [label="gini = 0.0\nsamples = 4\nvalue = [4, 0]"] ;
31 -> 32 ;
33 [label="gini = 0.147\nsamples = 31\nvalue = [46, 4]"] ;
31 -> 33 ;
34 [label="X[5] <= 1.5\ngini = 0.044\nsamples = 28\nvalue = [43, 1]"] ;
30 -> 34 ;
35 [label="gini = 0.045\nsamples = 27\nvalue = [42, 1]"] ;
34 -> 35 ;
36 [label="gini = 0.0\nsamples = 1\nvalue = [1, 0]"] ;
34 -> 36 ;
37 [label="gini = 0.0\nsamples = 6\nvalue = [11, 0]"] ;
29 -> 37 ;
38 [label="X[3] <= 0.5\ngini = 0.307\nsamples = 105\nvalue = [133, 31]"] ;
28 -> 38 ;
39 [label="X[0] <= 1.5\ngini = 0.283\nsamples = 81\nvalue = [107, 22]"] ;
38 -> 39 ;
40 [label="X[2] <= 53.0\ngini = 0.43\nsamples = 21\nvalue = [22, 10]"] ;
39 -> 40 ;
41 [label="gini = 0.495\nsamples = 13\nvalue = [11, 9]"] ;
40 -> 41 ;
42 [label="gini = 0.153\nsamples = 8\nvalue = [11, 1]"] ;
40 -> 42 ;
43 [label="X[0] <= 2.5\ngini = 0.217\nsamples = 60\nvalue = [85, 12]"] ;
39 -> 43 ;
44 [label="gini = 0.087\nsamples = 14\nvalue = [21, 1]"] ;
43 -> 44 ;
45 [label="gini = 0.25\nsamples = 46\nvalue = [64, 11]"] ;
43 -> 45 ;
46 [label="X[4] <= 3.0\ngini = 0.382\nsamples = 24\nvalue = [26, 9]"] ;
38 -> 46 ;
47 [label="X[2] <= 27.5\ngini = 0.412\nsamples = 23\nvalue = [22, 9]"] ;
46 -> 47 ;
48 [label="gini = 0.0\nsamples = 1\nvalue = [0, 1]"] ;
47 -> 48 ;
49 [label="gini = 0.391\nsamples = 22\nvalue = [22, 8]"] ;
47 -> 49 ;
50 [label="gini = 0.0\nsamples = 1\nvalue = [4, 0]"] ;
46 -> 50 ;
51 [label="X[0] <= 2.5\ngini = 0.483\nsamples = 18\nvalue = [16, 11]"] ;
27 -> 51 ;
52 [label="gini = 0.0\nsamples = 5\nvalue = [0, 7]"] ;
51 -> 52 ;
53 [label="X[3] <= 2.0\ngini = 0.32\nsamples = 13\nvalue = [16, 4]"] ;
51 -> 53 ;
54 [label="gini = 0.0\nsamples = 3\nvalue = [0, 4]"] ;
53 -> 54 ;
55 [label="gini = 0.0\nsamples = 10\nvalue = [16, 0]"] ;
53 -> 55 ;
56 [label="X[2] <= 47.5\ngini = 0.415\nsamples = 91\nvalue = [42, 101]"] ;
26 -> 56 ;
57 [label="X[4] <= 3.0\ngini = 0.439\nsamples = 83\nvalue = [42, 87]"] ;
56 -> 57 ;
58 [label="X[2] <= 46.0\ngini = 0.404\nsamples = 79\nvalue = [34, 87]"] ;
57 -> 58 ;
59 [label="X[3] <= 0.5\ngini = 0.393\nsamples = 78\nvalue = [32, 87]"] ;
58 -> 59 ;
60 [label="X[2] <= 36.5\ngini = 0.301\nsamples = 44\nvalue = [12, 53]"] ;
59 -> 60 ;
61 [label="gini = 0.241\nsamples = 40\nvalue = [8, 49]"] ;
60 -> 61 ;
62 [label="gini = 0.5\nsamples = 4\nvalue = [4, 4]"] ;
60 -> 62 ;
63 [label="X[3] <= 1.5\ngini = 0.466\nsamples = 34\nvalue = [20, 34]"] ;
59 -> 63 ;
64 [label="gini = 0.444\nsamples = 26\nvalue = [14, 28]"] ;
63 -> 64 ;
65 [label="gini = 0.5\nsamples = 8\nvalue = [6, 6]"] ;
63 -> 65 ;
66 [label="gini = 0.0\nsamples = 1\nvalue = [2, 0]"] ;
58 -> 66 ;
67 [label="gini = 0.0\nsamples = 4\nvalue = [8, 0]"] ;
57 -> 67 ;
68 [label="gini = 0.0\nsamples = 8\nvalue = [0, 14]"] ;
56 -> 68 ;
}
