digraph Tree {
node [shape=box] ;
0 [label="X[6] <= 1.5\ngini = 0.485\nsamples = 334\nvalue = [313, 221]"] ;
1 [label="X[3] <= 2.5\ngini = 0.325\nsamples = 216\nvalue = [265, 68]"] ;
0 -> 1 [labeldistance=2.5, labelangle=45, headlabel="True"] ;
2 [label="X[6] <= 0.5\ngini = 0.343\nsamples = 204\nvalue = [241, 68]"] ;
1 -> 2 ;
3 [label="X[4] <= 1.5\ngini = 0.306\nsamples = 196\nvalue = [241, 56]"] ;
2 -> 3 ;
4 [label="X[3] <= 1.5\ngini = 0.306\nsamples = 191\nvalue = [233, 54]"] ;
3 -> 4 ;
5 [label="X[2] <= 75.0\ngini = 0.314\nsamples = 181\nvalue = [215, 52]"] ;
4 -> 5 ;
6 [label="X[4] <= 0.5\ngini = 0.302\nsamples = 180\nvalue = [215, 49]"] ;
5 -> 6 ;
7 [label="gini = 0.303\nsamples = 168\nvalue = [201, 46]"] ;
6 -> 7 ;
8 [label="gini = 0.291\nsamples = 12\nvalue = [14, 3]"] ;
6 -> 8 ;
9 [label="gini = 0.0\nsamples = 1\nvalue = [0, 3]"] ;
5 -> 9 ;
10 [label="X[2] <= 47.0\ngini = 0.18\nsamples = 10\nvalue = [18, 2]"] ;
4 -> 10 ;
11 [label="gini = 0.0\nsamples = 9\nvalue = [18, 0]"] ;
10 -> 11 ;
12 [label="gini = 0.0\nsamples = 1\nvalue = [0, 2]"] ;
10 -> 12 ;
13 [label="X[5] <= 0.5\ngini = 0.32\nsamples = 5\nvalue = [8, 2]"] ;
3 -> 13 ;
14 [label="X[2] <= 22.0\ngini = 0.5\nsamples = 2\nvalue = [2, 2]"] ;
13 -> 14 ;
15 [label="gini = 0.0\nsamples = 1\nvalue = [0, 2]"] ;
14 -> 15 ;
16 [label="gini = 0.0\nsamples = 1\nvalue = [2, 0]"] ;
14 -> 16 ;
17 [label="gini = 0.0\nsamples = 3\nvalue = [6, 0]"] ;
13 -> 17 ;
18 [label="gini = 0.0\nsamples = 8\nvalue = [0, 12]"] ;
2 -> 18 ;
19 [label="gini = 0.0\nsamples = 12\nvalue = [24, 0]"] ;
1 -> 19 ;
20 [label="X[2] <= 36.5\ngini = 0.364\nsamples = 118\nvalue = [48, 153]"] ;
0 -> 20 [labeldistance=2.5, labelangle=-45, headlabel="False"] ;
21 [label="X[5] <= 0.5\ngini = 0.327\nsamples = 93\nvalue = [33, 127]"] ;
20 -> 21 ;
22 [label="X[4] <= 0.5\ngini = 0.139\nsamples = 23\nvalue = [3, 37]"] ;
21 -> 22 ;
23 [label="X[6] <= 2.5\ngini = 0.077\nsamples = 15\nvalue = [1, 24]"] ;
22 -> 23 ;
24 [label="X[2] <= 16.0\ngini = 0.105\nsamples = 11\nvalue = [1, 17]"] ;
23 -> 24 ;
25 [label="gini = 0.0\nsamples = 3\nvalue = [0, 9]"] ;
24 -> 25 ;
26 [label="X[2] <= 20.5\ngini = 0.198\nsamples = 8\nvalue = [1, 8]"] ;
24 -> 26 ;
27 [label="gini = 0.0\nsamples = 1\nvalue = [1, 0]"] ;
26 -> 27 ;
28 [label="gini = 0.0\nsamples = 7\nvalue = [0, 8]"] ;
26 -> 28 ;
29 [label="gini = 0.0\nsamples = 4\nvalue = [0, 7]"] ;
23 -> 29 ;
30 [label="X[3] <= 1.5\ngini = 0.231\nsamples = 8\nvalue = [2, 13]"] ;
22 -> 30 ;
31 [label="X[4] <= 1.5\ngini = 0.346\nsamples = 5\nvalue = [2, 7]"] ;
30 -> 31 ;
32 [label="X[0] <= 2.0\ngini = 0.444\nsamples = 2\nvalue = [2, 1]"] ;
31 -> 32 ;
33 [label="gini = 0.0\nsamples = 1\nvalue = [0, 1]"] ;
32 -> 33 ;
34 [label="gini = 0.0\nsamples = 1\nvalue = [2, 0]"] ;
32 -> 34 ;
35 [label="gini = 0.0\nsamples = 3\nvalue = [0, 6]"] ;
31 -> 35 ;
36 [label="gini = 0.0\nsamples = 3\nvalue = [0, 6]"] ;
30 -> 36 ;
37 [label="X[6] <= 2.5\ngini = 0.375\nsamples = 70\nvalue = [30, 90]"] ;
21 -> 37 ;
38 [label="X[4] <= 1.5\ngini = 0.347\nsamples = 51\nvalue = [19, 66]"] ;
37 -> 38 ;
39 [label="X[3] <= 0.5\ngini = 0.312\nsamples = 38\nvalue = [12, 50]"] ;
38 -> 39 ;
40 [label="X[4] <= 0.5\ngini = 0.295\nsamples = 31\nvalue = [9, 41]"] ;
39 -> 40 ;
41 [label="gini = 0.273\nsamples = 30\nvalue = [8, 41]"] ;
40 -> 41 ;
42 [label="gini = 0.0\nsamples = 1\nvalue = [1, 0]"] ;
40 -> 42 ;
43 [label="X[3] <= 1.5\ngini = 0.375\nsamples = 7\nvalue = [3, 9]"] ;
39 -> 43 ;
44 [label="gini = 0.397\nsamples = 6\nvalue = [3, 8]"] ;
43 -> 44 ;
45 [label="gini = 0.0\nsamples = 1\nvalue = [0, 1]"] ;
43 -> 45 ;
46 [label="X[0] <= 2.5\ngini = 0.423\nsamples = 13\nvalue = [7, 16]"] ;
38 -> 46 ;
47 [label="X[3] <= 0.5\ngini = 0.26\nsamples = 7\nvalue = [2, 11]"] ;
46 -> 47 ;
48 [label="gini = 0.0\nsamples = 3\nvalue = [0, 8]"] ;
47 -> 48 ;
49 [label="gini = 0.48\nsamples = 4\nvalue = [2, 3]"] ;
47 -> 49 ;
50 [label="X[3] <= 3.0\ngini = 0.5\nsamples = 6\nvalue = [5, 5]"] ;
46 -> 50 ;
51 [label="gini = 0.0\nsamples = 2\nvalue = [2, 0]"] ;
50 -> 51 ;
52 [label="gini = 0.469\nsamples = 4\nvalue = [3, 5]"] ;
50 -> 52 ;
53 [label="X[2] <= 32.5\ngini = 0.431\nsamples = 19\nvalue = [11, 24]"] ;
37 -> 53 ;
54 [label="X[0] <= 2.5\ngini = 0.493\nsamples = 13\nvalue = [11, 14]"] ;
53 -> 54 ;
55 [label="X[3] <= 0.5\ngini = 0.26\nsamples = 5\nvalue = [2, 11]"] ;
54 -> 55 ;
56 [label="gini = 0.0\nsamples = 1\nvalue = [0, 2]"] ;
55 -> 56 ;
57 [label="gini = 0.298\nsamples = 4\nvalue = [2, 9]"] ;
55 -> 57 ;
58 [label="X[3] <= 0.5\ngini = 0.375\nsamples = 8\nvalue = [9, 3]"] ;
54 -> 58 ;
59 [label="gini = 0.5\nsamples = 4\nvalue = [3, 3]"] ;
58 -> 59 ;
60 [label="gini = 0.0\nsamples = 4\nvalue = [6, 0]"] ;
58 -> 60 ;
61 [label="gini = 0.0\nsamples = 6\nvalue = [0, 10]"] ;
53 -> 61 ;
62 [label="X[3] <= 1.5\ngini = 0.464\nsamples = 25\nvalue = [15, 26]"] ;
20 -> 62 ;
63 [label="X[4] <= 2.0\ngini = 0.469\nsamples = 24\nvalue = [15, 25]"] ;
62 -> 63 ;
64 [label="X[3] <= 0.5\ngini = 0.375\nsamples = 20\nvalue = [8, 24]"] ;
63 -> 64 ;
65 [label="X[2] <= 37.5\ngini = 0.43\nsamples = 10\nvalue = [5, 11]"] ;
64 -> 65 ;
66 [label="gini = 0.0\nsamples = 1\nvalue = [2, 0]"] ;
65 -> 66 ;
67 [label="X[4] <= 0.5\ngini = 0.337\nsamples = 9\nvalue = [3, 11]"] ;
65 -> 67 ;
68 [label="gini = 0.375\nsamples = 7\nvalue = [3, 9]"] ;
67 -> 68 ;
69 [label="gini = 0.0\nsamples = 2\nvalue = [0, 2]"] ;
67 -> 69 ;
70 [label="X[0] <= 2.5\ngini = 0.305\nsamples = 10\nvalue = [3, 13]"] ;
64 -> 70 ;
71 [label="gini = 0.0\nsamples = 9\nvalue = [0, 13]"] ;
70 -> 71 ;
72 [label="gini = 0.0\nsamples = 1\nvalue = [3, 0]"] ;
70 -> 72 ;
73 [label="X[2] <= 51.0\ngini = 0.219\nsamples = 4\nvalue = [7, 1]"] ;
63 -> 73 ;
74 [label="gini = 0.0\nsamples = 3\nvalue = [7, 0]"] ;
73 -> 74 ;
75 [label="gini = 0.0\nsamples = 1\nvalue = [0, 1]"] ;
73 -> 75 ;
76 [label="gini = 0.0\nsamples = 1\nvalue = [0, 1]"] ;
62 -> 76 ;
}
