digraph Tree {
node [shape=box] ;
0 [label="X[2] <= 1.5\ngini = 0.475\nsamples = 335\nvalue = [327, 207]"] ;
1 [label="X[3] <= 3.0\ngini = 0.124\nsamples = 7\nvalue = [1, 14]"] ;
0 -> 1 [labeldistance=2.5, labelangle=45, headlabel="True"] ;
2 [label="gini = 0.0\nsamples = 6\nvalue = [0, 14]"] ;
1 -> 2 ;
3 [label="gini = 0.0\nsamples = 1\nvalue = [1, 0]"] ;
1 -> 3 ;
4 [label="X[0] <= 2.5\ngini = 0.467\nsamples = 328\nvalue = [326, 193]"] ;
0 -> 4 [labeldistance=2.5, labelangle=-45, headlabel="False"] ;
5 [label="X[2] <= 53.5\ngini = 0.479\nsamples = 153\nvalue = [94, 142]"] ;
4 -> 5 ;
6 [label="X[6] <= 0.5\ngini = 0.441\nsamples = 132\nvalue = [66, 135]"] ;
5 -> 6 ;
7 [label="X[4] <= 0.5\ngini = 0.408\nsamples = 60\nvalue = [65, 26]"] ;
6 -> 7 ;
8 [label="X[0] <= 1.5\ngini = 0.429\nsamples = 52\nvalue = [53, 24]"] ;
7 -> 8 ;
9 [label="X[5] <= 1.5\ngini = 0.499\nsamples = 28\nvalue = [20, 22]"] ;
8 -> 9 ;
10 [label="gini = 0.497\nsamples = 27\nvalue = [19, 22]"] ;
9 -> 10 ;
11 [label="gini = 0.0\nsamples = 1\nvalue = [1, 0]"] ;
9 -> 11 ;
12 [label="X[3] <= 0.5\ngini = 0.108\nsamples = 24\nvalue = [33, 2]"] ;
8 -> 12 ;
13 [label="gini = 0.142\nsamples = 18\nvalue = [24, 2]"] ;
12 -> 13 ;
14 [label="gini = 0.0\nsamples = 6\nvalue = [9, 0]"] ;
12 -> 14 ;
15 [label="X[4] <= 1.5\ngini = 0.245\nsamples = 8\nvalue = [12, 2]"] ;
7 -> 15 ;
16 [label="gini = 0.0\nsamples = 4\nvalue = [6, 0]"] ;
15 -> 16 ;
17 [label="X[0] <= 1.5\ngini = 0.375\nsamples = 4\nvalue = [6, 2]"] ;
15 -> 17 ;
18 [label="gini = 0.408\nsamples = 3\nvalue = [5, 2]"] ;
17 -> 18 ;
19 [label="gini = 0.0\nsamples = 1\nvalue = [1, 0]"] ;
17 -> 19 ;
20 [label="X[3] <= 0.5\ngini = 0.018\nsamples = 72\nvalue = [1, 109]"] ;
6 -> 20 ;
21 [label="gini = 0.0\nsamples = 35\nvalue = [0, 56]"] ;
20 -> 21 ;
22 [label="X[2] <= 26.0\ngini = 0.036\nsamples = 37\nvalue = [1, 53]"] ;
20 -> 22 ;
23 [label="X[2] <= 24.5\ngini = 0.074\nsamples = 18\nvalue = [1, 25]"] ;
22 -> 23 ;
24 [label="gini = 0.0\nsamples = 17\nvalue = [0, 25]"] ;
23 -> 24 ;
25 [label="gini = 0.0\nsamples = 1\nvalue = [1, 0]"] ;
23 -> 25 ;
26 [label="gini = 0.0\nsamples = 19\nvalue = [0, 28]"] ;
22 -> 26 ;
27 [label="X[3] <= 0.5\ngini = 0.32\nsamples = 21\nvalue = [28, 7]"] ;
5 -> 27 ;
28 [label="X[0] <= 1.5\ngini = 0.219\nsamples = 19\nvalue = [28, 4]"] ;
27 -> 28 ;
29 [label="X[1] <= 0.5\ngini = 0.172\nsamples = 13\nvalue = [19, 2]"] ;
28 -> 29 ;
30 [label="gini = 0.0\nsamples = 1\nvalue = [0, 1]"] ;
29 -> 30 ;
31 [label="X[4] <= 0.5\ngini = 0.095\nsamples = 12\nvalue = [19, 1]"] ;
29 -> 31 ;
32 [label="gini = 0.111\nsamples = 10\nvalue = [16, 1]"] ;
31 -> 32 ;
33 [label="gini = 0.0\nsamples = 2\nvalue = [3, 0]"] ;
31 -> 33 ;
34 [label="X[6] <= 1.5\ngini = 0.298\nsamples = 6\nvalue = [9, 2]"] ;
28 -> 34 ;
35 [label="X[5] <= 1.5\ngini = 0.346\nsamples = 5\nvalue = [7, 2]"] ;
34 -> 35 ;
36 [label="gini = 0.375\nsamples = 4\nvalue = [6, 2]"] ;
35 -> 36 ;
37 [label="gini = 0.0\nsamples = 1\nvalue = [1, 0]"] ;
35 -> 37 ;
38 [label="gini = 0.0\nsamples = 1\nvalue = [2, 0]"] ;
34 -> 38 ;
39 [label="gini = 0.0\nsamples = 2\nvalue = [0, 3]"] ;
27 -> 39 ;
40 [label="X[2] <= 27.5\ngini = 0.295\nsamples = 175\nvalue = [232, 51]"] ;
4 -> 40 ;
41 [label="X[5] <= 1.5\ngini = 0.393\nsamples = 107\nvalue = [128, 47]"] ;
40 -> 41 ;
42 [label="X[6] <= 1.5\ngini = 0.38\nsamples = 100\nvalue = [123, 42]"] ;
41 -> 42 ;
43 [label="X[6] <= 0.5\ngini = 0.198\nsamples = 65\nvalue = [96, 12]"] ;
42 -> 43 ;
44 [label="X[4] <= 0.5\ngini = 0.183\nsamples = 58\nvalue = [88, 10]"] ;
43 -> 44 ;
45 [label="gini = 0.16\nsamples = 55\nvalue = [83, 8]"] ;
44 -> 45 ;
46 [label="gini = 0.408\nsamples = 3\nvalue = [5, 2]"] ;
44 -> 46 ;
47 [label="X[2] <= 3.0\ngini = 0.32\nsamples = 7\nvalue = [8, 2]"] ;
43 -> 47 ;
48 [label="gini = 0.0\nsamples = 1\nvalue = [3, 0]"] ;
47 -> 48 ;
49 [label="gini = 0.408\nsamples = 6\nvalue = [5, 2]"] ;
47 -> 49 ;
50 [label="X[4] <= 2.5\ngini = 0.499\nsamples = 35\nvalue = [27, 30]"] ;
42 -> 50 ;
51 [label="X[4] <= 1.5\ngini = 0.5\nsamples = 34\nvalue = [27, 28]"] ;
50 -> 51 ;
52 [label="gini = 0.498\nsamples = 27\nvalue = [20, 23]"] ;
51 -> 52 ;
53 [label="gini = 0.486\nsamples = 7\nvalue = [7, 5]"] ;
51 -> 53 ;
54 [label="gini = 0.0\nsamples = 1\nvalue = [0, 2]"] ;
50 -> 54 ;
55 [label="X[1] <= 0.5\ngini = 0.5\nsamples = 7\nvalue = [5, 5]"] ;
41 -> 55 ;
56 [label="X[2] <= 17.0\ngini = 0.278\nsamples = 4\nvalue = [1, 5]"] ;
55 -> 56 ;
57 [label="gini = 0.0\nsamples = 2\nvalue = [0, 3]"] ;
56 -> 57 ;
58 [label="X[2] <= 18.5\ngini = 0.444\nsamples = 2\nvalue = [1, 2]"] ;
56 -> 58 ;
59 [label="gini = 0.0\nsamples = 1\nvalue = [1, 0]"] ;
58 -> 59 ;
60 [label="gini = 0.0\nsamples = 1\nvalue = [0, 2]"] ;
58 -> 60 ;
61 [label="gini = 0.0\nsamples = 3\nvalue = [4, 0]"] ;
55 -> 61 ;
62 [label="X[6] <= 2.5\ngini = 0.071\nsamples = 68\nvalue = [104, 4]"] ;
40 -> 62 ;
63 [label="X[1] <= 0.5\ngini = 0.043\nsamples = 57\nvalue = [88, 2]"] ;
62 -> 63 ;
64 [label="gini = 0.0\nsamples = 4\nvalue = [11, 0]"] ;
63 -> 64 ;
65 [label="X[3] <= 0.5\ngini = 0.049\nsamples = 53\nvalue = [77, 2]"] ;
63 -> 65 ;
66 [label="X[2] <= 32.5\ngini = 0.058\nsamples = 45\nvalue = [65, 2]"] ;
65 -> 66 ;
67 [label="gini = 0.128\nsamples = 17\nvalue = [27, 2]"] ;
66 -> 67 ;
68 [label="gini = 0.0\nsamples = 28\nvalue = [38, 0]"] ;
66 -> 68 ;
69 [label="gini = 0.0\nsamples = 8\nvalue = [12, 0]"] ;
65 -> 69 ;
70 [label="X[2] <= 37.5\ngini = 0.198\nsamples = 11\nvalue = [16, 2]"] ;
62 -> 70 ;
71 [label="X[5] <= 1.5\ngini = 0.375\nsamples = 6\nvalue = [6, 2]"] ;
70 -> 71 ;
72 [label="X[2] <= 33.5\ngini = 0.408\nsamples = 5\nvalue = [5, 2]"] ;
71 -> 72 ;
73 [label="gini = 0.0\nsamples = 4\nvalue = [5, 0]"] ;
72 -> 73 ;
74 [label="gini = 0.0\nsamples = 1\nvalue = [0, 2]"] ;
72 -> 74 ;
75 [label="gini = 0.0\nsamples = 1\nvalue = [1, 0]"] ;
71 -> 75 ;
76 [label="gini = 0.0\nsamples = 5\nvalue = [10, 0]"] ;
70 -> 76 ;
}
