digraph Tree {
node [shape=box] ;
0 [label="X[2] <= 1.5\ngini = 0.484\nsamples = 332\nvalue = [315, 219]"] ;
1 [label="X[1] <= 0.5\ngini = 0.165\nsamples = 7\nvalue = [1, 10]"] ;
0 -> 1 [labeldistance=2.5, labelangle=45, headlabel="True"] ;
2 [label="gini = 0.0\nsamples = 3\nvalue = [0, 4]"] ;
1 -> 2 ;
3 [label="X[2] <= 0.5\ngini = 0.245\nsamples = 4\nvalue = [1, 6]"] ;
1 -> 3 ;
4 [label="gini = 0.0\nsamples = 2\nvalue = [0, 3]"] ;
3 -> 4 ;
5 [label="X[4] <= 1.5\ngini = 0.375\nsamples = 2\nvalue = [1, 3]"] ;
3 -> 5 ;
6 [label="gini = 0.0\nsamples = 1\nvalue = [1, 0]"] ;
5 -> 6 ;
7 [label="gini = 0.0\nsamples = 1\nvalue = [0, 3]"] ;
5 -> 7 ;
8 [label="X[5] <= 0.5\ngini = 0.48\nsamples = 325\nvalue = [314, 209]"] ;
0 -> 8 [labeldistance=2.5, labelangle=-45, headlabel="False"] ;
9 [label="X[6] <= 1.0\ngini = 0.482\nsamples = 63\nvalue = [42, 62]"] ;
8 -> 9 ;
10 [label="X[3] <= 0.5\ngini = 0.413\nsamples = 33\nvalue = [39, 16]"] ;
9 -> 10 ;
11 [label="X[0] <= 1.5\ngini = 0.355\nsamples = 24\nvalue = [30, 9]"] ;
10 -> 11 ;
12 [label="X[4] <= 0.5\ngini = 0.463\nsamples = 13\nvalue = [14, 8]"] ;
11 -> 12 ;
13 [label="X[2] <= 49.0\ngini = 0.444\nsamples = 7\nvalue = [8, 4]"] ;
12 -> 13 ;
14 [label="gini = 0.49\nsamples = 5\nvalue = [3, 4]"] ;
13 -> 14 ;
15 [label="gini = 0.0\nsamples = 2\nvalue = [5, 0]"] ;
13 -> 15 ;
16 [label="X[4] <= 1.5\ngini = 0.48\nsamples = 6\nvalue = [6, 4]"] ;
12 -> 16 ;
17 [label="gini = 0.48\nsamples = 3\nvalue = [3, 2]"] ;
16 -> 17 ;
18 [label="gini = 0.48\nsamples = 3\nvalue = [3, 2]"] ;
16 -> 18 ;
19 [label="X[2] <= 21.0\ngini = 0.111\nsamples = 11\nvalue = [16, 1]"] ;
11 -> 19 ;
20 [label="gini = 0.5\nsamples = 2\nvalue = [1, 1]"] ;
19 -> 20 ;
21 [label="gini = 0.0\nsamples = 9\nvalue = [15, 0]"] ;
19 -> 21 ;
22 [label="X[4] <= 0.5\ngini = 0.492\nsamples = 9\nvalue = [9, 7]"] ;
10 -> 22 ;
23 [label="X[0] <= 1.5\ngini = 0.494\nsamples = 5\nvalue = [4, 5]"] ;
22 -> 23 ;
24 [label="X[2] <= 38.0\ngini = 0.408\nsamples = 3\nvalue = [2, 5]"] ;
23 -> 24 ;
25 [label="gini = 0.5\nsamples = 2\nvalue = [2, 2]"] ;
24 -> 25 ;
26 [label="gini = 0.0\nsamples = 1\nvalue = [0, 3]"] ;
24 -> 26 ;
27 [label="gini = 0.0\nsamples = 2\nvalue = [2, 0]"] ;
23 -> 27 ;
28 [label="X[0] <= 2.0\ngini = 0.408\nsamples = 4\nvalue = [5, 2]"] ;
22 -> 28 ;
29 [label="gini = 0.0\nsamples = 1\nvalue = [1, 0]"] ;
28 -> 29 ;
30 [label="X[2] <= 18.5\ngini = 0.444\nsamples = 3\nvalue = [4, 2]"] ;
28 -> 30 ;
31 [label="gini = 0.0\nsamples = 2\nvalue = [4, 0]"] ;
30 -> 31 ;
32 [label="gini = 0.0\nsamples = 1\nvalue = [0, 2]"] ;
30 -> 32 ;
33 [label="X[2] <= 17.5\ngini = 0.115\nsamples = 30\nvalue = [3, 46]"] ;
9 -> 33 ;
34 [label="X[3] <= 1.5\ngini = 0.337\nsamples = 9\nvalue = [3, 11]"] ;
33 -> 34 ;
35 [label="X[6] <= 2.5\ngini = 0.355\nsamples = 8\nvalue = [3, 10]"] ;
34 -> 35 ;
36 [label="X[4] <= 0.5\ngini = 0.42\nsamples = 6\nvalue = [3, 7]"] ;
35 -> 36 ;
37 [label="gini = 0.444\nsamples = 4\nvalue = [2, 4]"] ;
36 -> 37 ;
38 [label="gini = 0.375\nsamples = 2\nvalue = [1, 3]"] ;
36 -> 38 ;
39 [label="gini = 0.0\nsamples = 2\nvalue = [0, 3]"] ;
35 -> 39 ;
40 [label="gini = 0.0\nsamples = 1\nvalue = [0, 1]"] ;
34 -> 40 ;
41 [label="gini = 0.0\nsamples = 21\nvalue = [0, 35]"] ;
33 -> 41 ;
42 [label="X[4] <= 0.5\ngini = 0.455\nsamples = 262\nvalue = [272, 147]"] ;
8 -> 42 ;
43 [label="X[6] <= 1.0\ngini = 0.427\nsamples = 199\nvalue = [221, 99]"] ;
42 -> 43 ;
44 [label="X[3] <= 1.5\ngini = 0.265\nsamples = 142\nvalue = [193, 36]"] ;
43 -> 44 ;
45 [label="X[0] <= 1.5\ngini = 0.269\nsamples = 135\nvalue = [184, 35]"] ;
44 -> 45 ;
46 [label="X[2] <= 53.5\ngini = 0.375\nsamples = 20\nvalue = [21, 7]"] ;
45 -> 46 ;
47 [label="gini = 0.465\nsamples = 13\nvalue = [12, 7]"] ;
46 -> 47 ;
48 [label="gini = 0.0\nsamples = 7\nvalue = [9, 0]"] ;
46 -> 48 ;
49 [label="X[2] <= 24.5\ngini = 0.25\nsamples = 115\nvalue = [163, 28]"] ;
45 -> 49 ;
50 [label="gini = 0.136\nsamples = 44\nvalue = [76, 6]"] ;
49 -> 50 ;
51 [label="gini = 0.322\nsamples = 71\nvalue = [87, 22]"] ;
49 -> 51 ;
52 [label="X[5] <= 1.5\ngini = 0.18\nsamples = 7\nvalue = [9, 1]"] ;
44 -> 52 ;
53 [label="X[0] <= 1.5\ngini = 0.198\nsamples = 6\nvalue = [8, 1]"] ;
52 -> 53 ;
54 [label="gini = 0.0\nsamples = 1\nvalue = [0, 1]"] ;
53 -> 54 ;
55 [label="gini = 0.0\nsamples = 5\nvalue = [8, 0]"] ;
53 -> 55 ;
56 [label="gini = 0.0\nsamples = 1\nvalue = [1, 0]"] ;
52 -> 56 ;
57 [label="X[6] <= 2.5\ngini = 0.426\nsamples = 57\nvalue = [28, 63]"] ;
43 -> 57 ;
58 [label="X[2] <= 17.5\ngini = 0.448\nsamples = 35\nvalue = [19, 37]"] ;
57 -> 58 ;
59 [label="gini = 0.0\nsamples = 4\nvalue = [0, 6]"] ;
58 -> 59 ;
60 [label="X[0] <= 2.5\ngini = 0.471\nsamples = 31\nvalue = [19, 31]"] ;
58 -> 60 ;
61 [label="gini = 0.18\nsamples = 14\nvalue = [2, 18]"] ;
60 -> 61 ;
62 [label="gini = 0.491\nsamples = 17\nvalue = [17, 13]"] ;
60 -> 62 ;
63 [label="X[3] <= 2.0\ngini = 0.382\nsamples = 22\nvalue = [9, 26]"] ;
57 -> 63 ;
64 [label="X[3] <= 0.5\ngini = 0.389\nsamples = 21\nvalue = [9, 25]"] ;
63 -> 64 ;
65 [label="gini = 0.397\nsamples = 8\nvalue = [3, 8]"] ;
64 -> 65 ;
66 [label="gini = 0.386\nsamples = 13\nvalue = [6, 17]"] ;
64 -> 66 ;
67 [label="gini = 0.0\nsamples = 1\nvalue = [0, 1]"] ;
63 -> 67 ;
68 [label="X[1] <= 0.5\ngini = 0.5\nsamples = 63\nvalue = [51, 48]"] ;
42 -> 68 ;
69 [label="X[2] <= 50.0\ngini = 0.448\nsamples = 39\nvalue = [21, 41]"] ;
68 -> 69 ;
70 [label="X[5] <= 1.5\ngini = 0.462\nsamples = 36\nvalue = [21, 37]"] ;
69 -> 70 ;
71 [label="X[6] <= 2.5\ngini = 0.44\nsamples = 34\nvalue = [18, 37]"] ;
70 -> 71 ;
72 [label="gini = 0.375\nsamples = 14\nvalue = [6, 18]"] ;
71 -> 72 ;
73 [label="gini = 0.475\nsamples = 20\nvalue = [12, 19]"] ;
71 -> 73 ;
74 [label="gini = 0.0\nsamples = 2\nvalue = [3, 0]"] ;
70 -> 74 ;
75 [label="gini = 0.0\nsamples = 3\nvalue = [0, 4]"] ;
69 -> 75 ;
76 [label="X[0] <= 1.5\ngini = 0.307\nsamples = 24\nvalue = [30, 7]"] ;
68 -> 76 ;
77 [label="X[6] <= 0.5\ngini = 0.486\nsamples = 7\nvalue = [7, 5]"] ;
76 -> 77 ;
78 [label="X[3] <= 2.0\ngini = 0.463\nsamples = 6\nvalue = [7, 4]"] ;
77 -> 78 ;
79 [label="gini = 0.5\nsamples = 5\nvalue = [4, 4]"] ;
78 -> 79 ;
80 [label="gini = 0.0\nsamples = 1\nvalue = [3, 0]"] ;
78 -> 80 ;
81 [label="gini = 0.0\nsamples = 1\nvalue = [0, 1]"] ;
77 -> 81 ;
82 [label="X[4] <= 1.5\ngini = 0.147\nsamples = 17\nvalue = [23, 2]"] ;
76 -> 82 ;
83 [label="X[2] <= 12.5\ngini = 0.198\nsamples = 12\nvalue = [16, 2]"] ;
82 -> 83 ;
84 [label="gini = 0.32\nsamples = 7\nvalue = [8, 2]"] ;
83 -> 84 ;
85 [label="gini = 0.0\nsamples = 5\nvalue = [8, 0]"] ;
83 -> 85 ;
86 [label="gini = 0.0\nsamples = 5\nvalue = [7, 0]"] ;
82 -> 86 ;
}
