digraph Tree {
node [shape=box] ;
0 [label="X[2] <= 1.5\ngini = 0.475\nsamples = 329\nvalue = [327, 207]"] ;
1 [label="X[3] <= 3.0\ngini = 0.1\nsamples = 10\nvalue = [1, 18]"] ;
0 -> 1 [labeldistance=2.5, labelangle=45, headlabel="True"] ;
2 [label="gini = 0.0\nsamples = 9\nvalue = [0, 18]"] ;
1 -> 2 ;
3 [label="gini = 0.0\nsamples = 1\nvalue = [1, 0]"] ;
1 -> 3 ;
4 [label="X[0] <= 2.5\ngini = 0.465\nsamples = 319\nvalue = [326, 189]"] ;
0 -> 4 [labeldistance=2.5, labelangle=-45, headlabel="False"] ;
5 [label="X[6] <= 0.5\ngini = 0.498\nsamples = 152\nvalue = [112, 125]"] ;
4 -> 5 ;
6 [label="X[5] <= 0.5\ngini = 0.315\nsamples = 83\nvalue = [107, 26]"] ;
5 -> 6 ;
7 [label="X[0] <= 1.5\ngini = 0.368\nsamples = 20\nvalue = [28, 9]"] ;
6 -> 7 ;
8 [label="X[2] <= 26.5\ngini = 0.397\nsamples = 18\nvalue = [24, 9]"] ;
7 -> 8 ;
9 [label="X[3] <= 0.5\ngini = 0.444\nsamples = 4\nvalue = [2, 4]"] ;
8 -> 9 ;
10 [label="gini = 0.48\nsamples = 3\nvalue = [2, 3]"] ;
9 -> 10 ;
11 [label="gini = 0.0\nsamples = 1\nvalue = [0, 1]"] ;
9 -> 11 ;
12 [label="X[2] <= 50.0\ngini = 0.302\nsamples = 14\nvalue = [22, 5]"] ;
8 -> 12 ;
13 [label="gini = 0.401\nsamples = 10\nvalue = [13, 5]"] ;
12 -> 13 ;
14 [label="gini = 0.0\nsamples = 4\nvalue = [9, 0]"] ;
12 -> 14 ;
15 [label="gini = 0.0\nsamples = 2\nvalue = [4, 0]"] ;
7 -> 15 ;
16 [label="X[3] <= 1.5\ngini = 0.291\nsamples = 63\nvalue = [79, 17]"] ;
6 -> 16 ;
17 [label="X[4] <= 0.5\ngini = 0.306\nsamples = 58\nvalue = [73, 17]"] ;
16 -> 17 ;
18 [label="X[0] <= 1.5\ngini = 0.314\nsamples = 55\nvalue = [70, 17]"] ;
17 -> 18 ;
19 [label="gini = 0.386\nsamples = 27\nvalue = [34, 12]"] ;
18 -> 19 ;
20 [label="gini = 0.214\nsamples = 28\nvalue = [36, 5]"] ;
18 -> 20 ;
21 [label="gini = 0.0\nsamples = 3\nvalue = [3, 0]"] ;
17 -> 21 ;
22 [label="gini = 0.0\nsamples = 5\nvalue = [6, 0]"] ;
16 -> 22 ;
23 [label="X[4] <= 1.5\ngini = 0.092\nsamples = 69\nvalue = [5, 99]"] ;
5 -> 23 ;
24 [label="X[3] <= 0.5\ngini = 0.067\nsamples = 56\nvalue = [3, 84]"] ;
23 -> 24 ;
25 [label="X[5] <= 0.5\ngini = 0.081\nsamples = 31\nvalue = [2, 45]"] ;
24 -> 25 ;
26 [label="gini = 0.0\nsamples = 13\nvalue = [0, 25]"] ;
25 -> 26 ;
27 [label="X[0] <= 1.5\ngini = 0.165\nsamples = 18\nvalue = [2, 20]"] ;
25 -> 27 ;
28 [label="gini = 0.0\nsamples = 9\nvalue = [0, 10]"] ;
27 -> 28 ;
29 [label="gini = 0.278\nsamples = 9\nvalue = [2, 10]"] ;
27 -> 29 ;
30 [label="X[4] <= 0.5\ngini = 0.049\nsamples = 25\nvalue = [1, 39]"] ;
24 -> 30 ;
31 [label="X[3] <= 2.0\ngini = 0.077\nsamples = 15\nvalue = [1, 24]"] ;
30 -> 31 ;
32 [label="gini = 0.08\nsamples = 14\nvalue = [1, 23]"] ;
31 -> 32 ;
33 [label="gini = 0.0\nsamples = 1\nvalue = [0, 1]"] ;
31 -> 33 ;
34 [label="gini = 0.0\nsamples = 10\nvalue = [0, 15]"] ;
30 -> 34 ;
35 [label="X[1] <= 0.5\ngini = 0.208\nsamples = 13\nvalue = [2, 15]"] ;
23 -> 35 ;
36 [label="X[2] <= 3.5\ngini = 0.231\nsamples = 12\nvalue = [2, 13]"] ;
35 -> 36 ;
37 [label="gini = 0.0\nsamples = 1\nvalue = [1, 0]"] ;
36 -> 37 ;
38 [label="X[5] <= 0.5\ngini = 0.133\nsamples = 11\nvalue = [1, 13]"] ;
36 -> 38 ;
39 [label="gini = 0.0\nsamples = 3\nvalue = [0, 3]"] ;
38 -> 39 ;
40 [label="gini = 0.165\nsamples = 8\nvalue = [1, 10]"] ;
38 -> 40 ;
41 [label="gini = 0.0\nsamples = 1\nvalue = [0, 2]"] ;
35 -> 41 ;
42 [label="X[1] <= 0.5\ngini = 0.354\nsamples = 167\nvalue = [214, 64]"] ;
4 -> 42 ;
43 [label="X[5] <= 1.5\ngini = 0.494\nsamples = 47\nvalue = [42, 34]"] ;
42 -> 43 ;
44 [label="X[3] <= 0.5\ngini = 0.491\nsamples = 42\nvalue = [38, 29]"] ;
43 -> 44 ;
45 [label="X[6] <= 2.5\ngini = 0.4\nsamples = 19\nvalue = [8, 21]"] ;
44 -> 45 ;
46 [label="X[4] <= 0.5\ngini = 0.465\nsamples = 12\nvalue = [7, 12]"] ;
45 -> 46 ;
47 [label="gini = 0.444\nsamples = 10\nvalue = [5, 10]"] ;
46 -> 47 ;
48 [label="gini = 0.5\nsamples = 2\nvalue = [2, 2]"] ;
46 -> 48 ;
49 [label="X[4] <= 3.5\ngini = 0.18\nsamples = 7\nvalue = [1, 9]"] ;
45 -> 49 ;
50 [label="gini = 0.0\nsamples = 6\nvalue = [0, 9]"] ;
49 -> 50 ;
51 [label="gini = 0.0\nsamples = 1\nvalue = [1, 0]"] ;
49 -> 51 ;
52 [label="X[4] <= 0.5\ngini = 0.332\nsamples = 23\nvalue = [30, 8]"] ;
44 -> 52 ;
53 [label="X[2] <= 18.5\ngini = 0.432\nsamples = 9\nvalue = [13, 6]"] ;
52 -> 53 ;
54 [label="gini = 0.219\nsamples = 3\nvalue = [7, 1]"] ;
53 -> 54 ;
55 [label="gini = 0.496\nsamples = 6\nvalue = [6, 5]"] ;
53 -> 55 ;
56 [label="X[6] <= 2.5\ngini = 0.188\nsamples = 14\nvalue = [17, 2]"] ;
52 -> 56 ;
57 [label="gini = 0.198\nsamples = 7\nvalue = [8, 1]"] ;
56 -> 57 ;
58 [label="gini = 0.18\nsamples = 7\nvalue = [9, 1]"] ;
56 -> 58 ;
59 [label="X[2] <= 20.0\ngini = 0.494\nsamples = 5\nvalue = [4, 5]"] ;
43 -> 59 ;
60 [label="gini = 0.0\nsamples = 3\nvalue = [0, 5]"] ;
59 -> 60 ;
61 [label="gini = 0.0\nsamples = 2\nvalue = [4, 0]"] ;
59 -> 61 ;
62 [label="X[4] <= 1.5\ngini = 0.253\nsamples = 120\nvalue = [172, 30]"] ;
42 -> 62 ;
63 [label="X[2] <= 20.5\ngini = 0.261\nsamples = 115\nvalue = [164, 30]"] ;
62 -> 63 ;
64 [label="X[2] <= 2.5\ngini = 0.397\nsamples = 32\nvalue = [32, 12]"] ;
63 -> 64 ;
65 [label="gini = 0.0\nsamples = 3\nvalue = [7, 0]"] ;
64 -> 65 ;
66 [label="X[6] <= 0.5\ngini = 0.438\nsamples = 29\nvalue = [25, 12]"] ;
64 -> 66 ;
67 [label="gini = 0.366\nsamples = 24\nvalue = [22, 7]"] ;
66 -> 67 ;
68 [label="gini = 0.469\nsamples = 5\nvalue = [3, 5]"] ;
66 -> 68 ;
69 [label="X[3] <= 1.5\ngini = 0.211\nsamples = 83\nvalue = [132, 18]"] ;
63 -> 69 ;
70 [label="X[3] <= 0.5\ngini = 0.217\nsamples = 80\nvalue = [127, 18]"] ;
69 -> 70 ;
71 [label="gini = 0.217\nsamples = 71\nvalue = [113, 16]"] ;
70 -> 71 ;
72 [label="gini = 0.219\nsamples = 9\nvalue = [14, 2]"] ;
70 -> 72 ;
73 [label="gini = 0.0\nsamples = 3\nvalue = [5, 0]"] ;
69 -> 73 ;
74 [label="gini = 0.0\nsamples = 5\nvalue = [8, 0]"] ;
62 -> 74 ;
}
