digraph Tree {
node [shape=box] ;
0 [label="X[1] <= 0.5\ngini = 0.48\nsamples = 342\nvalue = [320, 214]"] ;
1 [label="X[5] <= 0.5\ngini = 0.394\nsamples = 126\nvalue = [52, 141]"] ;
0 -> 1 [labeldistance=2.5, labelangle=45, headlabel="True"] ;
2 [label="X[2] <= 11.0\ngini = 0.237\nsamples = 34\nvalue = [7, 44]"] ;
1 -> 2 ;
3 [label="X[2] <= 6.0\ngini = 0.444\nsamples = 3\nvalue = [4, 2]"] ;
2 -> 3 ;
4 [label="gini = 0.0\nsamples = 2\nvalue = [0, 2]"] ;
3 -> 4 ;
5 [label="gini = 0.0\nsamples = 1\nvalue = [4, 0]"] ;
3 -> 5 ;
6 [label="X[0] <= 2.5\ngini = 0.124\nsamples = 31\nvalue = [3, 42]"] ;
2 -> 6 ;
7 [label="gini = 0.0\nsamples = 24\nvalue = [0, 31]"] ;
6 -> 7 ;
8 [label="X[4] <= 1.5\ngini = 0.337\nsamples = 7\nvalue = [3, 11]"] ;
6 -> 8 ;
9 [label="X[2] <= 16.0\ngini = 0.42\nsamples = 5\nvalue = [3, 7]"] ;
8 -> 9 ;
10 [label="gini = 0.0\nsamples = 3\nvalue = [0, 7]"] ;
9 -> 10 ;
11 [label="gini = 0.0\nsamples = 2\nvalue = [3, 0]"] ;
9 -> 11 ;
12 [label="gini = 0.0\nsamples = 2\nvalue = [0, 4]"] ;
8 -> 12 ;
13 [label="X[5] <= 1.5\ngini = 0.433\nsamples = 92\nvalue = [45, 97]"] ;
1 -> 13 ;
14 [label="X[3] <= 2.5\ngini = 0.426\nsamples = 85\nvalue = [41, 92]"] ;
13 -> 14 ;
15 [label="X[3] <= 1.5\ngini = 0.416\nsamples = 78\nvalue = [36, 86]"] ;
14 -> 15 ;
16 [label="X[0] <= 2.5\ngini = 0.422\nsamples = 76\nvalue = [36, 83]"] ;
15 -> 16 ;
17 [label="X[2] <= 3.0\ngini = 0.147\nsamples = 47\nvalue = [6, 69]"] ;
16 -> 17 ;
18 [label="gini = 0.0\nsamples = 1\nvalue = [1, 0]"] ;
17 -> 18 ;
19 [label="gini = 0.126\nsamples = 46\nvalue = [5, 69]"] ;
17 -> 19 ;
20 [label="X[6] <= 2.5\ngini = 0.434\nsamples = 29\nvalue = [30, 14]"] ;
16 -> 20 ;
21 [label="gini = 0.413\nsamples = 17\nvalue = [17, 7]"] ;
20 -> 21 ;
22 [label="gini = 0.455\nsamples = 12\nvalue = [13, 7]"] ;
20 -> 22 ;
23 [label="gini = 0.0\nsamples = 2\nvalue = [0, 3]"] ;
15 -> 23 ;
24 [label="X[0] <= 2.5\ngini = 0.496\nsamples = 7\nvalue = [5, 6]"] ;
14 -> 24 ;
25 [label="gini = 0.0\nsamples = 2\nvalue = [0, 2]"] ;
24 -> 25 ;
26 [label="X[3] <= 3.5\ngini = 0.494\nsamples = 5\nvalue = [5, 4]"] ;
24 -> 26 ;
27 [label="gini = 0.0\nsamples = 2\nvalue = [2, 0]"] ;
26 -> 27 ;
28 [label="X[2] <= 11.5\ngini = 0.49\nsamples = 3\nvalue = [3, 4]"] ;
26 -> 28 ;
29 [label="gini = 0.0\nsamples = 2\nvalue = [3, 0]"] ;
28 -> 29 ;
30 [label="gini = 0.0\nsamples = 1\nvalue = [0, 4]"] ;
28 -> 30 ;
31 [label="X[3] <= 0.5\ngini = 0.494\nsamples = 7\nvalue = [4, 5]"] ;
13 -> 31 ;
32 [label="X[0] <= 2.5\ngini = 0.49\nsamples = 6\nvalue = [4, 3]"] ;
31 -> 32 ;
33 [label="gini = 0.0\nsamples = 1\nvalue = [0, 1]"] ;
32 -> 33 ;
34 [label="X[4] <= 2.5\ngini = 0.444\nsamples = 5\nvalue = [4, 2]"] ;
32 -> 34 ;
35 [label="X[2] <= 20.0\ngini = 0.48\nsamples = 4\nvalue = [3, 2]"] ;
34 -> 35 ;
36 [label="gini = 0.444\nsamples = 3\nvalue = [1, 2]"] ;
35 -> 36 ;
37 [label="gini = 0.0\nsamples = 1\nvalue = [2, 0]"] ;
35 -> 37 ;
38 [label="gini = 0.0\nsamples = 1\nvalue = [1, 0]"] ;
34 -> 38 ;
39 [label="gini = 0.0\nsamples = 1\nvalue = [0, 2]"] ;
31 -> 39 ;
40 [label="X[5] <= 0.5\ngini = 0.336\nsamples = 216\nvalue = [268, 73]"] ;
0 -> 40 [labeldistance=2.5, labelangle=-45, headlabel="False"] ;
41 [label="X[3] <= 0.5\ngini = 0.475\nsamples = 39\nvalue = [44, 28]"] ;
40 -> 41 ;
42 [label="X[2] <= 19.5\ngini = 0.457\nsamples = 30\nvalue = [33, 18]"] ;
41 -> 42 ;
43 [label="gini = 0.0\nsamples = 3\nvalue = [0, 10]"] ;
42 -> 43 ;
44 [label="X[4] <= 1.5\ngini = 0.314\nsamples = 27\nvalue = [33, 8]"] ;
42 -> 44 ;
45 [label="X[4] <= 0.5\ngini = 0.339\nsamples = 25\nvalue = [29, 8]"] ;
44 -> 45 ;
46 [label="X[2] <= 25.5\ngini = 0.358\nsamples = 20\nvalue = [23, 7]"] ;
45 -> 46 ;
47 [label="gini = 0.0\nsamples = 5\nvalue = [8, 0]"] ;
46 -> 47 ;
48 [label="gini = 0.434\nsamples = 15\nvalue = [15, 7]"] ;
46 -> 48 ;
49 [label="X[2] <= 30.0\ngini = 0.245\nsamples = 5\nvalue = [6, 1]"] ;
45 -> 49 ;
50 [label="gini = 0.0\nsamples = 1\nvalue = [3, 0]"] ;
49 -> 50 ;
51 [label="gini = 0.375\nsamples = 4\nvalue = [3, 1]"] ;
49 -> 51 ;
52 [label="gini = 0.0\nsamples = 2\nvalue = [4, 0]"] ;
44 -> 52 ;
53 [label="X[0] <= 1.5\ngini = 0.499\nsamples = 9\nvalue = [11, 10]"] ;
41 -> 53 ;
54 [label="X[4] <= 0.5\ngini = 0.42\nsamples = 5\nvalue = [3, 7]"] ;
53 -> 54 ;
55 [label="X[2] <= 38.0\ngini = 0.346\nsamples = 4\nvalue = [2, 7]"] ;
54 -> 55 ;
56 [label="X[2] <= 26.5\ngini = 0.48\nsamples = 2\nvalue = [2, 3]"] ;
55 -> 56 ;
57 [label="gini = 0.0\nsamples = 1\nvalue = [0, 3]"] ;
56 -> 57 ;
58 [label="gini = 0.0\nsamples = 1\nvalue = [2, 0]"] ;
56 -> 58 ;
59 [label="gini = 0.0\nsamples = 2\nvalue = [0, 4]"] ;
55 -> 59 ;
60 [label="gini = 0.0\nsamples = 1\nvalue = [1, 0]"] ;
54 -> 60 ;
61 [label="X[2] <= 23.5\ngini = 0.397\nsamples = 4\nvalue = [8, 3]"] ;
53 -> 61 ;
62 [label="X[2] <= 17.5\ngini = 0.375\nsamples = 2\nvalue = [1, 3]"] ;
61 -> 62 ;
63 [label="gini = 0.0\nsamples = 1\nvalue = [1, 0]"] ;
62 -> 63 ;
64 [label="gini = 0.0\nsamples = 1\nvalue = [0, 3]"] ;
62 -> 64 ;
65 [label="gini = 0.0\nsamples = 2\nvalue = [7, 0]"] ;
61 -> 65 ;
66 [label="X[4] <= 0.5\ngini = 0.279\nsamples = 177\nvalue = [224, 45]"] ;
40 -> 66 ;
67 [label="X[5] <= 1.5\ngini = 0.248\nsamples = 149\nvalue = [194, 33]"] ;
66 -> 67 ;
68 [label="X[3] <= 0.5\ngini = 0.239\nsamples = 143\nvalue = [186, 30]"] ;
67 -> 68 ;
69 [label="X[2] <= 33.5\ngini = 0.225\nsamples = 117\nvalue = [155, 23]"] ;
68 -> 69 ;
70 [label="X[2] <= 21.5\ngini = 0.172\nsamples = 70\nvalue = [95, 10]"] ;
69 -> 70 ;
71 [label="gini = 0.245\nsamples = 23\nvalue = [30, 5]"] ;
70 -> 71 ;
72 [label="gini = 0.133\nsamples = 47\nvalue = [65, 5]"] ;
70 -> 72 ;
73 [label="X[0] <= 1.5\ngini = 0.293\nsamples = 47\nvalue = [60, 13]"] ;
69 -> 73 ;
74 [label="gini = 0.492\nsamples = 13\nvalue = [9, 7]"] ;
73 -> 74 ;
75 [label="gini = 0.188\nsamples = 34\nvalue = [51, 6]"] ;
73 -> 75 ;
76 [label="X[3] <= 1.5\ngini = 0.301\nsamples = 26\nvalue = [31, 7]"] ;
68 -> 76 ;
77 [label="X[2] <= 26.5\ngini = 0.327\nsamples = 23\nvalue = [27, 7]"] ;
76 -> 77 ;
78 [label="gini = 0.165\nsamples = 8\nvalue = [10, 1]"] ;
77 -> 78 ;
79 [label="gini = 0.386\nsamples = 15\nvalue = [17, 6]"] ;
77 -> 79 ;
80 [label="gini = 0.0\nsamples = 3\nvalue = [4, 0]"] ;
76 -> 80 ;
81 [label="X[0] <= 2.5\ngini = 0.397\nsamples = 6\nvalue = [8, 3]"] ;
67 -> 81 ;
82 [label="gini = 0.0\nsamples = 2\nvalue = [2, 0]"] ;
81 -> 82 ;
83 [label="X[2] <= 34.5\ngini = 0.444\nsamples = 4\nvalue = [6, 3]"] ;
81 -> 83 ;
84 [label="X[2] <= 27.0\ngini = 0.375\nsamples = 2\nvalue = [1, 3]"] ;
83 -> 84 ;
85 [label="gini = 0.0\nsamples = 1\nvalue = [1, 0]"] ;
84 -> 85 ;
86 [label="gini = 0.0\nsamples = 1\nvalue = [0, 3]"] ;
84 -> 86 ;
87 [label="gini = 0.0\nsamples = 2\nvalue = [5, 0]"] ;
83 -> 87 ;
88 [label="X[3] <= 2.5\ngini = 0.408\nsamples = 28\nvalue = [30, 12]"] ;
66 -> 88 ;
89 [label="X[6] <= 0.5\ngini = 0.494\nsamples = 17\nvalue = [15, 12]"] ;
88 -> 89 ;
90 [label="X[0] <= 1.5\ngini = 0.278\nsamples = 11\nvalue = [15, 3]"] ;
89 -> 90 ;
91 [label="X[2] <= 37.5\ngini = 0.444\nsamples = 6\nvalue = [6, 3]"] ;
90 -> 91 ;
92 [label="gini = 0.375\nsamples = 2\nvalue = [1, 3]"] ;
91 -> 92 ;
93 [label="gini = 0.0\nsamples = 4\nvalue = [5, 0]"] ;
91 -> 93 ;
94 [label="gini = 0.0\nsamples = 5\nvalue = [9, 0]"] ;
90 -> 94 ;
95 [label="gini = 0.0\nsamples = 6\nvalue = [0, 9]"] ;
89 -> 95 ;
96 [label="gini = 0.0\nsamples = 11\nvalue = [15, 0]"] ;
88 -> 96 ;
}
