digraph Tree {
node [shape=box] ;
0 [label="X[0] <= 2.5\ngini = 0.489\nsamples = 331\nvalue = [307, 227]"] ;
1 [label="X[6] <= 0.5\ngini = 0.482\nsamples = 159\nvalue = [104, 152]"] ;
0 -> 1 [labeldistance=2.5, labelangle=45, headlabel="True"] ;
2 [label="X[0] <= 1.5\ngini = 0.384\nsamples = 88\nvalue = [100, 35]"] ;
1 -> 2 ;
3 [label="X[2] <= 27.5\ngini = 0.447\nsamples = 50\nvalue = [51, 26]"] ;
2 -> 3 ;
4 [label="X[5] <= 0.5\ngini = 0.444\nsamples = 9\nvalue = [5, 10]"] ;
3 -> 4 ;
5 [label="X[4] <= 0.5\ngini = 0.5\nsamples = 6\nvalue = [4, 4]"] ;
4 -> 5 ;
6 [label="X[3] <= 0.5\ngini = 0.444\nsamples = 4\nvalue = [2, 4]"] ;
5 -> 6 ;
7 [label="gini = 0.48\nsamples = 3\nvalue = [2, 3]"] ;
6 -> 7 ;
8 [label="gini = 0.0\nsamples = 1\nvalue = [0, 1]"] ;
6 -> 8 ;
9 [label="gini = 0.0\nsamples = 2\nvalue = [2, 0]"] ;
5 -> 9 ;
10 [label="X[3] <= 0.5\ngini = 0.245\nsamples = 3\nvalue = [1, 6]"] ;
4 -> 10 ;
11 [label="X[2] <= 24.0\ngini = 0.444\nsamples = 2\nvalue = [1, 2]"] ;
10 -> 11 ;
12 [label="gini = 0.0\nsamples = 1\nvalue = [1, 0]"] ;
11 -> 12 ;
13 [label="gini = 0.0\nsamples = 1\nvalue = [0, 2]"] ;
11 -> 13 ;
14 [label="gini = 0.0\nsamples = 1\nvalue = [0, 4]"] ;
10 -> 14 ;
15 [label="X[5] <= 0.5\ngini = 0.383\nsamples = 41\nvalue = [46, 16]"] ;
3 -> 15 ;
16 [label="X[3] <= 0.5\ngini = 0.388\nsamples = 11\nvalue = [14, 5]"] ;
15 -> 16 ;
17 [label="X[4] <= 0.5\ngini = 0.375\nsamples = 7\nvalue = [9, 3]"] ;
16 -> 17 ;
18 [label="gini = 0.42\nsamples = 5\nvalue = [7, 3]"] ;
17 -> 18 ;
19 [label="gini = 0.0\nsamples = 2\nvalue = [2, 0]"] ;
17 -> 19 ;
20 [label="X[4] <= 0.5\ngini = 0.408\nsamples = 4\nvalue = [5, 2]"] ;
16 -> 20 ;
21 [label="gini = 0.444\nsamples = 3\nvalue = [4, 2]"] ;
20 -> 21 ;
22 [label="gini = 0.0\nsamples = 1\nvalue = [1, 0]"] ;
20 -> 22 ;
23 [label="X[3] <= 1.5\ngini = 0.381\nsamples = 30\nvalue = [32, 11]"] ;
15 -> 23 ;
24 [label="X[2] <= 34.0\ngini = 0.32\nsamples = 29\nvalue = [32, 8]"] ;
23 -> 24 ;
25 [label="gini = 0.0\nsamples = 5\nvalue = [12, 0]"] ;
24 -> 25 ;
26 [label="gini = 0.408\nsamples = 24\nvalue = [20, 8]"] ;
24 -> 26 ;
27 [label="gini = 0.0\nsamples = 1\nvalue = [0, 3]"] ;
23 -> 27 ;
28 [label="X[4] <= 0.5\ngini = 0.262\nsamples = 38\nvalue = [49, 9]"] ;
2 -> 28 ;
29 [label="X[3] <= 0.5\ngini = 0.266\nsamples = 37\nvalue = [48, 9]"] ;
28 -> 29 ;
30 [label="X[5] <= 1.5\ngini = 0.303\nsamples = 27\nvalue = [35, 8]"] ;
29 -> 30 ;
31 [label="X[2] <= 21.0\ngini = 0.308\nsamples = 26\nvalue = [34, 8]"] ;
30 -> 31 ;
32 [label="gini = 0.0\nsamples = 1\nvalue = [0, 1]"] ;
31 -> 32 ;
33 [label="gini = 0.283\nsamples = 25\nvalue = [34, 7]"] ;
31 -> 33 ;
34 [label="gini = 0.0\nsamples = 1\nvalue = [1, 0]"] ;
30 -> 34 ;
35 [label="X[2] <= 30.5\ngini = 0.133\nsamples = 10\nvalue = [13, 1]"] ;
29 -> 35 ;
36 [label="gini = 0.0\nsamples = 4\nvalue = [8, 0]"] ;
35 -> 36 ;
37 [label="X[2] <= 33.0\ngini = 0.278\nsamples = 6\nvalue = [5, 1]"] ;
35 -> 37 ;
38 [label="gini = 0.444\nsamples = 3\nvalue = [2, 1]"] ;
37 -> 38 ;
39 [label="gini = 0.0\nsamples = 3\nvalue = [3, 0]"] ;
37 -> 39 ;
40 [label="gini = 0.0\nsamples = 1\nvalue = [1, 0]"] ;
28 -> 40 ;
41 [label="X[4] <= 1.5\ngini = 0.064\nsamples = 71\nvalue = [4, 117]"] ;
1 -> 41 ;
42 [label="X[0] <= 1.5\ngini = 0.039\nsamples = 61\nvalue = [2, 98]"] ;
41 -> 42 ;
43 [label="gini = 0.0\nsamples = 33\nvalue = [0, 56]"] ;
42 -> 43 ;
44 [label="X[4] <= 0.5\ngini = 0.087\nsamples = 28\nvalue = [2, 42]"] ;
42 -> 44 ;
45 [label="X[2] <= 37.0\ngini = 0.153\nsamples = 17\nvalue = [2, 22]"] ;
44 -> 45 ;
46 [label="X[2] <= 27.5\ngini = 0.1\nsamples = 14\nvalue = [1, 18]"] ;
45 -> 46 ;
47 [label="gini = 0.245\nsamples = 5\nvalue = [1, 6]"] ;
46 -> 47 ;
48 [label="gini = 0.0\nsamples = 9\nvalue = [0, 12]"] ;
46 -> 48 ;
49 [label="X[2] <= 40.0\ngini = 0.32\nsamples = 3\nvalue = [1, 4]"] ;
45 -> 49 ;
50 [label="gini = 0.0\nsamples = 1\nvalue = [1, 0]"] ;
49 -> 50 ;
51 [label="gini = 0.0\nsamples = 2\nvalue = [0, 4]"] ;
49 -> 51 ;
52 [label="gini = 0.0\nsamples = 11\nvalue = [0, 20]"] ;
44 -> 52 ;
53 [label="X[6] <= 2.5\ngini = 0.172\nsamples = 10\nvalue = [2, 19]"] ;
41 -> 53 ;
54 [label="gini = 0.0\nsamples = 6\nvalue = [0, 13]"] ;
53 -> 54 ;
55 [label="X[2] <= 29.0\ngini = 0.375\nsamples = 4\nvalue = [2, 6]"] ;
53 -> 55 ;
56 [label="X[3] <= 1.5\ngini = 0.444\nsamples = 2\nvalue = [2, 1]"] ;
55 -> 56 ;
57 [label="gini = 0.0\nsamples = 1\nvalue = [2, 0]"] ;
56 -> 57 ;
58 [label="gini = 0.0\nsamples = 1\nvalue = [0, 1]"] ;
56 -> 58 ;
59 [label="gini = 0.0\nsamples = 2\nvalue = [0, 5]"] ;
55 -> 59 ;
60 [label="X[6] <= 1.5\ngini = 0.394\nsamples = 172\nvalue = [203, 75]"] ;
0 -> 60 [labeldistance=2.5, labelangle=-45, headlabel="False"] ;
61 [label="X[5] <= 0.5\ngini = 0.27\nsamples = 118\nvalue = [162, 31]"] ;
60 -> 61 ;
62 [label="X[3] <= 0.5\ngini = 0.444\nsamples = 12\nvalue = [14, 7]"] ;
61 -> 62 ;
63 [label="X[2] <= 27.0\ngini = 0.42\nsamples = 11\nvalue = [14, 6]"] ;
62 -> 63 ;
64 [label="X[2] <= 25.5\ngini = 0.497\nsamples = 7\nvalue = [7, 6]"] ;
63 -> 64 ;
65 [label="X[2] <= 22.5\ngini = 0.42\nsamples = 6\nvalue = [7, 3]"] ;
64 -> 65 ;
66 [label="gini = 0.5\nsamples = 4\nvalue = [3, 3]"] ;
65 -> 66 ;
67 [label="gini = 0.0\nsamples = 2\nvalue = [4, 0]"] ;
65 -> 67 ;
68 [label="gini = 0.0\nsamples = 1\nvalue = [0, 3]"] ;
64 -> 68 ;
69 [label="gini = 0.0\nsamples = 4\nvalue = [7, 0]"] ;
63 -> 69 ;
70 [label="gini = 0.0\nsamples = 1\nvalue = [0, 1]"] ;
62 -> 70 ;
71 [label="X[6] <= 0.5\ngini = 0.24\nsamples = 106\nvalue = [148, 24]"] ;
61 -> 71 ;
72 [label="X[4] <= 0.5\ngini = 0.221\nsamples = 96\nvalue = [138, 20]"] ;
71 -> 72 ;
73 [label="X[3] <= 1.5\ngini = 0.236\nsamples = 90\nvalue = [126, 20]"] ;
72 -> 73 ;
74 [label="X[2] <= 25.5\ngini = 0.245\nsamples = 86\nvalue = [120, 20]"] ;
73 -> 74 ;
75 [label="gini = 0.124\nsamples = 45\nvalue = [70, 5]"] ;
74 -> 75 ;
76 [label="gini = 0.355\nsamples = 41\nvalue = [50, 15]"] ;
74 -> 76 ;
77 [label="gini = 0.0\nsamples = 4\nvalue = [6, 0]"] ;
73 -> 77 ;
78 [label="gini = 0.0\nsamples = 6\nvalue = [12, 0]"] ;
72 -> 78 ;
79 [label="X[5] <= 1.5\ngini = 0.408\nsamples = 10\nvalue = [10, 4]"] ;
71 -> 79 ;
80 [label="X[2] <= 1.5\ngini = 0.426\nsamples = 9\nvalue = [9, 4]"] ;
79 -> 80 ;
81 [label="gini = 0.0\nsamples = 1\nvalue = [0, 2]"] ;
80 -> 81 ;
82 [label="X[4] <= 1.5\ngini = 0.298\nsamples = 8\nvalue = [9, 2]"] ;
80 -> 82 ;
83 [label="gini = 0.444\nsamples = 5\nvalue = [4, 2]"] ;
82 -> 83 ;
84 [label="gini = 0.0\nsamples = 3\nvalue = [5, 0]"] ;
82 -> 84 ;
85 [label="gini = 0.0\nsamples = 1\nvalue = [1, 0]"] ;
79 -> 85 ;
86 [label="X[5] <= 0.5\ngini = 0.499\nsamples = 54\nvalue = [41, 44]"] ;
60 -> 86 ;
87 [label="X[6] <= 2.5\ngini = 0.298\nsamples = 8\nvalue = [2, 9]"] ;
86 -> 87 ;
88 [label="X[2] <= 16.5\ngini = 0.375\nsamples = 6\nvalue = [2, 6]"] ;
87 -> 88 ;
89 [label="X[4] <= 0.5\ngini = 0.245\nsamples = 5\nvalue = [1, 6]"] ;
88 -> 89 ;
90 [label="X[3] <= 0.5\ngini = 0.375\nsamples = 3\nvalue = [1, 3]"] ;
89 -> 90 ;
91 [label="gini = 0.0\nsamples = 1\nvalue = [0, 2]"] ;
90 -> 91 ;
92 [label="gini = 0.5\nsamples = 2\nvalue = [1, 1]"] ;
90 -> 92 ;
93 [label="gini = 0.0\nsamples = 2\nvalue = [0, 3]"] ;
89 -> 93 ;
94 [label="gini = 0.0\nsamples = 1\nvalue = [1, 0]"] ;
88 -> 94 ;
95 [label="gini = 0.0\nsamples = 2\nvalue = [0, 3]"] ;
87 -> 95 ;
96 [label="X[6] <= 2.5\ngini = 0.499\nsamples = 46\nvalue = [39, 35]"] ;
86 -> 96 ;
97 [label="X[4] <= 0.5\ngini = 0.494\nsamples = 29\nvalue = [25, 20]"] ;
96 -> 97 ;
98 [label="X[3] <= 0.5\ngini = 0.491\nsamples = 21\nvalue = [17, 13]"] ;
97 -> 98 ;
99 [label="X[5] <= 1.5\ngini = 0.499\nsamples = 17\nvalue = [12, 13]"] ;
98 -> 99 ;
100 [label="gini = 0.499\nsamples = 13\nvalue = [10, 9]"] ;
99 -> 100 ;
101 [label="gini = 0.444\nsamples = 4\nvalue = [2, 4]"] ;
99 -> 101 ;
102 [label="gini = 0.0\nsamples = 4\nvalue = [5, 0]"] ;
98 -> 102 ;
103 [label="X[3] <= 3.5\ngini = 0.498\nsamples = 8\nvalue = [8, 7]"] ;
97 -> 103 ;
104 [label="X[3] <= 0.5\ngini = 0.346\nsamples = 5\nvalue = [7, 2]"] ;
103 -> 104 ;
105 [label="gini = 0.0\nsamples = 2\nvalue = [4, 0]"] ;
104 -> 105 ;
106 [label="gini = 0.48\nsamples = 3\nvalue = [3, 2]"] ;
104 -> 106 ;
107 [label="X[2] <= 13.0\ngini = 0.278\nsamples = 3\nvalue = [1, 5]"] ;
103 -> 107 ;
108 [label="gini = 0.444\nsamples = 2\nvalue = [1, 2]"] ;
107 -> 108 ;
109 [label="gini = 0.0\nsamples = 1\nvalue = [0, 3]"] ;
107 -> 109 ;
110 [label="X[3] <= 0.5\ngini = 0.499\nsamples = 17\nvalue = [14, 15]"] ;
96 -> 110 ;
111 [label="X[4] <= 3.5\ngini = 0.375\nsamples = 6\nvalue = [3, 9]"] ;
110 -> 111 ;
112 [label="gini = 0.0\nsamples = 5\nvalue = [0, 9]"] ;
111 -> 112 ;
113 [label="gini = 0.0\nsamples = 1\nvalue = [3, 0]"] ;
111 -> 113 ;
114 [label="X[4] <= 2.0\ngini = 0.457\nsamples = 11\nvalue = [11, 6]"] ;
110 -> 114 ;
115 [label="X[4] <= 0.5\ngini = 0.496\nsamples = 7\nvalue = [5, 6]"] ;
114 -> 115 ;
116 [label="gini = 0.5\nsamples = 5\nvalue = [3, 3]"] ;
115 -> 116 ;
117 [label="gini = 0.48\nsamples = 2\nvalue = [2, 3]"] ;
115 -> 117 ;
118 [label="gini = 0.0\nsamples = 4\nvalue = [6, 0]"] ;
114 -> 118 ;
}
