digraph Tree {
node [shape=box] ;
0 [label="X[1] <= 0.5\ngini = 0.479\nsamples = 340\nvalue = [322, 212]"] ;
1 [label="X[2] <= 32.5\ngini = 0.368\nsamples = 124\nvalue = [47, 146]"] ;
0 -> 1 [labeldistance=2.5, labelangle=45, headlabel="True"] ;
2 [label="X[0] <= 2.5\ngini = 0.423\nsamples = 87\nvalue = [42, 96]"] ;
1 -> 2 ;
3 [label="X[5] <= 0.5\ngini = 0.111\nsamples = 40\nvalue = [4, 64]"] ;
2 -> 3 ;
4 [label="gini = 0.0\nsamples = 13\nvalue = [0, 22]"] ;
3 -> 4 ;
5 [label="X[6] <= 2.5\ngini = 0.159\nsamples = 27\nvalue = [4, 42]"] ;
3 -> 5 ;
6 [label="X[2] <= 3.0\ngini = 0.105\nsamples = 20\nvalue = [2, 34]"] ;
5 -> 6 ;
7 [label="gini = 0.0\nsamples = 1\nvalue = [1, 0]"] ;
6 -> 7 ;
8 [label="X[4] <= 0.5\ngini = 0.056\nsamples = 19\nvalue = [1, 34]"] ;
6 -> 8 ;
9 [label="gini = 0.087\nsamples = 12\nvalue = [1, 21]"] ;
8 -> 9 ;
10 [label="gini = 0.0\nsamples = 7\nvalue = [0, 13]"] ;
8 -> 10 ;
11 [label="X[0] <= 1.5\ngini = 0.32\nsamples = 7\nvalue = [2, 8]"] ;
5 -> 11 ;
12 [label="X[2] <= 23.5\ngini = 0.375\nsamples = 2\nvalue = [1, 3]"] ;
11 -> 12 ;
13 [label="gini = 0.0\nsamples = 1\nvalue = [0, 3]"] ;
12 -> 13 ;
14 [label="gini = 0.0\nsamples = 1\nvalue = [1, 0]"] ;
12 -> 14 ;
15 [label="X[4] <= 1.0\ngini = 0.278\nsamples = 5\nvalue = [1, 5]"] ;
11 -> 15 ;
16 [label="gini = 0.32\nsamples = 4\nvalue = [1, 4]"] ;
15 -> 16 ;
17 [label="gini = 0.0\nsamples = 1\nvalue = [0, 1]"] ;
15 -> 17 ;
18 [label="X[2] <= 1.5\ngini = 0.496\nsamples = 47\nvalue = [38, 32]"] ;
2 -> 18 ;
19 [label="gini = 0.0\nsamples = 3\nvalue = [0, 5]"] ;
18 -> 19 ;
20 [label="X[4] <= 0.5\ngini = 0.486\nsamples = 44\nvalue = [38, 27]"] ;
18 -> 20 ;
21 [label="X[5] <= 0.5\ngini = 0.499\nsamples = 25\nvalue = [21, 19]"] ;
20 -> 21 ;
22 [label="X[3] <= 0.5\ngini = 0.48\nsamples = 6\nvalue = [4, 6]"] ;
21 -> 22 ;
23 [label="gini = 0.5\nsamples = 3\nvalue = [2, 2]"] ;
22 -> 23 ;
24 [label="gini = 0.444\nsamples = 3\nvalue = [2, 4]"] ;
22 -> 24 ;
25 [label="X[6] <= 2.5\ngini = 0.491\nsamples = 19\nvalue = [17, 13]"] ;
21 -> 25 ;
26 [label="gini = 0.493\nsamples = 16\nvalue = [14, 11]"] ;
25 -> 26 ;
27 [label="gini = 0.48\nsamples = 3\nvalue = [3, 2]"] ;
25 -> 27 ;
28 [label="X[5] <= 0.5\ngini = 0.435\nsamples = 19\nvalue = [17, 8]"] ;
20 -> 28 ;
29 [label="X[3] <= 0.5\ngini = 0.444\nsamples = 3\nvalue = [1, 2]"] ;
28 -> 29 ;
30 [label="gini = 0.0\nsamples = 2\nvalue = [0, 2]"] ;
29 -> 30 ;
31 [label="gini = 0.0\nsamples = 1\nvalue = [1, 0]"] ;
29 -> 31 ;
32 [label="X[6] <= 2.5\ngini = 0.397\nsamples = 16\nvalue = [16, 6]"] ;
28 -> 32 ;
33 [label="gini = 0.278\nsamples = 9\nvalue = [10, 2]"] ;
32 -> 33 ;
34 [label="gini = 0.48\nsamples = 7\nvalue = [6, 4]"] ;
32 -> 34 ;
35 [label="X[0] <= 2.5\ngini = 0.165\nsamples = 37\nvalue = [5, 50]"] ;
1 -> 35 ;
36 [label="gini = 0.0\nsamples = 32\nvalue = [0, 48]"] ;
35 -> 36 ;
37 [label="X[2] <= 37.5\ngini = 0.408\nsamples = 5\nvalue = [5, 2]"] ;
35 -> 37 ;
38 [label="gini = 0.0\nsamples = 1\nvalue = [0, 2]"] ;
37 -> 38 ;
39 [label="gini = 0.0\nsamples = 4\nvalue = [5, 0]"] ;
37 -> 39 ;
40 [label="X[0] <= 1.5\ngini = 0.312\nsamples = 216\nvalue = [275, 66]"] ;
0 -> 40 [labeldistance=2.5, labelangle=-45, headlabel="False"] ;
41 [label="X[2] <= 53.0\ngini = 0.411\nsamples = 51\nvalue = [59, 24]"] ;
40 -> 41 ;
42 [label="X[6] <= 0.5\ngini = 0.483\nsamples = 39\nvalue = [35, 24]"] ;
41 -> 42 ;
43 [label="X[3] <= 0.5\ngini = 0.474\nsamples = 38\nvalue = [35, 22]"] ;
42 -> 43 ;
44 [label="X[4] <= 1.5\ngini = 0.494\nsamples = 27\nvalue = [21, 17]"] ;
43 -> 44 ;
45 [label="X[5] <= 0.5\ngini = 0.497\nsamples = 26\nvalue = [20, 17]"] ;
44 -> 45 ;
46 [label="gini = 0.473\nsamples = 9\nvalue = [5, 8]"] ;
45 -> 46 ;
47 [label="gini = 0.469\nsamples = 17\nvalue = [15, 9]"] ;
45 -> 47 ;
48 [label="gini = 0.0\nsamples = 1\nvalue = [1, 0]"] ;
44 -> 48 ;
49 [label="X[5] <= 1.5\ngini = 0.388\nsamples = 11\nvalue = [14, 5]"] ;
43 -> 49 ;
50 [label="X[5] <= 0.5\ngini = 0.401\nsamples = 10\nvalue = [13, 5]"] ;
49 -> 50 ;
51 [label="gini = 0.346\nsamples = 4\nvalue = [7, 2]"] ;
50 -> 51 ;
52 [label="gini = 0.444\nsamples = 6\nvalue = [6, 3]"] ;
50 -> 52 ;
53 [label="gini = 0.0\nsamples = 1\nvalue = [1, 0]"] ;
49 -> 53 ;
54 [label="gini = 0.0\nsamples = 1\nvalue = [0, 2]"] ;
42 -> 54 ;
55 [label="gini = 0.0\nsamples = 12\nvalue = [24, 0]"] ;
41 -> 55 ;
56 [label="X[2] <= 1.5\ngini = 0.273\nsamples = 165\nvalue = [216, 42]"] ;
40 -> 56 ;
57 [label="gini = 0.0\nsamples = 4\nvalue = [0, 6]"] ;
56 -> 57 ;
58 [label="X[4] <= 1.5\ngini = 0.245\nsamples = 161\nvalue = [216, 36]"] ;
56 -> 58 ;
59 [label="X[6] <= 0.5\ngini = 0.254\nsamples = 154\nvalue = [205, 36]"] ;
58 -> 59 ;
60 [label="X[0] <= 2.5\ngini = 0.228\nsamples = 147\nvalue = [199, 30]"] ;
59 -> 60 ;
61 [label="X[5] <= 0.5\ngini = 0.111\nsamples = 43\nvalue = [64, 4]"] ;
60 -> 61 ;
62 [label="gini = 0.0\nsamples = 3\nvalue = [5, 0]"] ;
61 -> 62 ;
63 [label="gini = 0.119\nsamples = 40\nvalue = [59, 4]"] ;
61 -> 63 ;
64 [label="X[4] <= 0.5\ngini = 0.271\nsamples = 104\nvalue = [135, 26]"] ;
60 -> 64 ;
65 [label="gini = 0.282\nsamples = 99\nvalue = [127, 26]"] ;
64 -> 65 ;
66 [label="gini = 0.0\nsamples = 5\nvalue = [8, 0]"] ;
64 -> 66 ;
67 [label="X[5] <= 1.5\ngini = 0.5\nsamples = 7\nvalue = [6, 6]"] ;
59 -> 67 ;
68 [label="X[3] <= 2.5\ngini = 0.444\nsamples = 5\nvalue = [3, 6]"] ;
67 -> 68 ;
69 [label="gini = 0.0\nsamples = 3\nvalue = [0, 6]"] ;
68 -> 69 ;
70 [label="gini = 0.0\nsamples = 2\nvalue = [3, 0]"] ;
68 -> 70 ;
71 [label="gini = 0.0\nsamples = 2\nvalue = [3, 0]"] ;
67 -> 71 ;
72 [label="gini = 0.0\nsamples = 7\nvalue = [11, 0]"] ;
58 -> 72 ;
}
