digraph Tree {
node [shape=box] ;
0 [label="X[1] <= 0.5\ngini = 0.48\nsamples = 336\nvalue = [320, 214]"] ;
1 [label="X[2] <= 12.0\ngini = 0.352\nsamples = 121\nvalue = [43, 146]"] ;
0 -> 1 [labeldistance=2.5, labelangle=45, headlabel="True"] ;
2 [label="X[4] <= 1.5\ngini = 0.5\nsamples = 15\nvalue = [11, 11]"] ;
1 -> 2 ;
3 [label="X[0] <= 2.5\ngini = 0.278\nsamples = 8\nvalue = [2, 10]"] ;
2 -> 3 ;
4 [label="gini = 0.0\nsamples = 4\nvalue = [0, 6]"] ;
3 -> 4 ;
5 [label="X[3] <= 2.5\ngini = 0.444\nsamples = 4\nvalue = [2, 4]"] ;
3 -> 5 ;
6 [label="gini = 0.0\nsamples = 3\nvalue = [0, 4]"] ;
5 -> 6 ;
7 [label="gini = 0.0\nsamples = 1\nvalue = [2, 0]"] ;
5 -> 7 ;
8 [label="X[2] <= 1.5\ngini = 0.18\nsamples = 7\nvalue = [9, 1]"] ;
2 -> 8 ;
9 [label="gini = 0.0\nsamples = 1\nvalue = [0, 1]"] ;
8 -> 9 ;
10 [label="gini = 0.0\nsamples = 6\nvalue = [9, 0]"] ;
8 -> 10 ;
11 [label="X[0] <= 2.5\ngini = 0.31\nsamples = 106\nvalue = [32, 135]"] ;
1 -> 11 ;
12 [label="X[3] <= 0.5\ngini = 0.084\nsamples = 66\nvalue = [5, 109]"] ;
11 -> 12 ;
13 [label="X[2] <= 53.5\ngini = 0.104\nsamples = 40\nvalue = [4, 69]"] ;
12 -> 13 ;
14 [label="X[0] <= 1.5\ngini = 0.081\nsamples = 38\nvalue = [3, 68]"] ;
13 -> 14 ;
15 [label="gini = 0.0\nsamples = 23\nvalue = [0, 48]"] ;
14 -> 15 ;
16 [label="X[2] <= 26.0\ngini = 0.227\nsamples = 15\nvalue = [3, 20]"] ;
14 -> 16 ;
17 [label="gini = 0.48\nsamples = 4\nvalue = [2, 3]"] ;
16 -> 17 ;
18 [label="gini = 0.105\nsamples = 11\nvalue = [1, 17]"] ;
16 -> 18 ;
19 [label="X[2] <= 57.5\ngini = 0.5\nsamples = 2\nvalue = [1, 1]"] ;
13 -> 19 ;
20 [label="gini = 0.0\nsamples = 1\nvalue = [1, 0]"] ;
19 -> 20 ;
21 [label="gini = 0.0\nsamples = 1\nvalue = [0, 1]"] ;
19 -> 21 ;
22 [label="X[2] <= 26.0\ngini = 0.048\nsamples = 26\nvalue = [1, 40]"] ;
12 -> 22 ;
23 [label="X[6] <= 2.5\ngini = 0.165\nsamples = 9\nvalue = [1, 10]"] ;
22 -> 23 ;
24 [label="gini = 0.0\nsamples = 6\nvalue = [0, 7]"] ;
23 -> 24 ;
25 [label="X[0] <= 1.5\ngini = 0.375\nsamples = 3\nvalue = [1, 3]"] ;
23 -> 25 ;
26 [label="gini = 0.444\nsamples = 2\nvalue = [1, 2]"] ;
25 -> 26 ;
27 [label="gini = 0.0\nsamples = 1\nvalue = [0, 1]"] ;
25 -> 27 ;
28 [label="gini = 0.0\nsamples = 17\nvalue = [0, 30]"] ;
22 -> 28 ;
29 [label="X[3] <= 0.5\ngini = 0.5\nsamples = 40\nvalue = [27, 26]"] ;
11 -> 29 ;
30 [label="X[5] <= 0.5\ngini = 0.453\nsamples = 21\nvalue = [9, 17]"] ;
29 -> 30 ;
31 [label="gini = 0.0\nsamples = 2\nvalue = [0, 3]"] ;
30 -> 31 ;
32 [label="X[2] <= 17.0\ngini = 0.476\nsamples = 19\nvalue = [9, 14]"] ;
30 -> 32 ;
33 [label="gini = 0.0\nsamples = 2\nvalue = [0, 4]"] ;
32 -> 33 ;
34 [label="X[5] <= 1.5\ngini = 0.499\nsamples = 17\nvalue = [9, 10]"] ;
32 -> 34 ;
35 [label="gini = 0.48\nsamples = 13\nvalue = [6, 9]"] ;
34 -> 35 ;
36 [label="gini = 0.375\nsamples = 4\nvalue = [3, 1]"] ;
34 -> 36 ;
37 [label="X[4] <= 2.5\ngini = 0.444\nsamples = 19\nvalue = [18, 9]"] ;
29 -> 37 ;
38 [label="X[2] <= 24.5\ngini = 0.476\nsamples = 17\nvalue = [14, 9]"] ;
37 -> 38 ;
39 [label="X[2] <= 22.5\ngini = 0.486\nsamples = 9\nvalue = [5, 7]"] ;
38 -> 39 ;
40 [label="gini = 0.494\nsamples = 8\nvalue = [5, 4]"] ;
39 -> 40 ;
41 [label="gini = 0.0\nsamples = 1\nvalue = [0, 3]"] ;
39 -> 41 ;
42 [label="X[2] <= 30.5\ngini = 0.298\nsamples = 8\nvalue = [9, 2]"] ;
38 -> 42 ;
43 [label="gini = 0.0\nsamples = 4\nvalue = [5, 0]"] ;
42 -> 43 ;
44 [label="gini = 0.444\nsamples = 4\nvalue = [4, 2]"] ;
42 -> 44 ;
45 [label="gini = 0.0\nsamples = 2\nvalue = [4, 0]"] ;
37 -> 45 ;
46 [label="X[6] <= 0.5\ngini = 0.317\nsamples = 215\nvalue = [277, 68]"] ;
0 -> 46 [labeldistance=2.5, labelangle=-45, headlabel="False"] ;
47 [label="X[3] <= 1.5\ngini = 0.293\nsamples = 200\nvalue = [263, 57]"] ;
46 -> 47 ;
48 [label="X[4] <= 1.5\ngini = 0.305\nsamples = 190\nvalue = [246, 57]"] ;
47 -> 48 ;
49 [label="X[0] <= 1.5\ngini = 0.293\nsamples = 183\nvalue = [240, 52]"] ;
48 -> 49 ;
50 [label="X[4] <= 0.5\ngini = 0.459\nsamples = 46\nvalue = [47, 26]"] ;
49 -> 50 ;
51 [label="X[3] <= 0.5\ngini = 0.468\nsamples = 38\nvalue = [37, 22]"] ;
50 -> 51 ;
52 [label="gini = 0.469\nsamples = 30\nvalue = [30, 18]"] ;
51 -> 52 ;
53 [label="gini = 0.463\nsamples = 8\nvalue = [7, 4]"] ;
51 -> 53 ;
54 [label="X[5] <= 0.5\ngini = 0.408\nsamples = 8\nvalue = [10, 4]"] ;
50 -> 54 ;
55 [label="gini = 0.278\nsamples = 4\nvalue = [5, 1]"] ;
54 -> 55 ;
56 [label="gini = 0.469\nsamples = 4\nvalue = [5, 3]"] ;
54 -> 56 ;
57 [label="X[5] <= 0.5\ngini = 0.209\nsamples = 137\nvalue = [193, 26]"] ;
49 -> 57 ;
58 [label="X[2] <= 26.5\ngini = 0.444\nsamples = 13\nvalue = [14, 7]"] ;
57 -> 58 ;
59 [label="gini = 0.497\nsamples = 9\nvalue = [7, 6]"] ;
58 -> 59 ;
60 [label="gini = 0.219\nsamples = 4\nvalue = [7, 1]"] ;
58 -> 60 ;
61 [label="X[4] <= 0.5\ngini = 0.174\nsamples = 124\nvalue = [179, 19]"] ;
57 -> 61 ;
62 [label="gini = 0.178\nsamples = 120\nvalue = [173, 19]"] ;
61 -> 62 ;
63 [label="gini = 0.0\nsamples = 4\nvalue = [6, 0]"] ;
61 -> 63 ;
64 [label="X[0] <= 1.5\ngini = 0.496\nsamples = 7\nvalue = [6, 5]"] ;
48 -> 64 ;
65 [label="X[3] <= 0.5\ngini = 0.494\nsamples = 5\nvalue = [4, 5]"] ;
64 -> 65 ;
66 [label="X[2] <= 22.0\ngini = 0.375\nsamples = 3\nvalue = [3, 1]"] ;
65 -> 66 ;
67 [label="gini = 0.0\nsamples = 1\nvalue = [0, 1]"] ;
66 -> 67 ;
68 [label="gini = 0.0\nsamples = 2\nvalue = [3, 0]"] ;
66 -> 68 ;
69 [label="X[4] <= 3.0\ngini = 0.32\nsamples = 2\nvalue = [1, 4]"] ;
65 -> 69 ;
70 [label="gini = 0.0\nsamples = 1\nvalue = [0, 4]"] ;
69 -> 70 ;
71 [label="gini = 0.0\nsamples = 1\nvalue = [1, 0]"] ;
69 -> 71 ;
72 [label="gini = 0.0\nsamples = 2\nvalue = [2, 0]"] ;
64 -> 72 ;
73 [label="gini = 0.0\nsamples = 10\nvalue = [17, 0]"] ;
47 -> 73 ;
74 [label="X[0] <= 2.5\ngini = 0.493\nsamples = 15\nvalue = [14, 11]"] ;
46 -> 74 ;
75 [label="gini = 0.0\nsamples = 5\nvalue = [0, 8]"] ;
74 -> 75 ;
76 [label="X[2] <= 5.5\ngini = 0.291\nsamples = 10\nvalue = [14, 3]"] ;
74 -> 76 ;
77 [label="X[2] <= 0.5\ngini = 0.5\nsamples = 6\nvalue = [3, 3]"] ;
76 -> 77 ;
78 [label="gini = 0.0\nsamples = 1\nvalue = [0, 1]"] ;
77 -> 78 ;
79 [label="X[3] <= 2.0\ngini = 0.48\nsamples = 5\nvalue = [3, 2]"] ;
77 -> 79 ;
80 [label="gini = 0.0\nsamples = 2\nvalue = [0, 2]"] ;
79 -> 80 ;
81 [label="gini = 0.0\nsamples = 3\nvalue = [3, 0]"] ;
79 -> 81 ;
82 [label="gini = 0.0\nsamples = 4\nvalue = [11, 0]"] ;
76 -> 82 ;
}
