digraph Tree {
node [shape=box] ;
0 [label="X[6] <= 1.5\ngini = 0.49\nsamples = 348\nvalue = [304, 230]"] ;
1 [label="X[5] <= 0.5\ngini = 0.327\nsamples = 214\nvalue = [251, 65]"] ;
0 -> 1 [labeldistance=2.5, labelangle=45, headlabel="True"] ;
2 [label="X[2] <= 21.0\ngini = 0.471\nsamples = 29\nvalue = [31, 19]"] ;
1 -> 2 ;
3 [label="X[3] <= 0.5\ngini = 0.346\nsamples = 6\nvalue = [2, 7]"] ;
2 -> 3 ;
4 [label="X[4] <= 1.0\ngini = 0.278\nsamples = 4\nvalue = [1, 5]"] ;
3 -> 4 ;
5 [label="gini = 0.444\nsamples = 2\nvalue = [1, 2]"] ;
4 -> 5 ;
6 [label="gini = 0.0\nsamples = 2\nvalue = [0, 3]"] ;
4 -> 6 ;
7 [label="X[2] <= 18.5\ngini = 0.444\nsamples = 2\nvalue = [1, 2]"] ;
3 -> 7 ;
8 [label="gini = 0.0\nsamples = 1\nvalue = [1, 0]"] ;
7 -> 8 ;
9 [label="gini = 0.0\nsamples = 1\nvalue = [0, 2]"] ;
7 -> 9 ;
10 [label="X[3] <= 0.5\ngini = 0.414\nsamples = 23\nvalue = [29, 12]"] ;
2 -> 10 ;
11 [label="X[0] <= 1.5\ngini = 0.389\nsamples = 19\nvalue = [25, 9]"] ;
10 -> 11 ;
12 [label="X[2] <= 45.5\ngini = 0.444\nsamples = 13\nvalue = [14, 7]"] ;
11 -> 12 ;
13 [label="X[2] <= 27.0\ngini = 0.486\nsamples = 8\nvalue = [5, 7]"] ;
12 -> 13 ;
14 [label="gini = 0.0\nsamples = 1\nvalue = [2, 0]"] ;
13 -> 14 ;
15 [label="gini = 0.42\nsamples = 7\nvalue = [3, 7]"] ;
13 -> 15 ;
16 [label="gini = 0.0\nsamples = 5\nvalue = [9, 0]"] ;
12 -> 16 ;
17 [label="X[0] <= 2.5\ngini = 0.26\nsamples = 6\nvalue = [11, 2]"] ;
11 -> 17 ;
18 [label="gini = 0.0\nsamples = 1\nvalue = [2, 0]"] ;
17 -> 18 ;
19 [label="X[2] <= 28.0\ngini = 0.298\nsamples = 5\nvalue = [9, 2]"] ;
17 -> 19 ;
20 [label="gini = 0.0\nsamples = 2\nvalue = [0, 2]"] ;
19 -> 20 ;
21 [label="gini = 0.0\nsamples = 3\nvalue = [9, 0]"] ;
19 -> 21 ;
22 [label="X[0] <= 2.0\ngini = 0.49\nsamples = 4\nvalue = [4, 3]"] ;
10 -> 22 ;
23 [label="X[2] <= 38.0\ngini = 0.375\nsamples = 3\nvalue = [1, 3]"] ;
22 -> 23 ;
24 [label="gini = 0.0\nsamples = 1\nvalue = [1, 0]"] ;
23 -> 24 ;
25 [label="gini = 0.0\nsamples = 2\nvalue = [0, 3]"] ;
23 -> 25 ;
26 [label="gini = 0.0\nsamples = 1\nvalue = [3, 0]"] ;
22 -> 26 ;
27 [label="X[2] <= 0.5\ngini = 0.286\nsamples = 185\nvalue = [220, 46]"] ;
1 -> 27 ;
28 [label="gini = 0.0\nsamples = 3\nvalue = [0, 4]"] ;
27 -> 28 ;
29 [label="X[0] <= 1.5\ngini = 0.269\nsamples = 182\nvalue = [220, 42]"] ;
27 -> 29 ;
30 [label="X[4] <= 0.5\ngini = 0.397\nsamples = 38\nvalue = [40, 15]"] ;
29 -> 30 ;
31 [label="X[3] <= 1.5\ngini = 0.418\nsamples = 32\nvalue = [33, 14]"] ;
30 -> 31 ;
32 [label="X[2] <= 53.0\ngini = 0.397\nsamples = 30\nvalue = [32, 12]"] ;
31 -> 32 ;
33 [label="gini = 0.48\nsamples = 21\nvalue = [18, 12]"] ;
32 -> 33 ;
34 [label="gini = 0.0\nsamples = 9\nvalue = [14, 0]"] ;
32 -> 34 ;
35 [label="X[5] <= 1.5\ngini = 0.444\nsamples = 2\nvalue = [1, 2]"] ;
31 -> 35 ;
36 [label="gini = 0.0\nsamples = 1\nvalue = [0, 2]"] ;
35 -> 36 ;
37 [label="gini = 0.0\nsamples = 1\nvalue = [1, 0]"] ;
35 -> 37 ;
38 [label="X[2] <= 37.0\ngini = 0.219\nsamples = 6\nvalue = [7, 1]"] ;
30 -> 38 ;
39 [label="X[3] <= 2.0\ngini = 0.444\nsamples = 2\nvalue = [2, 1]"] ;
38 -> 39 ;
40 [label="gini = 0.0\nsamples = 1\nvalue = [0, 1]"] ;
39 -> 40 ;
41 [label="gini = 0.0\nsamples = 1\nvalue = [2, 0]"] ;
39 -> 41 ;
42 [label="gini = 0.0\nsamples = 4\nvalue = [5, 0]"] ;
38 -> 42 ;
43 [label="X[2] <= 8.5\ngini = 0.227\nsamples = 144\nvalue = [180, 27]"] ;
29 -> 43 ;
44 [label="X[2] <= 7.5\ngini = 0.444\nsamples = 10\nvalue = [10, 5]"] ;
43 -> 44 ;
45 [label="X[0] <= 2.5\ngini = 0.355\nsamples = 9\nvalue = [10, 3]"] ;
44 -> 45 ;
46 [label="gini = 0.0\nsamples = 2\nvalue = [0, 2]"] ;
45 -> 46 ;
47 [label="gini = 0.165\nsamples = 7\nvalue = [10, 1]"] ;
45 -> 47 ;
48 [label="gini = 0.0\nsamples = 1\nvalue = [0, 2]"] ;
44 -> 48 ;
49 [label="X[4] <= 0.5\ngini = 0.203\nsamples = 134\nvalue = [170, 22]"] ;
43 -> 49 ;
50 [label="X[2] <= 26.5\ngini = 0.221\nsamples = 123\nvalue = [152, 22]"] ;
49 -> 50 ;
51 [label="gini = 0.112\nsamples = 56\nvalue = [79, 5]"] ;
50 -> 51 ;
52 [label="gini = 0.306\nsamples = 67\nvalue = [73, 17]"] ;
50 -> 52 ;
53 [label="gini = 0.0\nsamples = 11\nvalue = [18, 0]"] ;
49 -> 53 ;
54 [label="X[5] <= 0.5\ngini = 0.368\nsamples = 134\nvalue = [53, 165]"] ;
0 -> 54 [labeldistance=2.5, labelangle=-45, headlabel="False"] ;
55 [label="X[2] <= 18.5\ngini = 0.08\nsamples = 31\nvalue = [2, 46]"] ;
54 -> 55 ;
56 [label="X[0] <= 2.5\ngini = 0.18\nsamples = 11\nvalue = [2, 18]"] ;
55 -> 56 ;
57 [label="gini = 0.0\nsamples = 5\nvalue = [0, 9]"] ;
56 -> 57 ;
58 [label="X[2] <= 16.0\ngini = 0.298\nsamples = 6\nvalue = [2, 9]"] ;
56 -> 58 ;
59 [label="X[2] <= 7.0\ngini = 0.18\nsamples = 5\nvalue = [1, 9]"] ;
58 -> 59 ;
60 [label="gini = 0.0\nsamples = 2\nvalue = [0, 6]"] ;
59 -> 60 ;
61 [label="X[3] <= 0.5\ngini = 0.375\nsamples = 3\nvalue = [1, 3]"] ;
59 -> 61 ;
62 [label="gini = 0.0\nsamples = 1\nvalue = [0, 2]"] ;
61 -> 62 ;
63 [label="gini = 0.5\nsamples = 2\nvalue = [1, 1]"] ;
61 -> 63 ;
64 [label="gini = 0.0\nsamples = 1\nvalue = [1, 0]"] ;
58 -> 64 ;
65 [label="gini = 0.0\nsamples = 20\nvalue = [0, 28]"] ;
55 -> 65 ;
66 [label="X[4] <= 2.5\ngini = 0.42\nsamples = 103\nvalue = [51, 119]"] ;
54 -> 66 ;
67 [label="X[2] <= 21.5\ngini = 0.383\nsamples = 98\nvalue = [41, 118]"] ;
66 -> 67 ;
68 [label="X[3] <= 1.5\ngini = 0.496\nsamples = 33\nvalue = [26, 31]"] ;
67 -> 68 ;
69 [label="X[2] <= 17.0\ngini = 0.463\nsamples = 24\nvalue = [16, 28]"] ;
68 -> 69 ;
70 [label="X[4] <= 1.5\ngini = 0.266\nsamples = 12\nvalue = [3, 16]"] ;
69 -> 70 ;
71 [label="gini = 0.124\nsamples = 9\nvalue = [1, 14]"] ;
70 -> 71 ;
72 [label="gini = 0.5\nsamples = 3\nvalue = [2, 2]"] ;
70 -> 72 ;
73 [label="X[4] <= 0.5\ngini = 0.499\nsamples = 12\nvalue = [13, 12]"] ;
69 -> 73 ;
74 [label="gini = 0.483\nsamples = 10\nvalue = [13, 9]"] ;
73 -> 74 ;
75 [label="gini = 0.0\nsamples = 2\nvalue = [0, 3]"] ;
73 -> 75 ;
76 [label="X[2] <= 13.0\ngini = 0.355\nsamples = 9\nvalue = [10, 3]"] ;
68 -> 76 ;
77 [label="X[3] <= 3.5\ngini = 0.198\nsamples = 6\nvalue = [8, 1]"] ;
76 -> 77 ;
78 [label="gini = 0.0\nsamples = 2\nvalue = [2, 0]"] ;
77 -> 78 ;
79 [label="gini = 0.245\nsamples = 4\nvalue = [6, 1]"] ;
77 -> 79 ;
80 [label="X[3] <= 3.0\ngini = 0.5\nsamples = 3\nvalue = [2, 2]"] ;
76 -> 80 ;
81 [label="gini = 0.0\nsamples = 2\nvalue = [2, 0]"] ;
80 -> 81 ;
82 [label="gini = 0.0\nsamples = 1\nvalue = [0, 2]"] ;
80 -> 82 ;
83 [label="X[5] <= 1.5\ngini = 0.251\nsamples = 65\nvalue = [15, 87]"] ;
67 -> 83 ;
84 [label="X[6] <= 2.5\ngini = 0.23\nsamples = 63\nvalue = [13, 85]"] ;
83 -> 84 ;
85 [label="X[0] <= 2.5\ngini = 0.305\nsamples = 29\nvalue = [9, 39]"] ;
84 -> 85 ;
86 [label="gini = 0.18\nsamples = 16\nvalue = [3, 27]"] ;
85 -> 86 ;
87 [label="gini = 0.444\nsamples = 13\nvalue = [6, 12]"] ;
85 -> 87 ;
88 [label="X[2] <= 56.0\ngini = 0.147\nsamples = 34\nvalue = [4, 46]"] ;
84 -> 88 ;
89 [label="gini = 0.115\nsamples = 33\nvalue = [3, 46]"] ;
88 -> 89 ;
90 [label="gini = 0.0\nsamples = 1\nvalue = [1, 0]"] ;
88 -> 90 ;
91 [label="X[0] <= 2.0\ngini = 0.5\nsamples = 2\nvalue = [2, 2]"] ;
83 -> 91 ;
92 [label="gini = 0.0\nsamples = 1\nvalue = [0, 2]"] ;
91 -> 92 ;
93 [label="gini = 0.0\nsamples = 1\nvalue = [2, 0]"] ;
91 -> 93 ;
94 [label="X[4] <= 3.5\ngini = 0.165\nsamples = 5\nvalue = [10, 1]"] ;
66 -> 94 ;
95 [label="X[0] <= 2.5\ngini = 0.375\nsamples = 2\nvalue = [3, 1]"] ;
94 -> 95 ;
96 [label="gini = 0.0\nsamples = 1\nvalue = [0, 1]"] ;
95 -> 96 ;
97 [label="gini = 0.0\nsamples = 1\nvalue = [3, 0]"] ;
95 -> 97 ;
98 [label="gini = 0.0\nsamples = 3\nvalue = [7, 0]"] ;
94 -> 98 ;
}
