digraph Tree {
node [shape=box] ;
0 [label="X[6] <= 1.5\ngini = 0.472\nsamples = 338\nvalue = [330, 204]"] ;
1 [label="X[6] <= 0.5\ngini = 0.319\nsamples = 215\nvalue = [278, 69]"] ;
0 -> 1 [labeldistance=2.5, labelangle=45, headlabel="True"] ;
2 [label="X[2] <= 26.5\ngini = 0.289\nsamples = 195\nvalue = [259, 55]"] ;
1 -> 2 ;
3 [label="X[5] <= 0.5\ngini = 0.113\nsamples = 70\nvalue = [109, 7]"] ;
2 -> 3 ;
4 [label="X[4] <= 0.5\ngini = 0.375\nsamples = 9\nvalue = [9, 3]"] ;
3 -> 4 ;
5 [label="X[3] <= 0.5\ngini = 0.408\nsamples = 6\nvalue = [5, 2]"] ;
4 -> 5 ;
6 [label="X[2] <= 22.5\ngini = 0.278\nsamples = 5\nvalue = [5, 1]"] ;
5 -> 6 ;
7 [label="gini = 0.5\nsamples = 2\nvalue = [1, 1]"] ;
6 -> 7 ;
8 [label="gini = 0.0\nsamples = 3\nvalue = [4, 0]"] ;
6 -> 8 ;
9 [label="gini = 0.0\nsamples = 1\nvalue = [0, 1]"] ;
5 -> 9 ;
10 [label="X[3] <= 0.5\ngini = 0.32\nsamples = 3\nvalue = [4, 1]"] ;
4 -> 10 ;
11 [label="gini = 0.0\nsamples = 1\nvalue = [2, 0]"] ;
10 -> 11 ;
12 [label="X[2] <= 18.5\ngini = 0.444\nsamples = 2\nvalue = [2, 1]"] ;
10 -> 12 ;
13 [label="gini = 0.0\nsamples = 1\nvalue = [2, 0]"] ;
12 -> 13 ;
14 [label="gini = 0.0\nsamples = 1\nvalue = [0, 1]"] ;
12 -> 14 ;
15 [label="X[3] <= 0.5\ngini = 0.074\nsamples = 61\nvalue = [100, 4]"] ;
3 -> 15 ;
16 [label="X[0] <= 1.5\ngini = 0.092\nsamples = 49\nvalue = [79, 4]"] ;
15 -> 16 ;
17 [label="gini = 0.0\nsamples = 1\nvalue = [4, 0]"] ;
16 -> 17 ;
18 [label="X[5] <= 1.5\ngini = 0.096\nsamples = 48\nvalue = [75, 4]"] ;
16 -> 18 ;
19 [label="gini = 0.098\nsamples = 46\nvalue = [73, 4]"] ;
18 -> 19 ;
20 [label="gini = 0.0\nsamples = 2\nvalue = [2, 0]"] ;
18 -> 20 ;
21 [label="gini = 0.0\nsamples = 12\nvalue = [21, 0]"] ;
15 -> 21 ;
22 [label="X[0] <= 1.5\ngini = 0.367\nsamples = 125\nvalue = [150, 48]"] ;
2 -> 22 ;
23 [label="X[4] <= 0.5\ngini = 0.476\nsamples = 45\nvalue = [42, 27]"] ;
22 -> 23 ;
24 [label="X[2] <= 54.0\ngini = 0.497\nsamples = 36\nvalue = [29, 25]"] ;
23 -> 24 ;
25 [label="X[3] <= 0.5\ngini = 0.493\nsamples = 27\nvalue = [18, 23]"] ;
24 -> 25 ;
26 [label="gini = 0.393\nsamples = 16\nvalue = [7, 19]"] ;
25 -> 26 ;
27 [label="gini = 0.391\nsamples = 11\nvalue = [11, 4]"] ;
25 -> 27 ;
28 [label="X[5] <= 0.5\ngini = 0.26\nsamples = 9\nvalue = [11, 2]"] ;
24 -> 28 ;
29 [label="gini = 0.0\nsamples = 3\nvalue = [5, 0]"] ;
28 -> 29 ;
30 [label="gini = 0.375\nsamples = 6\nvalue = [6, 2]"] ;
28 -> 30 ;
31 [label="X[4] <= 1.5\ngini = 0.231\nsamples = 9\nvalue = [13, 2]"] ;
23 -> 31 ;
32 [label="X[2] <= 37.5\ngini = 0.278\nsamples = 6\nvalue = [10, 2]"] ;
31 -> 32 ;
33 [label="gini = 0.0\nsamples = 1\nvalue = [0, 2]"] ;
32 -> 33 ;
34 [label="gini = 0.0\nsamples = 5\nvalue = [10, 0]"] ;
32 -> 34 ;
35 [label="gini = 0.0\nsamples = 3\nvalue = [3, 0]"] ;
31 -> 35 ;
36 [label="X[0] <= 2.5\ngini = 0.273\nsamples = 80\nvalue = [108, 21]"] ;
22 -> 36 ;
37 [label="X[4] <= 1.0\ngini = 0.19\nsamples = 27\nvalue = [42, 5]"] ;
36 -> 37 ;
38 [label="X[5] <= 1.5\ngini = 0.194\nsamples = 26\nvalue = [41, 5]"] ;
37 -> 38 ;
39 [label="gini = 0.206\nsamples = 25\nvalue = [38, 5]"] ;
38 -> 39 ;
40 [label="gini = 0.0\nsamples = 1\nvalue = [3, 0]"] ;
38 -> 40 ;
41 [label="gini = 0.0\nsamples = 1\nvalue = [1, 0]"] ;
37 -> 41 ;
42 [label="X[5] <= 1.5\ngini = 0.314\nsamples = 53\nvalue = [66, 16]"] ;
36 -> 42 ;
43 [label="X[2] <= 27.5\ngini = 0.295\nsamples = 51\nvalue = [64, 14]"] ;
42 -> 43 ;
44 [label="gini = 0.245\nsamples = 4\nvalue = [1, 6]"] ;
43 -> 44 ;
45 [label="gini = 0.2\nsamples = 47\nvalue = [63, 8]"] ;
43 -> 45 ;
46 [label="X[2] <= 49.5\ngini = 0.5\nsamples = 2\nvalue = [2, 2]"] ;
42 -> 46 ;
47 [label="gini = 0.0\nsamples = 1\nvalue = [0, 2]"] ;
46 -> 47 ;
48 [label="gini = 0.0\nsamples = 1\nvalue = [2, 0]"] ;
46 -> 48 ;
49 [label="X[3] <= 2.0\ngini = 0.489\nsamples = 20\nvalue = [19, 14]"] ;
1 -> 49 ;
50 [label="gini = 0.0\nsamples = 9\nvalue = [0, 14]"] ;
49 -> 50 ;
51 [label="gini = 0.0\nsamples = 11\nvalue = [19, 0]"] ;
49 -> 51 ;
52 [label="X[4] <= 2.5\ngini = 0.401\nsamples = 123\nvalue = [52, 135]"] ;
0 -> 52 [labeldistance=2.5, labelangle=-45, headlabel="False"] ;
53 [label="X[0] <= 2.5\ngini = 0.372\nsamples = 118\nvalue = [44, 134]"] ;
52 -> 53 ;
54 [label="X[5] <= 0.5\ngini = 0.072\nsamples = 75\nvalue = [4, 103]"] ;
53 -> 54 ;
55 [label="gini = 0.0\nsamples = 25\nvalue = [0, 34]"] ;
54 -> 55 ;
56 [label="X[0] <= 1.5\ngini = 0.104\nsamples = 50\nvalue = [4, 69]"] ;
54 -> 56 ;
57 [label="X[3] <= 0.5\ngini = 0.054\nsamples = 25\nvalue = [1, 35]"] ;
56 -> 57 ;
58 [label="gini = 0.0\nsamples = 16\nvalue = [0, 25]"] ;
57 -> 58 ;
59 [label="X[5] <= 1.5\ngini = 0.165\nsamples = 9\nvalue = [1, 10]"] ;
57 -> 59 ;
60 [label="gini = 0.18\nsamples = 8\nvalue = [1, 9]"] ;
59 -> 60 ;
61 [label="gini = 0.0\nsamples = 1\nvalue = [0, 1]"] ;
59 -> 61 ;
62 [label="X[3] <= 0.5\ngini = 0.149\nsamples = 25\nvalue = [3, 34]"] ;
56 -> 62 ;
63 [label="X[4] <= 0.5\ngini = 0.204\nsamples = 16\nvalue = [3, 23]"] ;
62 -> 63 ;
64 [label="gini = 0.255\nsamples = 12\nvalue = [3, 17]"] ;
63 -> 64 ;
65 [label="gini = 0.0\nsamples = 4\nvalue = [0, 6]"] ;
63 -> 65 ;
66 [label="gini = 0.0\nsamples = 9\nvalue = [0, 11]"] ;
62 -> 66 ;
67 [label="X[6] <= 2.5\ngini = 0.492\nsamples = 43\nvalue = [40, 31]"] ;
53 -> 67 ;
68 [label="X[3] <= 0.5\ngini = 0.473\nsamples = 33\nvalue = [32, 20]"] ;
67 -> 68 ;
69 [label="X[5] <= 1.5\ngini = 0.498\nsamples = 20\nvalue = [16, 14]"] ;
68 -> 69 ;
70 [label="X[5] <= 0.5\ngini = 0.497\nsamples = 16\nvalue = [14, 12]"] ;
69 -> 70 ;
71 [label="gini = 0.5\nsamples = 2\nvalue = [1, 1]"] ;
70 -> 71 ;
72 [label="gini = 0.497\nsamples = 14\nvalue = [13, 11]"] ;
70 -> 72 ;
73 [label="X[2] <= 17.0\ngini = 0.5\nsamples = 4\nvalue = [2, 2]"] ;
69 -> 73 ;
74 [label="gini = 0.0\nsamples = 2\nvalue = [0, 2]"] ;
73 -> 74 ;
75 [label="gini = 0.0\nsamples = 2\nvalue = [2, 0]"] ;
73 -> 75 ;
76 [label="X[3] <= 1.5\ngini = 0.397\nsamples = 13\nvalue = [16, 6]"] ;
68 -> 76 ;
77 [label="X[2] <= 17.5\ngini = 0.245\nsamples = 5\nvalue = [6, 1]"] ;
76 -> 77 ;
78 [label="gini = 0.444\nsamples = 3\nvalue = [2, 1]"] ;
77 -> 78 ;
79 [label="gini = 0.0\nsamples = 2\nvalue = [4, 0]"] ;
77 -> 79 ;
80 [label="X[2] <= 7.0\ngini = 0.444\nsamples = 8\nvalue = [10, 5]"] ;
76 -> 80 ;
81 [label="gini = 0.494\nsamples = 5\nvalue = [4, 5]"] ;
80 -> 81 ;
82 [label="gini = 0.0\nsamples = 3\nvalue = [6, 0]"] ;
80 -> 82 ;
83 [label="X[3] <= 0.5\ngini = 0.488\nsamples = 10\nvalue = [8, 11]"] ;
67 -> 83 ;
84 [label="gini = 0.0\nsamples = 4\nvalue = [0, 8]"] ;
83 -> 84 ;
85 [label="X[4] <= 0.5\ngini = 0.397\nsamples = 6\nvalue = [8, 3]"] ;
83 -> 85 ;
86 [label="X[2] <= 33.5\ngini = 0.245\nsamples = 4\nvalue = [6, 1]"] ;
85 -> 86 ;
87 [label="gini = 0.0\nsamples = 2\nvalue = [3, 0]"] ;
86 -> 87 ;
88 [label="gini = 0.375\nsamples = 2\nvalue = [3, 1]"] ;
86 -> 88 ;
89 [label="X[5] <= 1.5\ngini = 0.5\nsamples = 2\nvalue = [2, 2]"] ;
85 -> 89 ;
90 [label="gini = 0.0\nsamples = 1\nvalue = [0, 2]"] ;
89 -> 90 ;
91 [label="gini = 0.0\nsamples = 1\nvalue = [2, 0]"] ;
89 -> 91 ;
92 [label="X[0] <= 2.5\ngini = 0.198\nsamples = 5\nvalue = [8, 1]"] ;
52 -> 92 ;
93 [label="gini = 0.0\nsamples = 1\nvalue = [0, 1]"] ;
92 -> 93 ;
94 [label="gini = 0.0\nsamples = 4\nvalue = [8, 0]"] ;
92 -> 94 ;
}
