digraph Tree {
node [shape=box] ;
0 [label="X[6] <= 1.5\ngini = 0.485\nsamples = 337\nvalue = [314, 220]"] ;
1 [label="X[5] <= 0.5\ngini = 0.322\nsamples = 206\nvalue = [265, 67]"] ;
0 -> 1 [labeldistance=2.5, labelangle=45, headlabel="True"] ;
2 [label="X[6] <= 0.5\ngini = 0.473\nsamples = 31\nvalue = [32, 20]"] ;
1 -> 2 ;
3 [label="X[3] <= 0.5\ngini = 0.468\nsamples = 30\nvalue = [32, 19]"] ;
2 -> 3 ;
4 [label="X[4] <= 0.5\ngini = 0.484\nsamples = 23\nvalue = [23, 16]"] ;
3 -> 4 ;
5 [label="X[0] <= 1.5\ngini = 0.499\nsamples = 19\nvalue = [13, 14]"] ;
4 -> 5 ;
6 [label="X[2] <= 48.0\ngini = 0.463\nsamples = 8\nvalue = [4, 7]"] ;
5 -> 6 ;
7 [label="gini = 0.346\nsamples = 6\nvalue = [2, 7]"] ;
6 -> 7 ;
8 [label="gini = 0.0\nsamples = 2\nvalue = [2, 0]"] ;
6 -> 8 ;
9 [label="X[2] <= 27.0\ngini = 0.492\nsamples = 11\nvalue = [9, 7]"] ;
5 -> 9 ;
10 [label="gini = 0.42\nsamples = 6\nvalue = [3, 7]"] ;
9 -> 10 ;
11 [label="gini = 0.0\nsamples = 5\nvalue = [6, 0]"] ;
9 -> 11 ;
12 [label="X[4] <= 1.5\ngini = 0.278\nsamples = 4\nvalue = [10, 2]"] ;
4 -> 12 ;
13 [label="gini = 0.0\nsamples = 3\nvalue = [10, 0]"] ;
12 -> 13 ;
14 [label="gini = 0.0\nsamples = 1\nvalue = [0, 2]"] ;
12 -> 14 ;
15 [label="X[0] <= 1.5\ngini = 0.375\nsamples = 7\nvalue = [9, 3]"] ;
3 -> 15 ;
16 [label="X[2] <= 26.5\ngini = 0.42\nsamples = 5\nvalue = [7, 3]"] ;
15 -> 16 ;
17 [label="gini = 0.0\nsamples = 1\nvalue = [0, 1]"] ;
16 -> 17 ;
18 [label="X[4] <= 0.5\ngini = 0.346\nsamples = 4\nvalue = [7, 2]"] ;
16 -> 18 ;
19 [label="gini = 0.408\nsamples = 3\nvalue = [5, 2]"] ;
18 -> 19 ;
20 [label="gini = 0.0\nsamples = 1\nvalue = [2, 0]"] ;
18 -> 20 ;
21 [label="gini = 0.0\nsamples = 2\nvalue = [2, 0]"] ;
15 -> 21 ;
22 [label="gini = 0.0\nsamples = 1\nvalue = [0, 1]"] ;
2 -> 22 ;
23 [label="X[0] <= 2.5\ngini = 0.279\nsamples = 175\nvalue = [233, 47]"] ;
1 -> 23 ;
24 [label="X[6] <= 0.5\ngini = 0.37\nsamples = 70\nvalue = [80, 26]"] ;
23 -> 24 ;
25 [label="X[2] <= 36.5\ngini = 0.289\nsamples = 63\nvalue = [80, 17]"] ;
24 -> 25 ;
26 [label="X[2] <= 34.5\ngini = 0.366\nsamples = 37\nvalue = [41, 13]"] ;
25 -> 26 ;
27 [label="X[3] <= 1.5\ngini = 0.282\nsamples = 31\nvalue = [39, 8]"] ;
26 -> 27 ;
28 [label="gini = 0.326\nsamples = 27\nvalue = [31, 8]"] ;
27 -> 28 ;
29 [label="gini = 0.0\nsamples = 4\nvalue = [8, 0]"] ;
27 -> 29 ;
30 [label="X[0] <= 1.5\ngini = 0.408\nsamples = 6\nvalue = [2, 5]"] ;
26 -> 30 ;
31 [label="gini = 0.0\nsamples = 4\nvalue = [0, 5]"] ;
30 -> 31 ;
32 [label="gini = 0.0\nsamples = 2\nvalue = [2, 0]"] ;
30 -> 32 ;
33 [label="X[4] <= 0.5\ngini = 0.169\nsamples = 26\nvalue = [39, 4]"] ;
25 -> 33 ;
34 [label="X[5] <= 1.5\ngini = 0.188\nsamples = 23\nvalue = [34, 4]"] ;
33 -> 34 ;
35 [label="gini = 0.193\nsamples = 22\nvalue = [33, 4]"] ;
34 -> 35 ;
36 [label="gini = 0.0\nsamples = 1\nvalue = [1, 0]"] ;
34 -> 36 ;
37 [label="gini = 0.0\nsamples = 3\nvalue = [5, 0]"] ;
33 -> 37 ;
38 [label="gini = 0.0\nsamples = 7\nvalue = [0, 9]"] ;
24 -> 38 ;
39 [label="X[2] <= 32.5\ngini = 0.212\nsamples = 105\nvalue = [153, 21]"] ;
23 -> 39 ;
40 [label="X[4] <= 1.5\ngini = 0.258\nsamples = 74\nvalue = [106, 19]"] ;
39 -> 40 ;
41 [label="X[5] <= 1.5\ngini = 0.27\nsamples = 69\nvalue = [99, 19]"] ;
40 -> 41 ;
42 [label="X[3] <= 1.5\ngini = 0.245\nsamples = 67\nvalue = [96, 16]"] ;
41 -> 42 ;
43 [label="gini = 0.267\nsamples = 61\nvalue = [85, 16]"] ;
42 -> 43 ;
44 [label="gini = 0.0\nsamples = 6\nvalue = [11, 0]"] ;
42 -> 44 ;
45 [label="X[4] <= 0.5\ngini = 0.5\nsamples = 2\nvalue = [3, 3]"] ;
41 -> 45 ;
46 [label="gini = 0.0\nsamples = 1\nvalue = [0, 3]"] ;
45 -> 46 ;
47 [label="gini = 0.0\nsamples = 1\nvalue = [3, 0]"] ;
45 -> 47 ;
48 [label="gini = 0.0\nsamples = 5\nvalue = [7, 0]"] ;
40 -> 48 ;
49 [label="X[5] <= 1.5\ngini = 0.078\nsamples = 31\nvalue = [47, 2]"] ;
39 -> 49 ;
50 [label="X[4] <= 0.5\ngini = 0.081\nsamples = 29\nvalue = [45, 2]"] ;
49 -> 50 ;
51 [label="X[2] <= 38.5\ngini = 0.093\nsamples = 26\nvalue = [39, 2]"] ;
50 -> 51 ;
52 [label="gini = 0.0\nsamples = 13\nvalue = [20, 0]"] ;
51 -> 52 ;
53 [label="gini = 0.172\nsamples = 13\nvalue = [19, 2]"] ;
51 -> 53 ;
54 [label="gini = 0.0\nsamples = 3\nvalue = [6, 0]"] ;
50 -> 54 ;
55 [label="gini = 0.0\nsamples = 2\nvalue = [2, 0]"] ;
49 -> 55 ;
56 [label="X[4] <= 3.5\ngini = 0.367\nsamples = 131\nvalue = [49, 153]"] ;
0 -> 56 [labeldistance=2.5, labelangle=-45, headlabel="False"] ;
57 [label="X[2] <= 32.5\ngini = 0.324\nsamples = 126\nvalue = [39, 153]"] ;
56 -> 57 ;
58 [label="X[4] <= 0.5\ngini = 0.389\nsamples = 90\nvalue = [36, 100]"] ;
57 -> 58 ;
59 [label="X[6] <= 2.5\ngini = 0.337\nsamples = 54\nvalue = [18, 66]"] ;
58 -> 59 ;
60 [label="X[0] <= 2.5\ngini = 0.392\nsamples = 39\nvalue = [15, 41]"] ;
59 -> 60 ;
61 [label="gini = 0.0\nsamples = 16\nvalue = [0, 21]"] ;
60 -> 61 ;
62 [label="X[2] <= 16.5\ngini = 0.49\nsamples = 23\nvalue = [15, 20]"] ;
60 -> 62 ;
63 [label="gini = 0.0\nsamples = 6\nvalue = [0, 7]"] ;
62 -> 63 ;
64 [label="gini = 0.497\nsamples = 17\nvalue = [15, 13]"] ;
62 -> 64 ;
65 [label="X[0] <= 1.5\ngini = 0.191\nsamples = 15\nvalue = [3, 25]"] ;
59 -> 65 ;
66 [label="gini = 0.0\nsamples = 5\nvalue = [0, 10]"] ;
65 -> 66 ;
67 [label="X[0] <= 2.5\ngini = 0.278\nsamples = 10\nvalue = [3, 15]"] ;
65 -> 67 ;
68 [label="gini = 0.355\nsamples = 8\nvalue = [3, 10]"] ;
67 -> 68 ;
69 [label="gini = 0.0\nsamples = 2\nvalue = [0, 5]"] ;
67 -> 69 ;
70 [label="X[3] <= 0.5\ngini = 0.453\nsamples = 36\nvalue = [18, 34]"] ;
58 -> 70 ;
71 [label="X[0] <= 2.5\ngini = 0.188\nsamples = 15\nvalue = [2, 17]"] ;
70 -> 71 ;
72 [label="gini = 0.0\nsamples = 8\nvalue = [0, 10]"] ;
71 -> 72 ;
73 [label="X[2] <= 14.0\ngini = 0.346\nsamples = 7\nvalue = [2, 7]"] ;
71 -> 73 ;
74 [label="gini = 0.5\nsamples = 2\nvalue = [2, 2]"] ;
73 -> 74 ;
75 [label="gini = 0.0\nsamples = 5\nvalue = [0, 5]"] ;
73 -> 75 ;
76 [label="X[5] <= 0.5\ngini = 0.5\nsamples = 21\nvalue = [16, 17]"] ;
70 -> 76 ;
77 [label="X[4] <= 1.5\ngini = 0.408\nsamples = 3\nvalue = [2, 5]"] ;
76 -> 77 ;
78 [label="gini = 0.5\nsamples = 2\nvalue = [2, 2]"] ;
77 -> 78 ;
79 [label="gini = 0.0\nsamples = 1\nvalue = [0, 3]"] ;
77 -> 79 ;
80 [label="X[0] <= 2.5\ngini = 0.497\nsamples = 18\nvalue = [14, 12]"] ;
76 -> 80 ;
81 [label="gini = 0.278\nsamples = 7\nvalue = [2, 10]"] ;
80 -> 81 ;
82 [label="gini = 0.245\nsamples = 11\nvalue = [12, 2]"] ;
80 -> 82 ;
83 [label="X[5] <= 0.5\ngini = 0.101\nsamples = 36\nvalue = [3, 53]"] ;
57 -> 83 ;
84 [label="gini = 0.0\nsamples = 8\nvalue = [0, 16]"] ;
83 -> 84 ;
85 [label="X[6] <= 2.5\ngini = 0.139\nsamples = 28\nvalue = [3, 37]"] ;
83 -> 85 ;
86 [label="X[4] <= 1.0\ngini = 0.245\nsamples = 7\nvalue = [1, 6]"] ;
85 -> 86 ;
87 [label="X[3] <= 0.5\ngini = 0.278\nsamples = 6\nvalue = [1, 5]"] ;
86 -> 87 ;
88 [label="gini = 0.375\nsamples = 4\nvalue = [1, 3]"] ;
87 -> 88 ;
89 [label="gini = 0.0\nsamples = 2\nvalue = [0, 2]"] ;
87 -> 89 ;
90 [label="gini = 0.0\nsamples = 1\nvalue = [0, 1]"] ;
86 -> 90 ;
91 [label="X[4] <= 2.5\ngini = 0.114\nsamples = 21\nvalue = [2, 31]"] ;
85 -> 91 ;
92 [label="X[0] <= 1.5\ngini = 0.061\nsamples = 20\nvalue = [1, 31]"] ;
91 -> 92 ;
93 [label="gini = 0.0\nsamples = 9\nvalue = [0, 13]"] ;
92 -> 93 ;
94 [label="gini = 0.1\nsamples = 11\nvalue = [1, 18]"] ;
92 -> 94 ;
95 [label="gini = 0.0\nsamples = 1\nvalue = [1, 0]"] ;
91 -> 95 ;
96 [label="gini = 0.0\nsamples = 5\nvalue = [10, 0]"] ;
56 -> 96 ;
}
