digraph Tree {
node [shape=box] ;
0 [label="X[3] <= 2.5\ngini = 0.49\nsamples = 335\nvalue = [304, 230]"] ;
1 [label="X[4] <= 0.5\ngini = 0.496\nsamples = 319\nvalue = [275, 228]"] ;
0 -> 1 [labeldistance=2.5, labelangle=45, headlabel="True"] ;
2 [label="X[6] <= 1.0\ngini = 0.48\nsamples = 241\nvalue = [231, 154]"] ;
1 -> 2 ;
3 [label="X[5] <= 0.5\ngini = 0.339\nsamples = 166\nvalue = [207, 57]"] ;
2 -> 3 ;
4 [label="X[2] <= 27.5\ngini = 0.491\nsamples = 21\nvalue = [17, 13]"] ;
3 -> 4 ;
5 [label="X[0] <= 2.0\ngini = 0.444\nsamples = 9\nvalue = [4, 8]"] ;
4 -> 5 ;
6 [label="X[3] <= 0.5\ngini = 0.408\nsamples = 4\nvalue = [2, 5]"] ;
5 -> 6 ;
7 [label="gini = 0.444\nsamples = 3\nvalue = [2, 4]"] ;
6 -> 7 ;
8 [label="gini = 0.0\nsamples = 1\nvalue = [0, 1]"] ;
6 -> 8 ;
9 [label="X[2] <= 21.0\ngini = 0.48\nsamples = 5\nvalue = [2, 3]"] ;
5 -> 9 ;
10 [label="gini = 0.0\nsamples = 1\nvalue = [0, 1]"] ;
9 -> 10 ;
11 [label="gini = 0.5\nsamples = 4\nvalue = [2, 2]"] ;
9 -> 11 ;
12 [label="X[0] <= 1.5\ngini = 0.401\nsamples = 12\nvalue = [13, 5]"] ;
4 -> 12 ;
13 [label="X[2] <= 31.0\ngini = 0.463\nsamples = 8\nvalue = [7, 4]"] ;
12 -> 13 ;
14 [label="gini = 0.0\nsamples = 2\nvalue = [4, 0]"] ;
13 -> 14 ;
15 [label="gini = 0.49\nsamples = 6\nvalue = [3, 4]"] ;
13 -> 15 ;
16 [label="X[2] <= 29.5\ngini = 0.245\nsamples = 4\nvalue = [6, 1]"] ;
12 -> 16 ;
17 [label="gini = 0.444\nsamples = 2\nvalue = [2, 1]"] ;
16 -> 17 ;
18 [label="gini = 0.0\nsamples = 2\nvalue = [4, 0]"] ;
16 -> 18 ;
19 [label="X[5] <= 1.5\ngini = 0.305\nsamples = 145\nvalue = [190, 44]"] ;
3 -> 19 ;
20 [label="X[0] <= 1.5\ngini = 0.301\nsamples = 141\nvalue = [186, 42]"] ;
19 -> 20 ;
21 [label="X[2] <= 53.5\ngini = 0.489\nsamples = 23\nvalue = [17, 23]"] ;
20 -> 21 ;
22 [label="gini = 0.412\nsamples = 17\nvalue = [9, 22]"] ;
21 -> 22 ;
23 [label="gini = 0.198\nsamples = 6\nvalue = [8, 1]"] ;
21 -> 23 ;
24 [label="X[0] <= 2.5\ngini = 0.182\nsamples = 118\nvalue = [169, 19]"] ;
20 -> 24 ;
25 [label="gini = 0.234\nsamples = 33\nvalue = [51, 8]"] ;
24 -> 25 ;
26 [label="gini = 0.156\nsamples = 85\nvalue = [118, 11]"] ;
24 -> 26 ;
27 [label="X[0] <= 2.0\ngini = 0.444\nsamples = 4\nvalue = [4, 2]"] ;
19 -> 27 ;
28 [label="gini = 0.0\nsamples = 1\nvalue = [2, 0]"] ;
27 -> 28 ;
29 [label="X[2] <= 34.5\ngini = 0.5\nsamples = 3\nvalue = [2, 2]"] ;
27 -> 29 ;
30 [label="gini = 0.0\nsamples = 1\nvalue = [0, 2]"] ;
29 -> 30 ;
31 [label="gini = 0.0\nsamples = 2\nvalue = [2, 0]"] ;
29 -> 31 ;
32 [label="X[6] <= 2.5\ngini = 0.318\nsamples = 75\nvalue = [24, 97]"] ;
2 -> 32 ;
33 [label="X[5] <= 0.5\ngini = 0.287\nsamples = 49\nvalue = [13, 62]"] ;
32 -> 33 ;
34 [label="X[0] <= 2.5\ngini = 0.133\nsamples = 10\nvalue = [1, 13]"] ;
33 -> 34 ;
35 [label="gini = 0.0\nsamples = 8\nvalue = [0, 11]"] ;
34 -> 35 ;
36 [label="X[2] <= 14.5\ngini = 0.444\nsamples = 2\nvalue = [1, 2]"] ;
34 -> 36 ;
37 [label="gini = 0.0\nsamples = 1\nvalue = [1, 0]"] ;
36 -> 37 ;
38 [label="gini = 0.0\nsamples = 1\nvalue = [0, 2]"] ;
36 -> 38 ;
39 [label="X[5] <= 1.5\ngini = 0.316\nsamples = 39\nvalue = [12, 49]"] ;
33 -> 39 ;
40 [label="X[0] <= 2.5\ngini = 0.325\nsamples = 34\nvalue = [10, 39]"] ;
39 -> 40 ;
41 [label="gini = 0.147\nsamples = 16\nvalue = [2, 23]"] ;
40 -> 41 ;
42 [label="gini = 0.444\nsamples = 18\nvalue = [8, 16]"] ;
40 -> 42 ;
43 [label="X[0] <= 2.5\ngini = 0.278\nsamples = 5\nvalue = [2, 10]"] ;
39 -> 43 ;
44 [label="gini = 0.0\nsamples = 2\nvalue = [0, 4]"] ;
43 -> 44 ;
45 [label="gini = 0.375\nsamples = 3\nvalue = [2, 6]"] ;
43 -> 45 ;
46 [label="X[5] <= 0.5\ngini = 0.364\nsamples = 26\nvalue = [11, 35]"] ;
32 -> 46 ;
47 [label="gini = 0.0\nsamples = 7\nvalue = [0, 10]"] ;
46 -> 47 ;
48 [label="X[0] <= 2.5\ngini = 0.424\nsamples = 19\nvalue = [11, 25]"] ;
46 -> 48 ;
49 [label="X[2] <= 52.5\ngini = 0.252\nsamples = 15\nvalue = [4, 23]"] ;
48 -> 49 ;
50 [label="gini = 0.147\nsamples = 14\nvalue = [2, 23]"] ;
49 -> 50 ;
51 [label="gini = 0.0\nsamples = 1\nvalue = [2, 0]"] ;
49 -> 51 ;
52 [label="X[2] <= 35.5\ngini = 0.346\nsamples = 4\nvalue = [7, 2]"] ;
48 -> 52 ;
53 [label="gini = 0.48\nsamples = 2\nvalue = [3, 2]"] ;
52 -> 53 ;
54 [label="gini = 0.0\nsamples = 2\nvalue = [4, 0]"] ;
52 -> 54 ;
55 [label="X[2] <= 8.5\ngini = 0.468\nsamples = 78\nvalue = [44, 74]"] ;
1 -> 55 ;
56 [label="X[1] <= 0.5\ngini = 0.133\nsamples = 19\nvalue = [2, 26]"] ;
55 -> 56 ;
57 [label="X[3] <= 0.5\ngini = 0.278\nsamples = 9\nvalue = [2, 10]"] ;
56 -> 57 ;
58 [label="X[5] <= 0.5\ngini = 0.48\nsamples = 3\nvalue = [2, 3]"] ;
57 -> 58 ;
59 [label="gini = 0.0\nsamples = 1\nvalue = [0, 1]"] ;
58 -> 59 ;
60 [label="gini = 0.5\nsamples = 2\nvalue = [2, 2]"] ;
58 -> 60 ;
61 [label="gini = 0.0\nsamples = 6\nvalue = [0, 7]"] ;
57 -> 61 ;
62 [label="gini = 0.0\nsamples = 10\nvalue = [0, 16]"] ;
56 -> 62 ;
63 [label="X[6] <= 0.5\ngini = 0.498\nsamples = 59\nvalue = [42, 48]"] ;
55 -> 63 ;
64 [label="X[4] <= 3.0\ngini = 0.334\nsamples = 20\nvalue = [26, 7]"] ;
63 -> 64 ;
65 [label="X[2] <= 37.5\ngini = 0.393\nsamples = 17\nvalue = [19, 7]"] ;
64 -> 65 ;
66 [label="X[2] <= 31.0\ngini = 0.498\nsamples = 10\nvalue = [8, 7]"] ;
65 -> 66 ;
67 [label="gini = 0.397\nsamples = 8\nvalue = [8, 3]"] ;
66 -> 67 ;
68 [label="gini = 0.0\nsamples = 2\nvalue = [0, 4]"] ;
66 -> 68 ;
69 [label="gini = 0.0\nsamples = 7\nvalue = [11, 0]"] ;
65 -> 69 ;
70 [label="gini = 0.0\nsamples = 3\nvalue = [7, 0]"] ;
64 -> 70 ;
71 [label="X[0] <= 2.5\ngini = 0.404\nsamples = 39\nvalue = [16, 41]"] ;
63 -> 71 ;
72 [label="X[2] <= 28.0\ngini = 0.1\nsamples = 25\nvalue = [2, 36]"] ;
71 -> 72 ;
73 [label="X[6] <= 2.5\ngini = 0.26\nsamples = 10\nvalue = [2, 11]"] ;
72 -> 73 ;
74 [label="gini = 0.0\nsamples = 7\nvalue = [0, 8]"] ;
73 -> 74 ;
75 [label="gini = 0.48\nsamples = 3\nvalue = [2, 3]"] ;
73 -> 75 ;
76 [label="gini = 0.0\nsamples = 15\nvalue = [0, 25]"] ;
72 -> 76 ;
77 [label="X[6] <= 1.5\ngini = 0.388\nsamples = 14\nvalue = [14, 5]"] ;
71 -> 77 ;
78 [label="gini = 0.0\nsamples = 1\nvalue = [0, 1]"] ;
77 -> 78 ;
79 [label="X[6] <= 2.5\ngini = 0.346\nsamples = 13\nvalue = [14, 4]"] ;
77 -> 79 ;
80 [label="gini = 0.0\nsamples = 4\nvalue = [6, 0]"] ;
79 -> 80 ;
81 [label="gini = 0.444\nsamples = 9\nvalue = [8, 4]"] ;
79 -> 81 ;
82 [label="X[6] <= 1.5\ngini = 0.121\nsamples = 16\nvalue = [29, 2]"] ;
0 -> 82 [labeldistance=2.5, labelangle=-45, headlabel="False"] ;
83 [label="gini = 0.0\nsamples = 11\nvalue = [22, 0]"] ;
82 -> 83 ;
84 [label="X[3] <= 3.5\ngini = 0.346\nsamples = 5\nvalue = [7, 2]"] ;
82 -> 84 ;
85 [label="gini = 0.0\nsamples = 3\nvalue = [5, 0]"] ;
84 -> 85 ;
86 [label="X[2] <= 9.5\ngini = 0.5\nsamples = 2\nvalue = [2, 2]"] ;
84 -> 86 ;
87 [label="gini = 0.0\nsamples = 1\nvalue = [2, 0]"] ;
86 -> 87 ;
88 [label="gini = 0.0\nsamples = 1\nvalue = [0, 2]"] ;
86 -> 88 ;
}
