digraph Tree {
node [shape=box] ;
0 [label="X[6] <= 0.5\ngini = 0.492\nsamples = 338\nvalue = [300, 234]"] ;
1 [label="X[2] <= 24.5\ngini = 0.319\nsamples = 188\nvalue = [233, 58]"] ;
0 -> 1 [labeldistance=2.5, labelangle=45, headlabel="True"] ;
2 [label="X[0] <= 1.5\ngini = 0.172\nsamples = 56\nvalue = [86, 9]"] ;
1 -> 2 ;
3 [label="gini = 0.0\nsamples = 2\nvalue = [3, 0]"] ;
2 -> 3 ;
4 [label="X[2] <= 20.5\ngini = 0.177\nsamples = 54\nvalue = [83, 9]"] ;
2 -> 4 ;
5 [label="X[4] <= 0.5\ngini = 0.31\nsamples = 26\nvalue = [38, 9]"] ;
4 -> 5 ;
6 [label="X[2] <= 16.5\ngini = 0.343\nsamples = 24\nvalue = [32, 9]"] ;
5 -> 6 ;
7 [label="X[3] <= 1.0\ngini = 0.408\nsamples = 4\nvalue = [5, 2]"] ;
6 -> 7 ;
8 [label="gini = 0.48\nsamples = 3\nvalue = [3, 2]"] ;
7 -> 8 ;
9 [label="gini = 0.0\nsamples = 1\nvalue = [2, 0]"] ;
7 -> 9 ;
10 [label="X[0] <= 2.5\ngini = 0.327\nsamples = 20\nvalue = [27, 7]"] ;
6 -> 10 ;
11 [label="gini = 0.48\nsamples = 4\nvalue = [3, 2]"] ;
10 -> 11 ;
12 [label="gini = 0.285\nsamples = 16\nvalue = [24, 5]"] ;
10 -> 12 ;
13 [label="gini = 0.0\nsamples = 2\nvalue = [6, 0]"] ;
5 -> 13 ;
14 [label="gini = 0.0\nsamples = 28\nvalue = [45, 0]"] ;
4 -> 14 ;
15 [label="X[0] <= 1.5\ngini = 0.375\nsamples = 132\nvalue = [147, 49]"] ;
1 -> 15 ;
16 [label="X[5] <= 0.5\ngini = 0.495\nsamples = 46\nvalue = [37, 30]"] ;
15 -> 16 ;
17 [label="X[2] <= 50.0\ngini = 0.497\nsamples = 15\nvalue = [11, 13]"] ;
16 -> 17 ;
18 [label="X[4] <= 0.5\ngini = 0.36\nsamples = 11\nvalue = [4, 13]"] ;
17 -> 18 ;
19 [label="X[3] <= 0.5\ngini = 0.32\nsamples = 9\nvalue = [3, 12]"] ;
18 -> 19 ;
20 [label="gini = 0.278\nsamples = 6\nvalue = [2, 10]"] ;
19 -> 20 ;
21 [label="gini = 0.444\nsamples = 3\nvalue = [1, 2]"] ;
19 -> 21 ;
22 [label="X[2] <= 42.5\ngini = 0.5\nsamples = 2\nvalue = [1, 1]"] ;
18 -> 22 ;
23 [label="gini = 0.0\nsamples = 1\nvalue = [0, 1]"] ;
22 -> 23 ;
24 [label="gini = 0.0\nsamples = 1\nvalue = [1, 0]"] ;
22 -> 24 ;
25 [label="gini = 0.0\nsamples = 4\nvalue = [7, 0]"] ;
17 -> 25 ;
26 [label="X[2] <= 51.0\ngini = 0.478\nsamples = 31\nvalue = [26, 17]"] ;
16 -> 26 ;
27 [label="X[2] <= 47.5\ngini = 0.483\nsamples = 20\nvalue = [11, 16]"] ;
26 -> 27 ;
28 [label="X[4] <= 0.5\ngini = 0.497\nsamples = 18\nvalue = [11, 13]"] ;
27 -> 28 ;
29 [label="gini = 0.499\nsamples = 17\nvalue = [11, 12]"] ;
28 -> 29 ;
30 [label="gini = 0.0\nsamples = 1\nvalue = [0, 1]"] ;
28 -> 30 ;
31 [label="gini = 0.0\nsamples = 2\nvalue = [0, 3]"] ;
27 -> 31 ;
32 [label="X[3] <= 0.5\ngini = 0.117\nsamples = 11\nvalue = [15, 1]"] ;
26 -> 32 ;
33 [label="X[2] <= 71.0\ngini = 0.133\nsamples = 9\nvalue = [13, 1]"] ;
32 -> 33 ;
34 [label="gini = 0.0\nsamples = 8\nvalue = [13, 0]"] ;
33 -> 34 ;
35 [label="gini = 0.0\nsamples = 1\nvalue = [0, 1]"] ;
33 -> 35 ;
36 [label="gini = 0.0\nsamples = 2\nvalue = [2, 0]"] ;
32 -> 36 ;
37 [label="X[2] <= 27.5\ngini = 0.251\nsamples = 86\nvalue = [110, 19]"] ;
15 -> 37 ;
38 [label="X[3] <= 0.5\ngini = 0.444\nsamples = 19\nvalue = [18, 9]"] ;
37 -> 38 ;
39 [label="X[0] <= 2.5\ngini = 0.423\nsamples = 16\nvalue = [16, 7]"] ;
38 -> 39 ;
40 [label="gini = 0.0\nsamples = 3\nvalue = [4, 0]"] ;
39 -> 40 ;
41 [label="X[2] <= 25.5\ngini = 0.465\nsamples = 13\nvalue = [12, 7]"] ;
39 -> 41 ;
42 [label="gini = 0.0\nsamples = 5\nvalue = [7, 0]"] ;
41 -> 42 ;
43 [label="gini = 0.486\nsamples = 8\nvalue = [5, 7]"] ;
41 -> 43 ;
44 [label="X[2] <= 26.0\ngini = 0.5\nsamples = 3\nvalue = [2, 2]"] ;
38 -> 44 ;
45 [label="gini = 0.444\nsamples = 2\nvalue = [1, 2]"] ;
44 -> 45 ;
46 [label="gini = 0.0\nsamples = 1\nvalue = [1, 0]"] ;
44 -> 46 ;
47 [label="X[0] <= 2.5\ngini = 0.177\nsamples = 67\nvalue = [92, 10]"] ;
37 -> 47 ;
48 [label="X[5] <= 0.5\ngini = 0.219\nsamples = 25\nvalue = [28, 4]"] ;
47 -> 48 ;
49 [label="gini = 0.0\nsamples = 1\nvalue = [1, 0]"] ;
48 -> 49 ;
50 [label="X[2] <= 33.0\ngini = 0.225\nsamples = 24\nvalue = [27, 4]"] ;
48 -> 50 ;
51 [label="gini = 0.48\nsamples = 4\nvalue = [3, 2]"] ;
50 -> 51 ;
52 [label="gini = 0.142\nsamples = 20\nvalue = [24, 2]"] ;
50 -> 52 ;
53 [label="X[3] <= 0.5\ngini = 0.157\nsamples = 42\nvalue = [64, 6]"] ;
47 -> 53 ;
54 [label="X[2] <= 39.5\ngini = 0.191\nsamples = 34\nvalue = [50, 6]"] ;
53 -> 54 ;
55 [label="gini = 0.266\nsamples = 21\nvalue = [32, 6]"] ;
54 -> 55 ;
56 [label="gini = 0.0\nsamples = 13\nvalue = [18, 0]"] ;
54 -> 56 ;
57 [label="gini = 0.0\nsamples = 8\nvalue = [14, 0]"] ;
53 -> 57 ;
58 [label="X[3] <= 2.5\ngini = 0.399\nsamples = 150\nvalue = [67, 176]"] ;
0 -> 58 [labeldistance=2.5, labelangle=-45, headlabel="False"] ;
59 [label="X[3] <= 0.5\ngini = 0.332\nsamples = 135\nvalue = [46, 173]"] ;
58 -> 59 ;
60 [label="X[4] <= 3.5\ngini = 0.196\nsamples = 78\nvalue = [13, 105]"] ;
59 -> 60 ;
61 [label="X[6] <= 2.5\ngini = 0.184\nsamples = 77\nvalue = [12, 105]"] ;
60 -> 61 ;
62 [label="X[5] <= 0.5\ngini = 0.219\nsamples = 59\nvalue = [11, 77]"] ;
61 -> 62 ;
63 [label="X[0] <= 2.5\ngini = 0.087\nsamples = 15\nvalue = [1, 21]"] ;
62 -> 63 ;
64 [label="gini = 0.0\nsamples = 11\nvalue = [0, 15]"] ;
63 -> 64 ;
65 [label="gini = 0.245\nsamples = 4\nvalue = [1, 6]"] ;
63 -> 65 ;
66 [label="X[2] <= 36.5\ngini = 0.257\nsamples = 44\nvalue = [10, 56]"] ;
62 -> 66 ;
67 [label="gini = 0.203\nsamples = 40\nvalue = [7, 54]"] ;
66 -> 67 ;
68 [label="gini = 0.48\nsamples = 4\nvalue = [3, 2]"] ;
66 -> 68 ;
69 [label="X[5] <= 0.5\ngini = 0.067\nsamples = 18\nvalue = [1, 28]"] ;
61 -> 69 ;
70 [label="gini = 0.0\nsamples = 2\nvalue = [0, 3]"] ;
69 -> 70 ;
71 [label="X[4] <= 0.5\ngini = 0.074\nsamples = 16\nvalue = [1, 25]"] ;
69 -> 71 ;
72 [label="gini = 0.245\nsamples = 7\nvalue = [1, 6]"] ;
71 -> 72 ;
73 [label="gini = 0.0\nsamples = 9\nvalue = [0, 19]"] ;
71 -> 73 ;
74 [label="gini = 0.0\nsamples = 1\nvalue = [1, 0]"] ;
60 -> 74 ;
75 [label="X[4] <= 3.5\ngini = 0.44\nsamples = 57\nvalue = [33, 68]"] ;
59 -> 75 ;
76 [label="X[0] <= 2.5\ngini = 0.369\nsamples = 54\nvalue = [22, 68]"] ;
75 -> 76 ;
77 [label="X[2] <= 26.0\ngini = 0.068\nsamples = 34\nvalue = [2, 55]"] ;
76 -> 77 ;
78 [label="X[2] <= 24.5\ngini = 0.147\nsamples = 14\nvalue = [2, 23]"] ;
77 -> 78 ;
79 [label="gini = 0.0\nsamples = 13\nvalue = [0, 23]"] ;
78 -> 79 ;
80 [label="gini = 0.0\nsamples = 1\nvalue = [2, 0]"] ;
78 -> 80 ;
81 [label="gini = 0.0\nsamples = 20\nvalue = [0, 32]"] ;
77 -> 81 ;
82 [label="X[1] <= 0.5\ngini = 0.478\nsamples = 20\nvalue = [20, 13]"] ;
76 -> 82 ;
83 [label="X[2] <= 7.0\ngini = 0.408\nsamples = 17\nvalue = [20, 8]"] ;
82 -> 83 ;
84 [label="gini = 0.0\nsamples = 1\nvalue = [0, 3]"] ;
83 -> 84 ;
85 [label="gini = 0.32\nsamples = 16\nvalue = [20, 5]"] ;
83 -> 85 ;
86 [label="gini = 0.0\nsamples = 3\nvalue = [0, 5]"] ;
82 -> 86 ;
87 [label="gini = 0.0\nsamples = 3\nvalue = [11, 0]"] ;
75 -> 87 ;
88 [label="X[0] <= 2.5\ngini = 0.219\nsamples = 15\nvalue = [21, 3]"] ;
58 -> 88 ;
89 [label="gini = 0.0\nsamples = 1\nvalue = [0, 1]"] ;
88 -> 89 ;
90 [label="X[2] <= 14.0\ngini = 0.159\nsamples = 14\nvalue = [21, 2]"] ;
88 -> 90 ;
91 [label="gini = 0.0\nsamples = 13\nvalue = [21, 0]"] ;
90 -> 91 ;
92 [label="gini = 0.0\nsamples = 1\nvalue = [0, 2]"] ;
90 -> 92 ;
}
