digraph Tree {
node [shape=box] ;
0 [label="X[6] <= 0.5\ngini = 0.481\nsamples = 342\nvalue = [319, 215]"] ;
1 [label="X[0] <= 1.5\ngini = 0.275\nsamples = 195\nvalue = [259, 51]"] ;
0 -> 1 [labeldistance=2.5, labelangle=45, headlabel="True"] ;
2 [label="X[2] <= 37.5\ngini = 0.42\nsamples = 45\nvalue = [56, 24]"] ;
1 -> 2 ;
3 [label="X[3] <= 0.5\ngini = 0.498\nsamples = 20\nvalue = [16, 18]"] ;
2 -> 3 ;
4 [label="X[4] <= 0.5\ngini = 0.48\nsamples = 14\nvalue = [10, 15]"] ;
3 -> 4 ;
5 [label="X[2] <= 35.5\ngini = 0.36\nsamples = 11\nvalue = [4, 13]"] ;
4 -> 5 ;
6 [label="X[5] <= 0.5\ngini = 0.245\nsamples = 9\nvalue = [2, 12]"] ;
5 -> 6 ;
7 [label="gini = 0.198\nsamples = 5\nvalue = [1, 8]"] ;
6 -> 7 ;
8 [label="gini = 0.32\nsamples = 4\nvalue = [1, 4]"] ;
6 -> 8 ;
9 [label="X[5] <= 0.5\ngini = 0.444\nsamples = 2\nvalue = [2, 1]"] ;
5 -> 9 ;
10 [label="gini = 0.0\nsamples = 1\nvalue = [2, 0]"] ;
9 -> 10 ;
11 [label="gini = 0.0\nsamples = 1\nvalue = [0, 1]"] ;
9 -> 11 ;
12 [label="X[4] <= 1.5\ngini = 0.375\nsamples = 3\nvalue = [6, 2]"] ;
4 -> 12 ;
13 [label="gini = 0.0\nsamples = 1\nvalue = [2, 0]"] ;
12 -> 13 ;
14 [label="X[2] <= 22.0\ngini = 0.444\nsamples = 2\nvalue = [4, 2]"] ;
12 -> 14 ;
15 [label="gini = 0.0\nsamples = 1\nvalue = [0, 2]"] ;
14 -> 15 ;
16 [label="gini = 0.0\nsamples = 1\nvalue = [4, 0]"] ;
14 -> 16 ;
17 [label="X[2] <= 33.5\ngini = 0.444\nsamples = 6\nvalue = [6, 3]"] ;
3 -> 17 ;
18 [label="gini = 0.0\nsamples = 4\nvalue = [6, 0]"] ;
17 -> 18 ;
19 [label="gini = 0.0\nsamples = 2\nvalue = [0, 3]"] ;
17 -> 19 ;
20 [label="X[3] <= 0.5\ngini = 0.227\nsamples = 25\nvalue = [40, 6]"] ;
2 -> 20 ;
21 [label="X[4] <= 0.5\ngini = 0.061\nsamples = 18\nvalue = [31, 1]"] ;
20 -> 21 ;
22 [label="X[2] <= 52.5\ngini = 0.074\nsamples = 14\nvalue = [25, 1]"] ;
21 -> 22 ;
23 [label="X[2] <= 49.0\ngini = 0.153\nsamples = 7\nvalue = [11, 1]"] ;
22 -> 23 ;
24 [label="gini = 0.0\nsamples = 6\nvalue = [11, 0]"] ;
23 -> 24 ;
25 [label="gini = 0.0\nsamples = 1\nvalue = [0, 1]"] ;
23 -> 25 ;
26 [label="gini = 0.0\nsamples = 7\nvalue = [14, 0]"] ;
22 -> 26 ;
27 [label="gini = 0.0\nsamples = 4\nvalue = [6, 0]"] ;
21 -> 27 ;
28 [label="X[2] <= 46.0\ngini = 0.459\nsamples = 7\nvalue = [9, 5]"] ;
20 -> 28 ;
29 [label="gini = 0.0\nsamples = 1\nvalue = [3, 0]"] ;
28 -> 29 ;
30 [label="X[2] <= 48.5\ngini = 0.496\nsamples = 6\nvalue = [6, 5]"] ;
28 -> 30 ;
31 [label="gini = 0.0\nsamples = 2\nvalue = [0, 3]"] ;
30 -> 31 ;
32 [label="X[3] <= 1.5\ngini = 0.375\nsamples = 4\nvalue = [6, 2]"] ;
30 -> 32 ;
33 [label="gini = 0.0\nsamples = 3\nvalue = [6, 0]"] ;
32 -> 33 ;
34 [label="gini = 0.0\nsamples = 1\nvalue = [0, 2]"] ;
32 -> 34 ;
35 [label="X[3] <= 1.5\ngini = 0.207\nsamples = 150\nvalue = [203, 27]"] ;
1 -> 35 ;
36 [label="X[4] <= 1.5\ngini = 0.218\nsamples = 141\nvalue = [190, 27]"] ;
35 -> 36 ;
37 [label="X[5] <= 0.5\ngini = 0.22\nsamples = 140\nvalue = [188, 27]"] ;
36 -> 37 ;
38 [label="X[4] <= 0.5\ngini = 0.454\nsamples = 15\nvalue = [15, 8]"] ;
37 -> 38 ;
39 [label="X[2] <= 29.5\ngini = 0.434\nsamples = 14\nvalue = [15, 7]"] ;
38 -> 39 ;
40 [label="gini = 0.484\nsamples = 11\nvalue = [10, 7]"] ;
39 -> 40 ;
41 [label="gini = 0.0\nsamples = 3\nvalue = [5, 0]"] ;
39 -> 41 ;
42 [label="gini = 0.0\nsamples = 1\nvalue = [0, 1]"] ;
38 -> 42 ;
43 [label="X[3] <= 0.5\ngini = 0.178\nsamples = 125\nvalue = [173, 19]"] ;
37 -> 43 ;
44 [label="X[4] <= 0.5\ngini = 0.174\nsamples = 108\nvalue = [150, 16]"] ;
43 -> 44 ;
45 [label="gini = 0.175\nsamples = 107\nvalue = [149, 16]"] ;
44 -> 45 ;
46 [label="gini = 0.0\nsamples = 1\nvalue = [1, 0]"] ;
44 -> 46 ;
47 [label="X[2] <= 25.5\ngini = 0.204\nsamples = 17\nvalue = [23, 3]"] ;
43 -> 47 ;
48 [label="gini = 0.408\nsamples = 4\nvalue = [5, 2]"] ;
47 -> 48 ;
49 [label="gini = 0.1\nsamples = 13\nvalue = [18, 1]"] ;
47 -> 49 ;
50 [label="gini = 0.0\nsamples = 1\nvalue = [2, 0]"] ;
36 -> 50 ;
51 [label="gini = 0.0\nsamples = 9\nvalue = [13, 0]"] ;
35 -> 51 ;
52 [label="X[0] <= 2.5\ngini = 0.392\nsamples = 147\nvalue = [60, 164]"] ;
0 -> 52 [labeldistance=2.5, labelangle=-45, headlabel="False"] ;
53 [label="X[6] <= 1.5\ngini = 0.113\nsamples = 85\nvalue = [8, 125]"] ;
52 -> 53 ;
54 [label="gini = 0.0\nsamples = 7\nvalue = [0, 13]"] ;
53 -> 54 ;
55 [label="X[2] <= 3.0\ngini = 0.124\nsamples = 78\nvalue = [8, 112]"] ;
53 -> 55 ;
56 [label="gini = 0.0\nsamples = 1\nvalue = [1, 0]"] ;
55 -> 56 ;
57 [label="X[5] <= 0.5\ngini = 0.111\nsamples = 77\nvalue = [7, 112]"] ;
55 -> 57 ;
58 [label="gini = 0.0\nsamples = 21\nvalue = [0, 31]"] ;
57 -> 58 ;
59 [label="X[2] <= 27.5\ngini = 0.146\nsamples = 56\nvalue = [7, 81]"] ;
57 -> 59 ;
60 [label="X[4] <= 0.5\ngini = 0.272\nsamples = 20\nvalue = [6, 31]"] ;
59 -> 60 ;
61 [label="gini = 0.408\nsamples = 8\nvalue = [4, 10]"] ;
60 -> 61 ;
62 [label="gini = 0.159\nsamples = 12\nvalue = [2, 21]"] ;
60 -> 62 ;
63 [label="X[5] <= 1.5\ngini = 0.038\nsamples = 36\nvalue = [1, 50]"] ;
59 -> 63 ;
64 [label="gini = 0.041\nsamples = 34\nvalue = [1, 47]"] ;
63 -> 64 ;
65 [label="gini = 0.0\nsamples = 2\nvalue = [0, 3]"] ;
63 -> 65 ;
66 [label="X[3] <= 2.5\ngini = 0.49\nsamples = 62\nvalue = [52, 39]"] ;
52 -> 66 ;
67 [label="X[6] <= 1.5\ngini = 0.499\nsamples = 51\nvalue = [35, 38]"] ;
66 -> 67 ;
68 [label="gini = 0.0\nsamples = 5\nvalue = [0, 7]"] ;
67 -> 68 ;
69 [label="X[3] <= 0.5\ngini = 0.498\nsamples = 46\nvalue = [35, 31]"] ;
67 -> 69 ;
70 [label="X[5] <= 1.5\ngini = 0.488\nsamples = 27\nvalue = [16, 22]"] ;
69 -> 70 ;
71 [label="X[6] <= 2.5\ngini = 0.457\nsamples = 24\nvalue = [12, 22]"] ;
70 -> 71 ;
72 [label="gini = 0.497\nsamples = 17\nvalue = [11, 13]"] ;
71 -> 72 ;
73 [label="gini = 0.18\nsamples = 7\nvalue = [1, 9]"] ;
71 -> 73 ;
74 [label="gini = 0.0\nsamples = 3\nvalue = [4, 0]"] ;
70 -> 74 ;
75 [label="X[5] <= 0.5\ngini = 0.436\nsamples = 19\nvalue = [19, 9]"] ;
69 -> 75 ;
76 [label="X[6] <= 2.5\ngini = 0.49\nsamples = 5\nvalue = [3, 4]"] ;
75 -> 76 ;
77 [label="gini = 0.5\nsamples = 4\nvalue = [3, 3]"] ;
76 -> 77 ;
78 [label="gini = 0.0\nsamples = 1\nvalue = [0, 1]"] ;
76 -> 78 ;
79 [label="X[2] <= 10.5\ngini = 0.363\nsamples = 14\nvalue = [16, 5]"] ;
75 -> 79 ;
80 [label="gini = 0.0\nsamples = 1\nvalue = [0, 1]"] ;
79 -> 80 ;
81 [label="gini = 0.32\nsamples = 13\nvalue = [16, 4]"] ;
79 -> 81 ;
82 [label="X[2] <= 14.0\ngini = 0.105\nsamples = 11\nvalue = [17, 1]"] ;
66 -> 82 ;
83 [label="gini = 0.0\nsamples = 10\nvalue = [17, 0]"] ;
82 -> 83 ;
84 [label="gini = 0.0\nsamples = 1\nvalue = [0, 1]"] ;
82 -> 84 ;
}
