digraph Tree {
node [shape=box] ;
0 [label="X[0] <= 2.5\ngini = 0.476\nsamples = 343\nvalue = [325, 209]"] ;
1 [label="X[6] <= 0.5\ngini = 0.495\nsamples = 175\nvalue = [124, 151]"] ;
0 -> 1 [labeldistance=2.5, labelangle=45, headlabel="True"] ;
2 [label="X[0] <= 1.5\ngini = 0.362\nsamples = 98\nvalue = [119, 37]"] ;
1 -> 2 ;
3 [label="X[5] <= 1.5\ngini = 0.478\nsamples = 54\nvalue = [46, 30]"] ;
2 -> 3 ;
4 [label="X[4] <= 1.5\ngini = 0.48\nsamples = 53\nvalue = [45, 30]"] ;
3 -> 4 ;
5 [label="X[4] <= 0.5\ngini = 0.475\nsamples = 49\nvalue = [41, 26]"] ;
4 -> 5 ;
6 [label="X[5] <= 0.5\ngini = 0.485\nsamples = 40\nvalue = [34, 24]"] ;
5 -> 6 ;
7 [label="gini = 0.495\nsamples = 13\nvalue = [11, 9]"] ;
6 -> 7 ;
8 [label="gini = 0.478\nsamples = 27\nvalue = [23, 15]"] ;
6 -> 8 ;
9 [label="X[5] <= 0.5\ngini = 0.346\nsamples = 9\nvalue = [7, 2]"] ;
5 -> 9 ;
10 [label="gini = 0.32\nsamples = 5\nvalue = [4, 1]"] ;
9 -> 10 ;
11 [label="gini = 0.375\nsamples = 4\nvalue = [3, 1]"] ;
9 -> 11 ;
12 [label="X[5] <= 0.5\ngini = 0.5\nsamples = 4\nvalue = [4, 4]"] ;
4 -> 12 ;
13 [label="X[2] <= 37.5\ngini = 0.5\nsamples = 2\nvalue = [1, 1]"] ;
12 -> 13 ;
14 [label="gini = 0.0\nsamples = 1\nvalue = [0, 1]"] ;
13 -> 14 ;
15 [label="gini = 0.0\nsamples = 1\nvalue = [1, 0]"] ;
13 -> 15 ;
16 [label="X[2] <= 27.5\ngini = 0.5\nsamples = 2\nvalue = [3, 3]"] ;
12 -> 16 ;
17 [label="gini = 0.0\nsamples = 1\nvalue = [3, 0]"] ;
16 -> 17 ;
18 [label="gini = 0.0\nsamples = 1\nvalue = [0, 3]"] ;
16 -> 18 ;
19 [label="gini = 0.0\nsamples = 1\nvalue = [1, 0]"] ;
3 -> 19 ;
20 [label="X[4] <= 0.5\ngini = 0.16\nsamples = 44\nvalue = [73, 7]"] ;
2 -> 20 ;
21 [label="X[3] <= 1.5\ngini = 0.165\nsamples = 42\nvalue = [70, 7]"] ;
20 -> 21 ;
22 [label="X[5] <= 0.5\ngini = 0.176\nsamples = 40\nvalue = [65, 7]"] ;
21 -> 22 ;
23 [label="gini = 0.0\nsamples = 3\nvalue = [5, 0]"] ;
22 -> 23 ;
24 [label="X[5] <= 1.5\ngini = 0.187\nsamples = 37\nvalue = [60, 7]"] ;
22 -> 24 ;
25 [label="gini = 0.19\nsamples = 36\nvalue = [59, 7]"] ;
24 -> 25 ;
26 [label="gini = 0.0\nsamples = 1\nvalue = [1, 0]"] ;
24 -> 26 ;
27 [label="gini = 0.0\nsamples = 2\nvalue = [5, 0]"] ;
21 -> 27 ;
28 [label="gini = 0.0\nsamples = 2\nvalue = [3, 0]"] ;
20 -> 28 ;
29 [label="X[2] <= 2.5\ngini = 0.081\nsamples = 77\nvalue = [5, 114]"] ;
1 -> 29 ;
30 [label="X[2] <= 1.5\ngini = 0.408\nsamples = 3\nvalue = [2, 5]"] ;
29 -> 30 ;
31 [label="gini = 0.0\nsamples = 2\nvalue = [0, 5]"] ;
30 -> 31 ;
32 [label="gini = 0.0\nsamples = 1\nvalue = [2, 0]"] ;
30 -> 32 ;
33 [label="X[2] <= 24.5\ngini = 0.052\nsamples = 74\nvalue = [3, 109]"] ;
29 -> 33 ;
34 [label="gini = 0.0\nsamples = 24\nvalue = [0, 39]"] ;
33 -> 34 ;
35 [label="X[3] <= 0.5\ngini = 0.079\nsamples = 50\nvalue = [3, 70]"] ;
33 -> 35 ;
36 [label="X[0] <= 1.5\ngini = 0.051\nsamples = 28\nvalue = [1, 37]"] ;
35 -> 36 ;
37 [label="gini = 0.0\nsamples = 19\nvalue = [0, 26]"] ;
36 -> 37 ;
38 [label="X[2] <= 37.0\ngini = 0.153\nsamples = 9\nvalue = [1, 11]"] ;
36 -> 38 ;
39 [label="gini = 0.0\nsamples = 5\nvalue = [0, 7]"] ;
38 -> 39 ;
40 [label="gini = 0.32\nsamples = 4\nvalue = [1, 4]"] ;
38 -> 40 ;
41 [label="X[5] <= 0.5\ngini = 0.108\nsamples = 22\nvalue = [2, 33]"] ;
35 -> 41 ;
42 [label="gini = 0.0\nsamples = 6\nvalue = [0, 8]"] ;
41 -> 42 ;
43 [label="X[4] <= 1.5\ngini = 0.137\nsamples = 16\nvalue = [2, 25]"] ;
41 -> 43 ;
44 [label="gini = 0.083\nsamples = 13\nvalue = [1, 22]"] ;
43 -> 44 ;
45 [label="gini = 0.375\nsamples = 3\nvalue = [1, 3]"] ;
43 -> 45 ;
46 [label="X[5] <= 0.5\ngini = 0.348\nsamples = 168\nvalue = [201, 58]"] ;
0 -> 46 [labeldistance=2.5, labelangle=-45, headlabel="False"] ;
47 [label="X[2] <= 13.5\ngini = 0.449\nsamples = 23\nvalue = [29, 15]"] ;
46 -> 47 ;
48 [label="gini = 0.0\nsamples = 4\nvalue = [0, 10]"] ;
47 -> 48 ;
49 [label="X[4] <= 1.5\ngini = 0.251\nsamples = 19\nvalue = [29, 5]"] ;
47 -> 49 ;
50 [label="X[4] <= 0.5\ngini = 0.213\nsamples = 18\nvalue = [29, 4]"] ;
49 -> 50 ;
51 [label="X[1] <= 0.5\ngini = 0.185\nsamples = 15\nvalue = [26, 3]"] ;
50 -> 51 ;
52 [label="X[2] <= 14.5\ngini = 0.375\nsamples = 3\nvalue = [3, 1]"] ;
51 -> 52 ;
53 [label="gini = 0.0\nsamples = 1\nvalue = [2, 0]"] ;
52 -> 53 ;
54 [label="gini = 0.5\nsamples = 2\nvalue = [1, 1]"] ;
52 -> 54 ;
55 [label="X[3] <= 0.5\ngini = 0.147\nsamples = 12\nvalue = [23, 2]"] ;
51 -> 55 ;
56 [label="gini = 0.159\nsamples = 11\nvalue = [21, 2]"] ;
55 -> 56 ;
57 [label="gini = 0.0\nsamples = 1\nvalue = [2, 0]"] ;
55 -> 57 ;
58 [label="X[1] <= 0.5\ngini = 0.375\nsamples = 3\nvalue = [3, 1]"] ;
50 -> 58 ;
59 [label="gini = 0.0\nsamples = 1\nvalue = [1, 0]"] ;
58 -> 59 ;
60 [label="X[2] <= 17.5\ngini = 0.444\nsamples = 2\nvalue = [2, 1]"] ;
58 -> 60 ;
61 [label="gini = 0.0\nsamples = 1\nvalue = [2, 0]"] ;
60 -> 61 ;
62 [label="gini = 0.0\nsamples = 1\nvalue = [0, 1]"] ;
60 -> 62 ;
63 [label="gini = 0.0\nsamples = 1\nvalue = [0, 1]"] ;
49 -> 63 ;
64 [label="X[4] <= 2.5\ngini = 0.32\nsamples = 145\nvalue = [172, 43]"] ;
46 -> 64 ;
65 [label="X[4] <= 1.5\ngini = 0.327\nsamples = 140\nvalue = [166, 43]"] ;
64 -> 65 ;
66 [label="X[3] <= 1.5\ngini = 0.322\nsamples = 130\nvalue = [154, 39]"] ;
65 -> 66 ;
67 [label="X[2] <= 18.5\ngini = 0.344\nsamples = 120\nvalue = [138, 39]"] ;
66 -> 67 ;
68 [label="X[3] <= 0.5\ngini = 0.492\nsamples = 14\nvalue = [7, 9]"] ;
67 -> 68 ;
69 [label="gini = 0.497\nsamples = 11\nvalue = [6, 7]"] ;
68 -> 69 ;
70 [label="gini = 0.444\nsamples = 3\nvalue = [1, 2]"] ;
68 -> 70 ;
71 [label="X[6] <= 1.0\ngini = 0.303\nsamples = 106\nvalue = [131, 30]"] ;
67 -> 71 ;
72 [label="gini = 0.203\nsamples = 83\nvalue = [116, 15]"] ;
71 -> 72 ;
73 [label="gini = 0.5\nsamples = 23\nvalue = [15, 15]"] ;
71 -> 73 ;
74 [label="gini = 0.0\nsamples = 10\nvalue = [16, 0]"] ;
66 -> 74 ;
75 [label="X[3] <= 4.5\ngini = 0.375\nsamples = 10\nvalue = [12, 4]"] ;
65 -> 75 ;
76 [label="X[2] <= 1.5\ngini = 0.444\nsamples = 7\nvalue = [8, 4]"] ;
75 -> 76 ;
77 [label="gini = 0.0\nsamples = 1\nvalue = [0, 1]"] ;
76 -> 77 ;
78 [label="X[6] <= 1.5\ngini = 0.397\nsamples = 6\nvalue = [8, 3]"] ;
76 -> 78 ;
79 [label="gini = 0.0\nsamples = 2\nvalue = [5, 0]"] ;
78 -> 79 ;
80 [label="gini = 0.5\nsamples = 4\nvalue = [3, 3]"] ;
78 -> 80 ;
81 [label="gini = 0.0\nsamples = 3\nvalue = [4, 0]"] ;
75 -> 81 ;
82 [label="gini = 0.0\nsamples = 5\nvalue = [6, 0]"] ;
64 -> 82 ;
}
