digraph Tree {
node [shape=box] ;
0 [label="X[5] <= 0.5\ngini = 0.469\nsamples = 327\nvalue = [333, 201]"] ;
1 [label="X[6] <= 0.5\ngini = 0.45\nsamples = 55\nvalue = [28, 54]"] ;
0 -> 1 [labeldistance=2.5, labelangle=45, headlabel="True"] ;
2 [label="X[4] <= 1.5\ngini = 0.431\nsamples = 24\nvalue = [24, 11]"] ;
1 -> 2 ;
3 [label="X[4] <= 0.5\ngini = 0.397\nsamples = 23\nvalue = [24, 9]"] ;
2 -> 3 ;
4 [label="X[0] <= 1.5\ngini = 0.426\nsamples = 18\nvalue = [18, 8]"] ;
3 -> 4 ;
5 [label="X[2] <= 49.5\ngini = 0.5\nsamples = 12\nvalue = [8, 8]"] ;
4 -> 5 ;
6 [label="X[2] <= 27.0\ngini = 0.32\nsamples = 9\nvalue = [2, 8]"] ;
5 -> 6 ;
7 [label="gini = 0.0\nsamples = 2\nvalue = [0, 2]"] ;
6 -> 7 ;
8 [label="gini = 0.375\nsamples = 7\nvalue = [2, 6]"] ;
6 -> 8 ;
9 [label="gini = 0.0\nsamples = 3\nvalue = [6, 0]"] ;
5 -> 9 ;
10 [label="gini = 0.0\nsamples = 6\nvalue = [10, 0]"] ;
4 -> 10 ;
11 [label="X[0] <= 2.0\ngini = 0.245\nsamples = 5\nvalue = [6, 1]"] ;
3 -> 11 ;
12 [label="X[2] <= 30.0\ngini = 0.375\nsamples = 3\nvalue = [3, 1]"] ;
11 -> 12 ;
13 [label="gini = 0.0\nsamples = 1\nvalue = [2, 0]"] ;
12 -> 13 ;
14 [label="X[2] <= 43.5\ngini = 0.5\nsamples = 2\nvalue = [1, 1]"] ;
12 -> 14 ;
15 [label="gini = 0.0\nsamples = 1\nvalue = [0, 1]"] ;
14 -> 15 ;
16 [label="gini = 0.0\nsamples = 1\nvalue = [1, 0]"] ;
14 -> 16 ;
17 [label="gini = 0.0\nsamples = 2\nvalue = [3, 0]"] ;
11 -> 17 ;
18 [label="gini = 0.0\nsamples = 1\nvalue = [0, 2]"] ;
2 -> 18 ;
19 [label="X[2] <= 20.0\ngini = 0.156\nsamples = 31\nvalue = [4, 43]"] ;
1 -> 19 ;
20 [label="X[3] <= 0.5\ngini = 0.36\nsamples = 11\nvalue = [4, 13]"] ;
19 -> 20 ;
21 [label="X[0] <= 2.5\ngini = 0.48\nsamples = 7\nvalue = [4, 6]"] ;
20 -> 21 ;
22 [label="gini = 0.0\nsamples = 3\nvalue = [0, 4]"] ;
21 -> 22 ;
23 [label="X[4] <= 0.5\ngini = 0.444\nsamples = 4\nvalue = [4, 2]"] ;
21 -> 23 ;
24 [label="X[2] <= 16.0\ngini = 0.5\nsamples = 3\nvalue = [2, 2]"] ;
23 -> 24 ;
25 [label="gini = 0.0\nsamples = 2\nvalue = [0, 2]"] ;
24 -> 25 ;
26 [label="gini = 0.0\nsamples = 1\nvalue = [2, 0]"] ;
24 -> 26 ;
27 [label="gini = 0.0\nsamples = 1\nvalue = [2, 0]"] ;
23 -> 27 ;
28 [label="gini = 0.0\nsamples = 4\nvalue = [0, 7]"] ;
20 -> 28 ;
29 [label="gini = 0.0\nsamples = 20\nvalue = [0, 30]"] ;
19 -> 29 ;
30 [label="X[2] <= 56.0\ngini = 0.439\nsamples = 272\nvalue = [305, 147]"] ;
0 -> 30 [labeldistance=2.5, labelangle=-45, headlabel="False"] ;
31 [label="X[6] <= 1.5\ngini = 0.446\nsamples = 262\nvalue = [288, 146]"] ;
30 -> 31 ;
32 [label="X[2] <= 3.5\ngini = 0.23\nsamples = 172\nvalue = [242, 37]"] ;
31 -> 32 ;
33 [label="X[2] <= 2.5\ngini = 0.469\nsamples = 6\nvalue = [3, 5]"] ;
32 -> 33 ;
34 [label="X[0] <= 2.5\ngini = 0.48\nsamples = 4\nvalue = [3, 2]"] ;
33 -> 34 ;
35 [label="gini = 0.0\nsamples = 1\nvalue = [0, 2]"] ;
34 -> 35 ;
36 [label="gini = 0.0\nsamples = 3\nvalue = [3, 0]"] ;
34 -> 36 ;
37 [label="gini = 0.0\nsamples = 2\nvalue = [0, 3]"] ;
33 -> 37 ;
38 [label="X[2] <= 26.5\ngini = 0.208\nsamples = 166\nvalue = [239, 32]"] ;
32 -> 38 ;
39 [label="X[6] <= 0.5\ngini = 0.128\nsamples = 68\nvalue = [108, 8]"] ;
38 -> 39 ;
40 [label="X[2] <= 19.5\ngini = 0.092\nsamples = 60\nvalue = [98, 5]"] ;
39 -> 40 ;
41 [label="gini = 0.169\nsamples = 26\nvalue = [39, 4]"] ;
40 -> 41 ;
42 [label="gini = 0.033\nsamples = 34\nvalue = [59, 1]"] ;
40 -> 42 ;
43 [label="X[2] <= 5.5\ngini = 0.355\nsamples = 8\nvalue = [10, 3]"] ;
39 -> 43 ;
44 [label="gini = 0.375\nsamples = 4\nvalue = [6, 2]"] ;
43 -> 44 ;
45 [label="gini = 0.32\nsamples = 4\nvalue = [4, 1]"] ;
43 -> 45 ;
46 [label="X[3] <= 1.5\ngini = 0.262\nsamples = 98\nvalue = [131, 24]"] ;
38 -> 46 ;
47 [label="X[2] <= 27.5\ngini = 0.26\nsamples = 92\nvalue = [121, 22]"] ;
46 -> 47 ;
48 [label="gini = 0.219\nsamples = 5\nvalue = [1, 7]"] ;
47 -> 48 ;
49 [label="gini = 0.198\nsamples = 87\nvalue = [120, 15]"] ;
47 -> 49 ;
50 [label="X[2] <= 47.0\ngini = 0.278\nsamples = 6\nvalue = [10, 2]"] ;
46 -> 50 ;
51 [label="gini = 0.0\nsamples = 5\nvalue = [10, 0]"] ;
50 -> 51 ;
52 [label="gini = 0.0\nsamples = 1\nvalue = [0, 2]"] ;
50 -> 52 ;
53 [label="X[4] <= 3.5\ngini = 0.417\nsamples = 90\nvalue = [46, 109]"] ;
31 -> 53 ;
54 [label="X[4] <= 0.5\ngini = 0.402\nsamples = 88\nvalue = [42, 109]"] ;
53 -> 54 ;
55 [label="X[2] <= 27.5\ngini = 0.344\nsamples = 55\nvalue = [21, 74]"] ;
54 -> 55 ;
56 [label="X[3] <= 0.5\ngini = 0.453\nsamples = 29\nvalue = [17, 32]"] ;
55 -> 56 ;
57 [label="gini = 0.36\nsamples = 20\nvalue = [8, 26]"] ;
56 -> 57 ;
58 [label="gini = 0.48\nsamples = 9\nvalue = [9, 6]"] ;
56 -> 58 ;
59 [label="X[6] <= 2.5\ngini = 0.159\nsamples = 26\nvalue = [4, 42]"] ;
55 -> 59 ;
60 [label="gini = 0.245\nsamples = 10\nvalue = [2, 12]"] ;
59 -> 60 ;
61 [label="gini = 0.117\nsamples = 16\nvalue = [2, 30]"] ;
59 -> 61 ;
62 [label="X[3] <= 2.5\ngini = 0.469\nsamples = 33\nvalue = [21, 35]"] ;
54 -> 62 ;
63 [label="X[2] <= 30.5\ngini = 0.42\nsamples = 29\nvalue = [15, 35]"] ;
62 -> 63 ;
64 [label="gini = 0.486\nsamples = 20\nvalue = [15, 21]"] ;
63 -> 64 ;
65 [label="gini = 0.0\nsamples = 9\nvalue = [0, 14]"] ;
63 -> 65 ;
66 [label="gini = 0.0\nsamples = 4\nvalue = [6, 0]"] ;
62 -> 66 ;
67 [label="gini = 0.0\nsamples = 2\nvalue = [4, 0]"] ;
53 -> 67 ;
68 [label="X[2] <= 75.0\ngini = 0.105\nsamples = 10\nvalue = [17, 1]"] ;
30 -> 68 ;
69 [label="gini = 0.0\nsamples = 9\nvalue = [17, 0]"] ;
68 -> 69 ;
70 [label="gini = 0.0\nsamples = 1\nvalue = [0, 1]"] ;
68 -> 70 ;
}
