digraph Tree {
node [shape=box] ;
0 [label="X[5] <= 0.5\ngini = 0.489\nsamples = 339\nvalue = [306, 228]"] ;
1 [label="X[6] <= 1.0\ngini = 0.467\nsamples = 64\nvalue = [36, 61]"] ;
0 -> 1 [labeldistance=2.5, labelangle=45, headlabel="True"] ;
2 [label="X[3] <= 0.5\ngini = 0.482\nsamples = 29\nvalue = [31, 21]"] ;
1 -> 2 ;
3 [label="X[0] <= 2.5\ngini = 0.484\nsamples = 20\nvalue = [23, 16]"] ;
2 -> 3 ;
4 [label="X[2] <= 48.0\ngini = 0.434\nsamples = 11\nvalue = [15, 7]"] ;
3 -> 4 ;
5 [label="X[4] <= 0.5\ngini = 0.486\nsamples = 6\nvalue = [5, 7]"] ;
4 -> 5 ;
6 [label="X[2] <= 25.0\ngini = 0.42\nsamples = 4\nvalue = [3, 7]"] ;
5 -> 6 ;
7 [label="gini = 0.0\nsamples = 1\nvalue = [3, 0]"] ;
6 -> 7 ;
8 [label="gini = 0.0\nsamples = 3\nvalue = [0, 7]"] ;
6 -> 8 ;
9 [label="gini = 0.0\nsamples = 2\nvalue = [2, 0]"] ;
5 -> 9 ;
10 [label="gini = 0.0\nsamples = 5\nvalue = [10, 0]"] ;
4 -> 10 ;
11 [label="X[2] <= 21.0\ngini = 0.498\nsamples = 9\nvalue = [8, 9]"] ;
3 -> 11 ;
12 [label="gini = 0.245\nsamples = 2\nvalue = [1, 6]"] ;
11 -> 12 ;
13 [label="X[2] <= 25.5\ngini = 0.42\nsamples = 7\nvalue = [7, 3]"] ;
11 -> 13 ;
14 [label="gini = 0.0\nsamples = 3\nvalue = [3, 0]"] ;
13 -> 14 ;
15 [label="X[2] <= 27.0\ngini = 0.49\nsamples = 4\nvalue = [4, 3]"] ;
13 -> 15 ;
16 [label="gini = 0.0\nsamples = 1\nvalue = [0, 2]"] ;
15 -> 16 ;
17 [label="gini = 0.32\nsamples = 3\nvalue = [4, 1]"] ;
15 -> 17 ;
18 [label="X[4] <= 0.5\ngini = 0.473\nsamples = 9\nvalue = [8, 5]"] ;
2 -> 18 ;
19 [label="X[2] <= 26.0\ngini = 0.444\nsamples = 6\nvalue = [6, 3]"] ;
18 -> 19 ;
20 [label="gini = 0.0\nsamples = 1\nvalue = [0, 1]"] ;
19 -> 20 ;
21 [label="X[0] <= 1.5\ngini = 0.375\nsamples = 5\nvalue = [6, 2]"] ;
19 -> 21 ;
22 [label="X[2] <= 38.0\ngini = 0.444\nsamples = 3\nvalue = [4, 2]"] ;
21 -> 22 ;
23 [label="gini = 0.0\nsamples = 1\nvalue = [3, 0]"] ;
22 -> 23 ;
24 [label="gini = 0.444\nsamples = 2\nvalue = [1, 2]"] ;
22 -> 24 ;
25 [label="gini = 0.0\nsamples = 2\nvalue = [2, 0]"] ;
21 -> 25 ;
26 [label="X[0] <= 2.0\ngini = 0.5\nsamples = 3\nvalue = [2, 2]"] ;
18 -> 26 ;
27 [label="gini = 0.0\nsamples = 1\nvalue = [1, 0]"] ;
26 -> 27 ;
28 [label="X[2] <= 18.5\ngini = 0.444\nsamples = 2\nvalue = [1, 2]"] ;
26 -> 28 ;
29 [label="gini = 0.0\nsamples = 1\nvalue = [1, 0]"] ;
28 -> 29 ;
30 [label="gini = 0.0\nsamples = 1\nvalue = [0, 2]"] ;
28 -> 30 ;
31 [label="X[0] <= 2.5\ngini = 0.198\nsamples = 35\nvalue = [5, 40]"] ;
1 -> 31 ;
32 [label="gini = 0.0\nsamples = 26\nvalue = [0, 32]"] ;
31 -> 32 ;
33 [label="X[6] <= 2.5\ngini = 0.473\nsamples = 9\nvalue = [5, 8]"] ;
31 -> 33 ;
34 [label="X[4] <= 1.5\ngini = 0.494\nsamples = 6\nvalue = [5, 4]"] ;
33 -> 34 ;
35 [label="X[3] <= 1.5\ngini = 0.469\nsamples = 5\nvalue = [5, 3]"] ;
34 -> 35 ;
36 [label="X[3] <= 0.5\ngini = 0.408\nsamples = 4\nvalue = [5, 2]"] ;
35 -> 36 ;
37 [label="gini = 0.5\nsamples = 3\nvalue = [2, 2]"] ;
36 -> 37 ;
38 [label="gini = 0.0\nsamples = 1\nvalue = [3, 0]"] ;
36 -> 38 ;
39 [label="gini = 0.0\nsamples = 1\nvalue = [0, 1]"] ;
35 -> 39 ;
40 [label="gini = 0.0\nsamples = 1\nvalue = [0, 1]"] ;
34 -> 40 ;
41 [label="gini = 0.0\nsamples = 3\nvalue = [0, 4]"] ;
33 -> 41 ;
42 [label="X[1] <= 0.5\ngini = 0.472\nsamples = 275\nvalue = [270, 167]"] ;
0 -> 42 [labeldistance=2.5, labelangle=-45, headlabel="False"] ;
43 [label="X[5] <= 1.5\ngini = 0.367\nsamples = 99\nvalue = [37, 116]"] ;
42 -> 43 ;
44 [label="X[6] <= 2.5\ngini = 0.35\nsamples = 92\nvalue = [31, 106]"] ;
43 -> 44 ;
45 [label="X[0] <= 2.5\ngini = 0.371\nsamples = 46\nvalue = [17, 52]"] ;
44 -> 45 ;
46 [label="X[4] <= 0.5\ngini = 0.165\nsamples = 23\nvalue = [3, 30]"] ;
45 -> 46 ;
47 [label="X[2] <= 36.5\ngini = 0.26\nsamples = 11\nvalue = [2, 11]"] ;
46 -> 47 ;
48 [label="gini = 0.18\nsamples = 9\nvalue = [1, 9]"] ;
47 -> 48 ;
49 [label="gini = 0.444\nsamples = 2\nvalue = [1, 2]"] ;
47 -> 49 ;
50 [label="X[2] <= 3.0\ngini = 0.095\nsamples = 12\nvalue = [1, 19]"] ;
46 -> 50 ;
51 [label="gini = 0.5\nsamples = 2\nvalue = [1, 1]"] ;
50 -> 51 ;
52 [label="gini = 0.0\nsamples = 10\nvalue = [0, 18]"] ;
50 -> 52 ;
53 [label="X[4] <= 1.5\ngini = 0.475\nsamples = 23\nvalue = [14, 22]"] ;
45 -> 53 ;
54 [label="X[2] <= 29.0\ngini = 0.426\nsamples = 17\nvalue = [8, 18]"] ;
53 -> 54 ;
55 [label="gini = 0.34\nsamples = 15\nvalue = [5, 18]"] ;
54 -> 55 ;
56 [label="gini = 0.0\nsamples = 2\nvalue = [3, 0]"] ;
54 -> 56 ;
57 [label="X[3] <= 3.5\ngini = 0.48\nsamples = 6\nvalue = [6, 4]"] ;
53 -> 57 ;
58 [label="gini = 0.0\nsamples = 2\nvalue = [3, 0]"] ;
57 -> 58 ;
59 [label="gini = 0.49\nsamples = 4\nvalue = [3, 4]"] ;
57 -> 59 ;
60 [label="X[0] <= 2.5\ngini = 0.327\nsamples = 46\nvalue = [14, 54]"] ;
44 -> 60 ;
61 [label="X[4] <= 1.5\ngini = 0.091\nsamples = 31\nvalue = [2, 40]"] ;
60 -> 61 ;
62 [label="X[2] <= 56.0\ngini = 0.053\nsamples = 27\nvalue = [1, 36]"] ;
61 -> 62 ;
63 [label="gini = 0.0\nsamples = 26\nvalue = [0, 36]"] ;
62 -> 63 ;
64 [label="gini = 0.0\nsamples = 1\nvalue = [1, 0]"] ;
62 -> 64 ;
65 [label="X[0] <= 1.5\ngini = 0.32\nsamples = 4\nvalue = [1, 4]"] ;
61 -> 65 ;
66 [label="gini = 0.0\nsamples = 1\nvalue = [1, 0]"] ;
65 -> 66 ;
67 [label="gini = 0.0\nsamples = 3\nvalue = [0, 4]"] ;
65 -> 67 ;
68 [label="X[3] <= 0.5\ngini = 0.497\nsamples = 15\nvalue = [12, 14]"] ;
60 -> 68 ;
69 [label="X[4] <= 3.0\ngini = 0.198\nsamples = 6\nvalue = [1, 8]"] ;
68 -> 69 ;
70 [label="gini = 0.0\nsamples = 5\nvalue = [0, 8]"] ;
69 -> 70 ;
71 [label="gini = 0.0\nsamples = 1\nvalue = [1, 0]"] ;
69 -> 71 ;
72 [label="X[4] <= 3.5\ngini = 0.457\nsamples = 9\nvalue = [11, 6]"] ;
68 -> 72 ;
73 [label="gini = 0.469\nsamples = 8\nvalue = [10, 6]"] ;
72 -> 73 ;
74 [label="gini = 0.0\nsamples = 1\nvalue = [1, 0]"] ;
72 -> 74 ;
75 [label="X[0] <= 2.5\ngini = 0.469\nsamples = 7\nvalue = [6, 10]"] ;
43 -> 75 ;
76 [label="gini = 0.0\nsamples = 2\nvalue = [0, 5]"] ;
75 -> 76 ;
77 [label="X[6] <= 2.5\ngini = 0.496\nsamples = 5\nvalue = [6, 5]"] ;
75 -> 77 ;
78 [label="X[2] <= 17.0\ngini = 0.469\nsamples = 4\nvalue = [3, 5]"] ;
77 -> 78 ;
79 [label="gini = 0.0\nsamples = 1\nvalue = [0, 4]"] ;
78 -> 79 ;
80 [label="X[2] <= 20.0\ngini = 0.375\nsamples = 3\nvalue = [3, 1]"] ;
78 -> 80 ;
81 [label="gini = 0.5\nsamples = 2\nvalue = [1, 1]"] ;
80 -> 81 ;
82 [label="gini = 0.0\nsamples = 1\nvalue = [2, 0]"] ;
80 -> 82 ;
83 [label="gini = 0.0\nsamples = 1\nvalue = [3, 0]"] ;
77 -> 83 ;
84 [label="X[0] <= 2.5\ngini = 0.295\nsamples = 176\nvalue = [233, 51]"] ;
42 -> 84 ;
85 [label="X[2] <= 12.0\ngini = 0.401\nsamples = 74\nvalue = [91, 35]"] ;
84 -> 85 ;
86 [label="gini = 0.0\nsamples = 5\nvalue = [0, 11]"] ;
85 -> 86 ;
87 [label="X[2] <= 53.0\ngini = 0.33\nsamples = 69\nvalue = [91, 24]"] ;
85 -> 87 ;
88 [label="X[3] <= 2.5\ngini = 0.375\nsamples = 53\nvalue = [69, 23]"] ;
87 -> 88 ;
89 [label="X[2] <= 48.5\ngini = 0.38\nsamples = 52\nvalue = [67, 23]"] ;
88 -> 89 ;
90 [label="gini = 0.353\nsamples = 47\nvalue = [64, 19]"] ;
89 -> 90 ;
91 [label="gini = 0.49\nsamples = 5\nvalue = [3, 4]"] ;
89 -> 91 ;
92 [label="gini = 0.0\nsamples = 1\nvalue = [2, 0]"] ;
88 -> 92 ;
93 [label="X[4] <= 0.5\ngini = 0.083\nsamples = 16\nvalue = [22, 1]"] ;
87 -> 93 ;
94 [label="X[0] <= 1.5\ngini = 0.095\nsamples = 14\nvalue = [19, 1]"] ;
93 -> 94 ;
95 [label="gini = 0.0\nsamples = 7\nvalue = [9, 0]"] ;
94 -> 95 ;
96 [label="gini = 0.165\nsamples = 7\nvalue = [10, 1]"] ;
94 -> 96 ;
97 [label="gini = 0.0\nsamples = 2\nvalue = [3, 0]"] ;
93 -> 97 ;
98 [label="X[2] <= 1.5\ngini = 0.182\nsamples = 102\nvalue = [142, 16]"] ;
84 -> 98 ;
99 [label="gini = 0.0\nsamples = 1\nvalue = [0, 1]"] ;
98 -> 99 ;
100 [label="X[5] <= 1.5\ngini = 0.173\nsamples = 101\nvalue = [142, 15]"] ;
98 -> 100 ;
101 [label="X[2] <= 31.0\ngini = 0.182\nsamples = 95\nvalue = [133, 15]"] ;
100 -> 101 ;
102 [label="X[3] <= 0.5\ngini = 0.138\nsamples = 67\nvalue = [99, 8]"] ;
101 -> 102 ;
103 [label="gini = 0.097\nsamples = 50\nvalue = [74, 4]"] ;
102 -> 103 ;
104 [label="gini = 0.238\nsamples = 17\nvalue = [25, 4]"] ;
102 -> 104 ;
105 [label="X[4] <= 0.5\ngini = 0.283\nsamples = 28\nvalue = [34, 7]"] ;
101 -> 105 ;
106 [label="gini = 0.327\nsamples = 24\nvalue = [27, 7]"] ;
105 -> 106 ;
107 [label="gini = 0.0\nsamples = 4\nvalue = [7, 0]"] ;
105 -> 107 ;
108 [label="gini = 0.0\nsamples = 6\nvalue = [9, 0]"] ;
100 -> 108 ;
}
