digraph Tree {
node [shape=box] ;
0 [label="X[6] <= 0.5\ngini = 0.48\nsamples = 348\nvalue = [321, 213]"] ;
1 [label="X[5] <= 0.5\ngini = 0.242\nsamples = 201\nvalue = [263, 43]"] ;
0 -> 1 [labeldistance=2.5, labelangle=45, headlabel="True"] ;
2 [label="X[2] <= 49.5\ngini = 0.411\nsamples = 36\nvalue = [37, 15]"] ;
1 -> 2 ;
3 [label="X[3] <= 0.5\ngini = 0.459\nsamples = 30\nvalue = [27, 15]"] ;
2 -> 3 ;
4 [label="X[2] <= 36.0\ngini = 0.452\nsamples = 21\nvalue = [19, 10]"] ;
3 -> 4 ;
5 [label="X[2] <= 31.0\ngini = 0.496\nsamples = 17\nvalue = [12, 10]"] ;
4 -> 5 ;
6 [label="X[2] <= 21.0\ngini = 0.444\nsamples = 15\nvalue = [12, 6]"] ;
5 -> 6 ;
7 [label="gini = 0.0\nsamples = 2\nvalue = [0, 2]"] ;
6 -> 7 ;
8 [label="gini = 0.375\nsamples = 13\nvalue = [12, 4]"] ;
6 -> 8 ;
9 [label="gini = 0.0\nsamples = 2\nvalue = [0, 4]"] ;
5 -> 9 ;
10 [label="gini = 0.0\nsamples = 4\nvalue = [7, 0]"] ;
4 -> 10 ;
11 [label="X[0] <= 1.5\ngini = 0.473\nsamples = 9\nvalue = [8, 5]"] ;
3 -> 11 ;
12 [label="X[2] <= 26.5\ngini = 0.444\nsamples = 4\nvalue = [2, 4]"] ;
11 -> 12 ;
13 [label="gini = 0.0\nsamples = 1\nvalue = [0, 2]"] ;
12 -> 13 ;
14 [label="X[2] <= 38.0\ngini = 0.5\nsamples = 3\nvalue = [2, 2]"] ;
12 -> 14 ;
15 [label="gini = 0.0\nsamples = 1\nvalue = [2, 0]"] ;
14 -> 15 ;
16 [label="gini = 0.0\nsamples = 2\nvalue = [0, 2]"] ;
14 -> 16 ;
17 [label="X[0] <= 2.5\ngini = 0.245\nsamples = 5\nvalue = [6, 1]"] ;
11 -> 17 ;
18 [label="gini = 0.0\nsamples = 2\nvalue = [2, 0]"] ;
17 -> 18 ;
19 [label="X[2] <= 18.5\ngini = 0.32\nsamples = 3\nvalue = [4, 1]"] ;
17 -> 19 ;
20 [label="gini = 0.0\nsamples = 2\nvalue = [4, 0]"] ;
19 -> 20 ;
21 [label="gini = 0.0\nsamples = 1\nvalue = [0, 1]"] ;
19 -> 21 ;
22 [label="gini = 0.0\nsamples = 6\nvalue = [10, 0]"] ;
2 -> 22 ;
23 [label="X[5] <= 1.5\ngini = 0.196\nsamples = 165\nvalue = [226, 28]"] ;
1 -> 23 ;
24 [label="X[4] <= 0.5\ngini = 0.2\nsamples = 161\nvalue = [220, 28]"] ;
23 -> 24 ;
25 [label="X[0] <= 1.5\ngini = 0.209\nsamples = 148\nvalue = [193, 26]"] ;
24 -> 25 ;
26 [label="X[2] <= 37.5\ngini = 0.368\nsamples = 27\nvalue = [28, 9]"] ;
25 -> 26 ;
27 [label="X[2] <= 34.5\ngini = 0.408\nsamples = 6\nvalue = [2, 5]"] ;
26 -> 27 ;
28 [label="gini = 0.5\nsamples = 4\nvalue = [2, 2]"] ;
27 -> 28 ;
29 [label="gini = 0.0\nsamples = 2\nvalue = [0, 3]"] ;
27 -> 29 ;
30 [label="X[2] <= 72.0\ngini = 0.231\nsamples = 21\nvalue = [26, 4]"] ;
26 -> 30 ;
31 [label="gini = 0.185\nsamples = 20\nvalue = [26, 3]"] ;
30 -> 31 ;
32 [label="gini = 0.0\nsamples = 1\nvalue = [0, 1]"] ;
30 -> 32 ;
33 [label="X[2] <= 60.5\ngini = 0.169\nsamples = 121\nvalue = [165, 17]"] ;
25 -> 33 ;
34 [label="X[0] <= 2.5\ngini = 0.162\nsamples = 119\nvalue = [164, 16]"] ;
33 -> 34 ;
35 [label="gini = 0.1\nsamples = 26\nvalue = [36, 2]"] ;
34 -> 35 ;
36 [label="gini = 0.178\nsamples = 93\nvalue = [128, 14]"] ;
34 -> 36 ;
37 [label="X[2] <= 64.0\ngini = 0.5\nsamples = 2\nvalue = [1, 1]"] ;
33 -> 37 ;
38 [label="gini = 0.0\nsamples = 1\nvalue = [0, 1]"] ;
37 -> 38 ;
39 [label="gini = 0.0\nsamples = 1\nvalue = [1, 0]"] ;
37 -> 39 ;
40 [label="X[3] <= 0.5\ngini = 0.128\nsamples = 13\nvalue = [27, 2]"] ;
24 -> 40 ;
41 [label="gini = 0.0\nsamples = 3\nvalue = [13, 0]"] ;
40 -> 41 ;
42 [label="X[0] <= 1.5\ngini = 0.219\nsamples = 10\nvalue = [14, 2]"] ;
40 -> 42 ;
43 [label="X[2] <= 27.5\ngini = 0.444\nsamples = 3\nvalue = [4, 2]"] ;
42 -> 43 ;
44 [label="gini = 0.0\nsamples = 1\nvalue = [3, 0]"] ;
43 -> 44 ;
45 [label="gini = 0.444\nsamples = 2\nvalue = [1, 2]"] ;
43 -> 45 ;
46 [label="gini = 0.0\nsamples = 7\nvalue = [10, 0]"] ;
42 -> 46 ;
47 [label="gini = 0.0\nsamples = 4\nvalue = [6, 0]"] ;
23 -> 47 ;
48 [label="X[3] <= 2.5\ngini = 0.379\nsamples = 147\nvalue = [58, 170]"] ;
0 -> 48 [labeldistance=2.5, labelangle=-45, headlabel="False"] ;
49 [label="X[0] <= 2.5\ngini = 0.312\nsamples = 132\nvalue = [40, 167]"] ;
48 -> 49 ;
50 [label="X[2] <= 24.5\ngini = 0.102\nsamples = 84\nvalue = [7, 123]"] ;
49 -> 50 ;
51 [label="gini = 0.0\nsamples = 32\nvalue = [0, 47]"] ;
50 -> 51 ;
52 [label="X[5] <= 0.5\ngini = 0.154\nsamples = 52\nvalue = [7, 76]"] ;
50 -> 52 ;
53 [label="gini = 0.0\nsamples = 17\nvalue = [0, 25]"] ;
52 -> 53 ;
54 [label="X[0] <= 1.5\ngini = 0.212\nsamples = 35\nvalue = [7, 51]"] ;
52 -> 54 ;
55 [label="X[4] <= 1.5\ngini = 0.208\nsamples = 11\nvalue = [2, 15]"] ;
54 -> 55 ;
56 [label="gini = 0.0\nsamples = 9\nvalue = [0, 11]"] ;
55 -> 56 ;
57 [label="gini = 0.444\nsamples = 2\nvalue = [2, 4]"] ;
55 -> 57 ;
58 [label="X[3] <= 0.5\ngini = 0.214\nsamples = 24\nvalue = [5, 36]"] ;
54 -> 58 ;
59 [label="gini = 0.245\nsamples = 15\nvalue = [4, 24]"] ;
58 -> 59 ;
60 [label="gini = 0.142\nsamples = 9\nvalue = [1, 12]"] ;
58 -> 60 ;
61 [label="X[6] <= 1.5\ngini = 0.49\nsamples = 48\nvalue = [33, 44]"] ;
49 -> 61 ;
62 [label="gini = 0.0\nsamples = 5\nvalue = [0, 10]"] ;
61 -> 62 ;
63 [label="X[4] <= 3.5\ngini = 0.5\nsamples = 43\nvalue = [33, 34]"] ;
61 -> 63 ;
64 [label="X[2] <= 17.0\ngini = 0.498\nsamples = 40\nvalue = [30, 34]"] ;
63 -> 64 ;
65 [label="X[4] <= 0.5\ngini = 0.208\nsamples = 11\nvalue = [2, 15]"] ;
64 -> 65 ;
66 [label="gini = 0.0\nsamples = 6\nvalue = [0, 10]"] ;
65 -> 66 ;
67 [label="gini = 0.408\nsamples = 5\nvalue = [2, 5]"] ;
65 -> 67 ;
68 [label="X[6] <= 2.5\ngini = 0.482\nsamples = 29\nvalue = [28, 19]"] ;
64 -> 68 ;
69 [label="gini = 0.473\nsamples = 17\nvalue = [16, 10]"] ;
68 -> 69 ;
70 [label="gini = 0.49\nsamples = 12\nvalue = [12, 9]"] ;
68 -> 70 ;
71 [label="gini = 0.0\nsamples = 3\nvalue = [3, 0]"] ;
63 -> 71 ;
72 [label="X[0] <= 2.0\ngini = 0.245\nsamples = 15\nvalue = [18, 3]"] ;
48 -> 72 ;
73 [label="gini = 0.0\nsamples = 1\nvalue = [0, 2]"] ;
72 -> 73 ;
74 [label="X[4] <= 1.5\ngini = 0.1\nsamples = 14\nvalue = [18, 1]"] ;
72 -> 74 ;
75 [label="gini = 0.0\nsamples = 8\nvalue = [8, 0]"] ;
74 -> 75 ;
76 [label="X[3] <= 3.5\ngini = 0.165\nsamples = 6\nvalue = [10, 1]"] ;
74 -> 76 ;
77 [label="gini = 0.0\nsamples = 2\nvalue = [4, 0]"] ;
76 -> 77 ;
78 [label="X[1] <= 0.5\ngini = 0.245\nsamples = 4\nvalue = [6, 1]"] ;
76 -> 78 ;
79 [label="X[2] <= 13.0\ngini = 0.5\nsamples = 2\nvalue = [1, 1]"] ;
78 -> 79 ;
80 [label="gini = 0.0\nsamples = 1\nvalue = [1, 0]"] ;
79 -> 80 ;
81 [label="gini = 0.0\nsamples = 1\nvalue = [0, 1]"] ;
79 -> 81 ;
82 [label="gini = 0.0\nsamples = 2\nvalue = [5, 0]"] ;
78 -> 82 ;
}
