digraph Tree {
node [shape=box] ;
0 [label="X[0] <= 2.5\ngini = 0.479\nsamples = 329\nvalue = [322, 212]"] ;
1 [label="X[6] <= 0.5\ngini = 0.489\nsamples = 167\nvalue = [113, 153]"] ;
0 -> 1 [labeldistance=2.5, labelangle=45, headlabel="True"] ;
2 [label="X[3] <= 2.5\ngini = 0.394\nsamples = 94\nvalue = [108, 40]"] ;
1 -> 2 ;
3 [label="X[3] <= 1.5\ngini = 0.398\nsamples = 93\nvalue = [106, 40]"] ;
2 -> 3 ;
4 [label="X[0] <= 1.5\ngini = 0.395\nsamples = 91\nvalue = [105, 39]"] ;
3 -> 4 ;
5 [label="X[5] <= 0.5\ngini = 0.481\nsamples = 51\nvalue = [49, 33]"] ;
4 -> 5 ;
6 [label="X[2] <= 36.5\ngini = 0.483\nsamples = 19\nvalue = [16, 11]"] ;
5 -> 6 ;
7 [label="gini = 0.459\nsamples = 11\nvalue = [5, 9]"] ;
6 -> 7 ;
8 [label="gini = 0.26\nsamples = 8\nvalue = [11, 2]"] ;
6 -> 8 ;
9 [label="X[3] <= 0.5\ngini = 0.48\nsamples = 32\nvalue = [33, 22]"] ;
5 -> 9 ;
10 [label="gini = 0.475\nsamples = 23\nvalue = [22, 14]"] ;
9 -> 10 ;
11 [label="gini = 0.488\nsamples = 9\nvalue = [11, 8]"] ;
9 -> 11 ;
12 [label="X[5] <= 0.5\ngini = 0.175\nsamples = 40\nvalue = [56, 6]"] ;
4 -> 12 ;
13 [label="gini = 0.0\nsamples = 2\nvalue = [4, 0]"] ;
12 -> 13 ;
14 [label="X[3] <= 0.5\ngini = 0.185\nsamples = 38\nvalue = [52, 6]"] ;
12 -> 14 ;
15 [label="gini = 0.194\nsamples = 31\nvalue = [41, 5]"] ;
14 -> 15 ;
16 [label="gini = 0.153\nsamples = 7\nvalue = [11, 1]"] ;
14 -> 16 ;
17 [label="X[5] <= 1.5\ngini = 0.5\nsamples = 2\nvalue = [1, 1]"] ;
3 -> 17 ;
18 [label="gini = 0.0\nsamples = 1\nvalue = [0, 1]"] ;
17 -> 18 ;
19 [label="gini = 0.0\nsamples = 1\nvalue = [1, 0]"] ;
17 -> 19 ;
20 [label="gini = 0.0\nsamples = 1\nvalue = [2, 0]"] ;
2 -> 20 ;
21 [label="X[6] <= 1.5\ngini = 0.081\nsamples = 73\nvalue = [5, 113]"] ;
1 -> 21 ;
22 [label="gini = 0.0\nsamples = 5\nvalue = [0, 10]"] ;
21 -> 22 ;
23 [label="X[4] <= 1.5\ngini = 0.088\nsamples = 68\nvalue = [5, 103]"] ;
21 -> 23 ;
24 [label="X[5] <= 0.5\ngini = 0.062\nsamples = 58\nvalue = [3, 91]"] ;
23 -> 24 ;
25 [label="gini = 0.0\nsamples = 21\nvalue = [0, 39]"] ;
24 -> 25 ;
26 [label="X[2] <= 37.0\ngini = 0.103\nsamples = 37\nvalue = [3, 52]"] ;
24 -> 26 ;
27 [label="gini = 0.0\nsamples = 24\nvalue = [0, 35]"] ;
26 -> 27 ;
28 [label="X[0] <= 1.5\ngini = 0.255\nsamples = 13\nvalue = [3, 17]"] ;
26 -> 28 ;
29 [label="gini = 0.0\nsamples = 6\nvalue = [0, 9]"] ;
28 -> 29 ;
30 [label="gini = 0.397\nsamples = 7\nvalue = [3, 8]"] ;
28 -> 30 ;
31 [label="X[3] <= 0.5\ngini = 0.245\nsamples = 10\nvalue = [2, 12]"] ;
23 -> 31 ;
32 [label="gini = 0.0\nsamples = 4\nvalue = [0, 6]"] ;
31 -> 32 ;
33 [label="X[2] <= 2.5\ngini = 0.375\nsamples = 6\nvalue = [2, 6]"] ;
31 -> 33 ;
34 [label="gini = 0.0\nsamples = 1\nvalue = [1, 0]"] ;
33 -> 34 ;
35 [label="X[2] <= 24.5\ngini = 0.245\nsamples = 5\nvalue = [1, 6]"] ;
33 -> 35 ;
36 [label="gini = 0.0\nsamples = 2\nvalue = [0, 3]"] ;
35 -> 36 ;
37 [label="gini = 0.375\nsamples = 3\nvalue = [1, 3]"] ;
35 -> 37 ;
38 [label="X[6] <= 1.5\ngini = 0.343\nsamples = 162\nvalue = [209, 59]"] ;
0 -> 38 [labeldistance=2.5, labelangle=-45, headlabel="False"] ;
39 [label="X[6] <= 0.5\ngini = 0.235\nsamples = 111\nvalue = [159, 25]"] ;
38 -> 39 ;
40 [label="X[2] <= 32.5\ngini = 0.226\nsamples = 99\nvalue = [141, 21]"] ;
39 -> 40 ;
41 [label="X[5] <= 0.5\ngini = 0.265\nsamples = 76\nvalue = [107, 20]"] ;
40 -> 41 ;
42 [label="X[2] <= 18.5\ngini = 0.49\nsamples = 7\nvalue = [8, 6]"] ;
41 -> 42 ;
43 [label="gini = 0.0\nsamples = 2\nvalue = [5, 0]"] ;
42 -> 43 ;
44 [label="X[3] <= 0.5\ngini = 0.444\nsamples = 5\nvalue = [3, 6]"] ;
42 -> 44 ;
45 [label="gini = 0.5\nsamples = 4\nvalue = [3, 3]"] ;
44 -> 45 ;
46 [label="gini = 0.0\nsamples = 1\nvalue = [0, 3]"] ;
44 -> 46 ;
47 [label="X[4] <= 0.5\ngini = 0.217\nsamples = 69\nvalue = [99, 14]"] ;
41 -> 47 ;
48 [label="X[3] <= 1.5\ngini = 0.222\nsamples = 66\nvalue = [96, 14]"] ;
47 -> 48 ;
49 [label="gini = 0.229\nsamples = 64\nvalue = [92, 14]"] ;
48 -> 49 ;
50 [label="gini = 0.0\nsamples = 2\nvalue = [4, 0]"] ;
48 -> 50 ;
51 [label="gini = 0.0\nsamples = 3\nvalue = [3, 0]"] ;
47 -> 51 ;
52 [label="X[4] <= 0.5\ngini = 0.056\nsamples = 23\nvalue = [34, 1]"] ;
40 -> 52 ;
53 [label="X[3] <= 1.0\ngini = 0.069\nsamples = 19\nvalue = [27, 1]"] ;
52 -> 53 ;
54 [label="X[2] <= 43.5\ngini = 0.08\nsamples = 17\nvalue = [23, 1]"] ;
53 -> 54 ;
55 [label="gini = 0.0\nsamples = 14\nvalue = [20, 0]"] ;
54 -> 55 ;
56 [label="gini = 0.375\nsamples = 3\nvalue = [3, 1]"] ;
54 -> 56 ;
57 [label="gini = 0.0\nsamples = 2\nvalue = [4, 0]"] ;
53 -> 57 ;
58 [label="gini = 0.0\nsamples = 4\nvalue = [7, 0]"] ;
52 -> 58 ;
59 [label="X[3] <= 2.0\ngini = 0.298\nsamples = 12\nvalue = [18, 4]"] ;
39 -> 59 ;
60 [label="gini = 0.0\nsamples = 3\nvalue = [0, 4]"] ;
59 -> 60 ;
61 [label="gini = 0.0\nsamples = 9\nvalue = [18, 0]"] ;
59 -> 61 ;
62 [label="X[6] <= 2.5\ngini = 0.482\nsamples = 51\nvalue = [50, 34]"] ;
38 -> 62 ;
63 [label="X[3] <= 0.5\ngini = 0.497\nsamples = 39\nvalue = [35, 30]"] ;
62 -> 63 ;
64 [label="X[5] <= 1.5\ngini = 0.491\nsamples = 20\nvalue = [13, 17]"] ;
63 -> 64 ;
65 [label="X[4] <= 0.5\ngini = 0.5\nsamples = 16\nvalue = [11, 11]"] ;
64 -> 65 ;
66 [label="X[5] <= 0.5\ngini = 0.484\nsamples = 13\nvalue = [7, 10]"] ;
65 -> 66 ;
67 [label="gini = 0.444\nsamples = 2\nvalue = [2, 1]"] ;
66 -> 67 ;
68 [label="gini = 0.459\nsamples = 11\nvalue = [5, 9]"] ;
66 -> 68 ;
69 [label="X[5] <= 0.5\ngini = 0.32\nsamples = 3\nvalue = [4, 1]"] ;
65 -> 69 ;
70 [label="gini = 0.5\nsamples = 2\nvalue = [1, 1]"] ;
69 -> 70 ;
71 [label="gini = 0.0\nsamples = 1\nvalue = [3, 0]"] ;
69 -> 71 ;
72 [label="X[2] <= 17.0\ngini = 0.375\nsamples = 4\nvalue = [2, 6]"] ;
64 -> 72 ;
73 [label="gini = 0.0\nsamples = 2\nvalue = [0, 5]"] ;
72 -> 73 ;
74 [label="X[2] <= 18.5\ngini = 0.444\nsamples = 2\nvalue = [2, 1]"] ;
72 -> 74 ;
75 [label="gini = 0.0\nsamples = 1\nvalue = [2, 0]"] ;
74 -> 75 ;
76 [label="gini = 0.0\nsamples = 1\nvalue = [0, 1]"] ;
74 -> 76 ;
77 [label="X[4] <= 0.5\ngini = 0.467\nsamples = 19\nvalue = [22, 13]"] ;
63 -> 77 ;
78 [label="X[3] <= 1.5\ngini = 0.397\nsamples = 6\nvalue = [8, 3]"] ;
77 -> 78 ;
79 [label="X[2] <= 20.0\ngini = 0.469\nsamples = 5\nvalue = [5, 3]"] ;
78 -> 79 ;
80 [label="gini = 0.375\nsamples = 3\nvalue = [1, 3]"] ;
79 -> 80 ;
81 [label="gini = 0.0\nsamples = 2\nvalue = [4, 0]"] ;
79 -> 81 ;
82 [label="gini = 0.0\nsamples = 1\nvalue = [3, 0]"] ;
78 -> 82 ;
83 [label="X[5] <= 0.5\ngini = 0.486\nsamples = 13\nvalue = [14, 10]"] ;
77 -> 83 ;
84 [label="X[3] <= 1.5\ngini = 0.494\nsamples = 3\nvalue = [4, 5]"] ;
83 -> 84 ;
85 [label="gini = 0.0\nsamples = 1\nvalue = [4, 0]"] ;
84 -> 85 ;
86 [label="gini = 0.0\nsamples = 2\nvalue = [0, 5]"] ;
84 -> 86 ;
87 [label="X[2] <= 5.5\ngini = 0.444\nsamples = 10\nvalue = [10, 5]"] ;
83 -> 87 ;
88 [label="gini = 0.32\nsamples = 3\nvalue = [1, 4]"] ;
87 -> 88 ;
89 [label="gini = 0.18\nsamples = 7\nvalue = [9, 1]"] ;
87 -> 89 ;
90 [label="X[5] <= 0.5\ngini = 0.332\nsamples = 12\nvalue = [15, 4]"] ;
62 -> 90 ;
91 [label="gini = 0.0\nsamples = 2\nvalue = [0, 2]"] ;
90 -> 91 ;
92 [label="X[3] <= 0.5\ngini = 0.208\nsamples = 10\nvalue = [15, 2]"] ;
90 -> 92 ;
93 [label="X[2] <= 33.0\ngini = 0.444\nsamples = 3\nvalue = [1, 2]"] ;
92 -> 93 ;
94 [label="gini = 0.0\nsamples = 1\nvalue = [0, 1]"] ;
93 -> 94 ;
95 [label="X[2] <= 51.0\ngini = 0.5\nsamples = 2\nvalue = [1, 1]"] ;
93 -> 95 ;
96 [label="gini = 0.0\nsamples = 1\nvalue = [1, 0]"] ;
95 -> 96 ;
97 [label="gini = 0.0\nsamples = 1\nvalue = [0, 1]"] ;
95 -> 97 ;
98 [label="gini = 0.0\nsamples = 7\nvalue = [14, 0]"] ;
92 -> 98 ;
}
