digraph Tree {
node [shape=box] ;
0 [label="X[0] <= 2.5\ngini = 0.485\nsamples = 332\nvalue = [314, 220]"] ;
1 [label="X[3] <= 0.5\ngini = 0.478\nsamples = 153\nvalue = [92, 141]"] ;
0 -> 1 [labeldistance=2.5, labelangle=45, headlabel="True"] ;
2 [label="X[5] <= 1.5\ngini = 0.492\nsamples = 103\nvalue = [70, 90]"] ;
1 -> 2 ;
3 [label="X[1] <= 0.5\ngini = 0.49\nsamples = 102\nvalue = [68, 90]"] ;
2 -> 3 ;
4 [label="X[5] <= 0.5\ngini = 0.061\nsamples = 42\nvalue = [2, 61]"] ;
3 -> 4 ;
5 [label="gini = 0.0\nsamples = 12\nvalue = [0, 18]"] ;
4 -> 5 ;
6 [label="X[6] <= 2.5\ngini = 0.085\nsamples = 30\nvalue = [2, 43]"] ;
4 -> 6 ;
7 [label="X[4] <= 0.5\ngini = 0.074\nsamples = 18\nvalue = [1, 25]"] ;
6 -> 7 ;
8 [label="gini = 0.1\nsamples = 14\nvalue = [1, 18]"] ;
7 -> 8 ;
9 [label="gini = 0.0\nsamples = 4\nvalue = [0, 7]"] ;
7 -> 9 ;
10 [label="X[4] <= 0.5\ngini = 0.1\nsamples = 12\nvalue = [1, 18]"] ;
6 -> 10 ;
11 [label="gini = 0.219\nsamples = 5\nvalue = [1, 7]"] ;
10 -> 11 ;
12 [label="gini = 0.0\nsamples = 7\nvalue = [0, 11]"] ;
10 -> 12 ;
13 [label="X[6] <= 0.5\ngini = 0.424\nsamples = 60\nvalue = [66, 29]"] ;
3 -> 13 ;
14 [label="X[2] <= 46.0\ngini = 0.412\nsamples = 58\nvalue = [66, 27]"] ;
13 -> 14 ;
15 [label="X[4] <= 0.5\ngini = 0.479\nsamples = 39\nvalue = [35, 23]"] ;
14 -> 15 ;
16 [label="gini = 0.491\nsamples = 35\nvalue = [29, 22]"] ;
15 -> 16 ;
17 [label="gini = 0.245\nsamples = 4\nvalue = [6, 1]"] ;
15 -> 17 ;
18 [label="X[2] <= 49.0\ngini = 0.202\nsamples = 19\nvalue = [31, 4]"] ;
14 -> 18 ;
19 [label="gini = 0.0\nsamples = 3\nvalue = [9, 0]"] ;
18 -> 19 ;
20 [label="gini = 0.26\nsamples = 16\nvalue = [22, 4]"] ;
18 -> 20 ;
21 [label="gini = 0.0\nsamples = 2\nvalue = [0, 2]"] ;
13 -> 21 ;
22 [label="gini = 0.0\nsamples = 1\nvalue = [2, 0]"] ;
2 -> 22 ;
23 [label="X[4] <= 1.5\ngini = 0.421\nsamples = 50\nvalue = [22, 51]"] ;
1 -> 23 ;
24 [label="X[0] <= 1.5\ngini = 0.379\nsamples = 41\nvalue = [15, 44]"] ;
23 -> 24 ;
25 [label="X[3] <= 1.5\ngini = 0.284\nsamples = 25\nvalue = [6, 29]"] ;
24 -> 25 ;
26 [label="X[1] <= 0.5\ngini = 0.305\nsamples = 23\nvalue = [6, 26]"] ;
25 -> 26 ;
27 [label="gini = 0.0\nsamples = 13\nvalue = [0, 19]"] ;
26 -> 27 ;
28 [label="X[2] <= 27.5\ngini = 0.497\nsamples = 10\nvalue = [6, 7]"] ;
26 -> 28 ;
29 [label="gini = 0.0\nsamples = 1\nvalue = [0, 2]"] ;
28 -> 29 ;
30 [label="gini = 0.496\nsamples = 9\nvalue = [6, 5]"] ;
28 -> 30 ;
31 [label="gini = 0.0\nsamples = 2\nvalue = [0, 3]"] ;
25 -> 31 ;
32 [label="X[6] <= 0.5\ngini = 0.469\nsamples = 16\nvalue = [9, 15]"] ;
24 -> 32 ;
33 [label="X[2] <= 33.0\ngini = 0.397\nsamples = 6\nvalue = [8, 3]"] ;
32 -> 33 ;
34 [label="X[3] <= 1.5\ngini = 0.375\nsamples = 2\nvalue = [1, 3]"] ;
33 -> 34 ;
35 [label="gini = 0.0\nsamples = 1\nvalue = [0, 3]"] ;
34 -> 35 ;
36 [label="gini = 0.0\nsamples = 1\nvalue = [1, 0]"] ;
34 -> 36 ;
37 [label="gini = 0.0\nsamples = 4\nvalue = [7, 0]"] ;
33 -> 37 ;
38 [label="X[6] <= 2.5\ngini = 0.142\nsamples = 10\nvalue = [1, 12]"] ;
32 -> 38 ;
39 [label="gini = 0.0\nsamples = 5\nvalue = [0, 7]"] ;
38 -> 39 ;
40 [label="X[2] <= 27.5\ngini = 0.278\nsamples = 5\nvalue = [1, 5]"] ;
38 -> 40 ;
41 [label="gini = 0.0\nsamples = 1\nvalue = [1, 0]"] ;
40 -> 41 ;
42 [label="gini = 0.0\nsamples = 4\nvalue = [0, 5]"] ;
40 -> 42 ;
43 [label="X[6] <= 1.0\ngini = 0.5\nsamples = 9\nvalue = [7, 7]"] ;
23 -> 43 ;
44 [label="X[3] <= 2.0\ngini = 0.32\nsamples = 3\nvalue = [4, 1]"] ;
43 -> 44 ;
45 [label="X[4] <= 3.0\ngini = 0.5\nsamples = 2\nvalue = [1, 1]"] ;
44 -> 45 ;
46 [label="gini = 0.0\nsamples = 1\nvalue = [0, 1]"] ;
45 -> 46 ;
47 [label="gini = 0.0\nsamples = 1\nvalue = [1, 0]"] ;
45 -> 47 ;
48 [label="gini = 0.0\nsamples = 1\nvalue = [3, 0]"] ;
44 -> 48 ;
49 [label="X[2] <= 3.5\ngini = 0.444\nsamples = 6\nvalue = [3, 6]"] ;
43 -> 49 ;
50 [label="gini = 0.0\nsamples = 1\nvalue = [2, 0]"] ;
49 -> 50 ;
51 [label="X[6] <= 2.5\ngini = 0.245\nsamples = 5\nvalue = [1, 6]"] ;
49 -> 51 ;
52 [label="gini = 0.0\nsamples = 3\nvalue = [0, 5]"] ;
51 -> 52 ;
53 [label="X[3] <= 1.5\ngini = 0.5\nsamples = 2\nvalue = [1, 1]"] ;
51 -> 53 ;
54 [label="gini = 0.0\nsamples = 1\nvalue = [1, 0]"] ;
53 -> 54 ;
55 [label="gini = 0.0\nsamples = 1\nvalue = [0, 1]"] ;
53 -> 55 ;
56 [label="X[1] <= 0.5\ngini = 0.387\nsamples = 179\nvalue = [222, 79]"] ;
0 -> 56 [labeldistance=2.5, labelangle=-45, headlabel="False"] ;
57 [label="X[4] <= 3.5\ngini = 0.497\nsamples = 58\nvalue = [46, 54]"] ;
56 -> 57 ;
58 [label="X[2] <= 5.5\ngini = 0.485\nsamples = 55\nvalue = [38, 54]"] ;
57 -> 58 ;
59 [label="X[3] <= 0.5\ngini = 0.165\nsamples = 6\nvalue = [1, 10]"] ;
58 -> 59 ;
60 [label="X[2] <= 1.5\ngini = 0.32\nsamples = 3\nvalue = [1, 4]"] ;
59 -> 60 ;
61 [label="gini = 0.0\nsamples = 1\nvalue = [0, 2]"] ;
60 -> 61 ;
62 [label="gini = 0.444\nsamples = 2\nvalue = [1, 2]"] ;
60 -> 62 ;
63 [label="gini = 0.0\nsamples = 3\nvalue = [0, 6]"] ;
59 -> 63 ;
64 [label="X[3] <= 0.5\ngini = 0.496\nsamples = 49\nvalue = [37, 44]"] ;
58 -> 64 ;
65 [label="X[6] <= 2.5\ngini = 0.457\nsamples = 30\nvalue = [18, 33]"] ;
64 -> 65 ;
66 [label="X[4] <= 0.5\ngini = 0.499\nsamples = 24\nvalue = [18, 20]"] ;
65 -> 66 ;
67 [label="gini = 0.49\nsamples = 22\nvalue = [15, 20]"] ;
66 -> 67 ;
68 [label="gini = 0.0\nsamples = 2\nvalue = [3, 0]"] ;
66 -> 68 ;
69 [label="gini = 0.0\nsamples = 6\nvalue = [0, 13]"] ;
65 -> 69 ;
70 [label="X[2] <= 11.5\ngini = 0.464\nsamples = 19\nvalue = [19, 11]"] ;
64 -> 70 ;
71 [label="gini = 0.0\nsamples = 4\nvalue = [7, 0]"] ;
70 -> 71 ;
72 [label="X[2] <= 20.0\ngini = 0.499\nsamples = 15\nvalue = [12, 11]"] ;
70 -> 72 ;
73 [label="gini = 0.298\nsamples = 5\nvalue = [2, 9]"] ;
72 -> 73 ;
74 [label="gini = 0.278\nsamples = 10\nvalue = [10, 2]"] ;
72 -> 74 ;
75 [label="gini = 0.0\nsamples = 3\nvalue = [8, 0]"] ;
57 -> 75 ;
76 [label="X[2] <= 3.5\ngini = 0.218\nsamples = 121\nvalue = [176, 25]"] ;
56 -> 76 ;
77 [label="X[2] <= 2.0\ngini = 0.375\nsamples = 4\nvalue = [2, 6]"] ;
76 -> 77 ;
78 [label="X[2] <= 0.5\ngini = 0.444\nsamples = 3\nvalue = [2, 4]"] ;
77 -> 78 ;
79 [label="gini = 0.0\nsamples = 1\nvalue = [0, 1]"] ;
78 -> 79 ;
80 [label="X[3] <= 2.5\ngini = 0.48\nsamples = 2\nvalue = [2, 3]"] ;
78 -> 80 ;
81 [label="gini = 0.0\nsamples = 1\nvalue = [0, 3]"] ;
80 -> 81 ;
82 [label="gini = 0.0\nsamples = 1\nvalue = [2, 0]"] ;
80 -> 82 ;
83 [label="gini = 0.0\nsamples = 1\nvalue = [0, 2]"] ;
77 -> 83 ;
84 [label="X[2] <= 5.5\ngini = 0.178\nsamples = 117\nvalue = [174, 19]"] ;
76 -> 84 ;
85 [label="X[5] <= 1.5\ngini = 0.408\nsamples = 4\nvalue = [5, 2]"] ;
84 -> 85 ;
86 [label="X[3] <= 2.0\ngini = 0.444\nsamples = 3\nvalue = [4, 2]"] ;
85 -> 86 ;
87 [label="gini = 0.0\nsamples = 1\nvalue = [0, 2]"] ;
86 -> 87 ;
88 [label="gini = 0.0\nsamples = 2\nvalue = [4, 0]"] ;
86 -> 88 ;
89 [label="gini = 0.0\nsamples = 1\nvalue = [1, 0]"] ;
85 -> 89 ;
90 [label="X[3] <= 0.5\ngini = 0.166\nsamples = 113\nvalue = [169, 17]"] ;
84 -> 90 ;
91 [label="X[4] <= 0.5\ngini = 0.185\nsamples = 90\nvalue = [139, 16]"] ;
90 -> 91 ;
92 [label="X[5] <= 0.5\ngini = 0.187\nsamples = 88\nvalue = [137, 16]"] ;
91 -> 92 ;
93 [label="gini = 0.475\nsamples = 9\nvalue = [11, 7]"] ;
92 -> 93 ;
94 [label="gini = 0.124\nsamples = 79\nvalue = [126, 9]"] ;
92 -> 94 ;
95 [label="gini = 0.0\nsamples = 2\nvalue = [2, 0]"] ;
91 -> 95 ;
96 [label="X[5] <= 0.5\ngini = 0.062\nsamples = 23\nvalue = [30, 1]"] ;
90 -> 96 ;
97 [label="gini = 0.0\nsamples = 1\nvalue = [3, 0]"] ;
96 -> 97 ;
98 [label="X[3] <= 1.5\ngini = 0.069\nsamples = 22\nvalue = [27, 1]"] ;
96 -> 98 ;
99 [label="gini = 0.124\nsamples = 11\nvalue = [14, 1]"] ;
98 -> 99 ;
100 [label="gini = 0.0\nsamples = 11\nvalue = [13, 0]"] ;
98 -> 100 ;
}
