digraph Tree {
node [shape=box] ;
0 [label="X[1] <= 0.5\ngini = 0.485\nsamples = 534\nvalue = [314, 220]"] ;
1 [label="X[0] <= 2.5\ngini = 0.373\nsamples = 202\nvalue = [50, 152]"] ;
0 -> 1 [labeldistance=2.5, labelangle=45, headlabel="True"] ;
2 [label="X[2] <= 2.5\ngini = 0.095\nsamples = 120\nvalue = [6, 114]"] ;
1 -> 2 ;
3 [label="X[3] <= 1.5\ngini = 0.5\nsamples = 2\nvalue = [1, 1]"] ;
2 -> 3 ;
4 [label="gini = 0.0\nsamples = 1\nvalue = [0, 1]"] ;
3 -> 4 ;
5 [label="gini = 0.0\nsamples = 1\nvalue = [1, 0]"] ;
3 -> 5 ;
6 [label="X[0] <= 1.5\ngini = 0.081\nsamples = 118\nvalue = [5, 113]"] ;
2 -> 6 ;
7 [label="X[3] <= 1.5\ngini = 0.031\nsamples = 64\nvalue = [1, 63]"] ;
6 -> 7 ;
8 [label="gini = 0.0\nsamples = 54\nvalue = [0, 54]"] ;
7 -> 8 ;
9 [label="X[2] <= 24.0\ngini = 0.18\nsamples = 10\nvalue = [1, 9]"] ;
7 -> 9 ;
10 [label="gini = 0.0\nsamples = 7\nvalue = [0, 7]"] ;
9 -> 10 ;
11 [label="X[2] <= 28.0\ngini = 0.444\nsamples = 3\nvalue = [1, 2]"] ;
9 -> 11 ;
12 [label="gini = 0.0\nsamples = 1\nvalue = [1, 0]"] ;
11 -> 12 ;
13 [label="gini = 0.0\nsamples = 2\nvalue = [0, 2]"] ;
11 -> 13 ;
14 [label="X[2] <= 56.0\ngini = 0.137\nsamples = 54\nvalue = [4, 50]"] ;
6 -> 14 ;
15 [label="X[3] <= 0.5\ngini = 0.107\nsamples = 53\nvalue = [3, 50]"] ;
14 -> 15 ;
16 [label="X[2] <= 27.5\ngini = 0.17\nsamples = 32\nvalue = [3, 29]"] ;
15 -> 16 ;
17 [label="gini = 0.278\nsamples = 12\nvalue = [2, 10]"] ;
16 -> 17 ;
18 [label="gini = 0.095\nsamples = 20\nvalue = [1, 19]"] ;
16 -> 18 ;
19 [label="gini = 0.0\nsamples = 21\nvalue = [0, 21]"] ;
15 -> 19 ;
20 [label="gini = 0.0\nsamples = 1\nvalue = [1, 0]"] ;
14 -> 20 ;
21 [label="X[2] <= 27.5\ngini = 0.497\nsamples = 82\nvalue = [44, 38]"] ;
1 -> 21 ;
22 [label="X[2] <= 1.5\ngini = 0.496\nsamples = 59\nvalue = [27, 32]"] ;
21 -> 22 ;
23 [label="gini = 0.0\nsamples = 3\nvalue = [0, 3]"] ;
22 -> 23 ;
24 [label="X[2] <= 11.5\ngini = 0.499\nsamples = 56\nvalue = [27, 29]"] ;
22 -> 24 ;
25 [label="X[2] <= 5.5\ngini = 0.355\nsamples = 13\nvalue = [10, 3]"] ;
24 -> 25 ;
26 [label="X[2] <= 4.0\ngini = 0.5\nsamples = 6\nvalue = [3, 3]"] ;
25 -> 26 ;
27 [label="gini = 0.375\nsamples = 4\nvalue = [3, 1]"] ;
26 -> 27 ;
28 [label="gini = 0.0\nsamples = 2\nvalue = [0, 2]"] ;
26 -> 28 ;
29 [label="gini = 0.0\nsamples = 7\nvalue = [7, 0]"] ;
25 -> 29 ;
30 [label="X[2] <= 16.5\ngini = 0.478\nsamples = 43\nvalue = [17, 26]"] ;
24 -> 30 ;
31 [label="X[2] <= 14.5\ngini = 0.219\nsamples = 8\nvalue = [1, 7]"] ;
30 -> 31 ;
32 [label="gini = 0.444\nsamples = 3\nvalue = [1, 2]"] ;
31 -> 32 ;
33 [label="gini = 0.0\nsamples = 5\nvalue = [0, 5]"] ;
31 -> 33 ;
34 [label="X[2] <= 21.5\ngini = 0.496\nsamples = 35\nvalue = [16, 19]"] ;
30 -> 34 ;
35 [label="gini = 0.475\nsamples = 18\nvalue = [11, 7]"] ;
34 -> 35 ;
36 [label="gini = 0.415\nsamples = 17\nvalue = [5, 12]"] ;
34 -> 36 ;
37 [label="X[4] <= 0.5\ngini = 0.386\nsamples = 23\nvalue = [17, 6]"] ;
21 -> 37 ;
38 [label="gini = 0.0\nsamples = 1\nvalue = [0, 1]"] ;
37 -> 38 ;
39 [label="X[2] <= 55.5\ngini = 0.351\nsamples = 22\nvalue = [17, 5]"] ;
37 -> 39 ;
40 [label="X[2] <= 36.5\ngini = 0.308\nsamples = 21\nvalue = [17, 4]"] ;
39 -> 40 ;
41 [label="X[2] <= 29.5\ngini = 0.426\nsamples = 13\nvalue = [9, 4]"] ;
40 -> 41 ;
42 [label="gini = 0.0\nsamples = 4\nvalue = [4, 0]"] ;
41 -> 42 ;
43 [label="gini = 0.494\nsamples = 9\nvalue = [5, 4]"] ;
41 -> 43 ;
44 [label="gini = 0.0\nsamples = 8\nvalue = [8, 0]"] ;
40 -> 44 ;
45 [label="gini = 0.0\nsamples = 1\nvalue = [0, 1]"] ;
39 -> 45 ;
46 [label="X[2] <= 1.5\ngini = 0.326\nsamples = 332\nvalue = [264, 68]"] ;
0 -> 46 [labeldistance=2.5, labelangle=-45, headlabel="False"] ;
47 [label="X[0] <= 2.5\ngini = 0.219\nsamples = 8\nvalue = [1, 7]"] ;
46 -> 47 ;
48 [label="gini = 0.0\nsamples = 5\nvalue = [0, 5]"] ;
47 -> 48 ;
49 [label="X[2] <= 0.5\ngini = 0.444\nsamples = 3\nvalue = [1, 2]"] ;
47 -> 49 ;
50 [label="gini = 0.0\nsamples = 1\nvalue = [0, 1]"] ;
49 -> 50 ;
51 [label="X[3] <= 1.5\ngini = 0.5\nsamples = 2\nvalue = [1, 1]"] ;
49 -> 51 ;
52 [label="gini = 0.0\nsamples = 1\nvalue = [1, 0]"] ;
51 -> 52 ;
53 [label="gini = 0.0\nsamples = 1\nvalue = [0, 1]"] ;
51 -> 53 ;
54 [label="X[0] <= 1.5\ngini = 0.306\nsamples = 324\nvalue = [263, 61]"] ;
46 -> 54 ;
55 [label="X[2] <= 53.0\ngini = 0.468\nsamples = 75\nvalue = [47, 28]"] ;
54 -> 55 ;
56 [label="X[2] <= 18.0\ngini = 0.498\nsamples = 58\nvalue = [31, 27]"] ;
55 -> 56 ;
57 [label="gini = 0.0\nsamples = 2\nvalue = [0, 2]"] ;
56 -> 57 ;
58 [label="X[2] <= 24.5\ngini = 0.494\nsamples = 56\nvalue = [31, 25]"] ;
56 -> 58 ;
59 [label="gini = 0.0\nsamples = 5\nvalue = [5, 0]"] ;
58 -> 59 ;
60 [label="X[2] <= 37.5\ngini = 0.5\nsamples = 51\nvalue = [26, 25]"] ;
58 -> 60 ;
61 [label="gini = 0.473\nsamples = 26\nvalue = [10, 16]"] ;
60 -> 61 ;
62 [label="gini = 0.461\nsamples = 25\nvalue = [16, 9]"] ;
60 -> 62 ;
63 [label="X[2] <= 75.5\ngini = 0.111\nsamples = 17\nvalue = [16, 1]"] ;
55 -> 63 ;
64 [label="gini = 0.0\nsamples = 16\nvalue = [16, 0]"] ;
63 -> 64 ;
65 [label="gini = 0.0\nsamples = 1\nvalue = [0, 1]"] ;
63 -> 65 ;
66 [label="X[2] <= 10.0\ngini = 0.23\nsamples = 249\nvalue = [216, 33]"] ;
54 -> 66 ;
67 [label="X[0] <= 2.5\ngini = 0.444\nsamples = 15\nvalue = [10, 5]"] ;
66 -> 67 ;
68 [label="gini = 0.0\nsamples = 2\nvalue = [0, 2]"] ;
67 -> 68 ;
69 [label="X[3] <= 1.5\ngini = 0.355\nsamples = 13\nvalue = [10, 3]"] ;
67 -> 69 ;
70 [label="X[4] <= 1.5\ngini = 0.444\nsamples = 9\nvalue = [6, 3]"] ;
69 -> 70 ;
71 [label="gini = 0.5\nsamples = 6\nvalue = [3, 3]"] ;
70 -> 71 ;
72 [label="gini = 0.0\nsamples = 3\nvalue = [3, 0]"] ;
70 -> 72 ;
73 [label="gini = 0.0\nsamples = 4\nvalue = [4, 0]"] ;
69 -> 73 ;
74 [label="X[4] <= 0.5\ngini = 0.211\nsamples = 234\nvalue = [206, 28]"] ;
66 -> 74 ;
75 [label="X[2] <= 29.5\ngini = 0.363\nsamples = 21\nvalue = [16, 5]"] ;
74 -> 75 ;
76 [label="X[0] <= 2.5\ngini = 0.444\nsamples = 15\nvalue = [10, 5]"] ;
75 -> 76 ;
77 [label="gini = 0.0\nsamples = 2\nvalue = [2, 0]"] ;
76 -> 77 ;
78 [label="gini = 0.473\nsamples = 13\nvalue = [8, 5]"] ;
76 -> 78 ;
79 [label="gini = 0.0\nsamples = 6\nvalue = [6, 0]"] ;
75 -> 79 ;
80 [label="X[3] <= 0.5\ngini = 0.193\nsamples = 213\nvalue = [190, 23]"] ;
74 -> 80 ;
81 [label="X[2] <= 26.5\ngini = 0.204\nsamples = 199\nvalue = [176, 23]"] ;
80 -> 81 ;
82 [label="gini = 0.156\nsamples = 94\nvalue = [86, 8]"] ;
81 -> 82 ;
83 [label="gini = 0.245\nsamples = 105\nvalue = [90, 15]"] ;
81 -> 83 ;
84 [label="gini = 0.0\nsamples = 14\nvalue = [14, 0]"] ;
80 -> 84 ;
}
