digraph Tree {
node [shape=box] ;
0 [label="X[2] <= 6.5\ngini = 0.491\nsamples = 338\nvalue = [303, 231]"] ;
1 [label="X[4] <= 1.5\ngini = 0.26\nsamples = 17\nvalue = [4, 22]"] ;
0 -> 1 [labeldistance=2.5, labelangle=45, headlabel="True"] ;
2 [label="X[2] <= 4.5\ngini = 0.211\nsamples = 16\nvalue = [3, 22]"] ;
1 -> 2 ;
3 [label="X[3] <= 1.5\ngini = 0.245\nsamples = 14\nvalue = [3, 18]"] ;
2 -> 3 ;
4 [label="X[0] <= 2.5\ngini = 0.133\nsamples = 8\nvalue = [1, 13]"] ;
3 -> 4 ;
5 [label="gini = 0.0\nsamples = 3\nvalue = [0, 7]"] ;
4 -> 5 ;
6 [label="X[2] <= 1.5\ngini = 0.245\nsamples = 5\nvalue = [1, 6]"] ;
4 -> 6 ;
7 [label="X[1] <= 0.5\ngini = 0.444\nsamples = 2\nvalue = [1, 2]"] ;
6 -> 7 ;
8 [label="gini = 0.0\nsamples = 1\nvalue = [0, 2]"] ;
7 -> 8 ;
9 [label="gini = 0.0\nsamples = 1\nvalue = [1, 0]"] ;
7 -> 9 ;
10 [label="gini = 0.0\nsamples = 3\nvalue = [0, 4]"] ;
6 -> 10 ;
11 [label="X[4] <= 0.5\ngini = 0.408\nsamples = 6\nvalue = [2, 5]"] ;
3 -> 11 ;
12 [label="gini = 0.0\nsamples = 3\nvalue = [0, 4]"] ;
11 -> 12 ;
13 [label="X[2] <= 1.5\ngini = 0.444\nsamples = 3\nvalue = [2, 1]"] ;
11 -> 13 ;
14 [label="gini = 0.0\nsamples = 1\nvalue = [0, 1]"] ;
13 -> 14 ;
15 [label="gini = 0.0\nsamples = 2\nvalue = [2, 0]"] ;
13 -> 15 ;
16 [label="gini = 0.0\nsamples = 2\nvalue = [0, 4]"] ;
2 -> 16 ;
17 [label="gini = 0.0\nsamples = 1\nvalue = [1, 0]"] ;
1 -> 17 ;
18 [label="X[1] <= 0.5\ngini = 0.484\nsamples = 321\nvalue = [299, 209]"] ;
0 -> 18 [labeldistance=2.5, labelangle=-45, headlabel="False"] ;
19 [label="X[4] <= 0.5\ngini = 0.361\nsamples = 116\nvalue = [43, 139]"] ;
18 -> 19 ;
20 [label="X[2] <= 18.5\ngini = 0.1\nsamples = 27\nvalue = [2, 36]"] ;
19 -> 20 ;
21 [label="X[2] <= 16.5\ngini = 0.278\nsamples = 9\nvalue = [2, 10]"] ;
20 -> 21 ;
22 [label="gini = 0.0\nsamples = 3\nvalue = [0, 3]"] ;
21 -> 22 ;
23 [label="X[2] <= 17.5\ngini = 0.346\nsamples = 6\nvalue = [2, 7]"] ;
21 -> 23 ;
24 [label="X[0] <= 2.5\ngini = 0.278\nsamples = 3\nvalue = [1, 5]"] ;
23 -> 24 ;
25 [label="gini = 0.0\nsamples = 2\nvalue = [0, 5]"] ;
24 -> 25 ;
26 [label="gini = 0.0\nsamples = 1\nvalue = [1, 0]"] ;
24 -> 26 ;
27 [label="X[0] <= 2.0\ngini = 0.444\nsamples = 3\nvalue = [1, 2]"] ;
23 -> 27 ;
28 [label="gini = 0.0\nsamples = 2\nvalue = [0, 2]"] ;
27 -> 28 ;
29 [label="gini = 0.0\nsamples = 1\nvalue = [1, 0]"] ;
27 -> 29 ;
30 [label="gini = 0.0\nsamples = 18\nvalue = [0, 26]"] ;
20 -> 30 ;
31 [label="X[0] <= 2.5\ngini = 0.407\nsamples = 89\nvalue = [41, 103]"] ;
19 -> 31 ;
32 [label="X[3] <= 0.5\ngini = 0.078\nsamples = 49\nvalue = [3, 71]"] ;
31 -> 32 ;
33 [label="X[2] <= 27.5\ngini = 0.127\nsamples = 32\nvalue = [3, 41]"] ;
32 -> 33 ;
34 [label="X[0] <= 1.5\ngini = 0.408\nsamples = 6\nvalue = [2, 5]"] ;
33 -> 34 ;
35 [label="gini = 0.0\nsamples = 2\nvalue = [0, 2]"] ;
34 -> 35 ;
36 [label="gini = 0.48\nsamples = 4\nvalue = [2, 3]"] ;
34 -> 36 ;
37 [label="X[2] <= 37.0\ngini = 0.053\nsamples = 26\nvalue = [1, 36]"] ;
33 -> 37 ;
38 [label="gini = 0.0\nsamples = 16\nvalue = [0, 25]"] ;
37 -> 38 ;
39 [label="gini = 0.153\nsamples = 10\nvalue = [1, 11]"] ;
37 -> 39 ;
40 [label="gini = 0.0\nsamples = 17\nvalue = [0, 30]"] ;
32 -> 40 ;
41 [label="X[3] <= 1.5\ngini = 0.496\nsamples = 40\nvalue = [38, 32]"] ;
31 -> 41 ;
42 [label="X[4] <= 1.5\ngini = 0.492\nsamples = 30\nvalue = [24, 31]"] ;
41 -> 42 ;
43 [label="X[3] <= 0.5\ngini = 0.498\nsamples = 25\nvalue = [22, 25]"] ;
42 -> 43 ;
44 [label="gini = 0.496\nsamples = 20\nvalue = [18, 15]"] ;
43 -> 44 ;
45 [label="gini = 0.408\nsamples = 5\nvalue = [4, 10]"] ;
43 -> 45 ;
46 [label="X[2] <= 20.0\ngini = 0.375\nsamples = 5\nvalue = [2, 6]"] ;
42 -> 46 ;
47 [label="gini = 0.245\nsamples = 4\nvalue = [1, 6]"] ;
46 -> 47 ;
48 [label="gini = 0.0\nsamples = 1\nvalue = [1, 0]"] ;
46 -> 48 ;
49 [label="X[4] <= 1.5\ngini = 0.124\nsamples = 10\nvalue = [14, 1]"] ;
41 -> 49 ;
50 [label="X[2] <= 19.0\ngini = 0.133\nsamples = 9\nvalue = [13, 1]"] ;
49 -> 50 ;
51 [label="gini = 0.245\nsamples = 5\nvalue = [6, 1]"] ;
50 -> 51 ;
52 [label="gini = 0.0\nsamples = 4\nvalue = [7, 0]"] ;
50 -> 52 ;
53 [label="gini = 0.0\nsamples = 1\nvalue = [1, 0]"] ;
49 -> 53 ;
54 [label="X[4] <= 0.5\ngini = 0.337\nsamples = 205\nvalue = [256, 70]"] ;
18 -> 54 ;
55 [label="X[0] <= 1.5\ngini = 0.493\nsamples = 30\nvalue = [29, 23]"] ;
54 -> 55 ;
56 [label="X[3] <= 0.5\ngini = 0.5\nsamples = 17\nvalue = [14, 14]"] ;
55 -> 56 ;
57 [label="X[2] <= 23.5\ngini = 0.444\nsamples = 11\nvalue = [6, 12]"] ;
56 -> 57 ;
58 [label="gini = 0.0\nsamples = 1\nvalue = [2, 0]"] ;
57 -> 58 ;
59 [label="X[2] <= 53.5\ngini = 0.375\nsamples = 10\nvalue = [4, 12]"] ;
57 -> 59 ;
60 [label="gini = 0.245\nsamples = 8\nvalue = [2, 12]"] ;
59 -> 60 ;
61 [label="gini = 0.0\nsamples = 2\nvalue = [2, 0]"] ;
59 -> 61 ;
62 [label="X[2] <= 36.5\ngini = 0.32\nsamples = 6\nvalue = [8, 2]"] ;
56 -> 62 ;
63 [label="gini = 0.0\nsamples = 2\nvalue = [0, 2]"] ;
62 -> 63 ;
64 [label="gini = 0.0\nsamples = 4\nvalue = [8, 0]"] ;
62 -> 64 ;
65 [label="X[2] <= 22.5\ngini = 0.469\nsamples = 13\nvalue = [15, 9]"] ;
55 -> 65 ;
66 [label="X[2] <= 18.5\ngini = 0.42\nsamples = 5\nvalue = [3, 7]"] ;
65 -> 66 ;
67 [label="gini = 0.0\nsamples = 2\nvalue = [3, 0]"] ;
66 -> 67 ;
68 [label="gini = 0.0\nsamples = 3\nvalue = [0, 7]"] ;
66 -> 68 ;
69 [label="X[2] <= 25.5\ngini = 0.245\nsamples = 8\nvalue = [12, 2]"] ;
65 -> 69 ;
70 [label="gini = 0.0\nsamples = 3\nvalue = [5, 0]"] ;
69 -> 70 ;
71 [label="X[2] <= 27.0\ngini = 0.346\nsamples = 5\nvalue = [7, 2]"] ;
69 -> 71 ;
72 [label="gini = 0.0\nsamples = 1\nvalue = [0, 1]"] ;
71 -> 72 ;
73 [label="gini = 0.219\nsamples = 4\nvalue = [7, 1]"] ;
71 -> 73 ;
74 [label="X[3] <= 1.5\ngini = 0.284\nsamples = 175\nvalue = [227, 47]"] ;
54 -> 74 ;
75 [label="X[2] <= 75.0\ngini = 0.278\nsamples = 169\nvalue = [220, 44]"] ;
74 -> 75 ;
76 [label="X[2] <= 53.0\ngini = 0.269\nsamples = 168\nvalue = [220, 42]"] ;
75 -> 76 ;
77 [label="X[2] <= 12.5\ngini = 0.297\nsamples = 152\nvalue = [190, 42]"] ;
76 -> 77 ;
78 [label="gini = 0.0\nsamples = 1\nvalue = [0, 1]"] ;
77 -> 78 ;
79 [label="gini = 0.292\nsamples = 151\nvalue = [190, 41]"] ;
77 -> 79 ;
80 [label="gini = 0.0\nsamples = 16\nvalue = [30, 0]"] ;
76 -> 80 ;
81 [label="gini = 0.0\nsamples = 1\nvalue = [0, 2]"] ;
75 -> 81 ;
82 [label="X[2] <= 31.0\ngini = 0.42\nsamples = 6\nvalue = [7, 3]"] ;
74 -> 82 ;
83 [label="gini = 0.0\nsamples = 2\nvalue = [4, 0]"] ;
82 -> 83 ;
84 [label="X[3] <= 3.0\ngini = 0.5\nsamples = 4\nvalue = [3, 3]"] ;
82 -> 84 ;
85 [label="X[2] <= 38.0\ngini = 0.48\nsamples = 3\nvalue = [2, 3]"] ;
84 -> 85 ;
86 [label="gini = 0.375\nsamples = 2\nvalue = [1, 3]"] ;
85 -> 86 ;
87 [label="gini = 0.0\nsamples = 1\nvalue = [1, 0]"] ;
85 -> 87 ;
88 [label="gini = 0.0\nsamples = 1\nvalue = [1, 0]"] ;
84 -> 88 ;
}
