digraph Tree {
node [shape=box] ;
0 [label="X[1] <= 0.5\ngini = 0.49\nsamples = 336\nvalue = [305, 229]"] ;
1 [label="X[3] <= 3.5\ngini = 0.351\nsamples = 136\nvalue = [50, 170]"] ;
0 -> 1 [labeldistance=2.5, labelangle=45, headlabel="True"] ;
2 [label="X[4] <= 0.5\ngini = 0.335\nsamples = 133\nvalue = [46, 170]"] ;
1 -> 2 ;
3 [label="X[0] <= 2.5\ngini = 0.18\nsamples = 29\nvalue = [5, 45]"] ;
2 -> 3 ;
4 [label="gini = 0.0\nsamples = 21\nvalue = [0, 38]"] ;
3 -> 4 ;
5 [label="X[2] <= 16.0\ngini = 0.486\nsamples = 8\nvalue = [5, 7]"] ;
3 -> 5 ;
6 [label="X[3] <= 0.5\ngini = 0.245\nsamples = 5\nvalue = [1, 6]"] ;
5 -> 6 ;
7 [label="X[2] <= 14.5\ngini = 0.444\nsamples = 3\nvalue = [1, 2]"] ;
6 -> 7 ;
8 [label="gini = 0.5\nsamples = 2\nvalue = [1, 1]"] ;
7 -> 8 ;
9 [label="gini = 0.0\nsamples = 1\nvalue = [0, 1]"] ;
7 -> 9 ;
10 [label="gini = 0.0\nsamples = 2\nvalue = [0, 4]"] ;
6 -> 10 ;
11 [label="X[3] <= 1.5\ngini = 0.32\nsamples = 3\nvalue = [4, 1]"] ;
5 -> 11 ;
12 [label="gini = 0.0\nsamples = 2\nvalue = [4, 0]"] ;
11 -> 12 ;
13 [label="gini = 0.0\nsamples = 1\nvalue = [0, 1]"] ;
11 -> 13 ;
14 [label="X[0] <= 2.5\ngini = 0.372\nsamples = 104\nvalue = [41, 125]"] ;
2 -> 14 ;
15 [label="X[4] <= 1.5\ngini = 0.062\nsamples = 57\nvalue = [3, 91]"] ;
14 -> 15 ;
16 [label="X[2] <= 27.5\ngini = 0.064\nsamples = 55\nvalue = [3, 88]"] ;
15 -> 16 ;
17 [label="X[2] <= 24.5\ngini = 0.165\nsamples = 20\nvalue = [3, 30]"] ;
16 -> 17 ;
18 [label="gini = 0.0\nsamples = 16\nvalue = [0, 27]"] ;
17 -> 18 ;
19 [label="gini = 0.5\nsamples = 4\nvalue = [3, 3]"] ;
17 -> 19 ;
20 [label="gini = 0.0\nsamples = 35\nvalue = [0, 58]"] ;
16 -> 20 ;
21 [label="gini = 0.0\nsamples = 2\nvalue = [0, 3]"] ;
15 -> 21 ;
22 [label="X[2] <= 36.5\ngini = 0.498\nsamples = 47\nvalue = [38, 34]"] ;
14 -> 22 ;
23 [label="X[4] <= 1.5\ngini = 0.5\nsamples = 43\nvalue = [32, 34]"] ;
22 -> 23 ;
24 [label="X[3] <= 1.5\ngini = 0.5\nsamples = 37\nvalue = [29, 30]"] ;
23 -> 24 ;
25 [label="gini = 0.485\nsamples = 28\nvalue = [19, 27]"] ;
24 -> 25 ;
26 [label="gini = 0.355\nsamples = 9\nvalue = [10, 3]"] ;
24 -> 26 ;
27 [label="X[2] <= 17.0\ngini = 0.49\nsamples = 6\nvalue = [3, 4]"] ;
23 -> 27 ;
28 [label="gini = 0.0\nsamples = 3\nvalue = [0, 3]"] ;
27 -> 28 ;
29 [label="gini = 0.375\nsamples = 3\nvalue = [3, 1]"] ;
27 -> 29 ;
30 [label="gini = 0.0\nsamples = 4\nvalue = [6, 0]"] ;
22 -> 30 ;
31 [label="gini = 0.0\nsamples = 3\nvalue = [4, 0]"] ;
1 -> 31 ;
32 [label="X[2] <= 1.5\ngini = 0.305\nsamples = 200\nvalue = [255, 59]"] ;
0 -> 32 [labeldistance=2.5, labelangle=-45, headlabel="False"] ;
33 [label="gini = 0.0\nsamples = 4\nvalue = [0, 10]"] ;
32 -> 33 ;
34 [label="X[0] <= 1.5\ngini = 0.27\nsamples = 196\nvalue = [255, 49]"] ;
32 -> 34 ;
35 [label="X[3] <= 3.0\ngini = 0.46\nsamples = 46\nvalue = [43, 24]"] ;
34 -> 35 ;
36 [label="X[2] <= 36.5\ngini = 0.466\nsamples = 45\nvalue = [41, 24]"] ;
35 -> 36 ;
37 [label="X[4] <= 0.5\ngini = 0.489\nsamples = 21\nvalue = [14, 19]"] ;
36 -> 37 ;
38 [label="X[3] <= 1.5\ngini = 0.36\nsamples = 9\nvalue = [4, 13]"] ;
37 -> 38 ;
39 [label="gini = 0.375\nsamples = 8\nvalue = [4, 12]"] ;
38 -> 39 ;
40 [label="gini = 0.0\nsamples = 1\nvalue = [0, 1]"] ;
38 -> 40 ;
41 [label="X[2] <= 34.5\ngini = 0.469\nsamples = 12\nvalue = [10, 6]"] ;
37 -> 41 ;
42 [label="gini = 0.408\nsamples = 10\nvalue = [10, 4]"] ;
41 -> 42 ;
43 [label="gini = 0.0\nsamples = 2\nvalue = [0, 2]"] ;
41 -> 43 ;
44 [label="X[4] <= 0.5\ngini = 0.264\nsamples = 24\nvalue = [27, 5]"] ;
36 -> 44 ;
45 [label="X[3] <= 0.5\ngini = 0.408\nsamples = 10\nvalue = [10, 4]"] ;
44 -> 45 ;
46 [label="gini = 0.5\nsamples = 6\nvalue = [4, 4]"] ;
45 -> 46 ;
47 [label="gini = 0.0\nsamples = 4\nvalue = [6, 0]"] ;
45 -> 47 ;
48 [label="X[3] <= 0.5\ngini = 0.105\nsamples = 14\nvalue = [17, 1]"] ;
44 -> 48 ;
49 [label="gini = 0.111\nsamples = 13\nvalue = [16, 1]"] ;
48 -> 49 ;
50 [label="gini = 0.0\nsamples = 1\nvalue = [1, 0]"] ;
48 -> 50 ;
51 [label="gini = 0.0\nsamples = 1\nvalue = [2, 0]"] ;
35 -> 51 ;
52 [label="X[2] <= 10.0\ngini = 0.189\nsamples = 150\nvalue = [212, 25]"] ;
34 -> 52 ;
53 [label="X[0] <= 2.5\ngini = 0.375\nsamples = 13\nvalue = [12, 4]"] ;
52 -> 53 ;
54 [label="gini = 0.0\nsamples = 2\nvalue = [0, 2]"] ;
53 -> 54 ;
55 [label="X[3] <= 1.5\ngini = 0.245\nsamples = 11\nvalue = [12, 2]"] ;
53 -> 55 ;
56 [label="X[4] <= 1.5\ngini = 0.298\nsamples = 8\nvalue = [9, 2]"] ;
55 -> 56 ;
57 [label="gini = 0.375\nsamples = 5\nvalue = [6, 2]"] ;
56 -> 57 ;
58 [label="gini = 0.0\nsamples = 3\nvalue = [3, 0]"] ;
56 -> 58 ;
59 [label="gini = 0.0\nsamples = 3\nvalue = [3, 0]"] ;
55 -> 59 ;
60 [label="X[0] <= 2.5\ngini = 0.172\nsamples = 137\nvalue = [200, 21]"] ;
52 -> 60 ;
61 [label="X[2] <= 40.5\ngini = 0.15\nsamples = 33\nvalue = [45, 4]"] ;
60 -> 61 ;
62 [label="X[4] <= 0.5\ngini = 0.057\nsamples = 22\nvalue = [33, 1]"] ;
61 -> 62 ;
63 [label="gini = 0.0\nsamples = 2\nvalue = [2, 0]"] ;
62 -> 63 ;
64 [label="gini = 0.061\nsamples = 20\nvalue = [31, 1]"] ;
62 -> 64 ;
65 [label="X[3] <= 0.5\ngini = 0.32\nsamples = 11\nvalue = [12, 3]"] ;
61 -> 65 ;
66 [label="gini = 0.337\nsamples = 10\nvalue = [11, 3]"] ;
65 -> 66 ;
67 [label="gini = 0.0\nsamples = 1\nvalue = [1, 0]"] ;
65 -> 67 ;
68 [label="X[4] <= 1.5\ngini = 0.178\nsamples = 104\nvalue = [155, 17]"] ;
60 -> 68 ;
69 [label="X[4] <= 0.5\ngini = 0.175\nsamples = 98\nvalue = [149, 16]"] ;
68 -> 69 ;
70 [label="gini = 0.18\nsamples = 7\nvalue = [9, 1]"] ;
69 -> 70 ;
71 [label="gini = 0.175\nsamples = 91\nvalue = [140, 15]"] ;
69 -> 71 ;
72 [label="X[2] <= 27.0\ngini = 0.245\nsamples = 6\nvalue = [6, 1]"] ;
68 -> 72 ;
73 [label="gini = 0.0\nsamples = 2\nvalue = [3, 0]"] ;
72 -> 73 ;
74 [label="gini = 0.375\nsamples = 4\nvalue = [3, 1]"] ;
72 -> 74 ;
}
