digraph Tree {
node [shape=box] ;
0 [label="X[0] <= 2.5\ngini = 0.488\nsamples = 336\nvalue = [308, 226]"] ;
1 [label="X[3] <= 0.5\ngini = 0.466\nsamples = 156\nvalue = [91, 155]"] ;
0 -> 1 [labeldistance=2.5, labelangle=45, headlabel="True"] ;
2 [label="X[4] <= 0.5\ngini = 0.491\nsamples = 111\nvalue = [75, 98]"] ;
1 -> 2 ;
3 [label="X[1] <= 0.5\ngini = 0.366\nsamples = 33\nvalue = [13, 41]"] ;
2 -> 3 ;
4 [label="gini = 0.0\nsamples = 19\nvalue = [0, 32]"] ;
3 -> 4 ;
5 [label="X[0] <= 1.5\ngini = 0.483\nsamples = 14\nvalue = [13, 9]"] ;
3 -> 5 ;
6 [label="X[2] <= 49.0\ngini = 0.499\nsamples = 11\nvalue = [10, 9]"] ;
5 -> 6 ;
7 [label="X[2] <= 28.0\ngini = 0.375\nsamples = 8\nvalue = [3, 9]"] ;
6 -> 7 ;
8 [label="gini = 0.0\nsamples = 2\nvalue = [0, 4]"] ;
7 -> 8 ;
9 [label="gini = 0.469\nsamples = 6\nvalue = [3, 5]"] ;
7 -> 9 ;
10 [label="gini = 0.0\nsamples = 3\nvalue = [7, 0]"] ;
6 -> 10 ;
11 [label="gini = 0.0\nsamples = 3\nvalue = [3, 0]"] ;
5 -> 11 ;
12 [label="X[1] <= 0.5\ngini = 0.499\nsamples = 78\nvalue = [62, 57]"] ;
2 -> 12 ;
13 [label="gini = 0.0\nsamples = 26\nvalue = [0, 40]"] ;
12 -> 13 ;
14 [label="X[2] <= 75.0\ngini = 0.338\nsamples = 52\nvalue = [62, 17]"] ;
12 -> 14 ;
15 [label="X[2] <= 51.5\ngini = 0.314\nsamples = 51\nvalue = [62, 15]"] ;
14 -> 15 ;
16 [label="X[2] <= 47.5\ngini = 0.367\nsamples = 42\nvalue = [47, 15]"] ;
15 -> 16 ;
17 [label="gini = 0.278\nsamples = 38\nvalue = [45, 9]"] ;
16 -> 17 ;
18 [label="gini = 0.375\nsamples = 4\nvalue = [2, 6]"] ;
16 -> 18 ;
19 [label="gini = 0.0\nsamples = 9\nvalue = [15, 0]"] ;
15 -> 19 ;
20 [label="gini = 0.0\nsamples = 1\nvalue = [0, 2]"] ;
14 -> 20 ;
21 [label="X[1] <= 0.5\ngini = 0.342\nsamples = 45\nvalue = [16, 57]"] ;
1 -> 21 ;
22 [label="X[2] <= 2.5\ngini = 0.075\nsamples = 29\nvalue = [2, 49]"] ;
21 -> 22 ;
23 [label="gini = 0.0\nsamples = 1\nvalue = [1, 0]"] ;
22 -> 23 ;
24 [label="X[2] <= 24.5\ngini = 0.039\nsamples = 28\nvalue = [1, 49]"] ;
22 -> 24 ;
25 [label="gini = 0.0\nsamples = 12\nvalue = [0, 23]"] ;
24 -> 25 ;
26 [label="X[3] <= 1.5\ngini = 0.071\nsamples = 16\nvalue = [1, 26]"] ;
24 -> 26 ;
27 [label="gini = 0.0\nsamples = 12\nvalue = [0, 20]"] ;
26 -> 27 ;
28 [label="X[2] <= 29.0\ngini = 0.245\nsamples = 4\nvalue = [1, 6]"] ;
26 -> 28 ;
29 [label="gini = 0.0\nsamples = 1\nvalue = [1, 0]"] ;
28 -> 29 ;
30 [label="gini = 0.0\nsamples = 3\nvalue = [0, 6]"] ;
28 -> 30 ;
31 [label="X[4] <= 0.5\ngini = 0.463\nsamples = 16\nvalue = [14, 8]"] ;
21 -> 31 ;
32 [label="gini = 0.0\nsamples = 5\nvalue = [8, 0]"] ;
31 -> 32 ;
33 [label="X[3] <= 1.5\ngini = 0.49\nsamples = 11\nvalue = [6, 8]"] ;
31 -> 33 ;
34 [label="X[0] <= 1.5\ngini = 0.496\nsamples = 8\nvalue = [5, 6]"] ;
33 -> 34 ;
35 [label="X[2] <= 37.5\ngini = 0.278\nsamples = 4\nvalue = [5, 1]"] ;
34 -> 35 ;
36 [label="gini = 0.5\nsamples = 2\nvalue = [1, 1]"] ;
35 -> 36 ;
37 [label="gini = 0.0\nsamples = 2\nvalue = [4, 0]"] ;
35 -> 37 ;
38 [label="gini = 0.0\nsamples = 4\nvalue = [0, 5]"] ;
34 -> 38 ;
39 [label="X[2] <= 20.0\ngini = 0.444\nsamples = 3\nvalue = [1, 2]"] ;
33 -> 39 ;
40 [label="gini = 0.0\nsamples = 1\nvalue = [0, 1]"] ;
39 -> 40 ;
41 [label="X[0] <= 1.5\ngini = 0.5\nsamples = 2\nvalue = [1, 1]"] ;
39 -> 41 ;
42 [label="gini = 0.0\nsamples = 1\nvalue = [0, 1]"] ;
41 -> 42 ;
43 [label="gini = 0.0\nsamples = 1\nvalue = [1, 0]"] ;
41 -> 43 ;
44 [label="X[1] <= 0.5\ngini = 0.372\nsamples = 180\nvalue = [217, 71]"] ;
0 -> 44 [labeldistance=2.5, labelangle=-45, headlabel="False"] ;
45 [label="X[2] <= 27.5\ngini = 0.499\nsamples = 53\nvalue = [46, 42]"] ;
44 -> 45 ;
46 [label="X[3] <= 1.5\ngini = 0.495\nsamples = 37\nvalue = [30, 37]"] ;
45 -> 46 ;
47 [label="X[2] <= 25.5\ngini = 0.499\nsamples = 28\nvalue = [25, 23]"] ;
46 -> 47 ;
48 [label="X[3] <= 0.5\ngini = 0.476\nsamples = 24\nvalue = [25, 16]"] ;
47 -> 48 ;
49 [label="X[2] <= 16.5\ngini = 0.494\nsamples = 18\nvalue = [15, 12]"] ;
48 -> 49 ;
50 [label="gini = 0.0\nsamples = 4\nvalue = [0, 7]"] ;
49 -> 50 ;
51 [label="gini = 0.375\nsamples = 14\nvalue = [15, 5]"] ;
49 -> 51 ;
52 [label="X[2] <= 13.5\ngini = 0.408\nsamples = 6\nvalue = [10, 4]"] ;
48 -> 52 ;
53 [label="gini = 0.18\nsamples = 4\nvalue = [9, 1]"] ;
52 -> 53 ;
54 [label="gini = 0.375\nsamples = 2\nvalue = [1, 3]"] ;
52 -> 54 ;
55 [label="gini = 0.0\nsamples = 4\nvalue = [0, 7]"] ;
47 -> 55 ;
56 [label="X[3] <= 2.5\ngini = 0.388\nsamples = 9\nvalue = [5, 14]"] ;
46 -> 56 ;
57 [label="X[2] <= 7.0\ngini = 0.43\nsamples = 8\nvalue = [5, 11]"] ;
56 -> 57 ;
58 [label="gini = 0.0\nsamples = 2\nvalue = [0, 6]"] ;
57 -> 58 ;
59 [label="X[2] <= 13.0\ngini = 0.5\nsamples = 6\nvalue = [5, 5]"] ;
57 -> 59 ;
60 [label="gini = 0.0\nsamples = 2\nvalue = [4, 0]"] ;
59 -> 60 ;
61 [label="gini = 0.278\nsamples = 4\nvalue = [1, 5]"] ;
59 -> 61 ;
62 [label="gini = 0.0\nsamples = 1\nvalue = [0, 3]"] ;
56 -> 62 ;
63 [label="X[2] <= 55.5\ngini = 0.363\nsamples = 16\nvalue = [16, 5]"] ;
45 -> 63 ;
64 [label="X[3] <= 2.5\ngini = 0.32\nsamples = 15\nvalue = [16, 4]"] ;
63 -> 64 ;
65 [label="X[4] <= 0.5\ngini = 0.426\nsamples = 10\nvalue = [9, 4]"] ;
64 -> 65 ;
66 [label="gini = 0.0\nsamples = 1\nvalue = [0, 1]"] ;
65 -> 66 ;
67 [label="X[2] <= 30.5\ngini = 0.375\nsamples = 9\nvalue = [9, 3]"] ;
65 -> 67 ;
68 [label="gini = 0.198\nsamples = 6\nvalue = [8, 1]"] ;
67 -> 68 ;
69 [label="gini = 0.444\nsamples = 3\nvalue = [1, 2]"] ;
67 -> 69 ;
70 [label="gini = 0.0\nsamples = 5\nvalue = [7, 0]"] ;
64 -> 70 ;
71 [label="gini = 0.0\nsamples = 1\nvalue = [0, 1]"] ;
63 -> 71 ;
72 [label="X[4] <= 0.5\ngini = 0.248\nsamples = 127\nvalue = [171, 29]"] ;
44 -> 72 ;
73 [label="X[3] <= 0.5\ngini = 0.408\nsamples = 16\nvalue = [20, 8]"] ;
72 -> 73 ;
74 [label="X[2] <= 26.5\ngini = 0.388\nsamples = 12\nvalue = [14, 5]"] ;
73 -> 74 ;
75 [label="X[2] <= 21.0\ngini = 0.444\nsamples = 4\nvalue = [2, 4]"] ;
74 -> 75 ;
76 [label="gini = 0.0\nsamples = 1\nvalue = [0, 1]"] ;
75 -> 76 ;
77 [label="X[2] <= 24.0\ngini = 0.48\nsamples = 3\nvalue = [2, 3]"] ;
75 -> 77 ;
78 [label="gini = 0.5\nsamples = 2\nvalue = [2, 2]"] ;
77 -> 78 ;
79 [label="gini = 0.0\nsamples = 1\nvalue = [0, 1]"] ;
77 -> 79 ;
80 [label="X[2] <= 29.5\ngini = 0.142\nsamples = 8\nvalue = [12, 1]"] ;
74 -> 80 ;
81 [label="X[2] <= 28.5\ngini = 0.375\nsamples = 3\nvalue = [3, 1]"] ;
80 -> 81 ;
82 [label="gini = 0.0\nsamples = 2\nvalue = [3, 0]"] ;
81 -> 82 ;
83 [label="gini = 0.0\nsamples = 1\nvalue = [0, 1]"] ;
81 -> 83 ;
84 [label="gini = 0.0\nsamples = 5\nvalue = [9, 0]"] ;
80 -> 84 ;
85 [label="X[2] <= 18.5\ngini = 0.444\nsamples = 4\nvalue = [6, 3]"] ;
73 -> 85 ;
86 [label="X[2] <= 7.5\ngini = 0.245\nsamples = 3\nvalue = [6, 1]"] ;
85 -> 86 ;
87 [label="gini = 0.0\nsamples = 1\nvalue = [0, 1]"] ;
86 -> 87 ;
88 [label="gini = 0.0\nsamples = 2\nvalue = [6, 0]"] ;
86 -> 88 ;
89 [label="gini = 0.0\nsamples = 1\nvalue = [0, 2]"] ;
85 -> 89 ;
90 [label="X[2] <= 1.5\ngini = 0.214\nsamples = 111\nvalue = [151, 21]"] ;
72 -> 90 ;
91 [label="X[3] <= 1.5\ngini = 0.5\nsamples = 2\nvalue = [3, 3]"] ;
90 -> 91 ;
92 [label="gini = 0.0\nsamples = 1\nvalue = [3, 0]"] ;
91 -> 92 ;
93 [label="gini = 0.0\nsamples = 1\nvalue = [0, 3]"] ;
91 -> 93 ;
94 [label="X[2] <= 25.5\ngini = 0.193\nsamples = 109\nvalue = [148, 18]"] ;
90 -> 94 ;
95 [label="X[2] <= 21.5\ngini = 0.12\nsamples = 59\nvalue = [88, 6]"] ;
94 -> 95 ;
96 [label="X[3] <= 1.5\ngini = 0.18\nsamples = 40\nvalue = [54, 6]"] ;
95 -> 96 ;
97 [label="gini = 0.201\nsamples = 37\nvalue = [47, 6]"] ;
96 -> 97 ;
98 [label="gini = 0.0\nsamples = 3\nvalue = [7, 0]"] ;
96 -> 98 ;
99 [label="gini = 0.0\nsamples = 19\nvalue = [34, 0]"] ;
95 -> 99 ;
100 [label="X[3] <= 0.5\ngini = 0.278\nsamples = 50\nvalue = [60, 12]"] ;
94 -> 100 ;
101 [label="X[4] <= 1.5\ngini = 0.301\nsamples = 46\nvalue = [53, 12]"] ;
100 -> 101 ;
102 [label="gini = 0.296\nsamples = 42\nvalue = [50, 11]"] ;
101 -> 102 ;
103 [label="gini = 0.375\nsamples = 4\nvalue = [3, 1]"] ;
101 -> 103 ;
104 [label="gini = 0.0\nsamples = 4\nvalue = [7, 0]"] ;
100 -> 104 ;
}
