digraph Tree {
node [shape=box] ;
0 [label="X[1] <= 0.5\ngini = 0.485\nsamples = 326\nvalue = [313, 221]"] ;
1 [label="X[2] <= 14.5\ngini = 0.352\nsamples = 125\nvalue = [47, 159]"] ;
0 -> 1 [labeldistance=2.5, labelangle=45, headlabel="True"] ;
2 [label="X[2] <= 1.5\ngini = 0.458\nsamples = 16\nvalue = [11, 20]"] ;
1 -> 2 ;
3 [label="gini = 0.0\nsamples = 2\nvalue = [0, 6]"] ;
2 -> 3 ;
4 [label="X[0] <= 2.5\ngini = 0.493\nsamples = 14\nvalue = [11, 14]"] ;
2 -> 4 ;
5 [label="gini = 0.0\nsamples = 5\nvalue = [0, 11]"] ;
4 -> 5 ;
6 [label="X[4] <= 0.5\ngini = 0.337\nsamples = 9\nvalue = [11, 3]"] ;
4 -> 6 ;
7 [label="X[2] <= 13.5\ngini = 0.48\nsamples = 2\nvalue = [2, 3]"] ;
6 -> 7 ;
8 [label="gini = 0.0\nsamples = 1\nvalue = [0, 3]"] ;
7 -> 8 ;
9 [label="gini = 0.0\nsamples = 1\nvalue = [2, 0]"] ;
7 -> 9 ;
10 [label="gini = 0.0\nsamples = 7\nvalue = [9, 0]"] ;
6 -> 10 ;
11 [label="X[4] <= 0.5\ngini = 0.327\nsamples = 109\nvalue = [36, 139]"] ;
1 -> 11 ;
12 [label="X[3] <= 0.5\ngini = 0.087\nsamples = 27\nvalue = [2, 42]"] ;
11 -> 12 ;
13 [label="gini = 0.0\nsamples = 19\nvalue = [0, 28]"] ;
12 -> 13 ;
14 [label="X[3] <= 1.5\ngini = 0.219\nsamples = 8\nvalue = [2, 14]"] ;
12 -> 14 ;
15 [label="X[0] <= 2.0\ngini = 0.375\nsamples = 4\nvalue = [2, 6]"] ;
14 -> 15 ;
16 [label="gini = 0.0\nsamples = 3\nvalue = [0, 6]"] ;
15 -> 16 ;
17 [label="gini = 0.0\nsamples = 1\nvalue = [2, 0]"] ;
15 -> 17 ;
18 [label="gini = 0.0\nsamples = 4\nvalue = [0, 8]"] ;
14 -> 18 ;
19 [label="X[0] <= 2.5\ngini = 0.384\nsamples = 82\nvalue = [34, 97]"] ;
11 -> 19 ;
20 [label="X[3] <= 1.5\ngini = 0.191\nsamples = 46\nvalue = [8, 67]"] ;
19 -> 20 ;
21 [label="X[3] <= 0.5\ngini = 0.128\nsamples = 38\nvalue = [4, 54]"] ;
20 -> 21 ;
22 [label="X[2] <= 53.0\ngini = 0.169\nsamples = 26\nvalue = [4, 39]"] ;
21 -> 22 ;
23 [label="gini = 0.093\nsamples = 25\nvalue = [2, 39]"] ;
22 -> 23 ;
24 [label="gini = 0.0\nsamples = 1\nvalue = [2, 0]"] ;
22 -> 24 ;
25 [label="gini = 0.0\nsamples = 12\nvalue = [0, 15]"] ;
21 -> 25 ;
26 [label="X[2] <= 24.5\ngini = 0.36\nsamples = 8\nvalue = [4, 13]"] ;
20 -> 26 ;
27 [label="gini = 0.0\nsamples = 5\nvalue = [0, 9]"] ;
26 -> 27 ;
28 [label="X[2] <= 29.0\ngini = 0.5\nsamples = 3\nvalue = [4, 4]"] ;
26 -> 28 ;
29 [label="gini = 0.0\nsamples = 1\nvalue = [4, 0]"] ;
28 -> 29 ;
30 [label="gini = 0.0\nsamples = 2\nvalue = [0, 4]"] ;
28 -> 30 ;
31 [label="X[2] <= 27.5\ngini = 0.497\nsamples = 36\nvalue = [26, 30]"] ;
19 -> 31 ;
32 [label="X[3] <= 0.5\ngini = 0.368\nsamples = 23\nvalue = [9, 28]"] ;
31 -> 32 ;
33 [label="X[2] <= 25.5\ngini = 0.42\nsamples = 19\nvalue = [9, 21]"] ;
32 -> 33 ;
34 [label="gini = 0.461\nsamples = 16\nvalue = [9, 16]"] ;
33 -> 34 ;
35 [label="gini = 0.0\nsamples = 3\nvalue = [0, 5]"] ;
33 -> 35 ;
36 [label="gini = 0.0\nsamples = 4\nvalue = [0, 7]"] ;
32 -> 36 ;
37 [label="X[2] <= 34.0\ngini = 0.188\nsamples = 13\nvalue = [17, 2]"] ;
31 -> 37 ;
38 [label="X[2] <= 29.5\ngini = 0.298\nsamples = 9\nvalue = [9, 2]"] ;
37 -> 38 ;
39 [label="gini = 0.0\nsamples = 3\nvalue = [4, 0]"] ;
38 -> 39 ;
40 [label="gini = 0.408\nsamples = 6\nvalue = [5, 2]"] ;
38 -> 40 ;
41 [label="gini = 0.0\nsamples = 4\nvalue = [8, 0]"] ;
37 -> 41 ;
42 [label="X[0] <= 1.5\ngini = 0.307\nsamples = 201\nvalue = [266, 62]"] ;
0 -> 42 [labeldistance=2.5, labelangle=-45, headlabel="False"] ;
43 [label="X[4] <= 0.5\ngini = 0.48\nsamples = 50\nvalue = [48, 32]"] ;
42 -> 43 ;
44 [label="X[3] <= 0.5\ngini = 0.496\nsamples = 20\nvalue = [18, 15]"] ;
43 -> 44 ;
45 [label="X[2] <= 52.5\ngini = 0.463\nsamples = 13\nvalue = [8, 14]"] ;
44 -> 45 ;
46 [label="X[2] <= 27.5\ngini = 0.291\nsamples = 10\nvalue = [3, 14]"] ;
45 -> 46 ;
47 [label="gini = 0.0\nsamples = 2\nvalue = [0, 3]"] ;
46 -> 47 ;
48 [label="X[2] <= 30.0\ngini = 0.337\nsamples = 8\nvalue = [3, 11]"] ;
46 -> 48 ;
49 [label="gini = 0.0\nsamples = 1\nvalue = [1, 0]"] ;
48 -> 49 ;
50 [label="gini = 0.26\nsamples = 7\nvalue = [2, 11]"] ;
48 -> 50 ;
51 [label="gini = 0.0\nsamples = 3\nvalue = [5, 0]"] ;
45 -> 51 ;
52 [label="X[2] <= 36.5\ngini = 0.165\nsamples = 7\nvalue = [10, 1]"] ;
44 -> 52 ;
53 [label="X[2] <= 30.0\ngini = 0.5\nsamples = 2\nvalue = [1, 1]"] ;
52 -> 53 ;
54 [label="gini = 0.0\nsamples = 1\nvalue = [1, 0]"] ;
53 -> 54 ;
55 [label="gini = 0.0\nsamples = 1\nvalue = [0, 1]"] ;
53 -> 55 ;
56 [label="gini = 0.0\nsamples = 5\nvalue = [9, 0]"] ;
52 -> 56 ;
57 [label="X[3] <= 1.5\ngini = 0.462\nsamples = 30\nvalue = [30, 17]"] ;
43 -> 57 ;
58 [label="X[3] <= 0.5\ngini = 0.422\nsamples = 28\nvalue = [30, 13]"] ;
57 -> 58 ;
59 [label="X[2] <= 27.5\ngini = 0.444\nsamples = 26\nvalue = [26, 13]"] ;
58 -> 59 ;
60 [label="X[2] <= 23.0\ngini = 0.32\nsamples = 3\nvalue = [1, 4]"] ;
59 -> 60 ;
61 [label="gini = 0.0\nsamples = 1\nvalue = [1, 0]"] ;
60 -> 61 ;
62 [label="gini = 0.0\nsamples = 2\nvalue = [0, 4]"] ;
60 -> 62 ;
63 [label="X[2] <= 53.0\ngini = 0.389\nsamples = 23\nvalue = [25, 9]"] ;
59 -> 63 ;
64 [label="gini = 0.436\nsamples = 19\nvalue = [19, 9]"] ;
63 -> 64 ;
65 [label="gini = 0.0\nsamples = 4\nvalue = [6, 0]"] ;
63 -> 65 ;
66 [label="gini = 0.0\nsamples = 2\nvalue = [4, 0]"] ;
58 -> 66 ;
67 [label="gini = 0.0\nsamples = 2\nvalue = [0, 4]"] ;
57 -> 67 ;
68 [label="X[4] <= 1.5\ngini = 0.213\nsamples = 151\nvalue = [218, 30]"] ;
42 -> 68 ;
69 [label="X[2] <= 11.5\ngini = 0.199\nsamples = 142\nvalue = [206, 26]"] ;
68 -> 69 ;
70 [label="X[0] <= 2.5\ngini = 0.486\nsamples = 11\nvalue = [5, 7]"] ;
69 -> 70 ;
71 [label="gini = 0.0\nsamples = 4\nvalue = [0, 5]"] ;
70 -> 71 ;
72 [label="X[2] <= 3.5\ngini = 0.408\nsamples = 7\nvalue = [5, 2]"] ;
70 -> 72 ;
73 [label="X[2] <= 2.0\ngini = 0.5\nsamples = 2\nvalue = [1, 1]"] ;
72 -> 73 ;
74 [label="gini = 0.0\nsamples = 1\nvalue = [1, 0]"] ;
73 -> 74 ;
75 [label="gini = 0.0\nsamples = 1\nvalue = [0, 1]"] ;
73 -> 75 ;
76 [label="X[3] <= 1.5\ngini = 0.32\nsamples = 5\nvalue = [4, 1]"] ;
72 -> 76 ;
77 [label="gini = 0.5\nsamples = 2\nvalue = [1, 1]"] ;
76 -> 77 ;
78 [label="gini = 0.0\nsamples = 3\nvalue = [3, 0]"] ;
76 -> 78 ;
79 [label="X[0] <= 2.5\ngini = 0.158\nsamples = 131\nvalue = [201, 19]"] ;
69 -> 79 ;
80 [label="X[2] <= 20.0\ngini = 0.105\nsamples = 33\nvalue = [51, 3]"] ;
79 -> 80 ;
81 [label="X[2] <= 18.5\ngini = 0.32\nsamples = 5\nvalue = [8, 2]"] ;
80 -> 81 ;
82 [label="gini = 0.0\nsamples = 3\nvalue = [7, 0]"] ;
81 -> 82 ;
83 [label="gini = 0.444\nsamples = 2\nvalue = [1, 2]"] ;
81 -> 83 ;
84 [label="X[4] <= 0.5\ngini = 0.044\nsamples = 28\nvalue = [43, 1]"] ;
80 -> 84 ;
85 [label="gini = 0.0\nsamples = 1\nvalue = [1, 0]"] ;
84 -> 85 ;
86 [label="gini = 0.045\nsamples = 27\nvalue = [42, 1]"] ;
84 -> 86 ;
87 [label="X[2] <= 32.5\ngini = 0.174\nsamples = 98\nvalue = [150, 16]"] ;
79 -> 87 ;
88 [label="X[4] <= 0.5\ngini = 0.203\nsamples = 68\nvalue = [108, 14]"] ;
87 -> 88 ;
89 [label="gini = 0.42\nsamples = 5\nvalue = [7, 3]"] ;
88 -> 89 ;
90 [label="gini = 0.177\nsamples = 63\nvalue = [101, 11]"] ;
88 -> 90 ;
91 [label="X[3] <= 0.5\ngini = 0.087\nsamples = 30\nvalue = [42, 2]"] ;
87 -> 91 ;
92 [label="gini = 0.1\nsamples = 25\nvalue = [36, 2]"] ;
91 -> 92 ;
93 [label="gini = 0.0\nsamples = 5\nvalue = [6, 0]"] ;
91 -> 93 ;
94 [label="X[0] <= 2.5\ngini = 0.375\nsamples = 9\nvalue = [12, 4]"] ;
68 -> 94 ;
95 [label="gini = 0.0\nsamples = 1\nvalue = [1, 0]"] ;
94 -> 95 ;
96 [label="X[2] <= 34.5\ngini = 0.391\nsamples = 8\nvalue = [11, 4]"] ;
94 -> 96 ;
97 [label="X[2] <= 24.0\ngini = 0.5\nsamples = 5\nvalue = [4, 4]"] ;
96 -> 97 ;
98 [label="gini = 0.0\nsamples = 4\nvalue = [4, 0]"] ;
97 -> 98 ;
99 [label="gini = 0.0\nsamples = 1\nvalue = [0, 4]"] ;
97 -> 99 ;
100 [label="gini = 0.0\nsamples = 3\nvalue = [7, 0]"] ;
96 -> 100 ;
}
