digraph Tree {
node [shape=box] ;
0 [label="X[0] <= 2.5\ngini = 0.488\nsamples = 335\nvalue = [309, 225]"] ;
1 [label="X[3] <= 0.5\ngini = 0.473\nsamples = 156\nvalue = [93, 149]"] ;
0 -> 1 [labeldistance=2.5, labelangle=45, headlabel="True"] ;
2 [label="X[4] <= 0.5\ngini = 0.494\nsamples = 112\nvalue = [80, 99]"] ;
1 -> 2 ;
3 [label="X[1] <= 0.5\ngini = 0.365\nsamples = 29\nvalue = [12, 38]"] ;
2 -> 3 ;
4 [label="gini = 0.0\nsamples = 17\nvalue = [0, 30]"] ;
3 -> 4 ;
5 [label="X[2] <= 38.0\ngini = 0.48\nsamples = 12\nvalue = [12, 8]"] ;
3 -> 5 ;
6 [label="X[2] <= 27.0\ngini = 0.298\nsamples = 7\nvalue = [9, 2]"] ;
5 -> 6 ;
7 [label="gini = 0.0\nsamples = 2\nvalue = [0, 2]"] ;
6 -> 7 ;
8 [label="gini = 0.0\nsamples = 5\nvalue = [9, 0]"] ;
6 -> 8 ;
9 [label="X[2] <= 49.5\ngini = 0.444\nsamples = 5\nvalue = [3, 6]"] ;
5 -> 9 ;
10 [label="X[2] <= 44.0\ngini = 0.245\nsamples = 4\nvalue = [1, 6]"] ;
9 -> 10 ;
11 [label="gini = 0.444\nsamples = 2\nvalue = [1, 2]"] ;
10 -> 11 ;
12 [label="gini = 0.0\nsamples = 2\nvalue = [0, 4]"] ;
10 -> 12 ;
13 [label="gini = 0.0\nsamples = 1\nvalue = [2, 0]"] ;
9 -> 13 ;
14 [label="X[0] <= 1.5\ngini = 0.499\nsamples = 83\nvalue = [68, 61]"] ;
2 -> 14 ;
15 [label="X[1] <= 0.5\ngini = 0.484\nsamples = 38\nvalue = [23, 33]"] ;
14 -> 15 ;
16 [label="gini = 0.0\nsamples = 11\nvalue = [0, 18]"] ;
15 -> 16 ;
17 [label="X[2] <= 53.0\ngini = 0.478\nsamples = 27\nvalue = [23, 15]"] ;
15 -> 17 ;
18 [label="X[2] <= 47.5\ngini = 0.497\nsamples = 20\nvalue = [13, 15]"] ;
17 -> 18 ;
19 [label="gini = 0.483\nsamples = 16\nvalue = [13, 9]"] ;
18 -> 19 ;
20 [label="gini = 0.0\nsamples = 4\nvalue = [0, 6]"] ;
18 -> 20 ;
21 [label="gini = 0.0\nsamples = 7\nvalue = [10, 0]"] ;
17 -> 21 ;
22 [label="X[1] <= 0.5\ngini = 0.473\nsamples = 45\nvalue = [45, 28]"] ;
14 -> 22 ;
23 [label="X[2] <= 53.5\ngini = 0.271\nsamples = 18\nvalue = [5, 26]"] ;
22 -> 23 ;
24 [label="X[2] <= 27.5\ngini = 0.231\nsamples = 17\nvalue = [4, 26]"] ;
23 -> 24 ;
25 [label="gini = 0.42\nsamples = 6\nvalue = [3, 7]"] ;
24 -> 25 ;
26 [label="gini = 0.095\nsamples = 11\nvalue = [1, 19]"] ;
24 -> 26 ;
27 [label="gini = 0.0\nsamples = 1\nvalue = [1, 0]"] ;
23 -> 27 ;
28 [label="X[2] <= 30.5\ngini = 0.091\nsamples = 27\nvalue = [40, 2]"] ;
22 -> 28 ;
29 [label="gini = 0.0\nsamples = 12\nvalue = [23, 0]"] ;
28 -> 29 ;
30 [label="X[2] <= 31.5\ngini = 0.188\nsamples = 15\nvalue = [17, 2]"] ;
28 -> 30 ;
31 [label="gini = 0.0\nsamples = 1\nvalue = [0, 1]"] ;
30 -> 31 ;
32 [label="gini = 0.105\nsamples = 14\nvalue = [17, 1]"] ;
30 -> 32 ;
33 [label="X[1] <= 0.5\ngini = 0.328\nsamples = 44\nvalue = [13, 50]"] ;
1 -> 33 ;
34 [label="gini = 0.0\nsamples = 26\nvalue = [0, 37]"] ;
33 -> 34 ;
35 [label="X[4] <= 0.5\ngini = 0.5\nsamples = 18\nvalue = [13, 13]"] ;
33 -> 35 ;
36 [label="X[3] <= 1.5\ngini = 0.408\nsamples = 7\nvalue = [5, 2]"] ;
35 -> 36 ;
37 [label="X[2] <= 36.5\ngini = 0.32\nsamples = 5\nvalue = [4, 1]"] ;
36 -> 37 ;
38 [label="X[2] <= 30.0\ngini = 0.5\nsamples = 2\nvalue = [1, 1]"] ;
37 -> 38 ;
39 [label="gini = 0.0\nsamples = 1\nvalue = [1, 0]"] ;
38 -> 39 ;
40 [label="gini = 0.0\nsamples = 1\nvalue = [0, 1]"] ;
38 -> 40 ;
41 [label="gini = 0.0\nsamples = 3\nvalue = [3, 0]"] ;
37 -> 41 ;
42 [label="X[0] <= 1.5\ngini = 0.5\nsamples = 2\nvalue = [1, 1]"] ;
36 -> 42 ;
43 [label="gini = 0.0\nsamples = 1\nvalue = [1, 0]"] ;
42 -> 43 ;
44 [label="gini = 0.0\nsamples = 1\nvalue = [0, 1]"] ;
42 -> 44 ;
45 [label="X[0] <= 1.5\ngini = 0.488\nsamples = 11\nvalue = [8, 11]"] ;
35 -> 45 ;
46 [label="X[3] <= 3.0\ngini = 0.42\nsamples = 7\nvalue = [7, 3]"] ;
45 -> 46 ;
47 [label="X[3] <= 1.5\ngini = 0.444\nsamples = 6\nvalue = [6, 3]"] ;
46 -> 47 ;
48 [label="gini = 0.408\nsamples = 4\nvalue = [5, 2]"] ;
47 -> 48 ;
49 [label="gini = 0.5\nsamples = 2\nvalue = [1, 1]"] ;
47 -> 49 ;
50 [label="gini = 0.0\nsamples = 1\nvalue = [1, 0]"] ;
46 -> 50 ;
51 [label="X[2] <= 23.0\ngini = 0.198\nsamples = 4\nvalue = [1, 8]"] ;
45 -> 51 ;
52 [label="gini = 0.0\nsamples = 3\nvalue = [0, 8]"] ;
51 -> 52 ;
53 [label="gini = 0.0\nsamples = 1\nvalue = [1, 0]"] ;
51 -> 53 ;
54 [label="X[1] <= 0.5\ngini = 0.385\nsamples = 179\nvalue = [216, 76]"] ;
0 -> 54 [labeldistance=2.5, labelangle=-45, headlabel="False"] ;
55 [label="X[2] <= 2.5\ngini = 0.5\nsamples = 56\nvalue = [49, 46]"] ;
54 -> 55 ;
56 [label="gini = 0.0\nsamples = 4\nvalue = [0, 10]"] ;
55 -> 56 ;
57 [label="X[3] <= 3.5\ngini = 0.488\nsamples = 52\nvalue = [49, 36]"] ;
55 -> 57 ;
58 [label="X[4] <= 0.5\ngini = 0.496\nsamples = 48\nvalue = [43, 36]"] ;
57 -> 58 ;
59 [label="X[3] <= 0.5\ngini = 0.486\nsamples = 7\nvalue = [5, 7]"] ;
58 -> 59 ;
60 [label="X[2] <= 15.5\ngini = 0.32\nsamples = 3\nvalue = [4, 1]"] ;
59 -> 60 ;
61 [label="gini = 0.375\nsamples = 2\nvalue = [3, 1]"] ;
60 -> 61 ;
62 [label="gini = 0.0\nsamples = 1\nvalue = [1, 0]"] ;
60 -> 62 ;
63 [label="X[3] <= 1.5\ngini = 0.245\nsamples = 4\nvalue = [1, 6]"] ;
59 -> 63 ;
64 [label="gini = 0.444\nsamples = 2\nvalue = [1, 2]"] ;
63 -> 64 ;
65 [label="gini = 0.0\nsamples = 2\nvalue = [0, 4]"] ;
63 -> 65 ;
66 [label="X[2] <= 21.5\ngini = 0.491\nsamples = 41\nvalue = [38, 29]"] ;
58 -> 66 ;
67 [label="X[2] <= 19.5\ngini = 0.397\nsamples = 20\nvalue = [24, 9]"] ;
66 -> 67 ;
68 [label="gini = 0.476\nsamples = 15\nvalue = [14, 9]"] ;
67 -> 68 ;
69 [label="gini = 0.0\nsamples = 5\nvalue = [10, 0]"] ;
67 -> 69 ;
70 [label="X[4] <= 1.5\ngini = 0.484\nsamples = 21\nvalue = [14, 20]"] ;
66 -> 70 ;
71 [label="gini = 0.478\nsamples = 20\nvalue = [13, 20]"] ;
70 -> 71 ;
72 [label="gini = 0.0\nsamples = 1\nvalue = [1, 0]"] ;
70 -> 72 ;
73 [label="gini = 0.0\nsamples = 4\nvalue = [6, 0]"] ;
57 -> 73 ;
74 [label="X[2] <= 1.5\ngini = 0.258\nsamples = 123\nvalue = [167, 30]"] ;
54 -> 74 ;
75 [label="gini = 0.0\nsamples = 2\nvalue = [0, 5]"] ;
74 -> 75 ;
76 [label="X[2] <= 29.5\ngini = 0.227\nsamples = 121\nvalue = [167, 25]"] ;
74 -> 76 ;
77 [label="X[4] <= 0.5\ngini = 0.266\nsamples = 86\nvalue = [117, 22]"] ;
76 -> 77 ;
78 [label="X[2] <= 18.5\ngini = 0.48\nsamples = 7\nvalue = [4, 6]"] ;
77 -> 78 ;
79 [label="gini = 0.0\nsamples = 2\nvalue = [3, 0]"] ;
78 -> 79 ;
80 [label="X[2] <= 24.0\ngini = 0.245\nsamples = 5\nvalue = [1, 6]"] ;
78 -> 80 ;
81 [label="gini = 0.444\nsamples = 3\nvalue = [1, 2]"] ;
80 -> 81 ;
82 [label="gini = 0.0\nsamples = 2\nvalue = [0, 4]"] ;
80 -> 82 ;
83 [label="X[3] <= 1.5\ngini = 0.217\nsamples = 79\nvalue = [113, 16]"] ;
77 -> 83 ;
84 [label="X[3] <= 0.5\ngini = 0.234\nsamples = 73\nvalue = [102, 16]"] ;
83 -> 84 ;
85 [label="gini = 0.227\nsamples = 65\nvalue = [93, 14]"] ;
84 -> 85 ;
86 [label="gini = 0.298\nsamples = 8\nvalue = [9, 2]"] ;
84 -> 86 ;
87 [label="gini = 0.0\nsamples = 6\nvalue = [11, 0]"] ;
83 -> 87 ;
88 [label="X[3] <= 0.5\ngini = 0.107\nsamples = 35\nvalue = [50, 3]"] ;
76 -> 88 ;
89 [label="X[2] <= 38.5\ngini = 0.115\nsamples = 32\nvalue = [46, 3]"] ;
88 -> 89 ;
90 [label="X[2] <= 32.5\ngini = 0.059\nsamples = 21\nvalue = [32, 1]"] ;
89 -> 90 ;
91 [label="gini = 0.124\nsamples = 10\nvalue = [14, 1]"] ;
90 -> 91 ;
92 [label="gini = 0.0\nsamples = 11\nvalue = [18, 0]"] ;
90 -> 92 ;
93 [label="X[4] <= 0.5\ngini = 0.219\nsamples = 11\nvalue = [14, 2]"] ;
89 -> 93 ;
94 [label="gini = 0.0\nsamples = 1\nvalue = [1, 0]"] ;
93 -> 94 ;
95 [label="gini = 0.231\nsamples = 10\nvalue = [13, 2]"] ;
93 -> 95 ;
96 [label="gini = 0.0\nsamples = 3\nvalue = [4, 0]"] ;
88 -> 96 ;
}
