digraph Tree {
node [shape=box] ;
0 [label="X[1] <= 0.5\ngini = 0.486\nsamples = 340\nvalue = [312, 222]"] ;
1 [label="X[2] <= 11.5\ngini = 0.409\nsamples = 140\nvalue = [68, 169]"] ;
0 -> 1 [labeldistance=2.5, labelangle=45, headlabel="True"] ;
2 [label="X[0] <= 1.5\ngini = 0.457\nsamples = 20\nvalue = [22, 12]"] ;
1 -> 2 ;
3 [label="gini = 0.0\nsamples = 1\nvalue = [4, 0]"] ;
2 -> 3 ;
4 [label="X[2] <= 5.5\ngini = 0.48\nsamples = 19\nvalue = [18, 12]"] ;
2 -> 4 ;
5 [label="X[2] <= 3.5\ngini = 0.415\nsamples = 12\nvalue = [5, 12]"] ;
4 -> 5 ;
6 [label="X[2] <= 2.5\ngini = 0.496\nsamples = 7\nvalue = [5, 6]"] ;
5 -> 6 ;
7 [label="X[0] <= 2.5\ngini = 0.245\nsamples = 6\nvalue = [1, 6]"] ;
6 -> 7 ;
8 [label="gini = 0.0\nsamples = 1\nvalue = [0, 2]"] ;
7 -> 8 ;
9 [label="gini = 0.32\nsamples = 5\nvalue = [1, 4]"] ;
7 -> 9 ;
10 [label="gini = 0.0\nsamples = 1\nvalue = [4, 0]"] ;
6 -> 10 ;
11 [label="gini = 0.0\nsamples = 5\nvalue = [0, 6]"] ;
5 -> 11 ;
12 [label="gini = 0.0\nsamples = 7\nvalue = [13, 0]"] ;
4 -> 12 ;
13 [label="X[3] <= 3.5\ngini = 0.351\nsamples = 120\nvalue = [46, 157]"] ;
1 -> 13 ;
14 [label="X[0] <= 2.5\ngini = 0.338\nsamples = 118\nvalue = [43, 157]"] ;
13 -> 14 ;
15 [label="X[2] <= 55.0\ngini = 0.049\nsamples = 73\nvalue = [3, 116]"] ;
14 -> 15 ;
16 [label="X[2] <= 25.5\ngini = 0.034\nsamples = 69\nvalue = [2, 112]"] ;
15 -> 16 ;
17 [label="X[3] <= 1.5\ngini = 0.097\nsamples = 22\nvalue = [2, 37]"] ;
16 -> 17 ;
18 [label="gini = 0.062\nsamples = 17\nvalue = [1, 30]"] ;
17 -> 18 ;
19 [label="gini = 0.219\nsamples = 5\nvalue = [1, 7]"] ;
17 -> 19 ;
20 [label="gini = 0.0\nsamples = 47\nvalue = [0, 75]"] ;
16 -> 20 ;
21 [label="X[4] <= 0.5\ngini = 0.32\nsamples = 4\nvalue = [1, 4]"] ;
15 -> 21 ;
22 [label="gini = 0.0\nsamples = 1\nvalue = [0, 2]"] ;
21 -> 22 ;
23 [label="X[2] <= 57.5\ngini = 0.444\nsamples = 3\nvalue = [1, 2]"] ;
21 -> 23 ;
24 [label="gini = 0.0\nsamples = 1\nvalue = [1, 0]"] ;
23 -> 24 ;
25 [label="gini = 0.0\nsamples = 2\nvalue = [0, 2]"] ;
23 -> 25 ;
26 [label="X[4] <= 0.5\ngini = 0.5\nsamples = 45\nvalue = [40, 41]"] ;
14 -> 26 ;
27 [label="X[2] <= 21.0\ngini = 0.305\nsamples = 8\nvalue = [3, 13]"] ;
26 -> 27 ;
28 [label="X[2] <= 16.5\ngini = 0.397\nsamples = 6\nvalue = [3, 8]"] ;
27 -> 28 ;
29 [label="gini = 0.198\nsamples = 5\nvalue = [1, 8]"] ;
28 -> 29 ;
30 [label="gini = 0.0\nsamples = 1\nvalue = [2, 0]"] ;
28 -> 30 ;
31 [label="gini = 0.0\nsamples = 2\nvalue = [0, 5]"] ;
27 -> 31 ;
32 [label="X[2] <= 19.5\ngini = 0.49\nsamples = 37\nvalue = [37, 28]"] ;
26 -> 32 ;
33 [label="X[4] <= 1.5\ngini = 0.397\nsamples = 12\nvalue = [6, 16]"] ;
32 -> 33 ;
34 [label="gini = 0.473\nsamples = 7\nvalue = [5, 8]"] ;
33 -> 34 ;
35 [label="gini = 0.198\nsamples = 5\nvalue = [1, 8]"] ;
33 -> 35 ;
36 [label="X[2] <= 23.0\ngini = 0.402\nsamples = 25\nvalue = [31, 12]"] ;
32 -> 36 ;
37 [label="gini = 0.142\nsamples = 6\nvalue = [12, 1]"] ;
36 -> 37 ;
38 [label="gini = 0.464\nsamples = 19\nvalue = [19, 11]"] ;
36 -> 38 ;
39 [label="gini = 0.0\nsamples = 2\nvalue = [3, 0]"] ;
13 -> 39 ;
40 [label="X[4] <= 0.5\ngini = 0.293\nsamples = 200\nvalue = [244, 53]"] ;
0 -> 40 [labeldistance=2.5, labelangle=-45, headlabel="False"] ;
41 [label="X[2] <= 18.5\ngini = 0.449\nsamples = 32\nvalue = [31, 16]"] ;
40 -> 41 ;
42 [label="X[3] <= 1.5\ngini = 0.32\nsamples = 3\nvalue = [1, 4]"] ;
41 -> 42 ;
43 [label="X[2] <= 7.5\ngini = 0.5\nsamples = 2\nvalue = [1, 1]"] ;
42 -> 43 ;
44 [label="gini = 0.0\nsamples = 1\nvalue = [0, 1]"] ;
43 -> 44 ;
45 [label="gini = 0.0\nsamples = 1\nvalue = [1, 0]"] ;
43 -> 45 ;
46 [label="gini = 0.0\nsamples = 1\nvalue = [0, 3]"] ;
42 -> 46 ;
47 [label="X[2] <= 52.5\ngini = 0.408\nsamples = 29\nvalue = [30, 12]"] ;
41 -> 47 ;
48 [label="X[2] <= 38.5\ngini = 0.438\nsamples = 25\nvalue = [25, 12]"] ;
47 -> 48 ;
49 [label="X[0] <= 1.5\ngini = 0.346\nsamples = 19\nvalue = [21, 6]"] ;
48 -> 49 ;
50 [label="X[2] <= 31.0\ngini = 0.42\nsamples = 7\nvalue = [7, 3]"] ;
49 -> 50 ;
51 [label="gini = 0.245\nsamples = 4\nvalue = [6, 1]"] ;
50 -> 51 ;
52 [label="gini = 0.444\nsamples = 3\nvalue = [1, 2]"] ;
50 -> 52 ;
53 [label="X[2] <= 29.5\ngini = 0.291\nsamples = 12\nvalue = [14, 3]"] ;
49 -> 53 ;
54 [label="gini = 0.355\nsamples = 10\nvalue = [10, 3]"] ;
53 -> 54 ;
55 [label="gini = 0.0\nsamples = 2\nvalue = [4, 0]"] ;
53 -> 55 ;
56 [label="X[0] <= 2.0\ngini = 0.48\nsamples = 6\nvalue = [4, 6]"] ;
48 -> 56 ;
57 [label="X[2] <= 44.0\ngini = 0.245\nsamples = 4\nvalue = [1, 6]"] ;
56 -> 57 ;
58 [label="gini = 0.32\nsamples = 2\nvalue = [1, 4]"] ;
57 -> 58 ;
59 [label="gini = 0.0\nsamples = 2\nvalue = [0, 2]"] ;
57 -> 59 ;
60 [label="gini = 0.0\nsamples = 2\nvalue = [3, 0]"] ;
56 -> 60 ;
61 [label="gini = 0.0\nsamples = 4\nvalue = [5, 0]"] ;
47 -> 61 ;
62 [label="X[3] <= 0.5\ngini = 0.252\nsamples = 168\nvalue = [213, 37]"] ;
40 -> 62 ;
63 [label="X[4] <= 1.5\ngini = 0.204\nsamples = 145\nvalue = [192, 25]"] ;
62 -> 63 ;
64 [label="X[0] <= 1.5\ngini = 0.202\nsamples = 140\nvalue = [186, 24]"] ;
63 -> 64 ;
65 [label="X[2] <= 53.5\ngini = 0.397\nsamples = 23\nvalue = [24, 9]"] ;
64 -> 65 ;
66 [label="X[2] <= 47.5\ngini = 0.49\nsamples = 16\nvalue = [12, 9]"] ;
65 -> 66 ;
67 [label="gini = 0.444\nsamples = 14\nvalue = [12, 6]"] ;
66 -> 67 ;
68 [label="gini = 0.0\nsamples = 2\nvalue = [0, 3]"] ;
66 -> 68 ;
69 [label="gini = 0.0\nsamples = 7\nvalue = [12, 0]"] ;
65 -> 69 ;
70 [label="X[2] <= 24.5\ngini = 0.155\nsamples = 117\nvalue = [162, 15]"] ;
64 -> 70 ;
71 [label="X[2] <= 20.5\ngini = 0.071\nsamples = 50\nvalue = [78, 3]"] ;
70 -> 71 ;
72 [label="gini = 0.124\nsamples = 29\nvalue = [42, 3]"] ;
71 -> 72 ;
73 [label="gini = 0.0\nsamples = 21\nvalue = [36, 0]"] ;
71 -> 73 ;
74 [label="X[2] <= 27.5\ngini = 0.219\nsamples = 67\nvalue = [84, 12]"] ;
70 -> 74 ;
75 [label="gini = 0.408\nsamples = 10\nvalue = [10, 4]"] ;
74 -> 75 ;
76 [label="gini = 0.176\nsamples = 57\nvalue = [74, 8]"] ;
74 -> 76 ;
77 [label="X[0] <= 2.0\ngini = 0.245\nsamples = 5\nvalue = [6, 1]"] ;
63 -> 77 ;
78 [label="gini = 0.0\nsamples = 1\nvalue = [2, 0]"] ;
77 -> 78 ;
79 [label="X[2] <= 34.5\ngini = 0.32\nsamples = 4\nvalue = [4, 1]"] ;
77 -> 79 ;
80 [label="X[2] <= 24.0\ngini = 0.5\nsamples = 2\nvalue = [1, 1]"] ;
79 -> 80 ;
81 [label="gini = 0.0\nsamples = 1\nvalue = [1, 0]"] ;
80 -> 81 ;
82 [label="gini = 0.0\nsamples = 1\nvalue = [0, 1]"] ;
80 -> 82 ;
83 [label="gini = 0.0\nsamples = 2\nvalue = [3, 0]"] ;
79 -> 83 ;
84 [label="X[3] <= 3.0\ngini = 0.463\nsamples = 23\nvalue = [21, 12]"] ;
62 -> 84 ;
85 [label="X[0] <= 2.5\ngini = 0.475\nsamples = 21\nvalue = [19, 12]"] ;
84 -> 85 ;
86 [label="X[3] <= 1.5\ngini = 0.355\nsamples = 9\nvalue = [3, 10]"] ;
85 -> 86 ;
87 [label="X[0] <= 1.5\ngini = 0.469\nsamples = 6\nvalue = [3, 5]"] ;
86 -> 87 ;
88 [label="gini = 0.0\nsamples = 2\nvalue = [2, 0]"] ;
87 -> 88 ;
89 [label="gini = 0.278\nsamples = 4\nvalue = [1, 5]"] ;
87 -> 89 ;
90 [label="gini = 0.0\nsamples = 3\nvalue = [0, 5]"] ;
86 -> 90 ;
91 [label="X[3] <= 1.5\ngini = 0.198\nsamples = 12\nvalue = [16, 2]"] ;
85 -> 91 ;
92 [label="X[4] <= 1.5\ngini = 0.245\nsamples = 10\nvalue = [12, 2]"] ;
91 -> 92 ;
93 [label="gini = 0.298\nsamples = 7\nvalue = [9, 2]"] ;
92 -> 93 ;
94 [label="gini = 0.0\nsamples = 3\nvalue = [3, 0]"] ;
92 -> 94 ;
95 [label="gini = 0.0\nsamples = 2\nvalue = [4, 0]"] ;
91 -> 95 ;
96 [label="gini = 0.0\nsamples = 2\nvalue = [2, 0]"] ;
84 -> 96 ;
}
