digraph Tree {
node [shape=box] ;
0 [label="X[1] <= 0.5\ngini = 0.486\nsamples = 346\nvalue = [312, 222]"] ;
1 [label="X[0] <= 2.5\ngini = 0.383\nsamples = 121\nvalue = [48, 138]"] ;
0 -> 1 [labeldistance=2.5, labelangle=45, headlabel="True"] ;
2 [label="X[0] <= 1.5\ngini = 0.101\nsamples = 73\nvalue = [6, 107]"] ;
1 -> 2 ;
3 [label="X[3] <= 1.5\ngini = 0.034\nsamples = 40\nvalue = [1, 56]"] ;
2 -> 3 ;
4 [label="gini = 0.0\nsamples = 33\nvalue = [0, 49]"] ;
3 -> 4 ;
5 [label="X[2] <= 24.0\ngini = 0.219\nsamples = 7\nvalue = [1, 7]"] ;
3 -> 5 ;
6 [label="gini = 0.0\nsamples = 5\nvalue = [0, 6]"] ;
5 -> 6 ;
7 [label="X[2] <= 30.5\ngini = 0.5\nsamples = 2\nvalue = [1, 1]"] ;
5 -> 7 ;
8 [label="gini = 0.0\nsamples = 1\nvalue = [1, 0]"] ;
7 -> 8 ;
9 [label="gini = 0.0\nsamples = 1\nvalue = [0, 1]"] ;
7 -> 9 ;
10 [label="X[3] <= 0.5\ngini = 0.163\nsamples = 33\nvalue = [5, 51]"] ;
2 -> 10 ;
11 [label="X[4] <= 0.5\ngini = 0.234\nsamples = 23\nvalue = [5, 32]"] ;
10 -> 11 ;
12 [label="gini = 0.0\nsamples = 5\nvalue = [0, 7]"] ;
11 -> 12 ;
13 [label="X[4] <= 1.5\ngini = 0.278\nsamples = 18\nvalue = [5, 25]"] ;
11 -> 13 ;
14 [label="X[2] <= 56.0\ngini = 0.285\nsamples = 17\nvalue = [5, 24]"] ;
13 -> 14 ;
15 [label="gini = 0.245\nsamples = 16\nvalue = [4, 24]"] ;
14 -> 15 ;
16 [label="gini = 0.0\nsamples = 1\nvalue = [1, 0]"] ;
14 -> 16 ;
17 [label="gini = 0.0\nsamples = 1\nvalue = [0, 1]"] ;
13 -> 17 ;
18 [label="gini = 0.0\nsamples = 10\nvalue = [0, 19]"] ;
10 -> 18 ;
19 [label="X[2] <= 2.0\ngini = 0.489\nsamples = 48\nvalue = [42, 31]"] ;
1 -> 19 ;
20 [label="gini = 0.0\nsamples = 2\nvalue = [0, 6]"] ;
19 -> 20 ;
21 [label="X[2] <= 11.5\ngini = 0.468\nsamples = 46\nvalue = [42, 25]"] ;
19 -> 21 ;
22 [label="gini = 0.0\nsamples = 7\nvalue = [9, 0]"] ;
21 -> 22 ;
23 [label="X[2] <= 17.0\ngini = 0.49\nsamples = 39\nvalue = [33, 25]"] ;
21 -> 23 ;
24 [label="X[2] <= 14.5\ngini = 0.198\nsamples = 5\nvalue = [1, 8]"] ;
23 -> 24 ;
25 [label="X[2] <= 13.5\ngini = 0.32\nsamples = 3\nvalue = [1, 4]"] ;
24 -> 25 ;
26 [label="gini = 0.0\nsamples = 1\nvalue = [0, 3]"] ;
25 -> 26 ;
27 [label="gini = 0.5\nsamples = 2\nvalue = [1, 1]"] ;
25 -> 27 ;
28 [label="gini = 0.0\nsamples = 2\nvalue = [0, 4]"] ;
24 -> 28 ;
29 [label="X[3] <= 2.5\ngini = 0.453\nsamples = 34\nvalue = [32, 17]"] ;
23 -> 29 ;
30 [label="X[3] <= 1.5\ngini = 0.47\nsamples = 30\nvalue = [28, 17]"] ;
29 -> 30 ;
31 [label="gini = 0.444\nsamples = 27\nvalue = [28, 14]"] ;
30 -> 31 ;
32 [label="gini = 0.0\nsamples = 3\nvalue = [0, 3]"] ;
30 -> 32 ;
33 [label="gini = 0.0\nsamples = 4\nvalue = [4, 0]"] ;
29 -> 33 ;
34 [label="X[2] <= 8.5\ngini = 0.366\nsamples = 225\nvalue = [264, 84]"] ;
0 -> 34 [labeldistance=2.5, labelangle=-45, headlabel="False"] ;
35 [label="X[0] <= 2.5\ngini = 0.375\nsamples = 12\nvalue = [4, 12]"] ;
34 -> 35 ;
36 [label="gini = 0.0\nsamples = 5\nvalue = [0, 6]"] ;
35 -> 36 ;
37 [label="X[4] <= 0.5\ngini = 0.48\nsamples = 7\nvalue = [4, 6]"] ;
35 -> 37 ;
38 [label="gini = 0.0\nsamples = 1\nvalue = [0, 1]"] ;
37 -> 38 ;
39 [label="X[2] <= 1.5\ngini = 0.494\nsamples = 6\nvalue = [4, 5]"] ;
37 -> 39 ;
40 [label="gini = 0.0\nsamples = 1\nvalue = [0, 3]"] ;
39 -> 40 ;
41 [label="X[2] <= 3.0\ngini = 0.444\nsamples = 5\nvalue = [4, 2]"] ;
39 -> 41 ;
42 [label="gini = 0.0\nsamples = 2\nvalue = [2, 0]"] ;
41 -> 42 ;
43 [label="X[2] <= 5.5\ngini = 0.5\nsamples = 3\nvalue = [2, 2]"] ;
41 -> 43 ;
44 [label="gini = 0.444\nsamples = 2\nvalue = [1, 2]"] ;
43 -> 44 ;
45 [label="gini = 0.0\nsamples = 1\nvalue = [1, 0]"] ;
43 -> 45 ;
46 [label="X[3] <= 3.0\ngini = 0.34\nsamples = 213\nvalue = [260, 72]"] ;
34 -> 46 ;
47 [label="X[3] <= 0.5\ngini = 0.34\nsamples = 212\nvalue = [259, 72]"] ;
46 -> 47 ;
48 [label="X[0] <= 1.5\ngini = 0.345\nsamples = 188\nvalue = [225, 64]"] ;
47 -> 48 ;
49 [label="X[2] <= 54.0\ngini = 0.495\nsamples = 40\nvalue = [40, 33]"] ;
48 -> 49 ;
50 [label="X[2] <= 47.5\ngini = 0.492\nsamples = 31\nvalue = [24, 31]"] ;
49 -> 50 ;
51 [label="gini = 0.5\nsamples = 25\nvalue = [22, 21]"] ;
50 -> 51 ;
52 [label="gini = 0.278\nsamples = 6\nvalue = [2, 10]"] ;
50 -> 52 ;
53 [label="X[2] <= 75.5\ngini = 0.198\nsamples = 9\nvalue = [16, 2]"] ;
49 -> 53 ;
54 [label="gini = 0.0\nsamples = 8\nvalue = [16, 0]"] ;
53 -> 54 ;
55 [label="gini = 0.0\nsamples = 1\nvalue = [0, 2]"] ;
53 -> 55 ;
56 [label="X[0] <= 2.5\ngini = 0.246\nsamples = 148\nvalue = [185, 31]"] ;
48 -> 56 ;
57 [label="X[2] <= 59.5\ngini = 0.15\nsamples = 39\nvalue = [45, 4]"] ;
56 -> 57 ;
58 [label="gini = 0.083\nsamples = 37\nvalue = [44, 2]"] ;
57 -> 58 ;
59 [label="gini = 0.444\nsamples = 2\nvalue = [1, 2]"] ;
57 -> 59 ;
60 [label="X[4] <= 1.5\ngini = 0.271\nsamples = 109\nvalue = [140, 27]"] ;
56 -> 60 ;
61 [label="gini = 0.269\nsamples = 105\nvalue = [136, 26]"] ;
60 -> 61 ;
62 [label="gini = 0.32\nsamples = 4\nvalue = [4, 1]"] ;
60 -> 62 ;
63 [label="X[0] <= 2.5\ngini = 0.308\nsamples = 24\nvalue = [34, 8]"] ;
47 -> 63 ;
64 [label="X[4] <= 0.5\ngini = 0.255\nsamples = 14\nvalue = [17, 3]"] ;
63 -> 64 ;
65 [label="X[2] <= 20.5\ngini = 0.375\nsamples = 6\nvalue = [6, 2]"] ;
64 -> 65 ;
66 [label="gini = 0.0\nsamples = 1\nvalue = [0, 2]"] ;
65 -> 66 ;
67 [label="gini = 0.0\nsamples = 5\nvalue = [6, 0]"] ;
65 -> 67 ;
68 [label="X[3] <= 1.5\ngini = 0.153\nsamples = 8\nvalue = [11, 1]"] ;
64 -> 68 ;
69 [label="gini = 0.0\nsamples = 5\nvalue = [8, 0]"] ;
68 -> 69 ;
70 [label="gini = 0.375\nsamples = 3\nvalue = [3, 1]"] ;
68 -> 70 ;
71 [label="X[4] <= 0.5\ngini = 0.351\nsamples = 10\nvalue = [17, 5]"] ;
63 -> 71 ;
72 [label="X[2] <= 17.5\ngini = 0.5\nsamples = 2\nvalue = [3, 3]"] ;
71 -> 72 ;
73 [label="gini = 0.0\nsamples = 1\nvalue = [3, 0]"] ;
72 -> 73 ;
74 [label="gini = 0.0\nsamples = 1\nvalue = [0, 3]"] ;
72 -> 74 ;
75 [label="X[3] <= 1.5\ngini = 0.219\nsamples = 8\nvalue = [14, 2]"] ;
71 -> 75 ;
76 [label="gini = 0.298\nsamples = 5\nvalue = [9, 2]"] ;
75 -> 76 ;
77 [label="gini = 0.0\nsamples = 3\nvalue = [5, 0]"] ;
75 -> 77 ;
78 [label="gini = 0.0\nsamples = 1\nvalue = [1, 0]"] ;
46 -> 78 ;
}
