digraph Tree {
node [shape=box] ;
0 [label="X[4] <= 0.5\ngini = 0.472\nsamples = 338\nvalue = [330, 204]"] ;
1 [label="X[2] <= 26.5\ngini = 0.444\nsamples = 56\nvalue = [28, 56]"] ;
0 -> 1 [labeldistance=2.5, labelangle=45, headlabel="True"] ;
2 [label="X[1] <= 0.5\ngini = 0.38\nsamples = 27\nvalue = [12, 35]"] ;
1 -> 2 ;
3 [label="X[2] <= 19.5\ngini = 0.334\nsamples = 18\nvalue = [7, 26]"] ;
2 -> 3 ;
4 [label="X[3] <= 1.5\ngini = 0.413\nsamples = 13\nvalue = [7, 17]"] ;
3 -> 4 ;
5 [label="X[3] <= 0.5\ngini = 0.444\nsamples = 11\nvalue = [7, 14]"] ;
4 -> 5 ;
6 [label="X[0] <= 2.5\ngini = 0.397\nsamples = 7\nvalue = [3, 8]"] ;
5 -> 6 ;
7 [label="gini = 0.0\nsamples = 2\nvalue = [0, 4]"] ;
6 -> 7 ;
8 [label="gini = 0.49\nsamples = 5\nvalue = [3, 4]"] ;
6 -> 8 ;
9 [label="X[0] <= 2.0\ngini = 0.48\nsamples = 4\nvalue = [4, 6]"] ;
5 -> 9 ;
10 [label="gini = 0.0\nsamples = 1\nvalue = [0, 4]"] ;
9 -> 10 ;
11 [label="gini = 0.444\nsamples = 3\nvalue = [4, 2]"] ;
9 -> 11 ;
12 [label="gini = 0.0\nsamples = 2\nvalue = [0, 3]"] ;
4 -> 12 ;
13 [label="gini = 0.0\nsamples = 5\nvalue = [0, 9]"] ;
3 -> 13 ;
14 [label="X[0] <= 1.5\ngini = 0.459\nsamples = 9\nvalue = [5, 9]"] ;
2 -> 14 ;
15 [label="gini = 0.0\nsamples = 2\nvalue = [0, 4]"] ;
14 -> 15 ;
16 [label="X[3] <= 1.5\ngini = 0.5\nsamples = 7\nvalue = [5, 5]"] ;
14 -> 16 ;
17 [label="X[3] <= 0.5\ngini = 0.494\nsamples = 6\nvalue = [5, 4]"] ;
16 -> 17 ;
18 [label="X[2] <= 24.5\ngini = 0.48\nsamples = 4\nvalue = [3, 2]"] ;
17 -> 18 ;
19 [label="gini = 0.375\nsamples = 3\nvalue = [3, 1]"] ;
18 -> 19 ;
20 [label="gini = 0.0\nsamples = 1\nvalue = [0, 1]"] ;
18 -> 20 ;
21 [label="X[2] <= 17.5\ngini = 0.5\nsamples = 2\nvalue = [2, 2]"] ;
17 -> 21 ;
22 [label="gini = 0.0\nsamples = 1\nvalue = [2, 0]"] ;
21 -> 22 ;
23 [label="gini = 0.0\nsamples = 1\nvalue = [0, 2]"] ;
21 -> 23 ;
24 [label="gini = 0.0\nsamples = 1\nvalue = [0, 1]"] ;
16 -> 24 ;
25 [label="X[3] <= 1.5\ngini = 0.491\nsamples = 29\nvalue = [16, 21]"] ;
1 -> 25 ;
26 [label="X[2] <= 59.0\ngini = 0.48\nsamples = 27\nvalue = [14, 21]"] ;
25 -> 26 ;
27 [label="X[1] <= 0.5\ngini = 0.492\nsamples = 26\nvalue = [14, 18]"] ;
26 -> 27 ;
28 [label="gini = 0.0\nsamples = 11\nvalue = [0, 13]"] ;
27 -> 28 ;
29 [label="X[2] <= 36.5\ngini = 0.388\nsamples = 15\nvalue = [14, 5]"] ;
27 -> 29 ;
30 [label="X[3] <= 0.5\ngini = 0.486\nsamples = 10\nvalue = [7, 5]"] ;
29 -> 30 ;
31 [label="gini = 0.42\nsamples = 9\nvalue = [7, 3]"] ;
30 -> 31 ;
32 [label="gini = 0.0\nsamples = 1\nvalue = [0, 2]"] ;
30 -> 32 ;
33 [label="gini = 0.0\nsamples = 5\nvalue = [7, 0]"] ;
29 -> 33 ;
34 [label="gini = 0.0\nsamples = 1\nvalue = [0, 3]"] ;
26 -> 34 ;
35 [label="gini = 0.0\nsamples = 2\nvalue = [2, 0]"] ;
25 -> 35 ;
36 [label="X[0] <= 2.5\ngini = 0.441\nsamples = 282\nvalue = [302, 148]"] ;
0 -> 36 [labeldistance=2.5, labelangle=-45, headlabel="False"] ;
37 [label="X[1] <= 0.5\ngini = 0.5\nsamples = 125\nvalue = [99, 104]"] ;
36 -> 37 ;
38 [label="X[4] <= 1.5\ngini = 0.208\nsamples = 55\nvalue = [10, 75]"] ;
37 -> 38 ;
39 [label="X[2] <= 3.0\ngini = 0.212\nsamples = 54\nvalue = [10, 73]"] ;
38 -> 39 ;
40 [label="gini = 0.0\nsamples = 1\nvalue = [4, 0]"] ;
39 -> 40 ;
41 [label="X[2] <= 27.5\ngini = 0.14\nsamples = 53\nvalue = [6, 73]"] ;
39 -> 41 ;
42 [label="X[3] <= 0.5\ngini = 0.293\nsamples = 17\nvalue = [5, 23]"] ;
41 -> 42 ;
43 [label="gini = 0.375\nsamples = 9\nvalue = [4, 12]"] ;
42 -> 43 ;
44 [label="gini = 0.153\nsamples = 8\nvalue = [1, 11]"] ;
42 -> 44 ;
45 [label="X[3] <= 0.5\ngini = 0.038\nsamples = 36\nvalue = [1, 50]"] ;
41 -> 45 ;
46 [label="gini = 0.056\nsamples = 24\nvalue = [1, 34]"] ;
45 -> 46 ;
47 [label="gini = 0.0\nsamples = 12\nvalue = [0, 16]"] ;
45 -> 47 ;
48 [label="gini = 0.0\nsamples = 1\nvalue = [0, 2]"] ;
38 -> 48 ;
49 [label="X[2] <= 10.0\ngini = 0.371\nsamples = 70\nvalue = [89, 29]"] ;
37 -> 49 ;
50 [label="gini = 0.0\nsamples = 4\nvalue = [0, 4]"] ;
49 -> 50 ;
51 [label="X[0] <= 1.5\ngini = 0.342\nsamples = 66\nvalue = [89, 25]"] ;
49 -> 51 ;
52 [label="X[4] <= 1.5\ngini = 0.444\nsamples = 33\nvalue = [36, 18]"] ;
51 -> 52 ;
53 [label="X[2] <= 53.0\ngini = 0.449\nsamples = 32\nvalue = [35, 18]"] ;
52 -> 53 ;
54 [label="gini = 0.485\nsamples = 23\nvalue = [24, 17]"] ;
53 -> 54 ;
55 [label="gini = 0.153\nsamples = 9\nvalue = [11, 1]"] ;
53 -> 55 ;
56 [label="gini = 0.0\nsamples = 1\nvalue = [1, 0]"] ;
52 -> 56 ;
57 [label="X[3] <= 1.0\ngini = 0.206\nsamples = 33\nvalue = [53, 7]"] ;
51 -> 57 ;
58 [label="X[2] <= 58.0\ngini = 0.209\nsamples = 32\nvalue = [52, 7]"] ;
57 -> 58 ;
59 [label="gini = 0.145\nsamples = 29\nvalue = [47, 4]"] ;
58 -> 59 ;
60 [label="gini = 0.469\nsamples = 3\nvalue = [5, 3]"] ;
58 -> 60 ;
61 [label="gini = 0.0\nsamples = 1\nvalue = [1, 0]"] ;
57 -> 61 ;
62 [label="X[1] <= 0.5\ngini = 0.293\nsamples = 157\nvalue = [203, 44]"] ;
36 -> 62 ;
63 [label="X[2] <= 12.5\ngini = 0.491\nsamples = 44\nvalue = [38, 29]"] ;
62 -> 63 ;
64 [label="X[3] <= 1.5\ngini = 0.346\nsamples = 9\nvalue = [14, 4]"] ;
63 -> 64 ;
65 [label="X[2] <= 1.5\ngini = 0.48\nsamples = 3\nvalue = [3, 2]"] ;
64 -> 65 ;
66 [label="gini = 0.0\nsamples = 1\nvalue = [0, 2]"] ;
65 -> 66 ;
67 [label="gini = 0.0\nsamples = 2\nvalue = [3, 0]"] ;
65 -> 67 ;
68 [label="X[2] <= 5.5\ngini = 0.26\nsamples = 6\nvalue = [11, 2]"] ;
64 -> 68 ;
69 [label="X[2] <= 3.5\ngini = 0.5\nsamples = 2\nvalue = [2, 2]"] ;
68 -> 69 ;
70 [label="gini = 0.0\nsamples = 1\nvalue = [2, 0]"] ;
69 -> 70 ;
71 [label="gini = 0.0\nsamples = 1\nvalue = [0, 2]"] ;
69 -> 71 ;
72 [label="gini = 0.0\nsamples = 4\nvalue = [9, 0]"] ;
68 -> 72 ;
73 [label="X[4] <= 1.5\ngini = 0.5\nsamples = 35\nvalue = [24, 25]"] ;
63 -> 73 ;
74 [label="X[3] <= 3.0\ngini = 0.499\nsamples = 32\nvalue = [21, 23]"] ;
73 -> 74 ;
75 [label="X[2] <= 27.5\ngini = 0.493\nsamples = 29\nvalue = [18, 23]"] ;
74 -> 75 ;
76 [label="gini = 0.435\nsamples = 17\nvalue = [8, 17]"] ;
75 -> 76 ;
77 [label="gini = 0.469\nsamples = 12\nvalue = [10, 6]"] ;
75 -> 77 ;
78 [label="gini = 0.0\nsamples = 3\nvalue = [3, 0]"] ;
74 -> 78 ;
79 [label="X[2] <= 16.5\ngini = 0.48\nsamples = 3\nvalue = [3, 2]"] ;
73 -> 79 ;
80 [label="gini = 0.0\nsamples = 1\nvalue = [0, 2]"] ;
79 -> 80 ;
81 [label="gini = 0.0\nsamples = 2\nvalue = [3, 0]"] ;
79 -> 81 ;
82 [label="X[4] <= 1.5\ngini = 0.153\nsamples = 113\nvalue = [165, 15]"] ;
62 -> 82 ;
83 [label="X[3] <= 3.0\ngini = 0.148\nsamples = 107\nvalue = [160, 14]"] ;
82 -> 83 ;
84 [label="X[3] <= 0.5\ngini = 0.151\nsamples = 105\nvalue = [156, 14]"] ;
83 -> 84 ;
85 [label="X[2] <= 16.5\ngini = 0.139\nsamples = 88\nvalue = [135, 11]"] ;
84 -> 85 ;
86 [label="gini = 0.444\nsamples = 3\nvalue = [2, 1]"] ;
85 -> 86 ;
87 [label="gini = 0.13\nsamples = 85\nvalue = [133, 10]"] ;
85 -> 87 ;
88 [label="X[3] <= 1.5\ngini = 0.219\nsamples = 17\nvalue = [21, 3]"] ;
84 -> 88 ;
89 [label="gini = 0.298\nsamples = 8\nvalue = [9, 2]"] ;
88 -> 89 ;
90 [label="gini = 0.142\nsamples = 9\nvalue = [12, 1]"] ;
88 -> 90 ;
91 [label="gini = 0.0\nsamples = 2\nvalue = [4, 0]"] ;
83 -> 91 ;
92 [label="X[2] <= 34.5\ngini = 0.278\nsamples = 6\nvalue = [5, 1]"] ;
82 -> 92 ;
93 [label="X[2] <= 27.0\ngini = 0.444\nsamples = 3\nvalue = [2, 1]"] ;
92 -> 93 ;
94 [label="gini = 0.0\nsamples = 2\nvalue = [2, 0]"] ;
93 -> 94 ;
95 [label="gini = 0.0\nsamples = 1\nvalue = [0, 1]"] ;
93 -> 95 ;
96 [label="gini = 0.0\nsamples = 3\nvalue = [3, 0]"] ;
92 -> 96 ;
}
