digraph Tree {
node [shape=box] ;
0 [label="X[3] <= 0.5\ngini = 0.494\nsamples = 329\nvalue = [296, 238]"] ;
1 [label="X[2] <= 26.5\ngini = 0.479\nsamples = 247\nvalue = [240, 159]"] ;
0 -> 1 [labeldistance=2.5, labelangle=45, headlabel="True"] ;
2 [label="X[4] <= 0.5\ngini = 0.418\nsamples = 101\nvalue = [111, 47]"] ;
1 -> 2 ;
3 [label="X[2] <= 22.5\ngini = 0.444\nsamples = 10\nvalue = [5, 10]"] ;
2 -> 3 ;
4 [label="X[2] <= 15.5\ngini = 0.32\nsamples = 6\nvalue = [2, 8]"] ;
3 -> 4 ;
5 [label="X[2] <= 13.5\ngini = 0.444\nsamples = 3\nvalue = [2, 4]"] ;
4 -> 5 ;
6 [label="gini = 0.0\nsamples = 1\nvalue = [0, 1]"] ;
5 -> 6 ;
7 [label="gini = 0.48\nsamples = 2\nvalue = [2, 3]"] ;
5 -> 7 ;
8 [label="gini = 0.0\nsamples = 3\nvalue = [0, 4]"] ;
4 -> 8 ;
9 [label="X[2] <= 23.5\ngini = 0.48\nsamples = 4\nvalue = [3, 2]"] ;
3 -> 9 ;
10 [label="X[1] <= 0.5\ngini = 0.375\nsamples = 3\nvalue = [3, 1]"] ;
9 -> 10 ;
11 [label="gini = 0.0\nsamples = 1\nvalue = [0, 1]"] ;
10 -> 11 ;
12 [label="gini = 0.0\nsamples = 2\nvalue = [3, 0]"] ;
10 -> 12 ;
13 [label="gini = 0.0\nsamples = 1\nvalue = [0, 1]"] ;
9 -> 13 ;
14 [label="X[0] <= 1.5\ngini = 0.384\nsamples = 91\nvalue = [106, 37]"] ;
2 -> 14 ;
15 [label="gini = 0.0\nsamples = 4\nvalue = [0, 6]"] ;
14 -> 15 ;
16 [label="X[1] <= 0.5\ngini = 0.35\nsamples = 87\nvalue = [106, 31]"] ;
14 -> 16 ;
17 [label="X[0] <= 2.5\ngini = 0.464\nsamples = 22\nvalue = [11, 19]"] ;
16 -> 17 ;
18 [label="X[2] <= 21.5\ngini = 0.32\nsamples = 4\nvalue = [1, 4]"] ;
17 -> 18 ;
19 [label="gini = 0.0\nsamples = 2\nvalue = [0, 3]"] ;
18 -> 19 ;
20 [label="gini = 0.5\nsamples = 2\nvalue = [1, 1]"] ;
18 -> 20 ;
21 [label="X[2] <= 17.0\ngini = 0.48\nsamples = 18\nvalue = [10, 15]"] ;
17 -> 21 ;
22 [label="gini = 0.0\nsamples = 2\nvalue = [0, 5]"] ;
21 -> 22 ;
23 [label="gini = 0.5\nsamples = 16\nvalue = [10, 10]"] ;
21 -> 23 ;
24 [label="X[0] <= 2.5\ngini = 0.199\nsamples = 65\nvalue = [95, 12]"] ;
16 -> 24 ;
25 [label="X[2] <= 20.0\ngini = 0.188\nsamples = 12\nvalue = [17, 2]"] ;
24 -> 25 ;
26 [label="gini = 0.375\nsamples = 6\nvalue = [6, 2]"] ;
25 -> 26 ;
27 [label="gini = 0.0\nsamples = 6\nvalue = [11, 0]"] ;
25 -> 27 ;
28 [label="X[2] <= 24.5\ngini = 0.201\nsamples = 53\nvalue = [78, 10]"] ;
24 -> 28 ;
29 [label="gini = 0.163\nsamples = 42\nvalue = [61, 6]"] ;
28 -> 29 ;
30 [label="gini = 0.308\nsamples = 11\nvalue = [17, 4]"] ;
28 -> 30 ;
31 [label="X[1] <= 0.5\ngini = 0.498\nsamples = 146\nvalue = [129, 112]"] ;
1 -> 31 ;
32 [label="X[0] <= 2.5\ngini = 0.189\nsamples = 53\nvalue = [9, 76]"] ;
31 -> 32 ;
33 [label="X[0] <= 1.5\ngini = 0.055\nsamples = 45\nvalue = [2, 69]"] ;
32 -> 33 ;
34 [label="gini = 0.0\nsamples = 25\nvalue = [0, 36]"] ;
33 -> 34 ;
35 [label="X[2] <= 37.0\ngini = 0.108\nsamples = 20\nvalue = [2, 33]"] ;
33 -> 35 ;
36 [label="gini = 0.0\nsamples = 15\nvalue = [0, 26]"] ;
35 -> 36 ;
37 [label="X[2] <= 40.0\ngini = 0.346\nsamples = 5\nvalue = [2, 7]"] ;
35 -> 37 ;
38 [label="gini = 0.0\nsamples = 1\nvalue = [2, 0]"] ;
37 -> 38 ;
39 [label="gini = 0.0\nsamples = 4\nvalue = [0, 7]"] ;
37 -> 39 ;
40 [label="X[2] <= 30.5\ngini = 0.5\nsamples = 8\nvalue = [7, 7]"] ;
32 -> 40 ;
41 [label="gini = 0.0\nsamples = 2\nvalue = [0, 5]"] ;
40 -> 41 ;
42 [label="X[2] <= 36.5\ngini = 0.346\nsamples = 6\nvalue = [7, 2]"] ;
40 -> 42 ;
43 [label="X[2] <= 33.5\ngini = 0.444\nsamples = 4\nvalue = [4, 2]"] ;
42 -> 43 ;
44 [label="gini = 0.32\nsamples = 3\nvalue = [4, 1]"] ;
43 -> 44 ;
45 [label="gini = 0.0\nsamples = 1\nvalue = [0, 1]"] ;
43 -> 45 ;
46 [label="gini = 0.0\nsamples = 2\nvalue = [3, 0]"] ;
42 -> 46 ;
47 [label="X[0] <= 1.5\ngini = 0.355\nsamples = 93\nvalue = [120, 36]"] ;
31 -> 47 ;
48 [label="X[4] <= 0.5\ngini = 0.482\nsamples = 32\nvalue = [31, 21]"] ;
47 -> 48 ;
49 [label="X[2] <= 27.5\ngini = 0.469\nsamples = 9\nvalue = [10, 6]"] ;
48 -> 49 ;
50 [label="gini = 0.0\nsamples = 1\nvalue = [0, 2]"] ;
49 -> 50 ;
51 [label="X[2] <= 44.0\ngini = 0.408\nsamples = 8\nvalue = [10, 4]"] ;
49 -> 51 ;
52 [label="gini = 0.219\nsamples = 5\nvalue = [7, 1]"] ;
51 -> 52 ;
53 [label="gini = 0.5\nsamples = 3\nvalue = [3, 3]"] ;
51 -> 53 ;
54 [label="X[2] <= 72.0\ngini = 0.486\nsamples = 23\nvalue = [21, 15]"] ;
48 -> 54 ;
55 [label="X[2] <= 53.0\ngini = 0.463\nsamples = 22\nvalue = [21, 12]"] ;
54 -> 55 ;
56 [label="gini = 0.499\nsamples = 14\nvalue = [13, 12]"] ;
55 -> 56 ;
57 [label="gini = 0.0\nsamples = 8\nvalue = [8, 0]"] ;
55 -> 57 ;
58 [label="gini = 0.0\nsamples = 1\nvalue = [0, 3]"] ;
54 -> 58 ;
59 [label="X[4] <= 1.5\ngini = 0.247\nsamples = 61\nvalue = [89, 15]"] ;
47 -> 59 ;
60 [label="X[0] <= 2.5\ngini = 0.224\nsamples = 59\nvalue = [88, 13]"] ;
59 -> 60 ;
61 [label="X[2] <= 58.0\ngini = 0.239\nsamples = 22\nvalue = [31, 5]"] ;
60 -> 61 ;
62 [label="gini = 0.17\nsamples = 19\nvalue = [29, 3]"] ;
61 -> 62 ;
63 [label="gini = 0.5\nsamples = 3\nvalue = [2, 2]"] ;
61 -> 63 ;
64 [label="X[2] <= 32.5\ngini = 0.216\nsamples = 37\nvalue = [57, 8]"] ;
60 -> 64 ;
65 [label="gini = 0.312\nsamples = 18\nvalue = [25, 6]"] ;
64 -> 65 ;
66 [label="gini = 0.111\nsamples = 19\nvalue = [32, 2]"] ;
64 -> 66 ;
67 [label="X[2] <= 34.5\ngini = 0.444\nsamples = 2\nvalue = [1, 2]"] ;
59 -> 67 ;
68 [label="gini = 0.0\nsamples = 1\nvalue = [0, 2]"] ;
67 -> 68 ;
69 [label="gini = 0.0\nsamples = 1\nvalue = [1, 0]"] ;
67 -> 69 ;
70 [label="X[3] <= 3.5\ngini = 0.485\nsamples = 82\nvalue = [56, 79]"] ;
0 -> 70 [labeldistance=2.5, labelangle=-45, headlabel="False"] ;
71 [label="X[2] <= 23.5\ngini = 0.468\nsamples = 77\nvalue = [47, 79]"] ;
70 -> 71 ;
72 [label="X[4] <= 0.5\ngini = 0.5\nsamples = 42\nvalue = [32, 34]"] ;
71 -> 72 ;
73 [label="X[0] <= 2.5\ngini = 0.153\nsamples = 8\nvalue = [1, 11]"] ;
72 -> 73 ;
74 [label="gini = 0.0\nsamples = 5\nvalue = [0, 9]"] ;
73 -> 74 ;
75 [label="X[2] <= 11.0\ngini = 0.444\nsamples = 3\nvalue = [1, 2]"] ;
73 -> 75 ;
76 [label="gini = 0.0\nsamples = 1\nvalue = [0, 1]"] ;
75 -> 76 ;
77 [label="X[2] <= 18.5\ngini = 0.5\nsamples = 2\nvalue = [1, 1]"] ;
75 -> 77 ;
78 [label="gini = 0.0\nsamples = 1\nvalue = [1, 0]"] ;
77 -> 78 ;
79 [label="gini = 0.0\nsamples = 1\nvalue = [0, 1]"] ;
77 -> 79 ;
80 [label="X[0] <= 2.5\ngini = 0.489\nsamples = 34\nvalue = [31, 23]"] ;
72 -> 80 ;
81 [label="X[2] <= 18.5\ngini = 0.463\nsamples = 15\nvalue = [8, 14]"] ;
80 -> 81 ;
82 [label="X[3] <= 1.5\ngini = 0.133\nsamples = 11\nvalue = [1, 13]"] ;
81 -> 82 ;
83 [label="gini = 0.0\nsamples = 7\nvalue = [0, 9]"] ;
82 -> 83 ;
84 [label="gini = 0.32\nsamples = 4\nvalue = [1, 4]"] ;
82 -> 84 ;
85 [label="X[1] <= 0.5\ngini = 0.219\nsamples = 4\nvalue = [7, 1]"] ;
81 -> 85 ;
86 [label="gini = 0.0\nsamples = 1\nvalue = [0, 1]"] ;
85 -> 86 ;
87 [label="gini = 0.0\nsamples = 3\nvalue = [7, 0]"] ;
85 -> 87 ;
88 [label="X[3] <= 1.5\ngini = 0.404\nsamples = 19\nvalue = [23, 9]"] ;
80 -> 88 ;
89 [label="X[2] <= 17.0\ngini = 0.469\nsamples = 13\nvalue = [15, 9]"] ;
88 -> 89 ;
90 [label="gini = 0.408\nsamples = 12\nvalue = [15, 6]"] ;
89 -> 90 ;
91 [label="gini = 0.0\nsamples = 1\nvalue = [0, 3]"] ;
89 -> 91 ;
92 [label="gini = 0.0\nsamples = 6\nvalue = [8, 0]"] ;
88 -> 92 ;
93 [label="X[3] <= 1.5\ngini = 0.375\nsamples = 35\nvalue = [15, 45]"] ;
71 -> 93 ;
94 [label="X[2] <= 50.5\ngini = 0.424\nsamples = 21\nvalue = [11, 25]"] ;
93 -> 94 ;
95 [label="X[0] <= 2.5\ngini = 0.252\nsamples = 18\nvalue = [4, 23]"] ;
94 -> 95 ;
96 [label="X[4] <= 0.5\ngini = 0.165\nsamples = 14\nvalue = [2, 20]"] ;
95 -> 96 ;
97 [label="gini = 0.32\nsamples = 4\nvalue = [1, 4]"] ;
96 -> 97 ;
98 [label="gini = 0.111\nsamples = 10\nvalue = [1, 16]"] ;
96 -> 98 ;
99 [label="X[2] <= 27.5\ngini = 0.48\nsamples = 4\nvalue = [2, 3]"] ;
95 -> 99 ;
100 [label="gini = 0.0\nsamples = 1\nvalue = [0, 2]"] ;
99 -> 100 ;
101 [label="gini = 0.444\nsamples = 3\nvalue = [2, 1]"] ;
99 -> 101 ;
102 [label="X[2] <= 51.5\ngini = 0.346\nsamples = 3\nvalue = [7, 2]"] ;
94 -> 102 ;
103 [label="gini = 0.0\nsamples = 1\nvalue = [4, 0]"] ;
102 -> 103 ;
104 [label="X[1] <= 0.5\ngini = 0.48\nsamples = 2\nvalue = [3, 2]"] ;
102 -> 104 ;
105 [label="gini = 0.0\nsamples = 1\nvalue = [0, 2]"] ;
104 -> 105 ;
106 [label="gini = 0.0\nsamples = 1\nvalue = [3, 0]"] ;
104 -> 106 ;
107 [label="X[2] <= 25.0\ngini = 0.278\nsamples = 14\nvalue = [4, 20]"] ;
93 -> 107 ;
108 [label="gini = 0.0\nsamples = 4\nvalue = [0, 6]"] ;
107 -> 108 ;
109 [label="X[2] <= 26.5\ngini = 0.346\nsamples = 10\nvalue = [4, 14]"] ;
107 -> 109 ;
110 [label="gini = 0.0\nsamples = 1\nvalue = [2, 0]"] ;
109 -> 110 ;
111 [label="X[2] <= 34.5\ngini = 0.219\nsamples = 9\nvalue = [2, 14]"] ;
109 -> 111 ;
112 [label="gini = 0.0\nsamples = 4\nvalue = [0, 8]"] ;
111 -> 112 ;
113 [label="gini = 0.375\nsamples = 5\nvalue = [2, 6]"] ;
111 -> 113 ;
114 [label="gini = 0.0\nsamples = 5\nvalue = [9, 0]"] ;
70 -> 114 ;
}
