digraph Tree {
node [shape=box] ;
0 [label="X[2] <= 1.5\ngini = 0.473\nsamples = 342\nvalue = [329, 205]"] ;
1 [label="gini = 0.0\nsamples = 7\nvalue = [0, 7]"] ;
0 -> 1 [labeldistance=2.5, labelangle=45, headlabel="True"] ;
2 [label="X[1] <= 0.5\ngini = 0.469\nsamples = 335\nvalue = [329, 198]"] ;
0 -> 2 [labeldistance=2.5, labelangle=-45, headlabel="False"] ;
3 [label="X[2] <= 14.5\ngini = 0.376\nsamples = 124\nvalue = [48, 143]"] ;
2 -> 3 ;
4 [label="X[0] <= 1.5\ngini = 0.498\nsamples = 12\nvalue = [9, 8]"] ;
3 -> 4 ;
5 [label="gini = 0.0\nsamples = 1\nvalue = [2, 0]"] ;
4 -> 5 ;
6 [label="X[0] <= 2.5\ngini = 0.498\nsamples = 11\nvalue = [7, 8]"] ;
4 -> 6 ;
7 [label="gini = 0.0\nsamples = 2\nvalue = [0, 3]"] ;
6 -> 7 ;
8 [label="X[3] <= 1.5\ngini = 0.486\nsamples = 9\nvalue = [7, 5]"] ;
6 -> 8 ;
9 [label="X[3] <= 0.5\ngini = 0.5\nsamples = 5\nvalue = [3, 3]"] ;
8 -> 9 ;
10 [label="gini = 0.5\nsamples = 2\nvalue = [1, 1]"] ;
9 -> 10 ;
11 [label="gini = 0.5\nsamples = 3\nvalue = [2, 2]"] ;
9 -> 11 ;
12 [label="X[2] <= 3.5\ngini = 0.444\nsamples = 4\nvalue = [4, 2]"] ;
8 -> 12 ;
13 [label="gini = 0.0\nsamples = 1\nvalue = [2, 0]"] ;
12 -> 13 ;
14 [label="gini = 0.5\nsamples = 3\nvalue = [2, 2]"] ;
12 -> 14 ;
15 [label="X[0] <= 2.5\ngini = 0.348\nsamples = 112\nvalue = [39, 135]"] ;
3 -> 15 ;
16 [label="X[4] <= 0.5\ngini = 0.152\nsamples = 69\nvalue = [9, 100]"] ;
15 -> 16 ;
17 [label="gini = 0.0\nsamples = 20\nvalue = [0, 33]"] ;
16 -> 17 ;
18 [label="X[2] <= 55.5\ngini = 0.209\nsamples = 49\nvalue = [9, 67]"] ;
16 -> 18 ;
19 [label="X[2] <= 27.5\ngini = 0.173\nsamples = 47\nvalue = [7, 66]"] ;
18 -> 19 ;
20 [label="gini = 0.332\nsamples = 12\nvalue = [4, 15]"] ;
19 -> 20 ;
21 [label="gini = 0.105\nsamples = 35\nvalue = [3, 51]"] ;
19 -> 21 ;
22 [label="X[2] <= 57.5\ngini = 0.444\nsamples = 2\nvalue = [2, 1]"] ;
18 -> 22 ;
23 [label="gini = 0.0\nsamples = 1\nvalue = [2, 0]"] ;
22 -> 23 ;
24 [label="gini = 0.0\nsamples = 1\nvalue = [0, 1]"] ;
22 -> 24 ;
25 [label="X[2] <= 17.5\ngini = 0.497\nsamples = 43\nvalue = [30, 35]"] ;
15 -> 25 ;
26 [label="gini = 0.0\nsamples = 4\nvalue = [0, 8]"] ;
25 -> 26 ;
27 [label="X[3] <= 4.0\ngini = 0.499\nsamples = 39\nvalue = [30, 27]"] ;
25 -> 27 ;
28 [label="X[2] <= 18.5\ngini = 0.498\nsamples = 36\nvalue = [24, 27]"] ;
27 -> 28 ;
29 [label="gini = 0.278\nsamples = 5\nvalue = [5, 1]"] ;
28 -> 29 ;
30 [label="gini = 0.488\nsamples = 31\nvalue = [19, 26]"] ;
28 -> 30 ;
31 [label="gini = 0.0\nsamples = 3\nvalue = [6, 0]"] ;
27 -> 31 ;
32 [label="X[2] <= 25.5\ngini = 0.274\nsamples = 211\nvalue = [281, 55]"] ;
2 -> 32 ;
33 [label="X[2] <= 10.0\ngini = 0.16\nsamples = 85\nvalue = [125, 12]"] ;
32 -> 33 ;
34 [label="X[0] <= 2.5\ngini = 0.43\nsamples = 10\nvalue = [11, 5]"] ;
33 -> 34 ;
35 [label="gini = 0.0\nsamples = 1\nvalue = [0, 2]"] ;
34 -> 35 ;
36 [label="X[3] <= 1.5\ngini = 0.337\nsamples = 9\nvalue = [11, 3]"] ;
34 -> 36 ;
37 [label="X[4] <= 1.5\ngini = 0.397\nsamples = 7\nvalue = [8, 3]"] ;
36 -> 37 ;
38 [label="gini = 0.49\nsamples = 5\nvalue = [4, 3]"] ;
37 -> 38 ;
39 [label="gini = 0.0\nsamples = 2\nvalue = [4, 0]"] ;
37 -> 39 ;
40 [label="gini = 0.0\nsamples = 2\nvalue = [3, 0]"] ;
36 -> 40 ;
41 [label="X[4] <= 0.5\ngini = 0.109\nsamples = 75\nvalue = [114, 7]"] ;
33 -> 41 ;
42 [label="X[3] <= 0.5\ngini = 0.266\nsamples = 10\nvalue = [16, 3]"] ;
41 -> 42 ;
43 [label="X[2] <= 21.0\ngini = 0.26\nsamples = 6\nvalue = [11, 2]"] ;
42 -> 43 ;
44 [label="gini = 0.0\nsamples = 1\nvalue = [0, 1]"] ;
43 -> 44 ;
45 [label="gini = 0.153\nsamples = 5\nvalue = [11, 1]"] ;
43 -> 45 ;
46 [label="X[2] <= 18.5\ngini = 0.278\nsamples = 4\nvalue = [5, 1]"] ;
42 -> 46 ;
47 [label="gini = 0.0\nsamples = 2\nvalue = [4, 0]"] ;
46 -> 47 ;
48 [label="gini = 0.5\nsamples = 2\nvalue = [1, 1]"] ;
46 -> 48 ;
49 [label="X[4] <= 1.5\ngini = 0.075\nsamples = 65\nvalue = [98, 4]"] ;
41 -> 49 ;
50 [label="X[3] <= 0.5\ngini = 0.077\nsamples = 63\nvalue = [96, 4]"] ;
49 -> 50 ;
51 [label="gini = 0.083\nsamples = 58\nvalue = [88, 4]"] ;
50 -> 51 ;
52 [label="gini = 0.0\nsamples = 5\nvalue = [8, 0]"] ;
50 -> 52 ;
53 [label="gini = 0.0\nsamples = 2\nvalue = [2, 0]"] ;
49 -> 53 ;
54 [label="X[0] <= 1.5\ngini = 0.339\nsamples = 126\nvalue = [156, 43]"] ;
32 -> 54 ;
55 [label="X[2] <= 53.0\ngini = 0.475\nsamples = 40\nvalue = [41, 26]"] ;
54 -> 55 ;
56 [label="X[2] <= 47.5\ngini = 0.499\nsamples = 28\nvalue = [23, 25]"] ;
55 -> 56 ;
57 [label="X[4] <= 1.5\ngini = 0.48\nsamples = 22\nvalue = [21, 14]"] ;
56 -> 57 ;
58 [label="gini = 0.484\nsamples = 21\nvalue = [20, 14]"] ;
57 -> 58 ;
59 [label="gini = 0.0\nsamples = 1\nvalue = [1, 0]"] ;
57 -> 59 ;
60 [label="X[2] <= 51.0\ngini = 0.26\nsamples = 6\nvalue = [2, 11]"] ;
56 -> 60 ;
61 [label="gini = 0.346\nsamples = 5\nvalue = [2, 7]"] ;
60 -> 61 ;
62 [label="gini = 0.0\nsamples = 1\nvalue = [0, 4]"] ;
60 -> 62 ;
63 [label="X[2] <= 75.5\ngini = 0.1\nsamples = 12\nvalue = [18, 1]"] ;
55 -> 63 ;
64 [label="gini = 0.0\nsamples = 11\nvalue = [18, 0]"] ;
63 -> 64 ;
65 [label="gini = 0.0\nsamples = 1\nvalue = [0, 1]"] ;
63 -> 65 ;
66 [label="X[3] <= 0.5\ngini = 0.224\nsamples = 86\nvalue = [115, 17]"] ;
54 -> 66 ;
67 [label="X[0] <= 2.5\ngini = 0.243\nsamples = 79\nvalue = [103, 17]"] ;
66 -> 67 ;
68 [label="X[4] <= 0.5\ngini = 0.234\nsamples = 23\nvalue = [32, 5]"] ;
67 -> 68 ;
69 [label="gini = 0.0\nsamples = 2\nvalue = [4, 0]"] ;
68 -> 69 ;
70 [label="gini = 0.257\nsamples = 21\nvalue = [28, 5]"] ;
68 -> 70 ;
71 [label="X[4] <= 1.5\ngini = 0.247\nsamples = 56\nvalue = [71, 12]"] ;
67 -> 71 ;
72 [label="gini = 0.237\nsamples = 53\nvalue = [69, 11]"] ;
71 -> 72 ;
73 [label="gini = 0.444\nsamples = 3\nvalue = [2, 1]"] ;
71 -> 73 ;
74 [label="gini = 0.0\nsamples = 7\nvalue = [12, 0]"] ;
66 -> 74 ;
}
