digraph Tree {
node [shape=box] ;
0 [label="X[0] <= 2.5\ngini = 0.479\nsamples = 338\nvalue = [322, 212]"] ;
1 [label="X[1] <= 0.5\ngini = 0.487\nsamples = 166\nvalue = [108, 150]"] ;
0 -> 1 [labeldistance=2.5, labelangle=45, headlabel="True"] ;
2 [label="X[2] <= 27.5\ngini = 0.101\nsamples = 78\nvalue = [6, 107]"] ;
1 -> 2 ;
3 [label="X[4] <= 0.5\ngini = 0.215\nsamples = 33\nvalue = [6, 43]"] ;
2 -> 3 ;
4 [label="gini = 0.0\nsamples = 11\nvalue = [0, 14]"] ;
3 -> 4 ;
5 [label="X[0] <= 1.5\ngini = 0.284\nsamples = 22\nvalue = [6, 29]"] ;
3 -> 5 ;
6 [label="X[2] <= 23.5\ngini = 0.463\nsamples = 6\nvalue = [4, 7]"] ;
5 -> 6 ;
7 [label="gini = 0.0\nsamples = 4\nvalue = [0, 6]"] ;
6 -> 7 ;
8 [label="X[3] <= 1.0\ngini = 0.32\nsamples = 2\nvalue = [4, 1]"] ;
6 -> 8 ;
9 [label="gini = 0.0\nsamples = 1\nvalue = [0, 1]"] ;
8 -> 9 ;
10 [label="gini = 0.0\nsamples = 1\nvalue = [4, 0]"] ;
8 -> 10 ;
11 [label="X[3] <= 0.5\ngini = 0.153\nsamples = 16\nvalue = [2, 22]"] ;
5 -> 11 ;
12 [label="X[2] <= 22.5\ngini = 0.408\nsamples = 6\nvalue = [2, 5]"] ;
11 -> 12 ;
13 [label="gini = 0.0\nsamples = 3\nvalue = [0, 3]"] ;
12 -> 13 ;
14 [label="gini = 0.5\nsamples = 3\nvalue = [2, 2]"] ;
12 -> 14 ;
15 [label="gini = 0.0\nsamples = 10\nvalue = [0, 17]"] ;
11 -> 15 ;
16 [label="gini = 0.0\nsamples = 45\nvalue = [0, 64]"] ;
2 -> 16 ;
17 [label="X[3] <= 1.5\ngini = 0.417\nsamples = 88\nvalue = [102, 43]"] ;
1 -> 17 ;
18 [label="X[2] <= 9.5\ngini = 0.389\nsamples = 82\nvalue = [100, 36]"] ;
17 -> 18 ;
19 [label="gini = 0.0\nsamples = 3\nvalue = [0, 5]"] ;
18 -> 19 ;
20 [label="X[0] <= 1.5\ngini = 0.361\nsamples = 79\nvalue = [100, 31]"] ;
18 -> 20 ;
21 [label="X[3] <= 0.5\ngini = 0.451\nsamples = 44\nvalue = [44, 23]"] ;
20 -> 21 ;
22 [label="X[2] <= 39.0\ngini = 0.465\nsamples = 37\nvalue = [36, 21]"] ;
21 -> 22 ;
23 [label="gini = 0.494\nsamples = 17\nvalue = [12, 15]"] ;
22 -> 23 ;
24 [label="gini = 0.32\nsamples = 20\nvalue = [24, 6]"] ;
22 -> 24 ;
25 [label="X[2] <= 30.0\ngini = 0.32\nsamples = 7\nvalue = [8, 2]"] ;
21 -> 25 ;
26 [label="gini = 0.0\nsamples = 2\nvalue = [3, 0]"] ;
25 -> 26 ;
27 [label="gini = 0.408\nsamples = 5\nvalue = [5, 2]"] ;
25 -> 27 ;
28 [label="X[4] <= 0.5\ngini = 0.219\nsamples = 35\nvalue = [56, 8]"] ;
20 -> 28 ;
29 [label="gini = 0.0\nsamples = 3\nvalue = [4, 0]"] ;
28 -> 29 ;
30 [label="X[2] <= 29.5\ngini = 0.231\nsamples = 32\nvalue = [52, 8]"] ;
28 -> 30 ;
31 [label="gini = 0.0\nsamples = 12\nvalue = [25, 0]"] ;
30 -> 31 ;
32 [label="gini = 0.353\nsamples = 20\nvalue = [27, 8]"] ;
30 -> 32 ;
33 [label="X[0] <= 1.5\ngini = 0.346\nsamples = 6\nvalue = [2, 7]"] ;
17 -> 33 ;
34 [label="X[4] <= 0.5\ngini = 0.245\nsamples = 4\nvalue = [1, 6]"] ;
33 -> 34 ;
35 [label="gini = 0.0\nsamples = 1\nvalue = [0, 4]"] ;
34 -> 35 ;
36 [label="X[2] <= 50.0\ngini = 0.444\nsamples = 3\nvalue = [1, 2]"] ;
34 -> 36 ;
37 [label="gini = 0.0\nsamples = 2\nvalue = [0, 2]"] ;
36 -> 37 ;
38 [label="gini = 0.0\nsamples = 1\nvalue = [1, 0]"] ;
36 -> 38 ;
39 [label="X[2] <= 18.0\ngini = 0.5\nsamples = 2\nvalue = [1, 1]"] ;
33 -> 39 ;
40 [label="gini = 0.0\nsamples = 1\nvalue = [0, 1]"] ;
39 -> 40 ;
41 [label="gini = 0.0\nsamples = 1\nvalue = [1, 0]"] ;
39 -> 41 ;
42 [label="X[1] <= 0.5\ngini = 0.348\nsamples = 172\nvalue = [214, 62]"] ;
0 -> 42 [labeldistance=2.5, labelangle=-45, headlabel="False"] ;
43 [label="X[3] <= 4.0\ngini = 0.5\nsamples = 58\nvalue = [48, 46]"] ;
42 -> 43 ;
44 [label="X[4] <= 1.5\ngini = 0.5\nsamples = 56\nvalue = [45, 46]"] ;
43 -> 44 ;
45 [label="X[2] <= 36.5\ngini = 0.5\nsamples = 49\nvalue = [41, 39]"] ;
44 -> 45 ;
46 [label="X[3] <= 1.5\ngini = 0.497\nsamples = 46\nvalue = [33, 39]"] ;
45 -> 46 ;
47 [label="X[2] <= 27.5\ngini = 0.499\nsamples = 37\nvalue = [29, 31]"] ;
46 -> 47 ;
48 [label="gini = 0.487\nsamples = 27\nvalue = [18, 25]"] ;
47 -> 48 ;
49 [label="gini = 0.457\nsamples = 10\nvalue = [11, 6]"] ;
47 -> 49 ;
50 [label="X[3] <= 2.5\ngini = 0.444\nsamples = 9\nvalue = [4, 8]"] ;
46 -> 50 ;
51 [label="gini = 0.463\nsamples = 8\nvalue = [4, 7]"] ;
50 -> 51 ;
52 [label="gini = 0.0\nsamples = 1\nvalue = [0, 1]"] ;
50 -> 52 ;
53 [label="gini = 0.0\nsamples = 3\nvalue = [8, 0]"] ;
45 -> 53 ;
54 [label="X[3] <= 0.5\ngini = 0.463\nsamples = 7\nvalue = [4, 7]"] ;
44 -> 54 ;
55 [label="X[2] <= 20.0\ngini = 0.346\nsamples = 6\nvalue = [2, 7]"] ;
54 -> 55 ;
56 [label="X[2] <= 17.0\ngini = 0.219\nsamples = 5\nvalue = [1, 7]"] ;
55 -> 56 ;
57 [label="gini = 0.0\nsamples = 3\nvalue = [0, 4]"] ;
56 -> 57 ;
58 [label="gini = 0.375\nsamples = 2\nvalue = [1, 3]"] ;
56 -> 58 ;
59 [label="gini = 0.0\nsamples = 1\nvalue = [1, 0]"] ;
55 -> 59 ;
60 [label="gini = 0.0\nsamples = 1\nvalue = [2, 0]"] ;
54 -> 60 ;
61 [label="gini = 0.0\nsamples = 2\nvalue = [3, 0]"] ;
43 -> 61 ;
62 [label="X[3] <= 1.5\ngini = 0.16\nsamples = 114\nvalue = [166, 16]"] ;
42 -> 62 ;
63 [label="X[4] <= 0.5\ngini = 0.168\nsamples = 107\nvalue = [157, 16]"] ;
62 -> 63 ;
64 [label="X[2] <= 8.5\ngini = 0.457\nsamples = 10\nvalue = [11, 6]"] ;
63 -> 64 ;
65 [label="gini = 0.0\nsamples = 1\nvalue = [0, 1]"] ;
64 -> 65 ;
66 [label="X[2] <= 18.5\ngini = 0.43\nsamples = 9\nvalue = [11, 5]"] ;
64 -> 66 ;
67 [label="gini = 0.0\nsamples = 1\nvalue = [2, 0]"] ;
66 -> 67 ;
68 [label="X[2] <= 23.5\ngini = 0.459\nsamples = 8\nvalue = [9, 5]"] ;
66 -> 68 ;
69 [label="gini = 0.5\nsamples = 5\nvalue = [4, 4]"] ;
68 -> 69 ;
70 [label="gini = 0.278\nsamples = 3\nvalue = [5, 1]"] ;
68 -> 70 ;
71 [label="X[2] <= 21.5\ngini = 0.12\nsamples = 97\nvalue = [146, 10]"] ;
63 -> 71 ;
72 [label="X[3] <= 0.5\ngini = 0.216\nsamples = 39\nvalue = [57, 8]"] ;
71 -> 72 ;
73 [label="X[2] <= 16.5\ngini = 0.256\nsamples = 32\nvalue = [45, 8]"] ;
72 -> 73 ;
74 [label="gini = 0.346\nsamples = 5\nvalue = [7, 2]"] ;
73 -> 74 ;
75 [label="gini = 0.236\nsamples = 27\nvalue = [38, 6]"] ;
73 -> 75 ;
76 [label="gini = 0.0\nsamples = 7\nvalue = [12, 0]"] ;
72 -> 76 ;
77 [label="X[3] <= 0.5\ngini = 0.043\nsamples = 58\nvalue = [89, 2]"] ;
71 -> 77 ;
78 [label="X[2] <= 31.0\ngini = 0.045\nsamples = 56\nvalue = [85, 2]"] ;
77 -> 78 ;
79 [label="gini = 0.0\nsamples = 33\nvalue = [49, 0]"] ;
78 -> 79 ;
80 [label="gini = 0.1\nsamples = 23\nvalue = [36, 2]"] ;
78 -> 80 ;
81 [label="gini = 0.0\nsamples = 2\nvalue = [4, 0]"] ;
77 -> 81 ;
82 [label="gini = 0.0\nsamples = 7\nvalue = [9, 0]"] ;
62 -> 82 ;
}
