digraph Tree {
node [shape=box] ;
0 [label="X[0] <= 2.5\ngini = 0.476\nsamples = 337\nvalue = [326, 208]"] ;
1 [label="X[3] <= 0.5\ngini = 0.494\nsamples = 158\nvalue = [117, 147]"] ;
0 -> 1 [labeldistance=2.5, labelangle=45, headlabel="True"] ;
2 [label="X[2] <= 17.5\ngini = 0.5\nsamples = 116\nvalue = [102, 99]"] ;
1 -> 2 ;
3 [label="gini = 0.0\nsamples = 4\nvalue = [0, 6]"] ;
2 -> 3 ;
4 [label="X[1] <= 0.5\ngini = 0.499\nsamples = 112\nvalue = [102, 93]"] ;
2 -> 4 ;
5 [label="X[2] <= 25.0\ngini = 0.18\nsamples = 35\nvalue = [7, 63]"] ;
4 -> 5 ;
6 [label="X[0] <= 1.5\ngini = 0.43\nsamples = 7\nvalue = [5, 11]"] ;
5 -> 6 ;
7 [label="gini = 0.0\nsamples = 4\nvalue = [0, 7]"] ;
6 -> 7 ;
8 [label="X[2] <= 21.5\ngini = 0.494\nsamples = 3\nvalue = [5, 4]"] ;
6 -> 8 ;
9 [label="gini = 0.0\nsamples = 1\nvalue = [0, 2]"] ;
8 -> 9 ;
10 [label="gini = 0.408\nsamples = 2\nvalue = [5, 2]"] ;
8 -> 10 ;
11 [label="X[4] <= 0.5\ngini = 0.071\nsamples = 28\nvalue = [2, 52]"] ;
5 -> 11 ;
12 [label="gini = 0.0\nsamples = 9\nvalue = [0, 22]"] ;
11 -> 12 ;
13 [label="X[2] <= 37.0\ngini = 0.117\nsamples = 19\nvalue = [2, 30]"] ;
11 -> 13 ;
14 [label="gini = 0.0\nsamples = 13\nvalue = [0, 20]"] ;
13 -> 14 ;
15 [label="gini = 0.278\nsamples = 6\nvalue = [2, 10]"] ;
13 -> 15 ;
16 [label="X[0] <= 1.5\ngini = 0.365\nsamples = 77\nvalue = [95, 30]"] ;
4 -> 16 ;
17 [label="X[2] <= 75.5\ngini = 0.481\nsamples = 38\nvalue = [37, 25]"] ;
16 -> 17 ;
18 [label="X[4] <= 1.5\ngini = 0.462\nsamples = 37\nvalue = [37, 21]"] ;
17 -> 18 ;
19 [label="gini = 0.469\nsamples = 36\nvalue = [35, 21]"] ;
18 -> 19 ;
20 [label="gini = 0.0\nsamples = 1\nvalue = [2, 0]"] ;
18 -> 20 ;
21 [label="gini = 0.0\nsamples = 1\nvalue = [0, 4]"] ;
17 -> 21 ;
22 [label="X[2] <= 30.5\ngini = 0.146\nsamples = 39\nvalue = [58, 5]"] ;
16 -> 22 ;
23 [label="gini = 0.0\nsamples = 16\nvalue = [30, 0]"] ;
22 -> 23 ;
24 [label="X[2] <= 31.5\ngini = 0.257\nsamples = 23\nvalue = [28, 5]"] ;
22 -> 24 ;
25 [label="gini = 0.0\nsamples = 1\nvalue = [0, 2]"] ;
24 -> 25 ;
26 [label="gini = 0.175\nsamples = 22\nvalue = [28, 3]"] ;
24 -> 26 ;
27 [label="X[2] <= 56.0\ngini = 0.363\nsamples = 42\nvalue = [15, 48]"] ;
1 -> 27 ;
28 [label="X[1] <= 0.5\ngini = 0.289\nsamples = 39\nvalue = [10, 47]"] ;
27 -> 28 ;
29 [label="X[0] <= 1.5\ngini = 0.102\nsamples = 26\nvalue = [2, 35]"] ;
28 -> 29 ;
30 [label="X[2] <= 28.0\ngini = 0.18\nsamples = 15\nvalue = [2, 18]"] ;
29 -> 30 ;
31 [label="X[3] <= 1.5\ngini = 0.408\nsamples = 6\nvalue = [2, 5]"] ;
30 -> 31 ;
32 [label="gini = 0.0\nsamples = 1\nvalue = [0, 1]"] ;
31 -> 32 ;
33 [label="gini = 0.444\nsamples = 5\nvalue = [2, 4]"] ;
31 -> 33 ;
34 [label="gini = 0.0\nsamples = 9\nvalue = [0, 13]"] ;
30 -> 34 ;
35 [label="gini = 0.0\nsamples = 11\nvalue = [0, 17]"] ;
29 -> 35 ;
36 [label="X[2] <= 16.0\ngini = 0.48\nsamples = 13\nvalue = [8, 12]"] ;
28 -> 36 ;
37 [label="gini = 0.0\nsamples = 8\nvalue = [0, 11]"] ;
36 -> 37 ;
38 [label="X[4] <= 0.5\ngini = 0.198\nsamples = 5\nvalue = [8, 1]"] ;
36 -> 38 ;
39 [label="gini = 0.0\nsamples = 3\nvalue = [5, 0]"] ;
38 -> 39 ;
40 [label="X[0] <= 1.5\ngini = 0.375\nsamples = 2\nvalue = [3, 1]"] ;
38 -> 40 ;
41 [label="gini = 0.0\nsamples = 1\nvalue = [0, 1]"] ;
40 -> 41 ;
42 [label="gini = 0.0\nsamples = 1\nvalue = [3, 0]"] ;
40 -> 42 ;
43 [label="X[1] <= 0.5\ngini = 0.278\nsamples = 3\nvalue = [5, 1]"] ;
27 -> 43 ;
44 [label="gini = 0.0\nsamples = 1\nvalue = [0, 1]"] ;
43 -> 44 ;
45 [label="gini = 0.0\nsamples = 2\nvalue = [5, 0]"] ;
43 -> 45 ;
46 [label="X[4] <= 0.5\ngini = 0.35\nsamples = 179\nvalue = [209, 61]"] ;
0 -> 46 [labeldistance=2.5, labelangle=-45, headlabel="False"] ;
47 [label="X[2] <= 24.5\ngini = 0.497\nsamples = 19\nvalue = [12, 14]"] ;
46 -> 47 ;
48 [label="X[2] <= 7.0\ngini = 0.432\nsamples = 13\nvalue = [6, 13]"] ;
47 -> 48 ;
49 [label="gini = 0.0\nsamples = 3\nvalue = [0, 4]"] ;
48 -> 49 ;
50 [label="X[3] <= 0.5\ngini = 0.48\nsamples = 10\nvalue = [6, 9]"] ;
48 -> 50 ;
51 [label="X[2] <= 21.0\ngini = 0.444\nsamples = 7\nvalue = [4, 8]"] ;
50 -> 51 ;
52 [label="X[2] <= 13.5\ngini = 0.48\nsamples = 6\nvalue = [4, 6]"] ;
51 -> 52 ;
53 [label="gini = 0.0\nsamples = 1\nvalue = [0, 1]"] ;
52 -> 53 ;
54 [label="gini = 0.494\nsamples = 5\nvalue = [4, 5]"] ;
52 -> 54 ;
55 [label="gini = 0.0\nsamples = 1\nvalue = [0, 2]"] ;
51 -> 55 ;
56 [label="X[1] <= 0.5\ngini = 0.444\nsamples = 3\nvalue = [2, 1]"] ;
50 -> 56 ;
57 [label="X[2] <= 16.5\ngini = 0.5\nsamples = 2\nvalue = [1, 1]"] ;
56 -> 57 ;
58 [label="gini = 0.0\nsamples = 1\nvalue = [1, 0]"] ;
57 -> 58 ;
59 [label="gini = 0.0\nsamples = 1\nvalue = [0, 1]"] ;
57 -> 59 ;
60 [label="gini = 0.0\nsamples = 1\nvalue = [1, 0]"] ;
56 -> 60 ;
61 [label="X[3] <= 1.0\ngini = 0.245\nsamples = 6\nvalue = [6, 1]"] ;
47 -> 61 ;
62 [label="gini = 0.0\nsamples = 5\nvalue = [6, 0]"] ;
61 -> 62 ;
63 [label="gini = 0.0\nsamples = 1\nvalue = [0, 1]"] ;
61 -> 63 ;
64 [label="X[4] <= 1.5\ngini = 0.311\nsamples = 160\nvalue = [197, 47]"] ;
46 -> 64 ;
65 [label="X[2] <= 32.5\ngini = 0.304\nsamples = 148\nvalue = [183, 42]"] ;
64 -> 65 ;
66 [label="X[3] <= 0.5\ngini = 0.344\nsamples = 122\nvalue = [145, 41]"] ;
65 -> 66 ;
67 [label="X[2] <= 20.5\ngini = 0.289\nsamples = 97\nvalue = [118, 25]"] ;
66 -> 67 ;
68 [label="X[1] <= 0.5\ngini = 0.18\nsamples = 31\nvalue = [45, 5]"] ;
67 -> 68 ;
69 [label="gini = 0.124\nsamples = 6\nvalue = [14, 1]"] ;
68 -> 69 ;
70 [label="gini = 0.202\nsamples = 25\nvalue = [31, 4]"] ;
68 -> 70 ;
71 [label="X[2] <= 21.5\ngini = 0.338\nsamples = 66\nvalue = [73, 20]"] ;
67 -> 71 ;
72 [label="gini = 0.48\nsamples = 6\nvalue = [6, 4]"] ;
71 -> 72 ;
73 [label="gini = 0.311\nsamples = 60\nvalue = [67, 16]"] ;
71 -> 73 ;
74 [label="X[2] <= 30.5\ngini = 0.467\nsamples = 25\nvalue = [27, 16]"] ;
66 -> 74 ;
75 [label="X[2] <= 1.5\ngini = 0.439\nsamples = 24\nvalue = [27, 13]"] ;
74 -> 75 ;
76 [label="gini = 0.0\nsamples = 1\nvalue = [0, 1]"] ;
75 -> 76 ;
77 [label="gini = 0.426\nsamples = 23\nvalue = [27, 12]"] ;
75 -> 77 ;
78 [label="gini = 0.0\nsamples = 1\nvalue = [0, 3]"] ;
74 -> 78 ;
79 [label="X[3] <= 0.5\ngini = 0.05\nsamples = 26\nvalue = [38, 1]"] ;
65 -> 79 ;
80 [label="X[2] <= 43.5\ngini = 0.062\nsamples = 20\nvalue = [30, 1]"] ;
79 -> 80 ;
81 [label="gini = 0.0\nsamples = 14\nvalue = [21, 0]"] ;
80 -> 81 ;
82 [label="X[1] <= 0.5\ngini = 0.18\nsamples = 6\nvalue = [9, 1]"] ;
80 -> 82 ;
83 [label="gini = 0.0\nsamples = 1\nvalue = [2, 0]"] ;
82 -> 83 ;
84 [label="gini = 0.219\nsamples = 5\nvalue = [7, 1]"] ;
82 -> 84 ;
85 [label="gini = 0.0\nsamples = 6\nvalue = [8, 0]"] ;
79 -> 85 ;
86 [label="X[1] <= 0.5\ngini = 0.388\nsamples = 12\nvalue = [14, 5]"] ;
64 -> 86 ;
87 [label="X[3] <= 2.5\ngini = 0.494\nsamples = 6\nvalue = [4, 5]"] ;
86 -> 87 ;
88 [label="X[2] <= 20.0\ngini = 0.469\nsamples = 5\nvalue = [3, 5]"] ;
87 -> 88 ;
89 [label="X[2] <= 17.0\ngini = 0.278\nsamples = 4\nvalue = [1, 5]"] ;
88 -> 89 ;
90 [label="gini = 0.0\nsamples = 2\nvalue = [0, 3]"] ;
89 -> 90 ;
91 [label="gini = 0.444\nsamples = 2\nvalue = [1, 2]"] ;
89 -> 91 ;
92 [label="gini = 0.0\nsamples = 1\nvalue = [2, 0]"] ;
88 -> 92 ;
93 [label="gini = 0.0\nsamples = 1\nvalue = [1, 0]"] ;
87 -> 93 ;
94 [label="gini = 0.0\nsamples = 6\nvalue = [10, 0]"] ;
86 -> 94 ;
}
