digraph Tree {
node [shape=box] ;
0 [label="X[1] <= 0.5\ngini = 0.496\nsamples = 332\nvalue = [292, 242]"] ;
1 [label="X[3] <= 3.5\ngini = 0.344\nsamples = 136\nvalue = [47, 166]"] ;
0 -> 1 [labeldistance=2.5, labelangle=45, headlabel="True"] ;
2 [label="X[3] <= 2.5\ngini = 0.327\nsamples = 133\nvalue = [43, 166]"] ;
1 -> 2 ;
3 [label="X[0] <= 2.5\ngini = 0.318\nsamples = 129\nvalue = [40, 162]"] ;
2 -> 3 ;
4 [label="X[0] <= 1.5\ngini = 0.069\nsamples = 87\nvalue = [5, 134]"] ;
3 -> 4 ;
5 [label="X[4] <= 0.5\ngini = 0.045\nsamples = 50\nvalue = [2, 84]"] ;
4 -> 5 ;
6 [label="gini = 0.0\nsamples = 18\nvalue = [0, 33]"] ;
5 -> 6 ;
7 [label="X[3] <= 1.5\ngini = 0.073\nsamples = 32\nvalue = [2, 51]"] ;
5 -> 7 ;
8 [label="gini = 0.0\nsamples = 25\nvalue = [0, 40]"] ;
7 -> 8 ;
9 [label="gini = 0.26\nsamples = 7\nvalue = [2, 11]"] ;
7 -> 9 ;
10 [label="X[4] <= 0.5\ngini = 0.107\nsamples = 37\nvalue = [3, 50]"] ;
4 -> 10 ;
11 [label="gini = 0.0\nsamples = 6\nvalue = [0, 6]"] ;
10 -> 11 ;
12 [label="X[3] <= 0.5\ngini = 0.12\nsamples = 31\nvalue = [3, 44]"] ;
10 -> 12 ;
13 [label="gini = 0.18\nsamples = 19\nvalue = [3, 27]"] ;
12 -> 13 ;
14 [label="gini = 0.0\nsamples = 12\nvalue = [0, 17]"] ;
12 -> 14 ;
15 [label="X[2] <= 1.5\ngini = 0.494\nsamples = 42\nvalue = [35, 28]"] ;
3 -> 15 ;
16 [label="gini = 0.0\nsamples = 3\nvalue = [0, 5]"] ;
15 -> 16 ;
17 [label="X[3] <= 0.5\ngini = 0.479\nsamples = 39\nvalue = [35, 23]"] ;
15 -> 17 ;
18 [label="X[2] <= 55.0\ngini = 0.497\nsamples = 25\nvalue = [20, 17]"] ;
17 -> 18 ;
19 [label="gini = 0.49\nsamples = 24\nvalue = [20, 15]"] ;
18 -> 19 ;
20 [label="gini = 0.0\nsamples = 1\nvalue = [0, 2]"] ;
18 -> 20 ;
21 [label="X[4] <= 0.5\ngini = 0.408\nsamples = 14\nvalue = [15, 6]"] ;
17 -> 21 ;
22 [label="gini = 0.444\nsamples = 4\nvalue = [4, 2]"] ;
21 -> 22 ;
23 [label="gini = 0.391\nsamples = 10\nvalue = [11, 4]"] ;
21 -> 23 ;
24 [label="X[2] <= 36.0\ngini = 0.49\nsamples = 4\nvalue = [3, 4]"] ;
2 -> 24 ;
25 [label="gini = 0.0\nsamples = 2\nvalue = [0, 2]"] ;
24 -> 25 ;
26 [label="X[2] <= 51.0\ngini = 0.48\nsamples = 2\nvalue = [3, 2]"] ;
24 -> 26 ;
27 [label="gini = 0.0\nsamples = 1\nvalue = [3, 0]"] ;
26 -> 27 ;
28 [label="gini = 0.0\nsamples = 1\nvalue = [0, 2]"] ;
26 -> 28 ;
29 [label="gini = 0.0\nsamples = 3\nvalue = [4, 0]"] ;
1 -> 29 ;
30 [label="X[2] <= 11.5\ngini = 0.361\nsamples = 196\nvalue = [245, 76]"] ;
0 -> 30 [labeldistance=2.5, labelangle=-45, headlabel="False"] ;
31 [label="X[4] <= 1.5\ngini = 0.469\nsamples = 16\nvalue = [12, 20]"] ;
30 -> 31 ;
32 [label="X[0] <= 2.5\ngini = 0.428\nsamples = 14\nvalue = [9, 20]"] ;
31 -> 32 ;
33 [label="gini = 0.0\nsamples = 6\nvalue = [0, 15]"] ;
32 -> 33 ;
34 [label="X[2] <= 2.5\ngini = 0.459\nsamples = 8\nvalue = [9, 5]"] ;
32 -> 34 ;
35 [label="X[2] <= 1.5\ngini = 0.375\nsamples = 4\nvalue = [6, 2]"] ;
34 -> 35 ;
36 [label="X[3] <= 1.5\ngini = 0.48\nsamples = 2\nvalue = [3, 2]"] ;
35 -> 36 ;
37 [label="gini = 0.0\nsamples = 1\nvalue = [3, 0]"] ;
36 -> 37 ;
38 [label="gini = 0.0\nsamples = 1\nvalue = [0, 2]"] ;
36 -> 38 ;
39 [label="gini = 0.0\nsamples = 2\nvalue = [3, 0]"] ;
35 -> 39 ;
40 [label="X[3] <= 1.5\ngini = 0.5\nsamples = 4\nvalue = [3, 3]"] ;
34 -> 40 ;
41 [label="gini = 0.0\nsamples = 2\nvalue = [0, 3]"] ;
40 -> 41 ;
42 [label="gini = 0.0\nsamples = 2\nvalue = [3, 0]"] ;
40 -> 42 ;
43 [label="gini = 0.0\nsamples = 2\nvalue = [3, 0]"] ;
31 -> 43 ;
44 [label="X[4] <= 0.5\ngini = 0.312\nsamples = 180\nvalue = [233, 56]"] ;
30 -> 44 ;
45 [label="X[3] <= 1.5\ngini = 0.498\nsamples = 27\nvalue = [23, 20]"] ;
44 -> 45 ;
46 [label="X[2] <= 49.5\ngini = 0.495\nsamples = 26\nvalue = [23, 19]"] ;
45 -> 46 ;
47 [label="X[2] <= 30.0\ngini = 0.493\nsamples = 21\nvalue = [15, 19]"] ;
46 -> 47 ;
48 [label="X[2] <= 22.5\ngini = 0.42\nsamples = 8\nvalue = [7, 3]"] ;
47 -> 48 ;
49 [label="gini = 0.5\nsamples = 4\nvalue = [2, 2]"] ;
48 -> 49 ;
50 [label="gini = 0.278\nsamples = 4\nvalue = [5, 1]"] ;
48 -> 50 ;
51 [label="X[3] <= 0.5\ngini = 0.444\nsamples = 13\nvalue = [8, 16]"] ;
47 -> 51 ;
52 [label="gini = 0.42\nsamples = 10\nvalue = [6, 14]"] ;
51 -> 52 ;
53 [label="gini = 0.5\nsamples = 3\nvalue = [2, 2]"] ;
51 -> 53 ;
54 [label="gini = 0.0\nsamples = 5\nvalue = [8, 0]"] ;
46 -> 54 ;
55 [label="gini = 0.0\nsamples = 1\nvalue = [0, 1]"] ;
45 -> 55 ;
56 [label="X[4] <= 1.5\ngini = 0.25\nsamples = 153\nvalue = [210, 36]"] ;
44 -> 56 ;
57 [label="X[2] <= 25.5\ngini = 0.244\nsamples = 147\nvalue = [205, 34]"] ;
56 -> 57 ;
58 [label="X[2] <= 21.5\ngini = 0.045\nsamples = 53\nvalue = [84, 2]"] ;
57 -> 58 ;
59 [label="X[2] <= 17.5\ngini = 0.071\nsamples = 30\nvalue = [52, 2]"] ;
58 -> 59 ;
60 [label="gini = 0.0\nsamples = 8\nvalue = [14, 0]"] ;
59 -> 60 ;
61 [label="gini = 0.095\nsamples = 22\nvalue = [38, 2]"] ;
59 -> 61 ;
62 [label="gini = 0.0\nsamples = 23\nvalue = [32, 0]"] ;
58 -> 62 ;
63 [label="X[2] <= 27.5\ngini = 0.331\nsamples = 94\nvalue = [121, 32]"] ;
57 -> 63 ;
64 [label="X[2] <= 26.5\ngini = 0.5\nsamples = 12\nvalue = [9, 9]"] ;
63 -> 64 ;
65 [label="gini = 0.245\nsamples = 5\nvalue = [6, 1]"] ;
64 -> 65 ;
66 [label="gini = 0.397\nsamples = 7\nvalue = [3, 8]"] ;
64 -> 66 ;
67 [label="X[0] <= 1.5\ngini = 0.283\nsamples = 82\nvalue = [112, 23]"] ;
63 -> 67 ;
68 [label="gini = 0.499\nsamples = 27\nvalue = [21, 19]"] ;
67 -> 68 ;
69 [label="gini = 0.081\nsamples = 55\nvalue = [91, 4]"] ;
67 -> 69 ;
70 [label="X[0] <= 2.0\ngini = 0.408\nsamples = 6\nvalue = [5, 2]"] ;
56 -> 70 ;
71 [label="gini = 0.0\nsamples = 1\nvalue = [1, 0]"] ;
70 -> 71 ;
72 [label="X[2] <= 34.5\ngini = 0.444\nsamples = 5\nvalue = [4, 2]"] ;
70 -> 72 ;
73 [label="X[2] <= 24.0\ngini = 0.444\nsamples = 2\nvalue = [1, 2]"] ;
72 -> 73 ;
74 [label="gini = 0.0\nsamples = 1\nvalue = [1, 0]"] ;
73 -> 74 ;
75 [label="gini = 0.0\nsamples = 1\nvalue = [0, 2]"] ;
73 -> 75 ;
76 [label="gini = 0.0\nsamples = 3\nvalue = [3, 0]"] ;
72 -> 76 ;
}
