digraph Tree {
node [shape=box] ;
0 [label="X[1] <= 0.5\ngini = 0.489\nsamples = 337\nvalue = [306, 228]"] ;
1 [label="X[4] <= 0.5\ngini = 0.27\nsamples = 125\nvalue = [31, 162]"] ;
0 -> 1 [labeldistance=2.5, labelangle=45, headlabel="True"] ;
2 [label="X[3] <= 0.5\ngini = 0.037\nsamples = 31\nvalue = [1, 52]"] ;
1 -> 2 ;
3 [label="gini = 0.0\nsamples = 20\nvalue = [0, 34]"] ;
2 -> 3 ;
4 [label="X[3] <= 1.5\ngini = 0.1\nsamples = 11\nvalue = [1, 18]"] ;
2 -> 4 ;
5 [label="X[0] <= 2.0\ngini = 0.133\nsamples = 7\nvalue = [1, 13]"] ;
4 -> 5 ;
6 [label="gini = 0.0\nsamples = 4\nvalue = [0, 10]"] ;
5 -> 6 ;
7 [label="X[2] <= 11.5\ngini = 0.375\nsamples = 3\nvalue = [1, 3]"] ;
5 -> 7 ;
8 [label="gini = 0.0\nsamples = 2\nvalue = [0, 3]"] ;
7 -> 8 ;
9 [label="gini = 0.0\nsamples = 1\nvalue = [1, 0]"] ;
7 -> 9 ;
10 [label="gini = 0.0\nsamples = 4\nvalue = [0, 5]"] ;
4 -> 10 ;
11 [label="X[0] <= 2.5\ngini = 0.337\nsamples = 94\nvalue = [30, 110]"] ;
1 -> 11 ;
12 [label="X[3] <= 1.5\ngini = 0.108\nsamples = 55\nvalue = [5, 82]"] ;
11 -> 12 ;
13 [label="X[2] <= 27.5\ngini = 0.081\nsamples = 45\nvalue = [3, 68]"] ;
12 -> 13 ;
14 [label="X[3] <= 0.5\ngini = 0.188\nsamples = 15\nvalue = [2, 17]"] ;
13 -> 14 ;
15 [label="X[0] <= 1.5\ngini = 0.278\nsamples = 9\nvalue = [2, 10]"] ;
14 -> 15 ;
16 [label="gini = 0.0\nsamples = 2\nvalue = [0, 2]"] ;
15 -> 16 ;
17 [label="gini = 0.32\nsamples = 7\nvalue = [2, 8]"] ;
15 -> 17 ;
18 [label="gini = 0.0\nsamples = 6\nvalue = [0, 7]"] ;
14 -> 18 ;
19 [label="X[4] <= 1.5\ngini = 0.038\nsamples = 30\nvalue = [1, 51]"] ;
13 -> 19 ;
20 [label="X[2] <= 37.0\ngini = 0.039\nsamples = 28\nvalue = [1, 49]"] ;
19 -> 20 ;
21 [label="gini = 0.0\nsamples = 16\nvalue = [0, 25]"] ;
20 -> 21 ;
22 [label="gini = 0.077\nsamples = 12\nvalue = [1, 24]"] ;
20 -> 22 ;
23 [label="gini = 0.0\nsamples = 2\nvalue = [0, 2]"] ;
19 -> 23 ;
24 [label="X[2] <= 24.5\ngini = 0.219\nsamples = 10\nvalue = [2, 14]"] ;
12 -> 24 ;
25 [label="gini = 0.0\nsamples = 6\nvalue = [0, 10]"] ;
24 -> 25 ;
26 [label="X[2] <= 28.0\ngini = 0.444\nsamples = 4\nvalue = [2, 4]"] ;
24 -> 26 ;
27 [label="gini = 0.0\nsamples = 1\nvalue = [2, 0]"] ;
26 -> 27 ;
28 [label="gini = 0.0\nsamples = 3\nvalue = [0, 4]"] ;
26 -> 28 ;
29 [label="X[2] <= 27.5\ngini = 0.498\nsamples = 39\nvalue = [25, 28]"] ;
11 -> 29 ;
30 [label="X[2] <= 12.5\ngini = 0.45\nsamples = 31\nvalue = [14, 27]"] ;
29 -> 30 ;
31 [label="X[2] <= 5.5\ngini = 0.346\nsamples = 8\nvalue = [7, 2]"] ;
30 -> 31 ;
32 [label="X[3] <= 1.5\ngini = 0.5\nsamples = 4\nvalue = [2, 2]"] ;
31 -> 32 ;
33 [label="gini = 0.5\nsamples = 2\nvalue = [1, 1]"] ;
32 -> 33 ;
34 [label="gini = 0.5\nsamples = 2\nvalue = [1, 1]"] ;
32 -> 34 ;
35 [label="gini = 0.0\nsamples = 4\nvalue = [5, 0]"] ;
31 -> 35 ;
36 [label="X[3] <= 0.5\ngini = 0.342\nsamples = 23\nvalue = [7, 25]"] ;
30 -> 36 ;
37 [label="X[2] <= 17.0\ngini = 0.403\nsamples = 19\nvalue = [7, 18]"] ;
36 -> 37 ;
38 [label="gini = 0.0\nsamples = 3\nvalue = [0, 5]"] ;
37 -> 38 ;
39 [label="gini = 0.455\nsamples = 16\nvalue = [7, 13]"] ;
37 -> 39 ;
40 [label="gini = 0.0\nsamples = 4\nvalue = [0, 7]"] ;
36 -> 40 ;
41 [label="X[3] <= 0.5\ngini = 0.153\nsamples = 8\nvalue = [11, 1]"] ;
29 -> 41 ;
42 [label="X[2] <= 33.5\ngini = 0.278\nsamples = 4\nvalue = [5, 1]"] ;
41 -> 42 ;
43 [label="gini = 0.0\nsamples = 2\nvalue = [3, 0]"] ;
42 -> 43 ;
44 [label="X[2] <= 36.5\ngini = 0.444\nsamples = 2\nvalue = [2, 1]"] ;
42 -> 44 ;
45 [label="gini = 0.0\nsamples = 1\nvalue = [0, 1]"] ;
44 -> 45 ;
46 [label="gini = 0.0\nsamples = 1\nvalue = [2, 0]"] ;
44 -> 46 ;
47 [label="gini = 0.0\nsamples = 4\nvalue = [6, 0]"] ;
41 -> 47 ;
48 [label="X[3] <= 3.0\ngini = 0.312\nsamples = 212\nvalue = [275, 66]"] ;
0 -> 48 [labeldistance=2.5, labelangle=-45, headlabel="False"] ;
49 [label="X[0] <= 1.5\ngini = 0.314\nsamples = 210\nvalue = [272, 66]"] ;
48 -> 49 ;
50 [label="X[3] <= 0.5\ngini = 0.472\nsamples = 48\nvalue = [47, 29]"] ;
49 -> 50 ;
51 [label="X[4] <= 1.5\ngini = 0.488\nsamples = 35\nvalue = [34, 25]"] ;
50 -> 51 ;
52 [label="X[2] <= 46.0\ngini = 0.492\nsamples = 34\nvalue = [32, 25]"] ;
51 -> 52 ;
53 [label="X[2] <= 23.5\ngini = 0.42\nsamples = 20\nvalue = [9, 21]"] ;
52 -> 53 ;
54 [label="gini = 0.0\nsamples = 1\nvalue = [2, 0]"] ;
53 -> 54 ;
55 [label="gini = 0.375\nsamples = 19\nvalue = [7, 21]"] ;
53 -> 55 ;
56 [label="X[2] <= 75.5\ngini = 0.252\nsamples = 14\nvalue = [23, 4]"] ;
52 -> 56 ;
57 [label="gini = 0.204\nsamples = 13\nvalue = [23, 3]"] ;
56 -> 57 ;
58 [label="gini = 0.0\nsamples = 1\nvalue = [0, 1]"] ;
56 -> 58 ;
59 [label="gini = 0.0\nsamples = 1\nvalue = [2, 0]"] ;
51 -> 59 ;
60 [label="X[4] <= 0.5\ngini = 0.36\nsamples = 13\nvalue = [13, 4]"] ;
50 -> 60 ;
61 [label="X[3] <= 1.5\ngini = 0.375\nsamples = 7\nvalue = [6, 2]"] ;
60 -> 61 ;
62 [label="X[2] <= 30.0\ngini = 0.32\nsamples = 4\nvalue = [4, 1]"] ;
61 -> 62 ;
63 [label="gini = 0.0\nsamples = 1\nvalue = [2, 0]"] ;
62 -> 63 ;
64 [label="gini = 0.444\nsamples = 3\nvalue = [2, 1]"] ;
62 -> 64 ;
65 [label="X[2] <= 22.0\ngini = 0.444\nsamples = 3\nvalue = [2, 1]"] ;
61 -> 65 ;
66 [label="gini = 0.0\nsamples = 1\nvalue = [0, 1]"] ;
65 -> 66 ;
67 [label="gini = 0.0\nsamples = 2\nvalue = [2, 0]"] ;
65 -> 67 ;
68 [label="X[3] <= 1.5\ngini = 0.346\nsamples = 6\nvalue = [7, 2]"] ;
60 -> 68 ;
69 [label="gini = 0.0\nsamples = 3\nvalue = [6, 0]"] ;
68 -> 69 ;
70 [label="X[2] <= 11.5\ngini = 0.444\nsamples = 3\nvalue = [1, 2]"] ;
68 -> 70 ;
71 [label="gini = 0.0\nsamples = 1\nvalue = [0, 1]"] ;
70 -> 71 ;
72 [label="gini = 0.5\nsamples = 2\nvalue = [1, 1]"] ;
70 -> 72 ;
73 [label="X[4] <= 0.5\ngini = 0.243\nsamples = 162\nvalue = [225, 37]"] ;
49 -> 73 ;
74 [label="X[3] <= 0.5\ngini = 0.49\nsamples = 14\nvalue = [12, 9]"] ;
73 -> 74 ;
75 [label="X[2] <= 22.5\ngini = 0.457\nsamples = 11\nvalue = [11, 6]"] ;
74 -> 75 ;
76 [label="X[2] <= 21.0\ngini = 0.375\nsamples = 3\nvalue = [1, 3]"] ;
75 -> 76 ;
77 [label="gini = 0.444\nsamples = 2\nvalue = [1, 2]"] ;
76 -> 77 ;
78 [label="gini = 0.0\nsamples = 1\nvalue = [0, 1]"] ;
76 -> 78 ;
79 [label="X[2] <= 28.5\ngini = 0.355\nsamples = 8\nvalue = [10, 3]"] ;
75 -> 79 ;
80 [label="gini = 0.198\nsamples = 5\nvalue = [8, 1]"] ;
79 -> 80 ;
81 [label="gini = 0.5\nsamples = 3\nvalue = [2, 2]"] ;
79 -> 81 ;
82 [label="X[0] <= 2.5\ngini = 0.375\nsamples = 3\nvalue = [1, 3]"] ;
74 -> 82 ;
83 [label="gini = 0.0\nsamples = 1\nvalue = [0, 1]"] ;
82 -> 83 ;
84 [label="X[2] <= 18.5\ngini = 0.444\nsamples = 2\nvalue = [1, 2]"] ;
82 -> 84 ;
85 [label="gini = 0.0\nsamples = 1\nvalue = [1, 0]"] ;
84 -> 85 ;
86 [label="gini = 0.0\nsamples = 1\nvalue = [0, 2]"] ;
84 -> 86 ;
87 [label="X[2] <= 3.5\ngini = 0.205\nsamples = 148\nvalue = [213, 28]"] ;
73 -> 87 ;
88 [label="X[0] <= 2.5\ngini = 0.444\nsamples = 5\nvalue = [2, 4]"] ;
87 -> 88 ;
89 [label="gini = 0.0\nsamples = 1\nvalue = [0, 2]"] ;
88 -> 89 ;
90 [label="X[3] <= 1.5\ngini = 0.5\nsamples = 4\nvalue = [2, 2]"] ;
88 -> 90 ;
91 [label="gini = 0.444\nsamples = 3\nvalue = [2, 1]"] ;
90 -> 91 ;
92 [label="gini = 0.0\nsamples = 1\nvalue = [0, 1]"] ;
90 -> 92 ;
93 [label="X[4] <= 1.5\ngini = 0.183\nsamples = 143\nvalue = [211, 24]"] ;
87 -> 93 ;
94 [label="X[2] <= 60.5\ngini = 0.185\nsamples = 135\nvalue = [200, 23]"] ;
93 -> 94 ;
95 [label="gini = 0.179\nsamples = 134\nvalue = [200, 22]"] ;
94 -> 95 ;
96 [label="gini = 0.0\nsamples = 1\nvalue = [0, 1]"] ;
94 -> 96 ;
97 [label="X[2] <= 34.5\ngini = 0.153\nsamples = 8\nvalue = [11, 1]"] ;
93 -> 97 ;
98 [label="gini = 0.278\nsamples = 4\nvalue = [5, 1]"] ;
97 -> 98 ;
99 [label="gini = 0.0\nsamples = 4\nvalue = [6, 0]"] ;
97 -> 99 ;
100 [label="gini = 0.0\nsamples = 2\nvalue = [3, 0]"] ;
48 -> 100 ;
}
