digraph Tree {
node [shape=box] ;
0 [label="X[3] <= 0.5\ngini = 0.483\nsamples = 348\nvalue = [316, 218]"] ;
1 [label="X[1] <= 0.5\ngini = 0.459\nsamples = 261\nvalue = [257, 143]"] ;
0 -> 1 [labeldistance=2.5, labelangle=45, headlabel="True"] ;
2 [label="X[0] <= 2.5\ngini = 0.358\nsamples = 83\nvalue = [31, 102]"] ;
1 -> 2 ;
3 [label="X[4] <= 0.5\ngini = 0.139\nsamples = 50\nvalue = [6, 74]"] ;
2 -> 3 ;
4 [label="gini = 0.0\nsamples = 16\nvalue = [0, 21]"] ;
3 -> 4 ;
5 [label="X[2] <= 55.0\ngini = 0.183\nsamples = 34\nvalue = [6, 53]"] ;
3 -> 5 ;
6 [label="X[2] <= 36.5\ngini = 0.103\nsamples = 32\nvalue = [3, 52]"] ;
5 -> 6 ;
7 [label="X[2] <= 26.0\ngini = 0.044\nsamples = 26\nvalue = [1, 43]"] ;
6 -> 7 ;
8 [label="gini = 0.133\nsamples = 9\nvalue = [1, 13]"] ;
7 -> 8 ;
9 [label="gini = 0.0\nsamples = 17\nvalue = [0, 30]"] ;
7 -> 9 ;
10 [label="X[2] <= 38.5\ngini = 0.298\nsamples = 6\nvalue = [2, 9]"] ;
6 -> 10 ;
11 [label="gini = 0.0\nsamples = 1\nvalue = [2, 0]"] ;
10 -> 11 ;
12 [label="gini = 0.0\nsamples = 5\nvalue = [0, 9]"] ;
10 -> 12 ;
13 [label="X[0] <= 1.5\ngini = 0.375\nsamples = 2\nvalue = [3, 1]"] ;
5 -> 13 ;
14 [label="gini = 0.0\nsamples = 1\nvalue = [0, 1]"] ;
13 -> 14 ;
15 [label="gini = 0.0\nsamples = 1\nvalue = [3, 0]"] ;
13 -> 15 ;
16 [label="X[2] <= 14.5\ngini = 0.498\nsamples = 33\nvalue = [25, 28]"] ;
2 -> 16 ;
17 [label="gini = 0.0\nsamples = 1\nvalue = [4, 0]"] ;
16 -> 17 ;
18 [label="X[2] <= 28.5\ngini = 0.49\nsamples = 32\nvalue = [21, 28]"] ;
16 -> 18 ;
19 [label="X[4] <= 0.5\ngini = 0.438\nsamples = 25\nvalue = [12, 25]"] ;
18 -> 19 ;
20 [label="X[2] <= 16.0\ngini = 0.444\nsamples = 2\nvalue = [2, 1]"] ;
19 -> 20 ;
21 [label="gini = 0.0\nsamples = 1\nvalue = [0, 1]"] ;
20 -> 21 ;
22 [label="gini = 0.0\nsamples = 1\nvalue = [2, 0]"] ;
20 -> 22 ;
23 [label="X[2] <= 17.0\ngini = 0.415\nsamples = 23\nvalue = [10, 24]"] ;
19 -> 23 ;
24 [label="gini = 0.0\nsamples = 2\nvalue = [0, 3]"] ;
23 -> 24 ;
25 [label="gini = 0.437\nsamples = 21\nvalue = [10, 21]"] ;
23 -> 25 ;
26 [label="X[2] <= 51.5\ngini = 0.375\nsamples = 7\nvalue = [9, 3]"] ;
18 -> 26 ;
27 [label="X[2] <= 34.0\ngini = 0.18\nsamples = 6\nvalue = [9, 1]"] ;
26 -> 27 ;
28 [label="gini = 0.278\nsamples = 4\nvalue = [5, 1]"] ;
27 -> 28 ;
29 [label="gini = 0.0\nsamples = 2\nvalue = [4, 0]"] ;
27 -> 29 ;
30 [label="gini = 0.0\nsamples = 1\nvalue = [0, 2]"] ;
26 -> 30 ;
31 [label="X[4] <= 0.5\ngini = 0.26\nsamples = 178\nvalue = [226, 41]"] ;
1 -> 31 ;
32 [label="X[2] <= 26.5\ngini = 0.475\nsamples = 23\nvalue = [19, 12]"] ;
31 -> 32 ;
33 [label="X[0] <= 1.5\ngini = 0.486\nsamples = 9\nvalue = [5, 7]"] ;
32 -> 33 ;
34 [label="X[2] <= 23.5\ngini = 0.444\nsamples = 3\nvalue = [2, 4]"] ;
33 -> 34 ;
35 [label="gini = 0.0\nsamples = 1\nvalue = [2, 0]"] ;
34 -> 35 ;
36 [label="gini = 0.0\nsamples = 2\nvalue = [0, 4]"] ;
34 -> 36 ;
37 [label="X[0] <= 2.5\ngini = 0.5\nsamples = 6\nvalue = [3, 3]"] ;
33 -> 37 ;
38 [label="gini = 0.0\nsamples = 1\nvalue = [1, 0]"] ;
37 -> 38 ;
39 [label="X[2] <= 24.0\ngini = 0.48\nsamples = 5\nvalue = [2, 3]"] ;
37 -> 39 ;
40 [label="gini = 0.5\nsamples = 4\nvalue = [2, 2]"] ;
39 -> 40 ;
41 [label="gini = 0.0\nsamples = 1\nvalue = [0, 1]"] ;
39 -> 41 ;
42 [label="X[2] <= 28.5\ngini = 0.388\nsamples = 14\nvalue = [14, 5]"] ;
32 -> 42 ;
43 [label="gini = 0.0\nsamples = 3\nvalue = [4, 0]"] ;
42 -> 43 ;
44 [label="X[2] <= 49.0\ngini = 0.444\nsamples = 11\nvalue = [10, 5]"] ;
42 -> 44 ;
45 [label="X[2] <= 44.0\ngini = 0.496\nsamples = 9\nvalue = [6, 5]"] ;
44 -> 45 ;
46 [label="gini = 0.444\nsamples = 8\nvalue = [6, 3]"] ;
45 -> 46 ;
47 [label="gini = 0.0\nsamples = 1\nvalue = [0, 2]"] ;
45 -> 47 ;
48 [label="gini = 0.0\nsamples = 2\nvalue = [4, 0]"] ;
44 -> 48 ;
49 [label="X[0] <= 1.5\ngini = 0.216\nsamples = 155\nvalue = [207, 29]"] ;
31 -> 49 ;
50 [label="X[4] <= 1.5\ngini = 0.422\nsamples = 21\nvalue = [23, 10]"] ;
49 -> 50 ;
51 [label="X[2] <= 38.5\ngini = 0.43\nsamples = 20\nvalue = [22, 10]"] ;
50 -> 51 ;
52 [label="X[2] <= 30.0\ngini = 0.463\nsamples = 6\nvalue = [4, 7]"] ;
51 -> 52 ;
53 [label="gini = 0.5\nsamples = 4\nvalue = [4, 4]"] ;
52 -> 53 ;
54 [label="gini = 0.0\nsamples = 2\nvalue = [0, 3]"] ;
52 -> 54 ;
55 [label="X[2] <= 71.0\ngini = 0.245\nsamples = 14\nvalue = [18, 3]"] ;
51 -> 55 ;
56 [label="gini = 0.18\nsamples = 13\nvalue = [18, 2]"] ;
55 -> 56 ;
57 [label="gini = 0.0\nsamples = 1\nvalue = [0, 1]"] ;
55 -> 57 ;
58 [label="gini = 0.0\nsamples = 1\nvalue = [1, 0]"] ;
50 -> 58 ;
59 [label="X[0] <= 2.5\ngini = 0.17\nsamples = 134\nvalue = [184, 19]"] ;
49 -> 59 ;
60 [label="X[4] <= 1.5\ngini = 0.128\nsamples = 38\nvalue = [54, 4]"] ;
59 -> 60 ;
61 [label="X[2] <= 20.0\ngini = 0.131\nsamples = 37\nvalue = [53, 4]"] ;
60 -> 61 ;
62 [label="gini = 0.346\nsamples = 5\nvalue = [7, 2]"] ;
61 -> 62 ;
63 [label="gini = 0.08\nsamples = 32\nvalue = [46, 2]"] ;
61 -> 63 ;
64 [label="gini = 0.0\nsamples = 1\nvalue = [1, 0]"] ;
60 -> 64 ;
65 [label="X[4] <= 1.5\ngini = 0.185\nsamples = 96\nvalue = [130, 15]"] ;
59 -> 65 ;
66 [label="X[2] <= 26.5\ngini = 0.19\nsamples = 92\nvalue = [126, 15]"] ;
65 -> 66 ;
67 [label="gini = 0.105\nsamples = 49\nvalue = [68, 4]"] ;
66 -> 67 ;
68 [label="gini = 0.268\nsamples = 43\nvalue = [58, 11]"] ;
66 -> 68 ;
69 [label="gini = 0.0\nsamples = 4\nvalue = [4, 0]"] ;
65 -> 69 ;
70 [label="X[0] <= 2.5\ngini = 0.493\nsamples = 87\nvalue = [59, 75]"] ;
0 -> 70 [labeldistance=2.5, labelangle=-45, headlabel="False"] ;
71 [label="X[1] <= 0.5\ngini = 0.33\nsamples = 47\nvalue = [15, 57]"] ;
70 -> 71 ;
72 [label="X[0] <= 1.5\ngini = 0.085\nsamples = 27\nvalue = [2, 43]"] ;
71 -> 72 ;
73 [label="X[2] <= 8.0\ngini = 0.137\nsamples = 18\nvalue = [2, 25]"] ;
72 -> 73 ;
74 [label="gini = 0.0\nsamples = 1\nvalue = [1, 0]"] ;
73 -> 74 ;
75 [label="X[3] <= 1.5\ngini = 0.074\nsamples = 17\nvalue = [1, 25]"] ;
73 -> 75 ;
76 [label="gini = 0.0\nsamples = 8\nvalue = [0, 12]"] ;
75 -> 76 ;
77 [label="X[2] <= 24.0\ngini = 0.133\nsamples = 9\nvalue = [1, 13]"] ;
75 -> 77 ;
78 [label="gini = 0.0\nsamples = 6\nvalue = [0, 11]"] ;
77 -> 78 ;
79 [label="gini = 0.444\nsamples = 3\nvalue = [1, 2]"] ;
77 -> 79 ;
80 [label="gini = 0.0\nsamples = 9\nvalue = [0, 18]"] ;
72 -> 80 ;
81 [label="X[2] <= 37.5\ngini = 0.499\nsamples = 20\nvalue = [13, 14]"] ;
71 -> 81 ;
82 [label="X[4] <= 0.5\ngini = 0.346\nsamples = 14\nvalue = [4, 14]"] ;
81 -> 82 ;
83 [label="X[2] <= 20.5\ngini = 0.375\nsamples = 4\nvalue = [1, 3]"] ;
82 -> 83 ;
84 [label="gini = 0.0\nsamples = 2\nvalue = [0, 2]"] ;
83 -> 84 ;
85 [label="X[2] <= 30.0\ngini = 0.5\nsamples = 2\nvalue = [1, 1]"] ;
83 -> 85 ;
86 [label="gini = 0.0\nsamples = 1\nvalue = [1, 0]"] ;
85 -> 86 ;
87 [label="gini = 0.0\nsamples = 1\nvalue = [0, 1]"] ;
85 -> 87 ;
88 [label="X[2] <= 12.5\ngini = 0.337\nsamples = 10\nvalue = [3, 11]"] ;
82 -> 88 ;
89 [label="gini = 0.0\nsamples = 5\nvalue = [0, 7]"] ;
88 -> 89 ;
90 [label="X[3] <= 1.5\ngini = 0.49\nsamples = 5\nvalue = [3, 4]"] ;
88 -> 90 ;
91 [label="gini = 0.48\nsamples = 3\nvalue = [2, 3]"] ;
90 -> 91 ;
92 [label="gini = 0.5\nsamples = 2\nvalue = [1, 1]"] ;
90 -> 92 ;
93 [label="gini = 0.0\nsamples = 6\nvalue = [9, 0]"] ;
81 -> 93 ;
94 [label="X[2] <= 1.5\ngini = 0.412\nsamples = 40\nvalue = [44, 18]"] ;
70 -> 94 ;
95 [label="gini = 0.0\nsamples = 3\nvalue = [0, 4]"] ;
94 -> 95 ;
96 [label="X[1] <= 0.5\ngini = 0.366\nsamples = 37\nvalue = [44, 14]"] ;
94 -> 96 ;
97 [label="X[4] <= 1.5\ngini = 0.451\nsamples = 20\nvalue = [23, 12]"] ;
96 -> 97 ;
98 [label="X[2] <= 35.0\ngini = 0.457\nsamples = 19\nvalue = [22, 12]"] ;
97 -> 98 ;
99 [label="X[3] <= 1.5\ngini = 0.5\nsamples = 15\nvalue = [12, 12]"] ;
98 -> 99 ;
100 [label="gini = 0.5\nsamples = 6\nvalue = [5, 5]"] ;
99 -> 100 ;
101 [label="gini = 0.5\nsamples = 9\nvalue = [7, 7]"] ;
99 -> 101 ;
102 [label="gini = 0.0\nsamples = 4\nvalue = [10, 0]"] ;
98 -> 102 ;
103 [label="gini = 0.0\nsamples = 1\nvalue = [1, 0]"] ;
97 -> 103 ;
104 [label="X[2] <= 10.0\ngini = 0.159\nsamples = 17\nvalue = [21, 2]"] ;
96 -> 104 ;
105 [label="X[2] <= 8.0\ngini = 0.32\nsamples = 7\nvalue = [8, 2]"] ;
104 -> 105 ;
106 [label="X[4] <= 1.5\ngini = 0.198\nsamples = 6\nvalue = [8, 1]"] ;
105 -> 106 ;
107 [label="gini = 0.375\nsamples = 3\nvalue = [3, 1]"] ;
106 -> 107 ;
108 [label="gini = 0.0\nsamples = 3\nvalue = [5, 0]"] ;
106 -> 108 ;
109 [label="gini = 0.0\nsamples = 1\nvalue = [0, 1]"] ;
105 -> 109 ;
110 [label="gini = 0.0\nsamples = 10\nvalue = [13, 0]"] ;
104 -> 110 ;
}
