digraph Tree {
node [shape=box] ;
0 [label="X[4] <= 0.5\ngini = 0.484\nsamples = 342\nvalue = [315, 219]"] ;
1 [label="X[3] <= 0.5\ngini = 0.469\nsamples = 62\nvalue = [38, 63]"] ;
0 -> 1 [labeldistance=2.5, labelangle=45, headlabel="True"] ;
2 [label="X[2] <= 59.0\ngini = 0.428\nsamples = 45\nvalue = [23, 51]"] ;
1 -> 2 ;
3 [label="X[2] <= 52.5\ngini = 0.438\nsamples = 44\nvalue = [23, 48]"] ;
2 -> 3 ;
4 [label="X[0] <= 2.5\ngini = 0.422\nsamples = 41\nvalue = [20, 46]"] ;
3 -> 4 ;
5 [label="X[0] <= 1.5\ngini = 0.273\nsamples = 30\nvalue = [8, 41]"] ;
4 -> 5 ;
6 [label="X[2] <= 40.5\ngini = 0.24\nsamples = 25\nvalue = [6, 37]"] ;
5 -> 6 ;
7 [label="gini = 0.328\nsamples = 19\nvalue = [6, 23]"] ;
6 -> 7 ;
8 [label="gini = 0.0\nsamples = 6\nvalue = [0, 14]"] ;
6 -> 8 ;
9 [label="X[2] <= 28.0\ngini = 0.444\nsamples = 5\nvalue = [2, 4]"] ;
5 -> 9 ;
10 [label="gini = 0.0\nsamples = 3\nvalue = [0, 4]"] ;
9 -> 10 ;
11 [label="gini = 0.0\nsamples = 2\nvalue = [2, 0]"] ;
9 -> 11 ;
12 [label="X[2] <= 32.0\ngini = 0.415\nsamples = 11\nvalue = [12, 5]"] ;
4 -> 12 ;
13 [label="X[1] <= 0.5\ngini = 0.486\nsamples = 8\nvalue = [7, 5]"] ;
12 -> 13 ;
14 [label="gini = 0.0\nsamples = 1\nvalue = [2, 0]"] ;
13 -> 14 ;
15 [label="gini = 0.5\nsamples = 7\nvalue = [5, 5]"] ;
13 -> 15 ;
16 [label="gini = 0.0\nsamples = 3\nvalue = [5, 0]"] ;
12 -> 16 ;
17 [label="X[2] <= 57.0\ngini = 0.48\nsamples = 3\nvalue = [3, 2]"] ;
3 -> 17 ;
18 [label="gini = 0.0\nsamples = 1\nvalue = [2, 0]"] ;
17 -> 18 ;
19 [label="X[1] <= 0.5\ngini = 0.444\nsamples = 2\nvalue = [1, 2]"] ;
17 -> 19 ;
20 [label="gini = 0.0\nsamples = 1\nvalue = [0, 2]"] ;
19 -> 20 ;
21 [label="gini = 0.0\nsamples = 1\nvalue = [1, 0]"] ;
19 -> 21 ;
22 [label="gini = 0.0\nsamples = 1\nvalue = [0, 3]"] ;
2 -> 22 ;
23 [label="X[2] <= 50.5\ngini = 0.494\nsamples = 17\nvalue = [15, 12]"] ;
1 -> 23 ;
24 [label="X[2] <= 7.0\ngini = 0.496\nsamples = 14\nvalue = [10, 12]"] ;
23 -> 24 ;
25 [label="gini = 0.0\nsamples = 3\nvalue = [0, 3]"] ;
24 -> 25 ;
26 [label="X[1] <= 0.5\ngini = 0.499\nsamples = 11\nvalue = [10, 9]"] ;
24 -> 26 ;
27 [label="X[2] <= 15.0\ngini = 0.346\nsamples = 6\nvalue = [2, 7]"] ;
26 -> 27 ;
28 [label="gini = 0.0\nsamples = 1\nvalue = [2, 0]"] ;
27 -> 28 ;
29 [label="gini = 0.0\nsamples = 5\nvalue = [0, 7]"] ;
27 -> 29 ;
30 [label="X[0] <= 2.0\ngini = 0.32\nsamples = 5\nvalue = [8, 2]"] ;
26 -> 30 ;
31 [label="gini = 0.0\nsamples = 3\nvalue = [5, 0]"] ;
30 -> 31 ;
32 [label="X[2] <= 18.5\ngini = 0.48\nsamples = 2\nvalue = [3, 2]"] ;
30 -> 32 ;
33 [label="gini = 0.0\nsamples = 1\nvalue = [3, 0]"] ;
32 -> 33 ;
34 [label="gini = 0.0\nsamples = 1\nvalue = [0, 2]"] ;
32 -> 34 ;
35 [label="gini = 0.0\nsamples = 3\nvalue = [5, 0]"] ;
23 -> 35 ;
36 [label="X[0] <= 2.5\ngini = 0.461\nsamples = 280\nvalue = [277, 156]"] ;
0 -> 36 [labeldistance=2.5, labelangle=-45, headlabel="False"] ;
37 [label="X[2] <= 15.0\ngini = 0.496\nsamples = 135\nvalue = [95, 113]"] ;
36 -> 37 ;
38 [label="gini = 0.0\nsamples = 12\nvalue = [0, 15]"] ;
37 -> 38 ;
39 [label="X[2] <= 59.5\ngini = 0.5\nsamples = 123\nvalue = [95, 98]"] ;
37 -> 39 ;
40 [label="X[1] <= 0.5\ngini = 0.498\nsamples = 114\nvalue = [84, 96]"] ;
39 -> 40 ;
41 [label="X[3] <= 1.5\ngini = 0.195\nsamples = 50\nvalue = [8, 65]"] ;
40 -> 41 ;
42 [label="X[4] <= 1.5\ngini = 0.144\nsamples = 44\nvalue = [5, 59]"] ;
41 -> 42 ;
43 [label="gini = 0.15\nsamples = 42\nvalue = [5, 56]"] ;
42 -> 43 ;
44 [label="gini = 0.0\nsamples = 2\nvalue = [0, 3]"] ;
42 -> 44 ;
45 [label="X[2] <= 24.5\ngini = 0.444\nsamples = 6\nvalue = [3, 6]"] ;
41 -> 45 ;
46 [label="gini = 0.0\nsamples = 2\nvalue = [0, 3]"] ;
45 -> 46 ;
47 [label="gini = 0.5\nsamples = 4\nvalue = [3, 3]"] ;
45 -> 47 ;
48 [label="X[0] <= 1.5\ngini = 0.412\nsamples = 64\nvalue = [76, 31]"] ;
40 -> 48 ;
49 [label="X[2] <= 34.0\ngini = 0.494\nsamples = 24\nvalue = [21, 17]"] ;
48 -> 49 ;
50 [label="gini = 0.26\nsamples = 7\nvalue = [11, 2]"] ;
49 -> 50 ;
51 [label="gini = 0.48\nsamples = 17\nvalue = [10, 15]"] ;
49 -> 51 ;
52 [label="X[2] <= 35.0\ngini = 0.323\nsamples = 40\nvalue = [55, 14]"] ;
48 -> 52 ;
53 [label="gini = 0.426\nsamples = 23\nvalue = [27, 12]"] ;
52 -> 53 ;
54 [label="gini = 0.124\nsamples = 17\nvalue = [28, 2]"] ;
52 -> 54 ;
55 [label="X[1] <= 0.5\ngini = 0.26\nsamples = 9\nvalue = [11, 2]"] ;
39 -> 55 ;
56 [label="gini = 0.0\nsamples = 1\nvalue = [0, 1]"] ;
55 -> 56 ;
57 [label="X[3] <= 2.0\ngini = 0.153\nsamples = 8\nvalue = [11, 1]"] ;
55 -> 57 ;
58 [label="X[2] <= 75.0\ngini = 0.165\nsamples = 7\nvalue = [10, 1]"] ;
57 -> 58 ;
59 [label="gini = 0.0\nsamples = 6\nvalue = [10, 0]"] ;
58 -> 59 ;
60 [label="gini = 0.0\nsamples = 1\nvalue = [0, 1]"] ;
58 -> 60 ;
61 [label="gini = 0.0\nsamples = 1\nvalue = [1, 0]"] ;
57 -> 61 ;
62 [label="X[1] <= 0.5\ngini = 0.309\nsamples = 145\nvalue = [182, 43]"] ;
36 -> 62 ;
63 [label="X[2] <= 27.0\ngini = 0.472\nsamples = 39\nvalue = [39, 24]"] ;
62 -> 63 ;
64 [label="X[3] <= 1.5\ngini = 0.497\nsamples = 23\nvalue = [17, 20]"] ;
63 -> 64 ;
65 [label="X[4] <= 1.5\ngini = 0.495\nsamples = 19\nvalue = [14, 17]"] ;
64 -> 65 ;
66 [label="X[3] <= 0.5\ngini = 0.497\nsamples = 16\nvalue = [11, 13]"] ;
65 -> 66 ;
67 [label="gini = 0.499\nsamples = 12\nvalue = [9, 10]"] ;
66 -> 67 ;
68 [label="gini = 0.48\nsamples = 4\nvalue = [2, 3]"] ;
66 -> 68 ;
69 [label="X[2] <= 18.5\ngini = 0.49\nsamples = 3\nvalue = [3, 4]"] ;
65 -> 69 ;
70 [label="gini = 0.0\nsamples = 2\nvalue = [0, 4]"] ;
69 -> 70 ;
71 [label="gini = 0.0\nsamples = 1\nvalue = [3, 0]"] ;
69 -> 71 ;
72 [label="X[2] <= 19.0\ngini = 0.5\nsamples = 4\nvalue = [3, 3]"] ;
64 -> 72 ;
73 [label="X[2] <= 11.5\ngini = 0.375\nsamples = 3\nvalue = [1, 3]"] ;
72 -> 73 ;
74 [label="gini = 0.5\nsamples = 2\nvalue = [1, 1]"] ;
73 -> 74 ;
75 [label="gini = 0.0\nsamples = 1\nvalue = [0, 2]"] ;
73 -> 75 ;
76 [label="gini = 0.0\nsamples = 1\nvalue = [2, 0]"] ;
72 -> 76 ;
77 [label="X[2] <= 55.0\ngini = 0.26\nsamples = 16\nvalue = [22, 4]"] ;
63 -> 77 ;
78 [label="X[3] <= 0.5\ngini = 0.153\nsamples = 15\nvalue = [22, 2]"] ;
77 -> 78 ;
79 [label="X[2] <= 29.0\ngini = 0.298\nsamples = 8\nvalue = [9, 2]"] ;
78 -> 79 ;
80 [label="gini = 0.0\nsamples = 1\nvalue = [2, 0]"] ;
79 -> 80 ;
81 [label="gini = 0.346\nsamples = 7\nvalue = [7, 2]"] ;
79 -> 81 ;
82 [label="gini = 0.0\nsamples = 7\nvalue = [13, 0]"] ;
78 -> 82 ;
83 [label="gini = 0.0\nsamples = 1\nvalue = [0, 2]"] ;
77 -> 83 ;
84 [label="X[4] <= 1.5\ngini = 0.207\nsamples = 106\nvalue = [143, 19]"] ;
62 -> 84 ;
85 [label="X[2] <= 5.5\ngini = 0.187\nsamples = 101\nvalue = [137, 16]"] ;
84 -> 85 ;
86 [label="X[3] <= 1.5\ngini = 0.48\nsamples = 6\nvalue = [6, 4]"] ;
85 -> 86 ;
87 [label="X[2] <= 2.5\ngini = 0.49\nsamples = 4\nvalue = [3, 4]"] ;
86 -> 87 ;
88 [label="gini = 0.0\nsamples = 2\nvalue = [3, 0]"] ;
87 -> 88 ;
89 [label="gini = 0.0\nsamples = 2\nvalue = [0, 4]"] ;
87 -> 89 ;
90 [label="gini = 0.0\nsamples = 2\nvalue = [3, 0]"] ;
86 -> 90 ;
91 [label="X[3] <= 1.5\ngini = 0.154\nsamples = 95\nvalue = [131, 12]"] ;
85 -> 91 ;
92 [label="X[2] <= 26.5\ngini = 0.158\nsamples = 92\nvalue = [127, 12]"] ;
91 -> 92 ;
93 [label="gini = 0.094\nsamples = 52\nvalue = [77, 4]"] ;
92 -> 93 ;
94 [label="gini = 0.238\nsamples = 40\nvalue = [50, 8]"] ;
92 -> 94 ;
95 [label="gini = 0.0\nsamples = 3\nvalue = [4, 0]"] ;
91 -> 95 ;
96 [label="X[3] <= 0.5\ngini = 0.444\nsamples = 5\nvalue = [6, 3]"] ;
84 -> 96 ;
97 [label="X[2] <= 34.5\ngini = 0.48\nsamples = 3\nvalue = [2, 3]"] ;
96 -> 97 ;
98 [label="gini = 0.0\nsamples = 1\nvalue = [0, 3]"] ;
97 -> 98 ;
99 [label="gini = 0.0\nsamples = 2\nvalue = [2, 0]"] ;
97 -> 99 ;
100 [label="gini = 0.0\nsamples = 2\nvalue = [4, 0]"] ;
96 -> 100 ;
}
