digraph Tree {
node [shape=box] ;
0 [label="X[1] <= 0.5\ngini = 0.482\nsamples = 333\nvalue = [317, 217]"] ;
1 [label="X[0] <= 2.5\ngini = 0.372\nsamples = 125\nvalue = [48, 146]"] ;
0 -> 1 [labeldistance=2.5, labelangle=45, headlabel="True"] ;
2 [label="X[2] <= 24.5\ngini = 0.07\nsamples = 69\nvalue = [4, 106]"] ;
1 -> 2 ;
3 [label="gini = 0.0\nsamples = 29\nvalue = [0, 49]"] ;
2 -> 3 ;
4 [label="X[4] <= 0.5\ngini = 0.123\nsamples = 40\nvalue = [4, 57]"] ;
2 -> 4 ;
5 [label="gini = 0.0\nsamples = 14\nvalue = [0, 20]"] ;
4 -> 5 ;
6 [label="X[0] <= 1.5\ngini = 0.176\nsamples = 26\nvalue = [4, 37]"] ;
4 -> 6 ;
7 [label="X[2] <= 27.5\ngini = 0.105\nsamples = 11\nvalue = [1, 17]"] ;
6 -> 7 ;
8 [label="gini = 0.0\nsamples = 1\nvalue = [1, 0]"] ;
7 -> 8 ;
9 [label="gini = 0.0\nsamples = 10\nvalue = [0, 17]"] ;
7 -> 9 ;
10 [label="X[3] <= 0.5\ngini = 0.227\nsamples = 15\nvalue = [3, 20]"] ;
6 -> 10 ;
11 [label="X[2] <= 28.0\ngini = 0.305\nsamples = 10\nvalue = [3, 13]"] ;
10 -> 11 ;
12 [label="gini = 0.0\nsamples = 1\nvalue = [2, 0]"] ;
11 -> 12 ;
13 [label="gini = 0.133\nsamples = 9\nvalue = [1, 13]"] ;
11 -> 13 ;
14 [label="gini = 0.0\nsamples = 5\nvalue = [0, 7]"] ;
10 -> 14 ;
15 [label="X[4] <= 0.5\ngini = 0.499\nsamples = 56\nvalue = [44, 40]"] ;
1 -> 15 ;
16 [label="X[2] <= 14.5\ngini = 0.397\nsamples = 8\nvalue = [3, 8]"] ;
15 -> 16 ;
17 [label="X[3] <= 1.0\ngini = 0.5\nsamples = 3\nvalue = [2, 2]"] ;
16 -> 17 ;
18 [label="X[2] <= 13.5\ngini = 0.444\nsamples = 2\nvalue = [2, 1]"] ;
17 -> 18 ;
19 [label="gini = 0.0\nsamples = 1\nvalue = [0, 1]"] ;
18 -> 19 ;
20 [label="gini = 0.0\nsamples = 1\nvalue = [2, 0]"] ;
18 -> 20 ;
21 [label="gini = 0.0\nsamples = 1\nvalue = [0, 1]"] ;
17 -> 21 ;
22 [label="X[2] <= 16.0\ngini = 0.245\nsamples = 5\nvalue = [1, 6]"] ;
16 -> 22 ;
23 [label="gini = 0.0\nsamples = 2\nvalue = [0, 3]"] ;
22 -> 23 ;
24 [label="X[3] <= 1.0\ngini = 0.375\nsamples = 3\nvalue = [1, 3]"] ;
22 -> 24 ;
25 [label="gini = 0.0\nsamples = 1\nvalue = [1, 0]"] ;
24 -> 25 ;
26 [label="gini = 0.0\nsamples = 2\nvalue = [0, 3]"] ;
24 -> 26 ;
27 [label="X[3] <= 1.5\ngini = 0.492\nsamples = 48\nvalue = [41, 32]"] ;
15 -> 27 ;
28 [label="X[4] <= 1.5\ngini = 0.499\nsamples = 38\nvalue = [28, 30]"] ;
27 -> 28 ;
29 [label="X[2] <= 34.0\ngini = 0.5\nsamples = 32\nvalue = [23, 23]"] ;
28 -> 29 ;
30 [label="X[2] <= 30.5\ngini = 0.493\nsamples = 29\nvalue = [18, 23]"] ;
29 -> 30 ;
31 [label="gini = 0.5\nsamples = 27\nvalue = [18, 19]"] ;
30 -> 31 ;
32 [label="gini = 0.0\nsamples = 2\nvalue = [0, 4]"] ;
30 -> 32 ;
33 [label="gini = 0.0\nsamples = 3\nvalue = [5, 0]"] ;
29 -> 33 ;
34 [label="X[2] <= 17.0\ngini = 0.486\nsamples = 6\nvalue = [5, 7]"] ;
28 -> 34 ;
35 [label="gini = 0.0\nsamples = 2\nvalue = [0, 5]"] ;
34 -> 35 ;
36 [label="X[3] <= 0.5\ngini = 0.408\nsamples = 4\nvalue = [5, 2]"] ;
34 -> 36 ;
37 [label="gini = 0.444\nsamples = 3\nvalue = [4, 2]"] ;
36 -> 37 ;
38 [label="gini = 0.0\nsamples = 1\nvalue = [1, 0]"] ;
36 -> 38 ;
39 [label="X[2] <= 5.5\ngini = 0.231\nsamples = 10\nvalue = [13, 2]"] ;
27 -> 39 ;
40 [label="gini = 0.0\nsamples = 1\nvalue = [0, 1]"] ;
39 -> 40 ;
41 [label="X[3] <= 2.5\ngini = 0.133\nsamples = 9\nvalue = [13, 1]"] ;
39 -> 41 ;
42 [label="X[2] <= 13.5\ngini = 0.198\nsamples = 5\nvalue = [8, 1]"] ;
41 -> 42 ;
43 [label="gini = 0.0\nsamples = 4\nvalue = [8, 0]"] ;
42 -> 43 ;
44 [label="gini = 0.0\nsamples = 1\nvalue = [0, 1]"] ;
42 -> 44 ;
45 [label="gini = 0.0\nsamples = 4\nvalue = [5, 0]"] ;
41 -> 45 ;
46 [label="X[2] <= 3.5\ngini = 0.33\nsamples = 208\nvalue = [269, 71]"] ;
0 -> 46 [labeldistance=2.5, labelangle=-45, headlabel="False"] ;
47 [label="X[0] <= 2.5\ngini = 0.444\nsamples = 8\nvalue = [4, 8]"] ;
46 -> 47 ;
48 [label="gini = 0.0\nsamples = 5\nvalue = [0, 8]"] ;
47 -> 48 ;
49 [label="gini = 0.0\nsamples = 3\nvalue = [4, 0]"] ;
47 -> 49 ;
50 [label="X[0] <= 1.5\ngini = 0.31\nsamples = 200\nvalue = [265, 63]"] ;
46 -> 50 ;
51 [label="X[3] <= 0.5\ngini = 0.426\nsamples = 53\nvalue = [63, 28]"] ;
50 -> 51 ;
52 [label="X[2] <= 75.5\ngini = 0.461\nsamples = 42\nvalue = [46, 26]"] ;
51 -> 52 ;
53 [label="X[4] <= 0.5\ngini = 0.444\nsamples = 41\nvalue = [46, 23]"] ;
52 -> 53 ;
54 [label="X[2] <= 49.5\ngini = 0.499\nsamples = 14\nvalue = [11, 10]"] ;
53 -> 54 ;
55 [label="gini = 0.494\nsamples = 11\nvalue = [8, 10]"] ;
54 -> 55 ;
56 [label="gini = 0.0\nsamples = 3\nvalue = [3, 0]"] ;
54 -> 56 ;
57 [label="X[4] <= 1.5\ngini = 0.395\nsamples = 27\nvalue = [35, 13]"] ;
53 -> 57 ;
58 [label="gini = 0.405\nsamples = 26\nvalue = [33, 13]"] ;
57 -> 58 ;
59 [label="gini = 0.0\nsamples = 1\nvalue = [2, 0]"] ;
57 -> 59 ;
60 [label="gini = 0.0\nsamples = 1\nvalue = [0, 3]"] ;
52 -> 60 ;
61 [label="X[4] <= 0.5\ngini = 0.188\nsamples = 11\nvalue = [17, 2]"] ;
51 -> 61 ;
62 [label="gini = 0.0\nsamples = 6\nvalue = [10, 0]"] ;
61 -> 62 ;
63 [label="X[2] <= 44.5\ngini = 0.346\nsamples = 5\nvalue = [7, 2]"] ;
61 -> 63 ;
64 [label="X[2] <= 29.0\ngini = 0.444\nsamples = 2\nvalue = [1, 2]"] ;
63 -> 64 ;
65 [label="gini = 0.0\nsamples = 1\nvalue = [1, 0]"] ;
64 -> 65 ;
66 [label="gini = 0.0\nsamples = 1\nvalue = [0, 2]"] ;
64 -> 66 ;
67 [label="gini = 0.0\nsamples = 3\nvalue = [6, 0]"] ;
63 -> 67 ;
68 [label="X[4] <= 0.5\ngini = 0.252\nsamples = 147\nvalue = [202, 35]"] ;
50 -> 68 ;
69 [label="X[0] <= 2.5\ngini = 0.42\nsamples = 12\nvalue = [14, 6]"] ;
68 -> 69 ;
70 [label="gini = 0.0\nsamples = 2\nvalue = [2, 0]"] ;
69 -> 70 ;
71 [label="X[3] <= 0.5\ngini = 0.444\nsamples = 10\nvalue = [12, 6]"] ;
69 -> 71 ;
72 [label="X[2] <= 21.0\ngini = 0.426\nsamples = 7\nvalue = [9, 4]"] ;
71 -> 72 ;
73 [label="gini = 0.0\nsamples = 1\nvalue = [0, 2]"] ;
72 -> 73 ;
74 [label="gini = 0.298\nsamples = 6\nvalue = [9, 2]"] ;
72 -> 74 ;
75 [label="X[2] <= 18.5\ngini = 0.48\nsamples = 3\nvalue = [3, 2]"] ;
71 -> 75 ;
76 [label="gini = 0.0\nsamples = 2\nvalue = [3, 0]"] ;
75 -> 76 ;
77 [label="gini = 0.0\nsamples = 1\nvalue = [0, 2]"] ;
75 -> 77 ;
78 [label="X[3] <= 1.5\ngini = 0.232\nsamples = 135\nvalue = [188, 29]"] ;
68 -> 78 ;
79 [label="X[0] <= 2.5\ngini = 0.237\nsamples = 130\nvalue = [182, 29]"] ;
78 -> 79 ;
80 [label="X[2] <= 59.5\ngini = 0.236\nsamples = 35\nvalue = [57, 9]"] ;
79 -> 80 ;
81 [label="gini = 0.175\nsamples = 33\nvalue = [56, 6]"] ;
80 -> 81 ;
82 [label="gini = 0.375\nsamples = 2\nvalue = [1, 3]"] ;
80 -> 82 ;
83 [label="X[2] <= 27.5\ngini = 0.238\nsamples = 95\nvalue = [125, 20]"] ;
79 -> 83 ;
84 [label="gini = 0.302\nsamples = 51\nvalue = [66, 15]"] ;
83 -> 84 ;
85 [label="gini = 0.144\nsamples = 44\nvalue = [59, 5]"] ;
83 -> 85 ;
86 [label="gini = 0.0\nsamples = 5\nvalue = [6, 0]"] ;
78 -> 86 ;
}
