digraph Tree {
node [shape=box] ;
0 [label="X[1] <= 0.5\ngini = 0.475\nsamples = 334\nvalue = [327, 207]"] ;
1 [label="X[0] <= 2.5\ngini = 0.375\nsamples = 123\nvalue = [47, 141]"] ;
0 -> 1 [labeldistance=2.5, labelangle=45, headlabel="True"] ;
2 [label="X[3] <= 0.5\ngini = 0.168\nsamples = 76\nvalue = [11, 108]"] ;
1 -> 2 ;
3 [label="X[0] <= 1.5\ngini = 0.23\nsamples = 47\nvalue = [9, 59]"] ;
2 -> 3 ;
4 [label="gini = 0.0\nsamples = 23\nvalue = [0, 35]"] ;
3 -> 4 ;
5 [label="X[2] <= 56.0\ngini = 0.397\nsamples = 24\nvalue = [9, 24]"] ;
3 -> 5 ;
6 [label="X[2] <= 27.5\ngini = 0.32\nsamples = 23\nvalue = [6, 24]"] ;
5 -> 6 ;
7 [label="X[4] <= 0.5\ngini = 0.473\nsamples = 9\nvalue = [5, 8]"] ;
6 -> 7 ;
8 [label="gini = 0.0\nsamples = 3\nvalue = [0, 3]"] ;
7 -> 8 ;
9 [label="gini = 0.5\nsamples = 6\nvalue = [5, 5]"] ;
7 -> 9 ;
10 [label="X[4] <= 1.5\ngini = 0.111\nsamples = 14\nvalue = [1, 16]"] ;
6 -> 10 ;
11 [label="gini = 0.124\nsamples = 13\nvalue = [1, 14]"] ;
10 -> 11 ;
12 [label="gini = 0.0\nsamples = 1\nvalue = [0, 2]"] ;
10 -> 12 ;
13 [label="gini = 0.0\nsamples = 1\nvalue = [3, 0]"] ;
5 -> 13 ;
14 [label="X[3] <= 1.5\ngini = 0.075\nsamples = 29\nvalue = [2, 49]"] ;
2 -> 14 ;
15 [label="gini = 0.0\nsamples = 15\nvalue = [0, 29]"] ;
14 -> 15 ;
16 [label="X[2] <= 2.5\ngini = 0.165\nsamples = 14\nvalue = [2, 20]"] ;
14 -> 16 ;
17 [label="gini = 0.0\nsamples = 1\nvalue = [2, 0]"] ;
16 -> 17 ;
18 [label="gini = 0.0\nsamples = 13\nvalue = [0, 20]"] ;
16 -> 18 ;
19 [label="X[4] <= 0.5\ngini = 0.499\nsamples = 47\nvalue = [36, 33]"] ;
1 -> 19 ;
20 [label="X[2] <= 5.0\ngini = 0.469\nsamples = 6\nvalue = [3, 5]"] ;
19 -> 20 ;
21 [label="gini = 0.0\nsamples = 2\nvalue = [0, 2]"] ;
20 -> 21 ;
22 [label="X[2] <= 23.5\ngini = 0.5\nsamples = 4\nvalue = [3, 3]"] ;
20 -> 22 ;
23 [label="X[2] <= 16.5\ngini = 0.375\nsamples = 3\nvalue = [3, 1]"] ;
22 -> 23 ;
24 [label="X[3] <= 0.5\ngini = 0.5\nsamples = 2\nvalue = [1, 1]"] ;
23 -> 24 ;
25 [label="gini = 0.0\nsamples = 1\nvalue = [0, 1]"] ;
24 -> 25 ;
26 [label="gini = 0.0\nsamples = 1\nvalue = [1, 0]"] ;
24 -> 26 ;
27 [label="gini = 0.0\nsamples = 1\nvalue = [2, 0]"] ;
23 -> 27 ;
28 [label="gini = 0.0\nsamples = 1\nvalue = [0, 2]"] ;
22 -> 28 ;
29 [label="X[3] <= 0.5\ngini = 0.497\nsamples = 41\nvalue = [33, 28]"] ;
19 -> 29 ;
30 [label="X[2] <= 17.0\ngini = 0.497\nsamples = 27\nvalue = [19, 22]"] ;
29 -> 30 ;
31 [label="gini = 0.0\nsamples = 2\nvalue = [0, 3]"] ;
30 -> 31 ;
32 [label="X[2] <= 55.0\ngini = 0.5\nsamples = 25\nvalue = [19, 19]"] ;
30 -> 32 ;
33 [label="X[4] <= 1.5\ngini = 0.496\nsamples = 24\nvalue = [19, 16]"] ;
32 -> 33 ;
34 [label="gini = 0.496\nsamples = 22\nvalue = [18, 15]"] ;
33 -> 34 ;
35 [label="gini = 0.5\nsamples = 2\nvalue = [1, 1]"] ;
33 -> 35 ;
36 [label="gini = 0.0\nsamples = 1\nvalue = [0, 3]"] ;
32 -> 36 ;
37 [label="X[3] <= 3.5\ngini = 0.42\nsamples = 14\nvalue = [14, 6]"] ;
29 -> 37 ;
38 [label="X[3] <= 1.5\ngini = 0.457\nsamples = 13\nvalue = [11, 6]"] ;
37 -> 38 ;
39 [label="X[2] <= 2.5\ngini = 0.375\nsamples = 8\nvalue = [9, 3]"] ;
38 -> 39 ;
40 [label="gini = 0.0\nsamples = 1\nvalue = [0, 1]"] ;
39 -> 40 ;
41 [label="gini = 0.298\nsamples = 7\nvalue = [9, 2]"] ;
39 -> 41 ;
42 [label="X[2] <= 13.0\ngini = 0.48\nsamples = 5\nvalue = [2, 3]"] ;
38 -> 42 ;
43 [label="gini = 0.444\nsamples = 3\nvalue = [2, 1]"] ;
42 -> 43 ;
44 [label="gini = 0.0\nsamples = 2\nvalue = [0, 2]"] ;
42 -> 44 ;
45 [label="gini = 0.0\nsamples = 1\nvalue = [3, 0]"] ;
37 -> 45 ;
46 [label="X[4] <= 0.5\ngini = 0.309\nsamples = 211\nvalue = [280, 66]"] ;
0 -> 46 [labeldistance=2.5, labelangle=-45, headlabel="False"] ;
47 [label="X[2] <= 21.0\ngini = 0.425\nsamples = 30\nvalue = [34, 15]"] ;
46 -> 47 ;
48 [label="X[3] <= 1.5\ngini = 0.444\nsamples = 6\nvalue = [3, 6]"] ;
47 -> 48 ;
49 [label="X[2] <= 7.5\ngini = 0.48\nsamples = 4\nvalue = [3, 2]"] ;
48 -> 49 ;
50 [label="gini = 0.0\nsamples = 1\nvalue = [0, 1]"] ;
49 -> 50 ;
51 [label="X[3] <= 0.5\ngini = 0.375\nsamples = 3\nvalue = [3, 1]"] ;
49 -> 51 ;
52 [label="gini = 0.0\nsamples = 1\nvalue = [0, 1]"] ;
51 -> 52 ;
53 [label="gini = 0.0\nsamples = 2\nvalue = [3, 0]"] ;
51 -> 53 ;
54 [label="gini = 0.0\nsamples = 2\nvalue = [0, 4]"] ;
48 -> 54 ;
55 [label="X[2] <= 25.0\ngini = 0.349\nsamples = 24\nvalue = [31, 9]"] ;
47 -> 55 ;
56 [label="gini = 0.0\nsamples = 4\nvalue = [10, 0]"] ;
55 -> 56 ;
57 [label="X[2] <= 27.5\ngini = 0.42\nsamples = 20\nvalue = [21, 9]"] ;
55 -> 57 ;
58 [label="X[0] <= 2.0\ngini = 0.278\nsamples = 3\nvalue = [1, 5]"] ;
57 -> 58 ;
59 [label="X[3] <= 1.0\ngini = 0.375\nsamples = 2\nvalue = [1, 3]"] ;
58 -> 59 ;
60 [label="gini = 0.0\nsamples = 1\nvalue = [0, 3]"] ;
59 -> 60 ;
61 [label="gini = 0.0\nsamples = 1\nvalue = [1, 0]"] ;
59 -> 61 ;
62 [label="gini = 0.0\nsamples = 1\nvalue = [0, 2]"] ;
58 -> 62 ;
63 [label="X[0] <= 1.5\ngini = 0.278\nsamples = 17\nvalue = [20, 4]"] ;
57 -> 63 ;
64 [label="X[3] <= 0.5\ngini = 0.375\nsamples = 12\nvalue = [12, 4]"] ;
63 -> 64 ;
65 [label="gini = 0.444\nsamples = 9\nvalue = [8, 4]"] ;
64 -> 65 ;
66 [label="gini = 0.0\nsamples = 3\nvalue = [4, 0]"] ;
64 -> 66 ;
67 [label="gini = 0.0\nsamples = 5\nvalue = [8, 0]"] ;
63 -> 67 ;
68 [label="X[2] <= 1.5\ngini = 0.284\nsamples = 181\nvalue = [246, 51]"] ;
46 -> 68 ;
69 [label="gini = 0.0\nsamples = 3\nvalue = [0, 4]"] ;
68 -> 69 ;
70 [label="X[2] <= 24.5\ngini = 0.269\nsamples = 178\nvalue = [246, 47]"] ;
68 -> 70 ;
71 [label="X[2] <= 16.5\ngini = 0.148\nsamples = 64\nvalue = [103, 9]"] ;
70 -> 71 ;
72 [label="X[4] <= 1.5\ngini = 0.375\nsamples = 18\nvalue = [24, 8]"] ;
71 -> 72 ;
73 [label="X[3] <= 1.5\ngini = 0.426\nsamples = 15\nvalue = [18, 8]"] ;
72 -> 73 ;
74 [label="gini = 0.49\nsamples = 11\nvalue = [8, 6]"] ;
73 -> 74 ;
75 [label="gini = 0.278\nsamples = 4\nvalue = [10, 2]"] ;
73 -> 75 ;
76 [label="gini = 0.0\nsamples = 3\nvalue = [6, 0]"] ;
72 -> 76 ;
77 [label="X[3] <= 0.5\ngini = 0.025\nsamples = 46\nvalue = [79, 1]"] ;
71 -> 77 ;
78 [label="X[2] <= 19.5\ngini = 0.026\nsamples = 44\nvalue = [76, 1]"] ;
77 -> 78 ;
79 [label="gini = 0.077\nsamples = 14\nvalue = [24, 1]"] ;
78 -> 79 ;
80 [label="gini = 0.0\nsamples = 30\nvalue = [52, 0]"] ;
78 -> 80 ;
81 [label="gini = 0.0\nsamples = 2\nvalue = [3, 0]"] ;
77 -> 81 ;
82 [label="X[4] <= 1.5\ngini = 0.332\nsamples = 114\nvalue = [143, 38]"] ;
70 -> 82 ;
83 [label="X[3] <= 0.5\ngini = 0.334\nsamples = 112\nvalue = [141, 38]"] ;
82 -> 83 ;
84 [label="X[0] <= 1.5\ngini = 0.352\nsamples = 103\nvalue = [129, 38]"] ;
83 -> 84 ;
85 [label="gini = 0.496\nsamples = 26\nvalue = [24, 20]"] ;
84 -> 85 ;
86 [label="gini = 0.25\nsamples = 77\nvalue = [105, 18]"] ;
84 -> 86 ;
87 [label="gini = 0.0\nsamples = 9\nvalue = [12, 0]"] ;
83 -> 87 ;
88 [label="gini = 0.0\nsamples = 2\nvalue = [2, 0]"] ;
82 -> 88 ;
}
