digraph Tree {
node [shape=box] ;
0 [label="X[1] <= 0.5\ngini = 0.481\nsamples = 339\nvalue = [319, 215]"] ;
1 [label="X[0] <= 2.5\ngini = 0.399\nsamples = 133\nvalue = [57, 150]"] ;
0 -> 1 [labeldistance=2.5, labelangle=45, headlabel="True"] ;
2 [label="X[0] <= 1.5\ngini = 0.138\nsamples = 78\nvalue = [9, 112]"] ;
1 -> 2 ;
3 [label="X[2] <= 8.0\ngini = 0.055\nsamples = 46\nvalue = [2, 69]"] ;
2 -> 3 ;
4 [label="gini = 0.0\nsamples = 1\nvalue = [1, 0]"] ;
3 -> 4 ;
5 [label="X[2] <= 27.0\ngini = 0.028\nsamples = 45\nvalue = [1, 69]"] ;
3 -> 5 ;
6 [label="X[2] <= 24.5\ngini = 0.067\nsamples = 16\nvalue = [1, 28]"] ;
5 -> 6 ;
7 [label="gini = 0.0\nsamples = 15\nvalue = [0, 28]"] ;
6 -> 7 ;
8 [label="gini = 0.0\nsamples = 1\nvalue = [1, 0]"] ;
6 -> 8 ;
9 [label="gini = 0.0\nsamples = 29\nvalue = [0, 41]"] ;
5 -> 9 ;
10 [label="X[2] <= 53.5\ngini = 0.241\nsamples = 32\nvalue = [7, 43]"] ;
2 -> 10 ;
11 [label="X[2] <= 23.5\ngini = 0.187\nsamples = 31\nvalue = [5, 43]"] ;
10 -> 11 ;
12 [label="gini = 0.0\nsamples = 10\nvalue = [0, 16]"] ;
11 -> 12 ;
13 [label="X[3] <= 0.5\ngini = 0.264\nsamples = 21\nvalue = [5, 27]"] ;
11 -> 13 ;
14 [label="X[4] <= 0.5\ngini = 0.375\nsamples = 13\nvalue = [5, 15]"] ;
13 -> 14 ;
15 [label="gini = 0.0\nsamples = 1\nvalue = [0, 2]"] ;
14 -> 15 ;
16 [label="gini = 0.401\nsamples = 12\nvalue = [5, 13]"] ;
14 -> 16 ;
17 [label="gini = 0.0\nsamples = 8\nvalue = [0, 12]"] ;
13 -> 17 ;
18 [label="gini = 0.0\nsamples = 1\nvalue = [2, 0]"] ;
10 -> 18 ;
19 [label="X[2] <= 27.5\ngini = 0.493\nsamples = 55\nvalue = [48, 38]"] ;
1 -> 19 ;
20 [label="X[2] <= 22.5\ngini = 0.498\nsamples = 39\nvalue = [30, 34]"] ;
19 -> 20 ;
21 [label="X[4] <= 0.5\ngini = 0.495\nsamples = 31\nvalue = [28, 23]"] ;
20 -> 21 ;
22 [label="X[2] <= 7.0\ngini = 0.355\nsamples = 8\nvalue = [3, 10]"] ;
21 -> 22 ;
23 [label="gini = 0.0\nsamples = 3\nvalue = [0, 5]"] ;
22 -> 23 ;
24 [label="X[3] <= 0.5\ngini = 0.469\nsamples = 5\nvalue = [3, 5]"] ;
22 -> 24 ;
25 [label="gini = 0.278\nsamples = 4\nvalue = [1, 5]"] ;
24 -> 25 ;
26 [label="gini = 0.0\nsamples = 1\nvalue = [2, 0]"] ;
24 -> 26 ;
27 [label="X[4] <= 1.5\ngini = 0.45\nsamples = 23\nvalue = [25, 13]"] ;
21 -> 27 ;
28 [label="X[2] <= 13.5\ngini = 0.415\nsamples = 20\nvalue = [24, 10]"] ;
27 -> 28 ;
29 [label="gini = 0.0\nsamples = 7\nvalue = [11, 0]"] ;
28 -> 29 ;
30 [label="gini = 0.491\nsamples = 13\nvalue = [13, 10]"] ;
28 -> 30 ;
31 [label="X[2] <= 18.5\ngini = 0.375\nsamples = 3\nvalue = [1, 3]"] ;
27 -> 31 ;
32 [label="gini = 0.0\nsamples = 2\nvalue = [0, 3]"] ;
31 -> 32 ;
33 [label="gini = 0.0\nsamples = 1\nvalue = [1, 0]"] ;
31 -> 33 ;
34 [label="X[2] <= 24.5\ngini = 0.26\nsamples = 8\nvalue = [2, 11]"] ;
20 -> 34 ;
35 [label="gini = 0.0\nsamples = 2\nvalue = [0, 7]"] ;
34 -> 35 ;
36 [label="X[2] <= 25.5\ngini = 0.444\nsamples = 6\nvalue = [2, 4]"] ;
34 -> 36 ;
37 [label="gini = 0.0\nsamples = 1\nvalue = [1, 0]"] ;
36 -> 37 ;
38 [label="X[2] <= 26.5\ngini = 0.32\nsamples = 5\nvalue = [1, 4]"] ;
36 -> 38 ;
39 [label="gini = 0.444\nsamples = 3\nvalue = [1, 2]"] ;
38 -> 39 ;
40 [label="gini = 0.0\nsamples = 2\nvalue = [0, 2]"] ;
38 -> 40 ;
41 [label="X[3] <= 2.0\ngini = 0.298\nsamples = 16\nvalue = [18, 4]"] ;
19 -> 41 ;
42 [label="X[3] <= 0.5\ngini = 0.36\nsamples = 11\nvalue = [13, 4]"] ;
41 -> 42 ;
43 [label="X[2] <= 33.5\ngini = 0.355\nsamples = 8\nvalue = [10, 3]"] ;
42 -> 43 ;
44 [label="gini = 0.0\nsamples = 3\nvalue = [7, 0]"] ;
43 -> 44 ;
45 [label="X[2] <= 36.5\ngini = 0.5\nsamples = 5\nvalue = [3, 3]"] ;
43 -> 45 ;
46 [label="gini = 0.0\nsamples = 1\nvalue = [0, 2]"] ;
45 -> 46 ;
47 [label="gini = 0.375\nsamples = 4\nvalue = [3, 1]"] ;
45 -> 47 ;
48 [label="X[2] <= 30.5\ngini = 0.375\nsamples = 3\nvalue = [3, 1]"] ;
42 -> 48 ;
49 [label="gini = 0.0\nsamples = 2\nvalue = [3, 0]"] ;
48 -> 49 ;
50 [label="gini = 0.0\nsamples = 1\nvalue = [0, 1]"] ;
48 -> 50 ;
51 [label="gini = 0.0\nsamples = 5\nvalue = [5, 0]"] ;
41 -> 51 ;
52 [label="X[3] <= 0.5\ngini = 0.319\nsamples = 206\nvalue = [262, 65]"] ;
0 -> 52 [labeldistance=2.5, labelangle=-45, headlabel="False"] ;
53 [label="X[4] <= 0.5\ngini = 0.287\nsamples = 170\nvalue = [229, 48]"] ;
52 -> 53 ;
54 [label="X[0] <= 1.5\ngini = 0.426\nsamples = 23\nvalue = [27, 12]"] ;
53 -> 54 ;
55 [label="X[2] <= 49.5\ngini = 0.475\nsamples = 12\nvalue = [11, 7]"] ;
54 -> 55 ;
56 [label="X[2] <= 24.5\ngini = 0.5\nsamples = 9\nvalue = [7, 7]"] ;
55 -> 56 ;
57 [label="gini = 0.0\nsamples = 1\nvalue = [3, 0]"] ;
56 -> 57 ;
58 [label="X[2] <= 27.5\ngini = 0.463\nsamples = 8\nvalue = [4, 7]"] ;
56 -> 58 ;
59 [label="gini = 0.0\nsamples = 1\nvalue = [0, 3]"] ;
58 -> 59 ;
60 [label="gini = 0.5\nsamples = 7\nvalue = [4, 4]"] ;
58 -> 60 ;
61 [label="gini = 0.0\nsamples = 3\nvalue = [4, 0]"] ;
55 -> 61 ;
62 [label="X[2] <= 21.0\ngini = 0.363\nsamples = 11\nvalue = [16, 5]"] ;
54 -> 62 ;
63 [label="gini = 0.0\nsamples = 1\nvalue = [0, 4]"] ;
62 -> 63 ;
64 [label="X[0] <= 2.5\ngini = 0.111\nsamples = 10\nvalue = [16, 1]"] ;
62 -> 64 ;
65 [label="gini = 0.0\nsamples = 3\nvalue = [4, 0]"] ;
64 -> 65 ;
66 [label="X[2] <= 25.0\ngini = 0.142\nsamples = 7\nvalue = [12, 1]"] ;
64 -> 66 ;
67 [label="gini = 0.32\nsamples = 2\nvalue = [4, 1]"] ;
66 -> 67 ;
68 [label="gini = 0.0\nsamples = 5\nvalue = [8, 0]"] ;
66 -> 68 ;
69 [label="X[4] <= 1.5\ngini = 0.257\nsamples = 147\nvalue = [202, 36]"] ;
53 -> 69 ;
70 [label="X[2] <= 30.5\ngini = 0.255\nsamples = 143\nvalue = [198, 35]"] ;
69 -> 70 ;
71 [label="X[2] <= 21.5\ngini = 0.17\nsamples = 81\nvalue = [116, 12]"] ;
70 -> 71 ;
72 [label="X[2] <= 20.5\ngini = 0.273\nsamples = 27\nvalue = [36, 7]"] ;
71 -> 72 ;
73 [label="gini = 0.234\nsamples = 22\nvalue = [32, 5]"] ;
72 -> 73 ;
74 [label="gini = 0.444\nsamples = 5\nvalue = [4, 2]"] ;
72 -> 74 ;
75 [label="X[0] <= 1.5\ngini = 0.111\nsamples = 54\nvalue = [80, 5]"] ;
71 -> 75 ;
76 [label="gini = 0.444\nsamples = 3\nvalue = [1, 2]"] ;
75 -> 76 ;
77 [label="gini = 0.07\nsamples = 51\nvalue = [79, 3]"] ;
75 -> 77 ;
78 [label="X[0] <= 1.5\ngini = 0.342\nsamples = 62\nvalue = [82, 23]"] ;
70 -> 78 ;
79 [label="X[2] <= 34.0\ngini = 0.478\nsamples = 19\nvalue = [20, 13]"] ;
78 -> 79 ;
80 [label="gini = 0.0\nsamples = 1\nvalue = [4, 0]"] ;
79 -> 80 ;
81 [label="gini = 0.495\nsamples = 18\nvalue = [16, 13]"] ;
79 -> 81 ;
82 [label="X[0] <= 2.5\ngini = 0.239\nsamples = 43\nvalue = [62, 10]"] ;
78 -> 82 ;
83 [label="gini = 0.198\nsamples = 20\nvalue = [32, 4]"] ;
82 -> 83 ;
84 [label="gini = 0.278\nsamples = 23\nvalue = [30, 6]"] ;
82 -> 84 ;
85 [label="X[0] <= 2.0\ngini = 0.32\nsamples = 4\nvalue = [4, 1]"] ;
69 -> 85 ;
86 [label="gini = 0.0\nsamples = 1\nvalue = [1, 0]"] ;
85 -> 86 ;
87 [label="X[2] <= 34.5\ngini = 0.375\nsamples = 3\nvalue = [3, 1]"] ;
85 -> 87 ;
88 [label="gini = 0.0\nsamples = 1\nvalue = [0, 1]"] ;
87 -> 88 ;
89 [label="gini = 0.0\nsamples = 2\nvalue = [3, 0]"] ;
87 -> 89 ;
90 [label="X[3] <= 3.0\ngini = 0.449\nsamples = 36\nvalue = [33, 17]"] ;
52 -> 90 ;
91 [label="X[0] <= 2.5\ngini = 0.47\nsamples = 34\nvalue = [28, 17]"] ;
90 -> 91 ;
92 [label="X[2] <= 18.0\ngini = 0.483\nsamples = 18\nvalue = [9, 13]"] ;
91 -> 92 ;
93 [label="gini = 0.0\nsamples = 6\nvalue = [0, 9]"] ;
92 -> 93 ;
94 [label="X[3] <= 1.5\ngini = 0.426\nsamples = 12\nvalue = [9, 4]"] ;
92 -> 94 ;
95 [label="X[4] <= 0.5\ngini = 0.469\nsamples = 7\nvalue = [5, 3]"] ;
94 -> 95 ;
96 [label="gini = 0.5\nsamples = 3\nvalue = [2, 2]"] ;
95 -> 96 ;
97 [label="gini = 0.375\nsamples = 4\nvalue = [3, 1]"] ;
95 -> 97 ;
98 [label="X[4] <= 0.5\ngini = 0.32\nsamples = 5\nvalue = [4, 1]"] ;
94 -> 98 ;
99 [label="gini = 0.0\nsamples = 2\nvalue = [2, 0]"] ;
98 -> 99 ;
100 [label="gini = 0.444\nsamples = 3\nvalue = [2, 1]"] ;
98 -> 100 ;
101 [label="X[4] <= 0.5\ngini = 0.287\nsamples = 16\nvalue = [19, 4]"] ;
91 -> 101 ;
102 [label="X[2] <= 7.5\ngini = 0.48\nsamples = 4\nvalue = [2, 3]"] ;
101 -> 102 ;
103 [label="gini = 0.0\nsamples = 1\nvalue = [0, 2]"] ;
102 -> 103 ;
104 [label="X[2] <= 18.5\ngini = 0.444\nsamples = 3\nvalue = [2, 1]"] ;
102 -> 104 ;
105 [label="gini = 0.0\nsamples = 2\nvalue = [2, 0]"] ;
104 -> 105 ;
106 [label="gini = 0.0\nsamples = 1\nvalue = [0, 1]"] ;
104 -> 106 ;
107 [label="X[3] <= 1.5\ngini = 0.105\nsamples = 12\nvalue = [17, 1]"] ;
101 -> 107 ;
108 [label="gini = 0.0\nsamples = 6\nvalue = [10, 0]"] ;
107 -> 108 ;
109 [label="X[2] <= 2.5\ngini = 0.219\nsamples = 6\nvalue = [7, 1]"] ;
107 -> 109 ;
110 [label="gini = 0.0\nsamples = 1\nvalue = [0, 1]"] ;
109 -> 110 ;
111 [label="gini = 0.0\nsamples = 5\nvalue = [7, 0]"] ;
109 -> 111 ;
112 [label="gini = 0.0\nsamples = 2\nvalue = [5, 0]"] ;
90 -> 112 ;
}
