digraph Tree {
node [shape=box] ;
0 [label="X[4] <= 0.5\ngini = 0.494\nsamples = 336\nvalue = [297, 237]"] ;
1 [label="X[1] <= 0.5\ngini = 0.46\nsamples = 72\nvalue = [42, 75]"] ;
0 -> 1 [labeldistance=2.5, labelangle=45, headlabel="True"] ;
2 [label="X[0] <= 2.5\ngini = 0.204\nsamples = 35\nvalue = [6, 46]"] ;
1 -> 2 ;
3 [label="gini = 0.0\nsamples = 25\nvalue = [0, 34]"] ;
2 -> 3 ;
4 [label="X[3] <= 1.5\ngini = 0.444\nsamples = 10\nvalue = [6, 12]"] ;
2 -> 4 ;
5 [label="X[2] <= 16.5\ngini = 0.5\nsamples = 7\nvalue = [6, 6]"] ;
4 -> 5 ;
6 [label="X[3] <= 0.5\ngini = 0.444\nsamples = 6\nvalue = [3, 6]"] ;
5 -> 6 ;
7 [label="X[2] <= 14.5\ngini = 0.444\nsamples = 4\nvalue = [2, 4]"] ;
6 -> 7 ;
8 [label="gini = 0.5\nsamples = 2\nvalue = [2, 2]"] ;
7 -> 8 ;
9 [label="gini = 0.0\nsamples = 2\nvalue = [0, 2]"] ;
7 -> 9 ;
10 [label="X[2] <= 7.0\ngini = 0.444\nsamples = 2\nvalue = [1, 2]"] ;
6 -> 10 ;
11 [label="gini = 0.0\nsamples = 1\nvalue = [0, 2]"] ;
10 -> 11 ;
12 [label="gini = 0.0\nsamples = 1\nvalue = [1, 0]"] ;
10 -> 12 ;
13 [label="gini = 0.0\nsamples = 1\nvalue = [3, 0]"] ;
5 -> 13 ;
14 [label="gini = 0.0\nsamples = 3\nvalue = [0, 6]"] ;
4 -> 14 ;
15 [label="X[0] <= 1.5\ngini = 0.494\nsamples = 37\nvalue = [36, 29]"] ;
1 -> 15 ;
16 [label="X[2] <= 53.5\ngini = 0.457\nsamples = 21\nvalue = [12, 22]"] ;
15 -> 16 ;
17 [label="X[2] <= 31.0\ngini = 0.412\nsamples = 18\nvalue = [9, 22]"] ;
16 -> 17 ;
18 [label="X[2] <= 27.5\ngini = 0.492\nsamples = 9\nvalue = [7, 9]"] ;
17 -> 18 ;
19 [label="X[2] <= 19.5\ngini = 0.459\nsamples = 7\nvalue = [5, 9]"] ;
18 -> 19 ;
20 [label="gini = 0.0\nsamples = 1\nvalue = [0, 2]"] ;
19 -> 20 ;
21 [label="gini = 0.486\nsamples = 6\nvalue = [5, 7]"] ;
19 -> 21 ;
22 [label="gini = 0.0\nsamples = 2\nvalue = [2, 0]"] ;
18 -> 22 ;
23 [label="X[3] <= 0.5\ngini = 0.231\nsamples = 9\nvalue = [2, 13]"] ;
17 -> 23 ;
24 [label="X[2] <= 37.5\ngini = 0.142\nsamples = 7\nvalue = [1, 12]"] ;
23 -> 24 ;
25 [label="gini = 0.0\nsamples = 3\nvalue = [0, 7]"] ;
24 -> 25 ;
26 [label="gini = 0.278\nsamples = 4\nvalue = [1, 5]"] ;
24 -> 26 ;
27 [label="X[2] <= 36.5\ngini = 0.5\nsamples = 2\nvalue = [1, 1]"] ;
23 -> 27 ;
28 [label="gini = 0.0\nsamples = 1\nvalue = [0, 1]"] ;
27 -> 28 ;
29 [label="gini = 0.0\nsamples = 1\nvalue = [1, 0]"] ;
27 -> 29 ;
30 [label="gini = 0.0\nsamples = 3\nvalue = [3, 0]"] ;
16 -> 30 ;
31 [label="X[3] <= 1.5\ngini = 0.35\nsamples = 16\nvalue = [24, 7]"] ;
15 -> 31 ;
32 [label="X[2] <= 7.5\ngini = 0.32\nsamples = 15\nvalue = [24, 6]"] ;
31 -> 32 ;
33 [label="gini = 0.0\nsamples = 1\nvalue = [0, 2]"] ;
32 -> 33 ;
34 [label="X[2] <= 29.5\ngini = 0.245\nsamples = 14\nvalue = [24, 4]"] ;
32 -> 34 ;
35 [label="X[2] <= 25.5\ngini = 0.36\nsamples = 10\nvalue = [13, 4]"] ;
34 -> 35 ;
36 [label="gini = 0.153\nsamples = 7\nvalue = [11, 1]"] ;
35 -> 36 ;
37 [label="gini = 0.48\nsamples = 3\nvalue = [2, 3]"] ;
35 -> 37 ;
38 [label="gini = 0.0\nsamples = 4\nvalue = [11, 0]"] ;
34 -> 38 ;
39 [label="gini = 0.0\nsamples = 1\nvalue = [0, 1]"] ;
31 -> 39 ;
40 [label="X[0] <= 2.5\ngini = 0.475\nsamples = 264\nvalue = [255, 162]"] ;
0 -> 40 [labeldistance=2.5, labelangle=-45, headlabel="False"] ;
41 [label="X[1] <= 0.5\ngini = 0.498\nsamples = 116\nvalue = [90, 103]"] ;
40 -> 41 ;
42 [label="X[2] <= 3.0\ngini = 0.155\nsamples = 45\nvalue = [6, 65]"] ;
41 -> 42 ;
43 [label="gini = 0.0\nsamples = 1\nvalue = [3, 0]"] ;
42 -> 43 ;
44 [label="X[0] <= 1.5\ngini = 0.084\nsamples = 44\nvalue = [3, 65]"] ;
42 -> 44 ;
45 [label="gini = 0.0\nsamples = 20\nvalue = [0, 35]"] ;
44 -> 45 ;
46 [label="X[2] <= 56.0\ngini = 0.165\nsamples = 24\nvalue = [3, 30]"] ;
44 -> 46 ;
47 [label="X[2] <= 28.0\ngini = 0.117\nsamples = 23\nvalue = [2, 30]"] ;
46 -> 47 ;
48 [label="gini = 0.26\nsamples = 10\nvalue = [2, 11]"] ;
47 -> 48 ;
49 [label="gini = 0.0\nsamples = 13\nvalue = [0, 19]"] ;
47 -> 49 ;
50 [label="gini = 0.0\nsamples = 1\nvalue = [1, 0]"] ;
46 -> 50 ;
51 [label="X[3] <= 1.5\ngini = 0.429\nsamples = 71\nvalue = [84, 38]"] ;
41 -> 51 ;
52 [label="X[2] <= 20.0\ngini = 0.414\nsamples = 65\nvalue = [80, 33]"] ;
51 -> 52 ;
53 [label="X[2] <= 18.5\ngini = 0.42\nsamples = 5\nvalue = [3, 7]"] ;
52 -> 53 ;
54 [label="X[2] <= 13.0\ngini = 0.5\nsamples = 4\nvalue = [3, 3]"] ;
53 -> 54 ;
55 [label="gini = 0.0\nsamples = 2\nvalue = [0, 3]"] ;
54 -> 55 ;
56 [label="gini = 0.0\nsamples = 2\nvalue = [3, 0]"] ;
54 -> 56 ;
57 [label="gini = 0.0\nsamples = 1\nvalue = [0, 4]"] ;
53 -> 57 ;
58 [label="X[3] <= 0.5\ngini = 0.377\nsamples = 60\nvalue = [77, 26]"] ;
52 -> 58 ;
59 [label="X[4] <= 1.5\ngini = 0.391\nsamples = 54\nvalue = [66, 24]"] ;
58 -> 59 ;
60 [label="gini = 0.394\nsamples = 53\nvalue = [65, 24]"] ;
59 -> 60 ;
61 [label="gini = 0.0\nsamples = 1\nvalue = [1, 0]"] ;
59 -> 61 ;
62 [label="X[0] <= 1.5\ngini = 0.26\nsamples = 6\nvalue = [11, 2]"] ;
58 -> 62 ;
63 [label="gini = 0.346\nsamples = 5\nvalue = [7, 2]"] ;
62 -> 63 ;
64 [label="gini = 0.0\nsamples = 1\nvalue = [4, 0]"] ;
62 -> 64 ;
65 [label="X[3] <= 3.0\ngini = 0.494\nsamples = 6\nvalue = [4, 5]"] ;
51 -> 65 ;
66 [label="X[2] <= 11.5\ngini = 0.469\nsamples = 5\nvalue = [3, 5]"] ;
65 -> 66 ;
67 [label="gini = 0.0\nsamples = 2\nvalue = [0, 2]"] ;
66 -> 67 ;
68 [label="X[2] <= 27.5\ngini = 0.5\nsamples = 3\nvalue = [3, 3]"] ;
66 -> 68 ;
69 [label="gini = 0.0\nsamples = 1\nvalue = [2, 0]"] ;
68 -> 69 ;
70 [label="gini = 0.375\nsamples = 2\nvalue = [1, 3]"] ;
68 -> 70 ;
71 [label="gini = 0.0\nsamples = 1\nvalue = [1, 0]"] ;
65 -> 71 ;
72 [label="X[1] <= 0.5\ngini = 0.388\nsamples = 148\nvalue = [165, 59]"] ;
40 -> 72 ;
73 [label="X[4] <= 1.5\ngini = 0.5\nsamples = 42\nvalue = [32, 31]"] ;
72 -> 73 ;
74 [label="X[2] <= 27.5\ngini = 0.494\nsamples = 38\nvalue = [31, 25]"] ;
73 -> 74 ;
75 [label="X[3] <= 1.5\ngini = 0.495\nsamples = 28\nvalue = [18, 22]"] ;
74 -> 75 ;
76 [label="X[2] <= 26.5\ngini = 0.444\nsamples = 19\nvalue = [8, 16]"] ;
75 -> 76 ;
77 [label="gini = 0.48\nsamples = 17\nvalue = [8, 12]"] ;
76 -> 77 ;
78 [label="gini = 0.0\nsamples = 2\nvalue = [0, 4]"] ;
76 -> 78 ;
79 [label="X[2] <= 5.5\ngini = 0.469\nsamples = 9\nvalue = [10, 6]"] ;
75 -> 79 ;
80 [label="gini = 0.444\nsamples = 2\nvalue = [2, 4]"] ;
79 -> 80 ;
81 [label="gini = 0.32\nsamples = 7\nvalue = [8, 2]"] ;
79 -> 81 ;
82 [label="X[3] <= 0.5\ngini = 0.305\nsamples = 10\nvalue = [13, 3]"] ;
74 -> 82 ;
83 [label="X[2] <= 51.5\ngini = 0.355\nsamples = 7\nvalue = [10, 3]"] ;
82 -> 83 ;
84 [label="gini = 0.278\nsamples = 6\nvalue = [10, 2]"] ;
83 -> 84 ;
85 [label="gini = 0.0\nsamples = 1\nvalue = [0, 1]"] ;
83 -> 85 ;
86 [label="gini = 0.0\nsamples = 3\nvalue = [3, 0]"] ;
82 -> 86 ;
87 [label="X[3] <= 0.5\ngini = 0.245\nsamples = 4\nvalue = [1, 6]"] ;
73 -> 87 ;
88 [label="gini = 0.0\nsamples = 3\nvalue = [0, 6]"] ;
87 -> 88 ;
89 [label="gini = 0.0\nsamples = 1\nvalue = [1, 0]"] ;
87 -> 89 ;
90 [label="X[3] <= 0.5\ngini = 0.287\nsamples = 106\nvalue = [133, 28]"] ;
72 -> 90 ;
91 [label="X[2] <= 25.5\ngini = 0.257\nsamples = 90\nvalue = [112, 20]"] ;
90 -> 91 ;
92 [label="X[2] <= 18.5\ngini = 0.158\nsamples = 44\nvalue = [53, 5]"] ;
91 -> 92 ;
93 [label="X[2] <= 17.5\ngini = 0.444\nsamples = 8\nvalue = [8, 4]"] ;
92 -> 93 ;
94 [label="gini = 0.375\nsamples = 6\nvalue = [6, 2]"] ;
93 -> 94 ;
95 [label="gini = 0.5\nsamples = 2\nvalue = [2, 2]"] ;
93 -> 95 ;
96 [label="X[2] <= 21.5\ngini = 0.043\nsamples = 36\nvalue = [45, 1]"] ;
92 -> 96 ;
97 [label="gini = 0.08\nsamples = 20\nvalue = [23, 1]"] ;
96 -> 97 ;
98 [label="gini = 0.0\nsamples = 16\nvalue = [22, 0]"] ;
96 -> 98 ;
99 [label="X[4] <= 1.5\ngini = 0.323\nsamples = 46\nvalue = [59, 15]"] ;
91 -> 99 ;
100 [label="X[2] <= 32.5\ngini = 0.291\nsamples = 44\nvalue = [56, 12]"] ;
99 -> 100 ;
101 [label="gini = 0.436\nsamples = 21\nvalue = [19, 9]"] ;
100 -> 101 ;
102 [label="gini = 0.139\nsamples = 23\nvalue = [37, 3]"] ;
100 -> 102 ;
103 [label="X[2] <= 47.0\ngini = 0.5\nsamples = 2\nvalue = [3, 3]"] ;
99 -> 103 ;
104 [label="gini = 0.0\nsamples = 1\nvalue = [0, 3]"] ;
103 -> 104 ;
105 [label="gini = 0.0\nsamples = 1\nvalue = [3, 0]"] ;
103 -> 105 ;
106 [label="X[3] <= 1.5\ngini = 0.4\nsamples = 16\nvalue = [21, 8]"] ;
90 -> 106 ;
107 [label="X[4] <= 1.5\ngini = 0.455\nsamples = 8\nvalue = [13, 7]"] ;
106 -> 107 ;
108 [label="X[2] <= 5.5\ngini = 0.475\nsamples = 7\nvalue = [11, 7]"] ;
107 -> 108 ;
109 [label="gini = 0.48\nsamples = 4\nvalue = [4, 6]"] ;
108 -> 109 ;
110 [label="gini = 0.219\nsamples = 3\nvalue = [7, 1]"] ;
108 -> 110 ;
111 [label="gini = 0.0\nsamples = 1\nvalue = [2, 0]"] ;
107 -> 111 ;
112 [label="X[2] <= 2.5\ngini = 0.198\nsamples = 8\nvalue = [8, 1]"] ;
106 -> 112 ;
113 [label="gini = 0.0\nsamples = 1\nvalue = [0, 1]"] ;
112 -> 113 ;
114 [label="gini = 0.0\nsamples = 7\nvalue = [8, 0]"] ;
112 -> 114 ;
}
