digraph Tree {
node [shape=box] ;
0 [label="X[0] <= 2.5\ngini = 0.477\nsamples = 340\nvalue = [324, 210]"] ;
1 [label="X[4] <= 0.5\ngini = 0.491\nsamples = 164\nvalue = [110, 144]"] ;
0 -> 1 [labeldistance=2.5, labelangle=45, headlabel="True"] ;
2 [label="X[2] <= 50.5\ngini = 0.388\nsamples = 40\nvalue = [15, 42]"] ;
1 -> 2 ;
3 [label="X[2] <= 28.0\ngini = 0.32\nsamples = 34\nvalue = [10, 40]"] ;
2 -> 3 ;
4 [label="X[2] <= 21.5\ngini = 0.091\nsamples = 14\nvalue = [1, 20]"] ;
3 -> 4 ;
5 [label="gini = 0.0\nsamples = 8\nvalue = [0, 14]"] ;
4 -> 5 ;
6 [label="X[1] <= 0.5\ngini = 0.245\nsamples = 6\nvalue = [1, 6]"] ;
4 -> 6 ;
7 [label="gini = 0.0\nsamples = 4\nvalue = [0, 5]"] ;
6 -> 7 ;
8 [label="X[2] <= 24.5\ngini = 0.5\nsamples = 2\nvalue = [1, 1]"] ;
6 -> 8 ;
9 [label="gini = 0.0\nsamples = 1\nvalue = [1, 0]"] ;
8 -> 9 ;
10 [label="gini = 0.0\nsamples = 1\nvalue = [0, 1]"] ;
8 -> 10 ;
11 [label="X[0] <= 1.5\ngini = 0.428\nsamples = 20\nvalue = [9, 20]"] ;
3 -> 11 ;
12 [label="X[2] <= 37.5\ngini = 0.384\nsamples = 18\nvalue = [7, 20]"] ;
11 -> 12 ;
13 [label="X[2] <= 35.5\ngini = 0.484\nsamples = 9\nvalue = [7, 10]"] ;
12 -> 13 ;
14 [label="gini = 0.355\nsamples = 7\nvalue = [3, 10]"] ;
13 -> 14 ;
15 [label="gini = 0.0\nsamples = 2\nvalue = [4, 0]"] ;
13 -> 15 ;
16 [label="gini = 0.0\nsamples = 9\nvalue = [0, 10]"] ;
12 -> 16 ;
17 [label="gini = 0.0\nsamples = 2\nvalue = [2, 0]"] ;
11 -> 17 ;
18 [label="X[3] <= 0.5\ngini = 0.408\nsamples = 6\nvalue = [5, 2]"] ;
2 -> 18 ;
19 [label="X[2] <= 57.0\ngini = 0.5\nsamples = 4\nvalue = [2, 2]"] ;
18 -> 19 ;
20 [label="gini = 0.0\nsamples = 1\nvalue = [1, 0]"] ;
19 -> 20 ;
21 [label="X[2] <= 59.0\ngini = 0.444\nsamples = 3\nvalue = [1, 2]"] ;
19 -> 21 ;
22 [label="X[1] <= 0.5\ngini = 0.5\nsamples = 2\nvalue = [1, 1]"] ;
21 -> 22 ;
23 [label="gini = 0.0\nsamples = 1\nvalue = [0, 1]"] ;
22 -> 23 ;
24 [label="gini = 0.0\nsamples = 1\nvalue = [1, 0]"] ;
22 -> 24 ;
25 [label="gini = 0.0\nsamples = 1\nvalue = [0, 1]"] ;
21 -> 25 ;
26 [label="gini = 0.0\nsamples = 2\nvalue = [3, 0]"] ;
18 -> 26 ;
27 [label="X[1] <= 0.5\ngini = 0.499\nsamples = 124\nvalue = [95, 102]"] ;
1 -> 27 ;
28 [label="X[3] <= 0.5\ngini = 0.203\nsamples = 54\nvalue = [10, 77]"] ;
27 -> 28 ;
29 [label="X[2] <= 37.0\ngini = 0.256\nsamples = 34\nvalue = [8, 45]"] ;
28 -> 29 ;
30 [label="X[0] <= 1.5\ngini = 0.153\nsamples = 24\nvalue = [3, 33]"] ;
29 -> 30 ;
31 [label="gini = 0.0\nsamples = 11\nvalue = [0, 15]"] ;
30 -> 31 ;
32 [label="X[2] <= 25.5\ngini = 0.245\nsamples = 13\nvalue = [3, 18]"] ;
30 -> 32 ;
33 [label="gini = 0.5\nsamples = 3\nvalue = [3, 3]"] ;
32 -> 33 ;
34 [label="gini = 0.0\nsamples = 10\nvalue = [0, 15]"] ;
32 -> 34 ;
35 [label="X[0] <= 1.5\ngini = 0.415\nsamples = 10\nvalue = [5, 12]"] ;
29 -> 35 ;
36 [label="gini = 0.0\nsamples = 3\nvalue = [0, 5]"] ;
35 -> 36 ;
37 [label="X[2] <= 40.0\ngini = 0.486\nsamples = 7\nvalue = [5, 7]"] ;
35 -> 37 ;
38 [label="gini = 0.0\nsamples = 1\nvalue = [4, 0]"] ;
37 -> 38 ;
39 [label="gini = 0.219\nsamples = 6\nvalue = [1, 7]"] ;
37 -> 39 ;
40 [label="X[2] <= 28.0\ngini = 0.111\nsamples = 20\nvalue = [2, 32]"] ;
28 -> 40 ;
41 [label="X[2] <= 24.5\ngini = 0.245\nsamples = 11\nvalue = [2, 12]"] ;
40 -> 41 ;
42 [label="gini = 0.0\nsamples = 9\nvalue = [0, 11]"] ;
41 -> 42 ;
43 [label="X[0] <= 1.5\ngini = 0.444\nsamples = 2\nvalue = [2, 1]"] ;
41 -> 43 ;
44 [label="gini = 0.0\nsamples = 1\nvalue = [2, 0]"] ;
43 -> 44 ;
45 [label="gini = 0.0\nsamples = 1\nvalue = [0, 1]"] ;
43 -> 45 ;
46 [label="gini = 0.0\nsamples = 9\nvalue = [0, 20]"] ;
40 -> 46 ;
47 [label="X[2] <= 8.5\ngini = 0.351\nsamples = 70\nvalue = [85, 25]"] ;
27 -> 47 ;
48 [label="gini = 0.0\nsamples = 3\nvalue = [0, 4]"] ;
47 -> 48 ;
49 [label="X[2] <= 30.5\ngini = 0.318\nsamples = 67\nvalue = [85, 21]"] ;
47 -> 49 ;
50 [label="gini = 0.0\nsamples = 20\nvalue = [32, 0]"] ;
49 -> 50 ;
51 [label="X[2] <= 37.5\ngini = 0.407\nsamples = 47\nvalue = [53, 21]"] ;
49 -> 51 ;
52 [label="X[2] <= 34.5\ngini = 0.497\nsamples = 15\nvalue = [13, 11]"] ;
51 -> 52 ;
53 [label="gini = 0.391\nsamples = 10\nvalue = [11, 4]"] ;
52 -> 53 ;
54 [label="gini = 0.346\nsamples = 5\nvalue = [2, 7]"] ;
52 -> 54 ;
55 [label="X[0] <= 1.5\ngini = 0.32\nsamples = 32\nvalue = [40, 10]"] ;
51 -> 55 ;
56 [label="gini = 0.397\nsamples = 19\nvalue = [24, 9]"] ;
55 -> 56 ;
57 [label="gini = 0.111\nsamples = 13\nvalue = [16, 1]"] ;
55 -> 57 ;
58 [label="X[2] <= 5.5\ngini = 0.36\nsamples = 176\nvalue = [214, 66]"] ;
0 -> 58 [labeldistance=2.5, labelangle=-45, headlabel="False"] ;
59 [label="X[4] <= 1.5\ngini = 0.346\nsamples = 11\nvalue = [4, 14]"] ;
58 -> 59 ;
60 [label="X[2] <= 2.5\ngini = 0.219\nsamples = 10\nvalue = [2, 14]"] ;
59 -> 60 ;
61 [label="X[4] <= 0.5\ngini = 0.346\nsamples = 7\nvalue = [2, 7]"] ;
60 -> 61 ;
62 [label="gini = 0.0\nsamples = 2\nvalue = [0, 3]"] ;
61 -> 62 ;
63 [label="X[2] <= 1.5\ngini = 0.444\nsamples = 5\nvalue = [2, 4]"] ;
61 -> 63 ;
64 [label="gini = 0.0\nsamples = 2\nvalue = [0, 2]"] ;
63 -> 64 ;
65 [label="X[3] <= 1.5\ngini = 0.5\nsamples = 3\nvalue = [2, 2]"] ;
63 -> 65 ;
66 [label="gini = 0.444\nsamples = 2\nvalue = [1, 2]"] ;
65 -> 66 ;
67 [label="gini = 0.0\nsamples = 1\nvalue = [1, 0]"] ;
65 -> 67 ;
68 [label="gini = 0.0\nsamples = 3\nvalue = [0, 7]"] ;
60 -> 68 ;
69 [label="gini = 0.0\nsamples = 1\nvalue = [2, 0]"] ;
59 -> 69 ;
70 [label="X[2] <= 32.5\ngini = 0.318\nsamples = 165\nvalue = [210, 52]"] ;
58 -> 70 ;
71 [label="X[2] <= 12.5\ngini = 0.373\nsamples = 125\nvalue = [152, 50]"] ;
70 -> 71 ;
72 [label="gini = 0.0\nsamples = 10\nvalue = [15, 0]"] ;
71 -> 72 ;
73 [label="X[1] <= 0.5\ngini = 0.392\nsamples = 115\nvalue = [137, 50]"] ;
71 -> 73 ;
74 [label="X[4] <= 1.5\ngini = 0.484\nsamples = 38\nvalue = [25, 36]"] ;
73 -> 74 ;
75 [label="X[2] <= 23.0\ngini = 0.477\nsamples = 32\nvalue = [20, 31]"] ;
74 -> 75 ;
76 [label="gini = 0.497\nsamples = 18\nvalue = [15, 13]"] ;
75 -> 76 ;
77 [label="gini = 0.34\nsamples = 14\nvalue = [5, 18]"] ;
75 -> 77 ;
78 [label="X[3] <= 0.5\ngini = 0.5\nsamples = 6\nvalue = [5, 5]"] ;
74 -> 78 ;
79 [label="gini = 0.494\nsamples = 5\nvalue = [4, 5]"] ;
78 -> 79 ;
80 [label="gini = 0.0\nsamples = 1\nvalue = [1, 0]"] ;
78 -> 80 ;
81 [label="X[4] <= 0.5\ngini = 0.198\nsamples = 77\nvalue = [112, 14]"] ;
73 -> 81 ;
82 [label="X[2] <= 21.5\ngini = 0.346\nsamples = 5\nvalue = [7, 2]"] ;
81 -> 82 ;
83 [label="gini = 0.0\nsamples = 1\nvalue = [0, 2]"] ;
82 -> 83 ;
84 [label="gini = 0.0\nsamples = 4\nvalue = [7, 0]"] ;
82 -> 84 ;
85 [label="X[3] <= 0.5\ngini = 0.184\nsamples = 72\nvalue = [105, 12]"] ;
81 -> 85 ;
86 [label="gini = 0.187\nsamples = 70\nvalue = [103, 12]"] ;
85 -> 86 ;
87 [label="gini = 0.0\nsamples = 2\nvalue = [2, 0]"] ;
85 -> 87 ;
88 [label="X[4] <= 0.5\ngini = 0.064\nsamples = 40\nvalue = [58, 2]"] ;
70 -> 88 ;
89 [label="gini = 0.0\nsamples = 2\nvalue = [5, 0]"] ;
88 -> 89 ;
90 [label="X[2] <= 44.5\ngini = 0.07\nsamples = 38\nvalue = [53, 2]"] ;
88 -> 90 ;
91 [label="X[2] <= 43.5\ngini = 0.1\nsamples = 28\nvalue = [36, 2]"] ;
90 -> 91 ;
92 [label="X[3] <= 0.5\ngini = 0.054\nsamples = 26\nvalue = [35, 1]"] ;
91 -> 92 ;
93 [label="gini = 0.064\nsamples = 20\nvalue = [29, 1]"] ;
92 -> 93 ;
94 [label="gini = 0.0\nsamples = 6\nvalue = [6, 0]"] ;
92 -> 94 ;
95 [label="gini = 0.5\nsamples = 2\nvalue = [1, 1]"] ;
91 -> 95 ;
96 [label="gini = 0.0\nsamples = 10\nvalue = [17, 0]"] ;
90 -> 96 ;
}
