digraph Tree {
node [shape=box] ;
0 [label="X[4] <= 0.5\ngini = 0.485\nsamples = 326\nvalue = [313, 221]"] ;
1 [label="X[1] <= 0.5\ngini = 0.466\nsamples = 58\nvalue = [34, 58]"] ;
0 -> 1 [labeldistance=2.5, labelangle=45, headlabel="True"] ;
2 [label="X[0] <= 2.5\ngini = 0.091\nsamples = 29\nvalue = [2, 40]"] ;
1 -> 2 ;
3 [label="gini = 0.0\nsamples = 23\nvalue = [0, 31]"] ;
2 -> 3 ;
4 [label="X[2] <= 9.5\ngini = 0.298\nsamples = 6\nvalue = [2, 9]"] ;
2 -> 4 ;
5 [label="gini = 0.0\nsamples = 2\nvalue = [0, 7]"] ;
4 -> 5 ;
6 [label="X[2] <= 23.5\ngini = 0.5\nsamples = 4\nvalue = [2, 2]"] ;
4 -> 6 ;
7 [label="X[2] <= 16.0\ngini = 0.444\nsamples = 3\nvalue = [2, 1]"] ;
6 -> 7 ;
8 [label="gini = 0.5\nsamples = 2\nvalue = [1, 1]"] ;
7 -> 8 ;
9 [label="gini = 0.0\nsamples = 1\nvalue = [1, 0]"] ;
7 -> 9 ;
10 [label="gini = 0.0\nsamples = 1\nvalue = [0, 1]"] ;
6 -> 10 ;
11 [label="X[2] <= 49.5\ngini = 0.461\nsamples = 29\nvalue = [32, 18]"] ;
1 -> 11 ;
12 [label="X[0] <= 2.5\ngini = 0.5\nsamples = 23\nvalue = [17, 18]"] ;
11 -> 12 ;
13 [label="X[2] <= 27.5\ngini = 0.42\nsamples = 14\nvalue = [6, 14]"] ;
12 -> 13 ;
14 [label="X[2] <= 24.5\ngini = 0.32\nsamples = 7\nvalue = [2, 8]"] ;
13 -> 14 ;
15 [label="X[2] <= 19.5\ngini = 0.5\nsamples = 4\nvalue = [2, 2]"] ;
14 -> 15 ;
16 [label="gini = 0.0\nsamples = 2\nvalue = [0, 2]"] ;
15 -> 16 ;
17 [label="gini = 0.0\nsamples = 2\nvalue = [2, 0]"] ;
15 -> 17 ;
18 [label="gini = 0.0\nsamples = 3\nvalue = [0, 6]"] ;
14 -> 18 ;
19 [label="X[2] <= 33.0\ngini = 0.48\nsamples = 7\nvalue = [4, 6]"] ;
13 -> 19 ;
20 [label="gini = 0.0\nsamples = 2\nvalue = [2, 0]"] ;
19 -> 20 ;
21 [label="X[2] <= 42.0\ngini = 0.375\nsamples = 5\nvalue = [2, 6]"] ;
19 -> 21 ;
22 [label="gini = 0.5\nsamples = 2\nvalue = [1, 1]"] ;
21 -> 22 ;
23 [label="gini = 0.278\nsamples = 3\nvalue = [1, 5]"] ;
21 -> 23 ;
24 [label="X[2] <= 25.0\ngini = 0.391\nsamples = 9\nvalue = [11, 4]"] ;
12 -> 24 ;
25 [label="X[2] <= 18.5\ngini = 0.463\nsamples = 6\nvalue = [7, 4]"] ;
24 -> 25 ;
26 [label="gini = 0.0\nsamples = 2\nvalue = [3, 0]"] ;
25 -> 26 ;
27 [label="X[2] <= 21.0\ngini = 0.5\nsamples = 4\nvalue = [4, 4]"] ;
25 -> 27 ;
28 [label="gini = 0.444\nsamples = 2\nvalue = [2, 1]"] ;
27 -> 28 ;
29 [label="gini = 0.48\nsamples = 2\nvalue = [2, 3]"] ;
27 -> 29 ;
30 [label="gini = 0.0\nsamples = 3\nvalue = [4, 0]"] ;
24 -> 30 ;
31 [label="gini = 0.0\nsamples = 6\nvalue = [15, 0]"] ;
11 -> 31 ;
32 [label="X[0] <= 2.5\ngini = 0.466\nsamples = 268\nvalue = [279, 163]"] ;
0 -> 32 [labeldistance=2.5, labelangle=-45, headlabel="False"] ;
33 [label="X[3] <= 0.5\ngini = 0.497\nsamples = 129\nvalue = [93, 108]"] ;
32 -> 33 ;
34 [label="X[1] <= 0.5\ngini = 0.498\nsamples = 93\nvalue = [80, 71]"] ;
33 -> 34 ;
35 [label="X[2] <= 28.0\ngini = 0.038\nsamples = 32\nvalue = [1, 51]"] ;
34 -> 35 ;
36 [label="X[0] <= 1.5\ngini = 0.095\nsamples = 12\nvalue = [1, 19]"] ;
35 -> 36 ;
37 [label="gini = 0.0\nsamples = 5\nvalue = [0, 8]"] ;
36 -> 37 ;
38 [label="X[2] <= 25.5\ngini = 0.153\nsamples = 7\nvalue = [1, 11]"] ;
36 -> 38 ;
39 [label="gini = 0.0\nsamples = 5\nvalue = [0, 9]"] ;
38 -> 39 ;
40 [label="gini = 0.444\nsamples = 2\nvalue = [1, 2]"] ;
38 -> 40 ;
41 [label="gini = 0.0\nsamples = 20\nvalue = [0, 32]"] ;
35 -> 41 ;
42 [label="X[2] <= 26.0\ngini = 0.322\nsamples = 61\nvalue = [79, 20]"] ;
34 -> 42 ;
43 [label="gini = 0.0\nsamples = 10\nvalue = [16, 0]"] ;
42 -> 43 ;
44 [label="X[2] <= 72.0\ngini = 0.366\nsamples = 51\nvalue = [63, 20]"] ;
42 -> 44 ;
45 [label="X[0] <= 1.5\ngini = 0.356\nsamples = 50\nvalue = [63, 19]"] ;
44 -> 45 ;
46 [label="gini = 0.451\nsamples = 24\nvalue = [23, 12]"] ;
45 -> 46 ;
47 [label="gini = 0.254\nsamples = 26\nvalue = [40, 7]"] ;
45 -> 47 ;
48 [label="gini = 0.0\nsamples = 1\nvalue = [0, 1]"] ;
44 -> 48 ;
49 [label="X[0] <= 1.5\ngini = 0.385\nsamples = 36\nvalue = [13, 37]"] ;
33 -> 49 ;
50 [label="X[3] <= 3.0\ngini = 0.495\nsamples = 15\nvalue = [9, 11]"] ;
49 -> 50 ;
51 [label="X[2] <= 3.0\ngini = 0.475\nsamples = 14\nvalue = [7, 11]"] ;
50 -> 51 ;
52 [label="gini = 0.0\nsamples = 1\nvalue = [2, 0]"] ;
51 -> 52 ;
53 [label="X[3] <= 1.5\ngini = 0.43\nsamples = 13\nvalue = [5, 11]"] ;
51 -> 53 ;
54 [label="gini = 0.486\nsamples = 9\nvalue = [5, 7]"] ;
53 -> 54 ;
55 [label="gini = 0.0\nsamples = 4\nvalue = [0, 4]"] ;
53 -> 55 ;
56 [label="gini = 0.0\nsamples = 1\nvalue = [2, 0]"] ;
50 -> 56 ;
57 [label="X[1] <= 0.5\ngini = 0.231\nsamples = 21\nvalue = [4, 26]"] ;
49 -> 57 ;
58 [label="gini = 0.0\nsamples = 17\nvalue = [0, 21]"] ;
57 -> 58 ;
59 [label="X[2] <= 11.5\ngini = 0.494\nsamples = 4\nvalue = [4, 5]"] ;
57 -> 59 ;
60 [label="gini = 0.0\nsamples = 1\nvalue = [0, 5]"] ;
59 -> 60 ;
61 [label="gini = 0.0\nsamples = 3\nvalue = [4, 0]"] ;
59 -> 61 ;
62 [label="X[4] <= 1.5\ngini = 0.352\nsamples = 139\nvalue = [186, 55]"] ;
32 -> 62 ;
63 [label="X[2] <= 1.5\ngini = 0.33\nsamples = 129\nvalue = [175, 46]"] ;
62 -> 63 ;
64 [label="gini = 0.0\nsamples = 2\nvalue = [0, 3]"] ;
63 -> 64 ;
65 [label="X[2] <= 32.5\ngini = 0.317\nsamples = 127\nvalue = [175, 43]"] ;
63 -> 65 ;
66 [label="X[2] <= 22.5\ngini = 0.355\nsamples = 106\nvalue = [140, 42]"] ;
65 -> 66 ;
67 [label="X[2] <= 6.5\ngini = 0.26\nsamples = 55\nvalue = [77, 14]"] ;
66 -> 67 ;
68 [label="gini = 0.473\nsamples = 7\nvalue = [8, 5]"] ;
67 -> 68 ;
69 [label="gini = 0.204\nsamples = 48\nvalue = [69, 9]"] ;
67 -> 69 ;
70 [label="X[2] <= 27.5\ngini = 0.426\nsamples = 51\nvalue = [63, 28]"] ;
66 -> 70 ;
71 [label="gini = 0.498\nsamples = 23\nvalue = [23, 20]"] ;
70 -> 71 ;
72 [label="gini = 0.278\nsamples = 28\nvalue = [40, 8]"] ;
70 -> 72 ;
73 [label="X[2] <= 39.5\ngini = 0.054\nsamples = 21\nvalue = [35, 1]"] ;
65 -> 73 ;
74 [label="X[2] <= 38.5\ngini = 0.095\nsamples = 12\nvalue = [19, 1]"] ;
73 -> 74 ;
75 [label="gini = 0.0\nsamples = 9\nvalue = [15, 0]"] ;
74 -> 75 ;
76 [label="gini = 0.32\nsamples = 3\nvalue = [4, 1]"] ;
74 -> 76 ;
77 [label="gini = 0.0\nsamples = 9\nvalue = [16, 0]"] ;
73 -> 77 ;
78 [label="X[3] <= 0.5\ngini = 0.495\nsamples = 10\nvalue = [11, 9]"] ;
62 -> 78 ;
79 [label="X[2] <= 17.0\ngini = 0.498\nsamples = 8\nvalue = [8, 9]"] ;
78 -> 79 ;
80 [label="gini = 0.0\nsamples = 2\nvalue = [0, 6]"] ;
79 -> 80 ;
81 [label="X[1] <= 0.5\ngini = 0.397\nsamples = 6\nvalue = [8, 3]"] ;
79 -> 81 ;
82 [label="X[2] <= 18.5\ngini = 0.444\nsamples = 3\nvalue = [4, 2]"] ;
81 -> 82 ;
83 [label="gini = 0.0\nsamples = 1\nvalue = [3, 0]"] ;
82 -> 83 ;
84 [label="gini = 0.444\nsamples = 2\nvalue = [1, 2]"] ;
82 -> 84 ;
85 [label="X[2] <= 49.5\ngini = 0.32\nsamples = 3\nvalue = [4, 1]"] ;
81 -> 85 ;
86 [label="gini = 0.5\nsamples = 2\nvalue = [1, 1]"] ;
85 -> 86 ;
87 [label="gini = 0.0\nsamples = 1\nvalue = [3, 0]"] ;
85 -> 87 ;
88 [label="gini = 0.0\nsamples = 2\nvalue = [3, 0]"] ;
78 -> 88 ;
}
